tree
version=v3
num_class=1
num_tree_per_iteration=1
label_index=0
max_feature_idx=39
objective=binary sigmoid:1
feature_names=Column_0 Column_1 Column_2 Column_3 Column_4 Column_5 Column_6 Column_7 Column_8 Column_9 Column_10 Column_11 Column_12 Column_13 Column_14 Column_15 Column_16 Column_17 Column_18 Column_19 Column_20 Column_21 Column_22 Column_23 Column_24 Column_25 Column_26 Column_27 Column_28 Column_29 Column_30 Column_31 Column_32 Column_33 Column_34 Column_35 Column_36 Column_37 Column_38 Column_39
feature_infos=[0:1] [0.039905309435238401:1] [0:1] [0:1] [0:1] [0:1] [0:1] [0:1] [0:0.93232323232323244] [0.0058972198820553996:0.94903117101937662] [0:1] [0.00041990806223470001:1] [0.00067850916458549995:1] [0.0007956697634283:1.0000000000000002] [0:1] [0:1] [0:0.76717171717171717] [0:0.7747679484750899] [0.029056678111104801:1] [0.0025392811243314002:0.7588546632947778] [0:1] [0.0125266524520256:1] [0:1] [0:1] [0:0.78603975434194018] [0:1] [0:1] [0:1] [0.00019712201852940001:0.82968657599053819] [0.001115046569592:1] [0:0.56002705444707468] [0.1001211478459421:1.0977116129058699] [0:24.110345657836081] [0.064047359560049699:1.4818532426270348] [0:7.4324475764922378] [0:152.08544828245078] [-0.4971937683212016:0.39862542955326463] [0:904.96329137424107] [0:487.16977877366918] [-0.33635402201546494:0.28125765578568984]
tree_sizes=649 749 754 753 744 748 755 750 753 753 648 646 751 756 647 753 647 645 751 645 645 751 756 747 754 857 752 751 754 752 749 753 643 753 752 749 747 752 753 754 857 855 857 758 861 750 753 859 751 755 752 748 755 754 751 756 645 645 752 647 643 646 644 752 858 857 751 753 865 847 865 863 651 748 648 648 865 648 860 753 756 755 752 755 756 646 539 750 755 867 652 648 756 752 751 763 648 758 647 647 646 650 656 757 751 648 649 859 974 648 756 976 977

Tree=0
num_leaves=5
num_cat=0
split_feature=22 27 33 0
split_gain=248.34 18.5803 1.35485 0.0494661
threshold=0.25668608994471837 0.52044673539518904 0.61034972766999529 0.44957167873538745
decision_type=2 2 2 2
left_child=2 -2 -1 -3
right_child=1 3 -4 -5
leaf_value=-0.1056056064085318 0.022697396912341777 0.090396099252826254 -0.085605432361454445 0.094396134062241718
leaf_weight=26.249771565198898 13.24988469481468 12.499891221523283 12.499891221523283 20.249823778867722
leaf_count=105 53 50 50 81
internal_value=-0.00589972 0.0726568 -0.0991539 0.0928694
internal_weight=0 45.9996 38.7497 32.7497
internal_count=339 184 155 131
shrinkage=1


Tree=1
num_leaves=6
num_cat=0
split_feature=20 27 31 15 27
split_gain=213.887 17.0164 3.31678 0.203144 0.00386232
threshold=0.30042689434365 0.35567010309278352 0.41595914565572017 0.077304953885901417 0.62903780068728532
decision_type=2 2 2 2 2
left_child=1 3 -2 -1 -4
right_child=2 -3 4 -5 -6
leaf_value=-0.087383989670625564 0.064847452814568898 -0.024333701620705011 0.096755239003536303 -0.095480967389441007 0.095544960115566249
leaf_weight=12.469689086079596 12.483180180191992 12.726613342761992 12.482132419943811 20.450658783316612 13.969550326466559
leaf_count=50 50 51 50 82 56
internal_value=0 -0.0734328 0.0860908 -0.092414 0.0961161
internal_weight=0 45.647 38.9349 32.9203 26.4517
internal_count=339 183 156 132 106
shrinkage=0.05


Tree=2
num_leaves=6
num_cat=0
split_feature=23 27 33 24 26
split_gain=195.433 20.4932 1.75341 0.0652801 0.00272206
threshold=0.13382324026740069 0.51460481099656363 0.61195910036099566 0.46608994254771186 0.12647763578274757
decision_type=2 2 2 2 2
left_child=2 -2 4 -3 -1
right_child=1 3 -4 -5 -6
leaf_value=-0.091089804927800763 0.017777417512215954 0.087853193806892313 -0.068683465738699739 0.092449216425657371 -0.092122887323534991
leaf_weight=13.123115345835688 13.714128881692885 12.646759629249571 12.415833055973051 19.856654733419418 12.402371376752852
leaf_count=53 55 51 50 80 50
internal_value=0 0.0690342 -0.0840953 0.0906609 -0.0915918
internal_weight=0 46.2175 37.9413 32.5034 25.5255
internal_count=339 186 153 131 103
shrinkage=0.05


Tree=3
num_leaves=6
num_cat=0
split_feature=22 22 39 25 33
split_gain=188.348 15.251 1.29427 0.013442 0.00189294
threshold=0.25668608994471837 0.35305543104736298 -0.067509175625374188 0.28049596879820704 0.46612367793282533
decision_type=2 2 2 2 2
left_child=2 -2 -1 -3 -4
right_child=1 3 4 -5 -6
leaf_value=-0.068652053546599839 0.027320676118399813 0.090307373437885113 -0.087938829710289532 0.088168761581179839 -0.088795640185635988
leaf_weight=12.299538806080816 14.902045413851736 12.338885426521303 12.997446939349176 18.16345950961113 12.789267897605894
leaf_count=50 60 50 53 74 52
internal_value=0 0.0687792 -0.0819981 0.0890339 -0.0883638
internal_weight=0 45.4044 38.0863 30.5023 25.7867
internal_count=339 184 155 124 105
shrinkage=0.05


Tree=4
num_leaves=6
num_cat=0
split_feature=20 7 1 15 7
split_gain=163.687 13.8452 2.9964 0.196851 0.019265
threshold=0.30042689434365 0.17316103379721667 0.33648968549205277 0.077304953885901417 0.43628230616302183
decision_type=2 2 2 2 2
left_child=1 3 -2 -1 -4
right_child=2 -3 4 -5 -6
leaf_value=-0.077656694607525861 0.056162637580083968 -0.021078901915685594 0.087458270600472454 -0.085755064273855319 0.084710188707476652
leaf_weight=12.138021618127825 12.487140819430349 12.801122471690176 12.464475780725481 19.654305845499039 13.059337988495825
leaf_count=50 51 52 51 81 54
internal_value=0 -0.0649846 0.0762331 -0.0826632 0.0860522
internal_weight=0 44.5934 38.011 31.7923 25.5238
internal_count=339 183 156 131 105
shrinkage=0.05


Tree=5
num_leaves=6
num_cat=0
split_feature=22 27 33 29 7
split_gain=158.894 14.3278 1.19936 0.107068 0.00508698
threshold=0.25668608994471837 0.52044673539518904 0.61034972766999529 0.20631641086186542 0.11824055666003971
decision_type=2 2 2 2 2
left_child=2 -2 4 -3 -1
right_child=1 3 -4 -5 -6
leaf_value=-0.081940306253689491 0.019774054285289291 0.078317846760702969 -0.063424118191592799 0.084333513008497479 -0.083366174785279912
leaf_weight=13.079500272870066 13.086236253380774 11.928569033741953 12.043746173381804 19.46875949203968 11.988741263747213
leaf_count=55 53 50 50 81 50
internal_value=0 0.0637282 -0.076392 0.082048 -0.0826222
internal_weight=0 44.4836 37.112 31.3973 25.0682
internal_count=339 184 155 131 105
shrinkage=0.05


Tree=6
num_leaves=6
num_cat=0
split_feature=22 22 39 25 11
split_gain=145.728 13.2456 1.24294 0.0182925 0.00340556
threshold=0.25668608994471837 0.35305543104736298 -0.067509175625374188 0.28049596879820704 0.17256011315417252
decision_type=2 2 2 2 2
left_child=2 -2 -1 -3 -4
right_child=1 3 4 -5 -6
leaf_value=-0.060541791820739981 0.022677136968746237 0.082368210499940919 -0.07966602048578976 0.079820794928376598 -0.080841670981518801
leaf_weight=11.844727903604506 14.712387174367903 11.887811928987505 12.381320476531984 17.306468859314919 12.258826687932013
leaf_count=50 60 50 53 74 52
internal_value=0 0.0613626 -0.0738524 0.0808581 -0.0802509
internal_weight=0 43.9067 36.4849 29.1943 24.6401
internal_count=339 184 155 124 105
shrinkage=0.05


Tree=7
num_leaves=6
num_cat=0
split_feature=22 27 39 29 11
split_gain=133.913 13.3585 1.20163 0.113762 0.00267755
threshold=0.25668608994471837 0.52044673539518904 -0.067509175625374188 0.20631641086186542 0.17256011315417252
decision_type=2 2 2 2 2
left_child=2 -2 -1 -3 -4
right_child=1 3 4 -5 -6
leaf_value=-0.058378361756152991 0.016746075072724364 0.073444039290139401 -0.077395502255773532 0.079761690183312514 -0.078449091377023605
leaf_weight=11.673848286271093 12.98163767158985 11.46761989593506 12.114066734910013 18.81985904276371 12.007408261299132
leaf_count=50 53 50 53 81 52
internal_value=0 0.0591813 -0.0715469 0.0773697 -0.07792
internal_weight=0 43.2691 35.7953 30.2875 24.1215
internal_count=339 184 155 131 105
shrinkage=0.05


Tree=8
num_leaves=6
num_cat=0
split_feature=22 27 33 29 39
split_gain=123.27 12.6534 1.23784 0.104393 0.00441894
threshold=0.25668608994471837 0.52044673539518904 0.61034972766999529 0.20631641086186542 -0.058737455074425481
decision_type=2 2 2 2 2
left_child=2 -2 4 -3 -1
right_child=1 3 -4 -5 -6
leaf_value=-0.076702515633596174 0.015942087756100464 0.071380400035344779 -0.055958785401787961 0.077499614248938642 -0.07533303383990464
leaf_weight=11.330903470516203 12.955195918679236 11.215584620833399 11.455502539873121 18.411043807864189 12.267946571111681
leaf_count=50 53 50 50 81 55
internal_value=0 0.0571595 -0.0694443 0.0751831 -0.0759906
internal_weight=0 42.5818 35.0544 29.6266 23.5989
internal_count=339 184 155 131 105
shrinkage=0.05


Tree=9
num_leaves=6
num_cat=0
split_feature=22 22 11 27 22
split_gain=113.663 13.3585 0.787927 0.0346787 0.00308185
threshold=0.25519199163304945 0.35305543104736298 0.22317008486562936 0.62250859106529222 0.18706110862094724
decision_type=2 2 2 2 2
left_child=2 -2 4 -3 -1
right_child=1 3 -4 -5 -6
leaf_value=-0.073610365185051194 0.016566086787557738 0.077215670229248135 -0.057945772053663205 0.073602775297292186 -0.074783882547249228
leaf_weight=11.32175448536873 15.13202293217182 11.300511687994005 11.200219333171843 16.111396253108978 11.059910848736761
leaf_count=52 63 50 50 74 50
internal_value=0 0.0542756 -0.0687724 0.0750922 -0.0741903
internal_weight=0 42.5439 33.5819 27.4119 22.3817
internal_count=339 187 152 124 102
shrinkage=0.05


Tree=10
num_leaves=5
num_cat=0
split_feature=23 26 35 5
split_gain=106.179 15.9529 0.728323 0.686133
threshold=0.16724832874557607 0.21242012779552719 1.7661906776174361 0.12766087970063186
decision_type=2 2 2 2
left_child=1 3 -2 -1
right_child=2 -3 -4 -5
leaf_value=-0.061496297221993082 0.074121534548886051 -0.0024051323186372428 0.058350628360395056 -0.076840955138878037
leaf_weight=11.901701137423517 20.835226058959961 11.764058068394659 11.286172375082968 18.780976101756096
leaf_count=55 96 51 51 86
internal_value=0 -0.0519087 0.0685803 -0.0708888
internal_weight=0 42.4467 32.1214 30.6827
internal_count=339 192 147 141
shrinkage=0.05


Tree=11
num_leaves=5
num_cat=0
split_feature=23 27 39 11
split_gain=98.0523 15.282 0.757347 0.304713
threshold=0.16724832874557607 0.3771477663230241 -0.09752789092087473 0.18957743988684583
decision_type=2 2 2 2
left_child=1 3 -2 -1
right_child=2 -3 -4 -5
leaf_value=-0.073268971307565489 0.072538087109048299 -0.002538992031055131 0.056258391166997081 -0.062743704996056915
leaf_weight=18.92106378078461 20.325286865234379 11.973099470138548 11.015936106443403 10.802362203598021
leaf_count=90 96 51 51 51
internal_value=0 -0.0502322 0.066816 -0.0694438
internal_weight=0 41.6965 31.3412 29.7234
internal_count=339 192 147 141
shrinkage=0.05


Tree=12
num_leaves=6
num_cat=0
split_feature=30 39 24 27 22
split_gain=93.1449 11.8452 5.58912 0.516035 0.295788
threshold=0.062447387456333249 -0.077940298924125156 0.43901472627616717 0.27341924398625433 0.40534887195577479
decision_type=2 2 2 2 2
left_child=2 4 3 -1 -2
right_child=1 -3 -4 -5 -6
leaf_value=-0.065774795093034091 0.080553869583749327 0.013061671813401518 -0.029905928295548397 -0.080656579929764716 0.069670174820738118
leaf_weight=12.37476095557213 11.068009302020075 11.399275898933409 11.263141244649885 11.00608943402767 14.318819239735602
leaf_count=61 50 53 53 51 71
internal_value=0 0.055403 -0.0588412 -0.0727801 0.0744152
internal_weight=0 36.7861 34.644 23.3809 25.3868
internal_count=339 174 165 112 121
shrinkage=0.05


Tree=13
num_leaves=6
num_cat=0
split_feature=22 39 11 21 39
split_gain=86.0183 11.2112 0.817668 0.387251 0.00430095
threshold=0.25519199163304945 -0.086518724915336034 0.22317008486562936 0.41844349680170584 -0.060483572150463315
decision_type=2 2 2 2 2
left_child=2 3 4 -2 -1
right_child=1 -3 -4 -5 -6
leaf_value=-0.069624198301191931 0.059859237313195923 0.010401527566146505 -0.051596050389862515 0.072168082693454164 -0.06816491457768882
leaf_weight=10.061065897345545 10.652153655886652 12.867857307195662 10.327543646097181 15.969878837466238 10.136110693216326
leaf_count=50 51 58 50 78 52
internal_value=0 0.0487211 -0.0630401 0.067243 -0.0688918
internal_weight=0 39.4899 30.5247 26.622 20.1972
internal_count=339 187 152 129 102
shrinkage=0.05


Tree=14
num_leaves=5
num_cat=0
split_feature=23 27 1 5
split_gain=80.3489 13.9449 0.752478 0.305764
threshold=0.16724832874557607 0.38092783505154643 0.34274602637808588 0.12450156432120726
decision_type=2 2 2 2
left_child=1 3 -2 -1
right_child=2 -3 -4 -5
leaf_value=-0.058782565946718761 0.051898334372631964 8.1741190710012807e-05 0.06873255258566742 -0.069661926309075098
leaf_weight=10.144196793437006 10.215091675519945 11.319923132658003 18.957438319921494 17.774547666311264
leaf_count=52 50 49 97 91
internal_value=0 -0.0467291 0.0628379 -0.0657089
internal_weight=0 39.2387 29.1725 27.9187
internal_count=339 192 147 143
shrinkage=0.05


Tree=15
num_leaves=6
num_cat=0
split_feature=30 36 7 36 22
split_gain=76.8266 6.49908 3.87767 0.132761 0.0198699
threshold=0.062447387456333249 -0.18987969763841764 0.16824055666003973 -0.3143259444682322 0.18041237113402056
decision_type=2 2 2 2 2
left_child=2 3 4 -2 -1
right_child=1 -3 -4 -5 -6
leaf_value=-0.066260740338231983 0.062295489449887533 0.020369549748431894 -0.030891001435242489 0.069979437425879212 -0.069312601624833478
leaf_weight=11.825239062309267 9.4040621221065503 11.059896543622015 10.76850078999996 13.975184366106989 9.7151239663362485
leaf_count=64 50 53 50 71 51
internal_value=0 0.0519494 -0.0553897 0.0668886 -0.0676372
internal_weight=0 34.4391 32.3089 23.3792 21.5404
internal_count=339 174 165 121 115
shrinkage=0.05


Tree=16
num_leaves=5
num_cat=0
split_feature=27 30 27 33
split_gain=71.5047 16.2846 0.938301 0.415709
threshold=0.5049828178694159 0.056140201136760125 0.61202749140893475 0.34967670707635795
decision_type=2 2 2 2
left_child=1 3 -2 -1
right_child=2 -3 -4 -5
leaf_value=-0.074292653880877316 0.049827633432301788 0.0048493873125309674 0.0690159069860347 -0.061279278463244616
leaf_weight=9.7326946407556552 10.170000806450846 11.676676362752913 17.055607542395592 16.610759288072586
leaf_count=51 52 54 92 90
internal_value=0 -0.0443012 0.0618482 -0.0660871
internal_weight=0 38.0201 27.2256 26.3435
internal_count=339 195 144 141
shrinkage=0.05


Tree=17
num_leaves=5
num_cat=0
split_feature=27 20 27 15
split_gain=66.3163 13.0357 0.948359 0.352001
threshold=0.5049828178694159 0.27178939879046599 0.61202749140893475 0.079971159912278003
decision_type=2 2 2 2
left_child=1 3 -2 -1
right_child=2 -3 -4 -5
leaf_value=-0.054170225349638695 0.04833719507962779 0.0029304127991239782 0.067874633205442042 -0.066310361838333609
leaf_weight=9.15999883413315 9.964677572250368 10.906124904751776 16.489620596170425 17.149734139442444
leaf_count=52 52 48 92 95
internal_value=0 -0.0430312 0.0605154 -0.0620837
internal_weight=0 37.2159 26.4543 26.3097
internal_count=339 195 144 147
shrinkage=0.05


Tree=18
num_leaves=6
num_cat=0
split_feature=30 39 24 22 22
split_gain=63.0448 10.4469 4.92893 0.52177 0.243601
threshold=0.062447387456333249 -0.077940298924125156 0.43901472627616717 0.19196673141092677 0.40534887195577479
decision_type=2 2 2 2 2
left_child=2 4 3 -1 -2
right_child=1 -3 -4 -5 -6
leaf_value=-0.058860451796322023 0.074308668541675241 0.0077471782835053932 -0.023725078694577378 -0.075078865241371626 0.063647369189623965
leaf_weight=10.238012224435812 9.7986195683479327 10.529405400156973 10.03726741671562 9.6177570372819883 11.822677850723265
leaf_count=61 50 53 53 51 71
internal_value=0 0.0485892 -0.052281 -0.0667163 0.068479
internal_weight=0 32.1507 29.893 19.8558 21.6213
internal_count=339 174 165 112 121
shrinkage=0.05


Tree=19
num_leaves=5
num_cat=0
split_feature=23 7 19 5
split_gain=59.392 11.3993 0.798683 0.654015
threshold=0.16724832874557607 0.21645129224652088 0.068446581816674262 0.12766087970063186
decision_type=2 2 2 2
left_child=1 3 -2 -1
right_child=2 -3 -4 -5
leaf_value=-0.05014679773275197 0.046108702669405449 0.0022122161567528086 0.064582150739791316 -0.066855925053378215
leaf_weight=9.4445282220840472 9.0807749330997485 10.224091485142706 16.44933395087719 15.414013728499411
leaf_count=55 50 47 97 90
internal_value=0 -0.0422292 0.0580114 -0.0605076
internal_weight=0 35.0826 25.5301 24.8585
internal_count=339 192 147 145
shrinkage=0.05


Tree=20
num_leaves=5
num_cat=0
split_feature=27 30 27 33
split_gain=55.4558 13.7403 0.996673 0.42926
threshold=0.5049828178694159 0.056140201136760125 0.61202749140893475 0.34967670707635795
decision_type=2 2 2 2
left_child=1 3 -2 -1
right_child=2 -3 -4 -5
leaf_value=-0.071208414979364157 0.044931561022297374 0.0047940186187938397 0.065740352035949787 -0.057220721377619889
leaf_weight=8.7667817324399966 9.3144981414079684 11.240850105881689 15.055490568280218 14.651573255658148
leaf_count=51 52 54 92 90
internal_value=0 -0.0406459 0.057787 -0.0624571
internal_weight=0 34.6592 24.37 23.4184
internal_count=339 195 144 141
shrinkage=0.05


Tree=21
num_leaves=6
num_cat=0
split_feature=7 21 39 30 22
split_gain=52.1197 7.47736 6.89438 0.181403 0.152683
threshold=0.25574055666003975 0.36154051172707902 -0.071139724148389885 0.035460189187473602 0.44967378853528572
decision_type=2 2 2 2 2
left_child=2 -2 -1 -4 -3
right_child=1 4 3 -5 -6
leaf_value=-0.01546244073539383 0.012606490379087296 0.070790594354973549 -0.06177936811818116 -0.071829677760881103 0.06177151525572664
leaf_weight=10.576817825436594 9.9611805528402346 9.2184064537286776 10.161099642515184 8.0442208498716337 9.5577727258205396
leaf_count=57 54 51 67 47 63
internal_value=0 0.0476227 -0.0475678 -0.0662202 0.0661995
internal_weight=0 28.7374 28.7821 18.2053 18.7762
internal_count=339 168 171 114 114
shrinkage=0.05


Tree=22
num_leaves=6
num_cat=0
split_feature=22 39 33 14 5
split_gain=48.3051 10.0198 0.880557 0.37288 0.00827796
threshold=0.25519199163304945 -0.086518724915336034 0.61195910036099566 0.12968691572900024 0.17819458928900067
decision_type=2 2 2 2 2
left_child=2 3 4 -2 -1
right_child=1 -3 -4 -5 -6
leaf_value=-0.060414373365204443 0.051960894625927248 0.0017845709821513811 -0.041262650639797935 0.065470209931056261 -0.062736119708280275
leaf_weight=7.9546205848455447 8.6706567853689211 11.424797758460043 8.2207256555557233 12.431096136569975 7.4204870462417603
leaf_count=56 52 58 48 77 48
internal_value=0 0.0394997 -0.0544721 0.0599193 -0.0615349
internal_weight=0 32.5266 23.5958 21.1018 15.3751
internal_count=339 187 152 129 104
shrinkage=0.05


Tree=23
num_leaves=6
num_cat=0
split_feature=23 7 35 5 26
split_gain=47.427 10.3819 0.965152 0.721282 0.0186542
threshold=0.16724832874557607 0.22589463220675945 1.7810705503198825 0.12766087970063186 0.38394568690095854
decision_type=2 2 2 2 2
left_child=1 3 4 -1 -2
right_child=2 -3 -4 -5 -6
leaf_value=-0.046004432651192348 0.06394320100849897 0.0054133808020947333 0.040573245398387886 -0.064473654537851172 0.060422343069198914
leaf_weight=8.401628524065023 8.116062596440317 9.1767095476388914 7.7077402025461188 14.256096377968786 7.0124798119068137
leaf_count=55 51 43 46 94 50
internal_value=0 -0.0394534 0.0549742 -0.0576251 0.0623112
internal_weight=0 31.8344 22.8363 22.6577 15.1285
internal_count=339 192 147 149 101
shrinkage=0.05


Tree=24
num_leaves=6
num_cat=0
split_feature=30 39 39 22 7
split_gain=44.9148 9.15418 3.92859 0.220281 0.146706
threshold=0.062447387456333249 -0.077940298924125156 -0.071139724148389885 0.40534887195577479 0.12303677932405567
decision_type=2 2 2 2 2
left_child=2 3 -1 -2 -4
right_child=1 -3 4 -5 -6
leaf_value=-0.023631919006981448 0.07087163949916471 0.0047319881260007024 -0.059420210071601857 0.059810868830867482 -0.069227502060335788
leaf_weight=10.039447203278543 8.5271119922399574 9.6599186360836011 8.4881564974784833 9.5345987081527692 6.9234808534383765
leaf_count=57 50 53 64 71 44
internal_value=0 0.0440203 -0.047971 0.0650328 -0.063826
internal_weight=0 27.7216 25.4511 18.0617 15.4116
internal_count=339 174 165 121 108
shrinkage=0.05


Tree=25
num_leaves=7
num_cat=0
split_feature=23 26 35 33 39 22
split_gain=41.9012 10.6939 1.00982 0.980307 0.333861 0.0172679
threshold=0.16724832874557607 0.25623003194888178 1.7810705503198825 0.58328808793725873 -0.060483572150463315 0.44967378853528572
decision_type=2 2 2 2 2 2
left_child=1 3 5 4 -1 -2
right_child=2 -3 -4 -5 -6 -7
leaf_value=-0.069211129354993559 0.062883714106356667 0.013230263954389331 0.038387736993110627 -0.040631752449153985 -0.054168644532332479 0.059382936259547763
leaf_weight=8.3319478034973162 7.4745842665433901 7.6663319543004027 7.3523947894573203 7.7418521866202346 6.6188979446887997 6.6620684489607811
leaf_count=53 50 38 46 49 52 51
internal_value=0 -0.0378252 0.0534172 -0.0550735 -0.0625517 0.0612339
internal_weight=0 30.359 21.489 22.6927 14.9508 14.1367
internal_count=339 192 147 154 105 101
shrinkage=0.05


Tree=26
num_leaves=6
num_cat=0
split_feature=30 39 26 22 22
split_gain=39.6038 8.69345 4.45686 0.401174 0.195675
threshold=0.062447387456333249 -0.077940298924125156 0.20874600638977633 0.20182778026794163 0.40534887195577479
decision_type=2 2 2 2 2
left_child=2 4 3 -1 -2
right_child=1 -3 -4 -5 -6
leaf_value=-0.054151353036107547 0.069570559469767507 0.0040287652560932717 -0.012648501889716857 -0.070001695131908404 0.058786755516308388
leaf_weight=10.79669981449843 8.0431446060538345 9.4521691948175413 6.994978889822959 6.3340390473604193 8.819001726806162
leaf_count=86 50 53 39 40 71
internal_value=0 0.0424137 -0.0462795 -0.060012 0.0639306
internal_weight=0 26.3143 24.1257 17.1307 16.8621
internal_count=339 174 165 126 121
shrinkage=0.05


Tree=27
num_leaves=6
num_cat=0
split_feature=7 30 30 6 22
split_gain=37.8011 6.48249 3.41078 0.196415 0.0418145
threshold=0.25574055666003975 0.080236389307181646 0.056140201136760125 0.072774133083411421 0.45440509985557059
decision_type=2 2 2 2 2
left_child=2 -2 3 -1 -3
right_child=1 4 -4 -5 -6
leaf_value=-0.050596493832741396 0.0065120741705865549 0.064066648391934419 -0.01750913335845266 -0.061765366526084144 0.059029513440877035
leaf_weight=6.594835624098784 7.9976891130208996 7.3180518671870258 8.050679609179495 9.7649468928575498 9.4278614148497564
leaf_count=55 43 50 42 74 75
internal_value=0 0.0435445 -0.044152 -0.0572631 0.0612308
internal_weight=0 24.7436 24.4105 16.3598 16.7459
internal_count=339 168 171 129 125
shrinkage=0.05


Tree=28
num_leaves=6
num_cat=0
split_feature=27 39 17 27 19
split_gain=36.1524 13.2368 1.45145 0.408835 0.197084
threshold=0.52044673539518904 -0.077940298924125156 0.21964387194544424 0.62903780068728532 0.051138012520210559
decision_type=2 2 2 2 2
left_child=1 -1 4 -2 -3
right_child=3 2 -4 -5 -6
leaf_value=0.02138023729780579 0.047103362453788308 -0.068177069448026401 -0.034334328164433235 0.062551041439141544 -0.056775620645533736
leaf_weight=8.0412037298083323 7.1436348631978062 7.1923264339566257 6.7684900835156432 10.696439959108828 8.0130838677287084
leaf_count=46 52 53 42 83 63
internal_value=0 -0.0335087 -0.053595 0.0563654 -0.0621686
internal_weight=0 30.0151 21.9739 17.8401 15.2054
internal_count=339 204 158 135 116
shrinkage=0.05


Tree=29
num_leaves=6
num_cat=0
split_feature=27 30 39 27 22
split_gain=33.7027 14.2811 1.28632 0.446932 0.152402
threshold=0.52044673539518904 0.074890137929624748 -0.071139724148389885 0.62749140893470801 0.18242940385477358
decision_type=2 2 2 2 2
left_child=1 2 -1 -2 -4
right_child=3 -3 4 -5 -6
leaf_value=-0.037046523754199159 0.045265075834088488 0.026337189590482146 -0.057875867288898333 0.061845124813049629 -0.068470290618995885
leaf_weight=7.8400261551141783 6.5731892958283451 7.6134678125381461 7.9880623072385788 10.649850465357302 5.9029393792152405
leaf_count=49 49 42 70 86 43
internal_value=0 -0.0325928 -0.053239 0.0555173 -0.0623779
internal_weight=0 29.3445 21.731 17.223 13.891
internal_count=339 204 162 135 113
shrinkage=0.05


Tree=30
num_leaves=6
num_cat=0
split_feature=23 39 35 34 32
split_gain=31.5643 10.5417 1.06751 0.840464 0.017719
threshold=0.16724832874557607 -0.077940298924125156 1.7810705503198825 1.0663293562712117 0.57027739467148197
decision_type=2 2 2 2 2
left_child=1 -1 4 -3 -2
right_child=2 3 -4 -5 -6
leaf_value=0.019244042497217024 0.057338066589737141 -0.060955471601870509 0.034115948985252088 -0.039897394491350477 0.061196263176311584
leaf_weight=6.784085318446162 5.8976994678378123 12.33981489390135 6.5204906016588202 7.6918314844369879 6.0066842809319496
leaf_count=37 55 96 46 59 46
internal_value=0 -0.0346256 0.0503777 -0.0528695 0.0592848
internal_weight=0 26.8157 18.4249 20.0316 11.9044
internal_count=339 192 147 155 101
shrinkage=0.05


Tree=31
num_leaves=6
num_cat=0
split_feature=27 30 39 27 7
split_gain=30.0032 12.888 1.2672 0.464825 0.140413
threshold=0.52044673539518904 0.074890137929624748 -0.071139724148389885 0.62749140893470801 0.13004473161033794
decision_type=2 2 2 2 2
left_child=1 2 -1 -2 -4
right_child=3 -3 4 -5 -6
leaf_value=-0.035622670363838607 0.043595566807861467 0.025131497923155888 -0.056784764532851834 0.061034955937567671 -0.067308658897861515
leaf_weight=7.5949584245681807 6.2248928099870708 7.4078213423490515 7.2770517244935036 9.8938890993595106 5.6152374744415283
leaf_count=49 49 42 71 86 42
internal_value=0 -0.0313877 -0.0518241 0.0543001 -0.0613684
internal_weight=0 27.8951 20.4872 16.1188 12.8923
internal_count=339 204 162 135 113
shrinkage=0.05


Tree=32
num_leaves=5
num_cat=0
split_feature=39 6 33 32
split_gain=28.0105 15.8453 1.86845 1.74122
threshold=-0.083442965504779143 0.27928772258669166 0.5424738819164433 1.3621763898903056
decision_type=2 2 2 2
left_child=2 3 -1 -2
right_child=1 -3 -4 -5
leaf_value=0.029182699618110215 -0.071651074285716654 0.034922166696669671 0.062770283750646361 -0.041472876399023063
leaf_weight=6.9244475886225727 9.2155724912881904 6.3917510583996764 10.29919623583555 9.9302346631884557
leaf_count=51 67 44 87 90
internal_value=0 -0.0332423 0.049267 -0.0559987
internal_weight=0 25.5376 17.2236 19.1458
internal_count=339 201 138 157
shrinkage=0.05


Tree=33
num_leaves=6
num_cat=0
split_feature=30 39 13 22 11
split_gain=26.9673 7.50696 3.60662 0.197624 0.14877
threshold=0.062447387456333249 -0.077940298924125156 0.032486113134527907 0.39090592160964194 0.14637111032531822
decision_type=2 2 2 2 2
left_child=2 3 4 -2 -1
right_child=1 -3 -4 -5 -6
leaf_value=-0.063455036917478932 0.068796103760318902 0.0012850239417887752 -0.014754110960867529 0.056482017308550882 -0.052339814623094207
leaf_weight=7.1658753305673617 5.602628096938135 8.3768392801284772 7.4572408422827712 7.7862503007054329 5.1911261528730392
leaf_count=64 40 53 52 81 49
internal_value=0 0.0384084 -0.042214 0.0616349 -0.0587856
internal_weight=0 21.7657 19.8142 13.3889 12.357
internal_count=339 174 165 121 113
shrinkage=0.05


Tree=34
num_leaves=6
num_cat=0
split_feature=7 39 23 20 39
split_gain=25.5176 5.92659 4.26776 0.41327 0.00951302
threshold=0.25574055666003975 -0.074063686328478484 0.18156458906802989 0.20686588402703662 -0.10448352235366813
decision_type=2 2 2 2 2
left_child=1 -1 -2 -3 -4
right_child=2 3 4 -5 -6
leaf_value=0.0010881975212327403 0.010304063678477412 -0.051033724176186707 0.056158685833113044 -0.068632688139142292 0.05893849949689859
leaf_weight=6.1099980324506786 7.8107633069157627 8.5074274316430074 7.290705733001233 5.4874547496438018 5.3260467350482914
leaf_count=40 44 87 79 44 45
internal_value=0 -0.039997 0.0393503 -0.0579344 0.0573322
internal_weight=0 20.1049 20.4275 13.9949 12.6168
internal_count=339 171 168 131 124
shrinkage=0.05


Tree=35
num_leaves=6
num_cat=0
split_feature=27 30 33 27 9
split_gain=24.3809 10.5527 1.37964 0.534952 0.269044
threshold=0.52044673539518904 0.074890137929624748 0.58328808793725873 0.61202749140893475 0.26232097725358033
decision_type=2 2 2 2 2
left_child=1 2 4 -2 -1
right_child=3 -3 -4 -5 -6
leaf_value=-0.051376039786776642 0.039289042721994023 0.023033808175732438 -0.028095586188085754 0.05957101548850624 -0.065815342118842449
leaf_weight=6.7900898233056122 5.0359735563397399 6.9344600588083258 5.3737401291728011 9.1731577739119512 6.1461542770266533
leaf_count=65 43 42 46 92 51
internal_value=0 -0.029496 -0.0493904 0.0523827 -0.0582363
internal_weight=0 25.2444 18.31 14.2091 12.9362
internal_count=339 204 162 135 116
shrinkage=0.05


Tree=36
num_leaves=6
num_cat=0
split_feature=39 6 32 30 27
split_gain=22.7741 13.1407 1.71366 1.37936 0.0416715
threshold=-0.083442965504779143 0.27928772258669166 1.4499466059348063 0.071226369048622298 0.58762886597938147
decision_type=2 2 2 2 2
left_child=3 2 -2 -1 -5
right_child=1 -3 -4 4 -6
leaf_value=0.026374485344255585 -0.06911962135603425 0.032708060002405039 -0.037440252571045808 0.06108929306646349 0.054664010192306794
leaf_weight=5.2557132095098487 8.7817340567708069 5.9220200255513182 8.3069349378347379 5.1785379052162153 4.9217966198921204
leaf_count=31 73 44 84 43 64
internal_value=0 -0.0314769 -0.05372 0.0471485 0.0579583
internal_weight=0 23.0107 17.0887 15.356 10.1003
internal_count=339 201 157 138 107
shrinkage=0.05


Tree=37
num_leaves=6
num_cat=0
split_feature=27 39 26 27 30
split_gain=21.6473 9.563 2.00911 0.569049 0.541429
threshold=0.52044673539518904 -0.083442965504779143 0.17076677316293934 0.61202749140893475 0.036993269740081478
decision_type=2 2 2 2 2
left_child=1 -1 4 -2 -3
right_child=3 2 -4 -5 -6
leaf_value=0.030030491930266408 0.037372138666896003 -0.045974870088650303 -0.022992712607629296 0.058928824295734844 -0.067219494464995019
leaf_weight=5.4266285672783843 4.7808267772197715 5.5388807728886658 6.4943521916866294 8.5124771595001203 6.5403479784727097
leaf_count=35 43 69 46 92 54
internal_value=0 -0.02836 -0.0454199 0.0511761 -0.0574779
internal_weight=0 24.0002 18.5736 13.2933 12.0792
internal_count=339 204 169 135 123
shrinkage=0.05


Tree=38
num_leaves=6
num_cat=0
split_feature=30 27 26 1 22
split_gain=20.8885 5.65885 2.88878 0.477068 0.322261
threshold=0.062447387456333249 0.41907216494845362 0.20874600638977633 0.36895502198173818 0.17789730564271133
decision_type=2 2 2 2 2
left_child=2 -2 4 -3 -1
right_child=1 3 -4 -5 -6
leaf_value=-0.044333931590752662 -0.0068578382714972992 0.040743622654311168 -0.011339033782649085 0.060481090624722157 -0.061398647609680751
leaf_weight=4.7114276215434092 5.4174144342541721 4.6894516497850409 5.9312960729002944 8.8190899118781072 6.7023476585745811
leaf_count=59 34 49 39 91 67
internal_value=0 0.0363153 -0.0396451 0.0536293 -0.0543546
internal_weight=0 18.926 17.3451 13.5085 11.4138
internal_count=339 174 165 140 126
shrinkage=0.05


Tree=39
num_leaves=6
num_cat=0
split_feature=30 39 39 6 22
split_gain=19.3935 6.57682 4.88702 0.374659 0.182371
threshold=0.062447387456333249 -0.077940298924125156 -0.080943883161628691 0.075023430178069311 0.38044723342795966
decision_type=2 2 2 2 2
left_child=2 4 -1 -4 -2
right_child=1 -3 3 -5 -6
leaf_value=0.0054657653230053699 0.06834699320365728 -0.00036854814522252645 -0.043317354254248951 -0.061536594240151801 0.055110535873983513
leaf_weight=4.5695033445954349 4.3119349144399184 7.556428797543048 4.3734048195183259 7.9530781991779804 6.5631610825657845
leaf_count=27 35 53 58 80 86
internal_value=0 0.0354622 -0.0387 -0.0550725 0.0603587
internal_weight=0 18.4315 16.896 12.3265 10.8751
internal_count=339 174 165 138 121
shrinkage=0.05


Tree=40
num_leaves=7
num_cat=0
split_feature=23 39 35 13 11 22
split_gain=18.4662 6.73101 1.2616 0.979843 0.0801488 0.017583
threshold=0.16724832874557607 -0.077940298924125156 1.866188133456361 0.031991154244132354 0.16084688826025459 0.41232133074356297
decision_type=2 2 2 2 2 2
left_child=1 -1 5 4 -3 -2
right_child=2 3 -4 -5 -6 -7
leaf_value=0.015282766732900349 0.059091012299059532 -0.060733650613223861 0.024511210760261058 -0.029533468799240806 -0.051680986695576574 0.054626833479273933
leaf_weight=6.0138579010963431 4.2350830063223821 5.3218951039016265 4.6144181564450255 5.0779162980616084 4.5230487026274204 4.6030868105590343
leaf_count=37 43 63 40 42 50 64
internal_value=0 -0.0293758 0.0457022 -0.0473731 -0.0565746 0.056766
internal_weight=0 20.9367 13.4526 14.9229 9.84494 8.83817
internal_count=339 192 147 155 113 107
shrinkage=0.05


Tree=41
num_leaves=7
num_cat=0
split_feature=27 39 1 27 23 35
split_gain=17.6652 8.18607 2.66763 0.596747 0.578518 0.17557
threshold=0.52044673539518904 -0.086518724915336034 0.35508961785593507 0.61202749140893475 0.12209988202909947 1.5076427691783338
decision_type=2 2 2 2 2 2
left_child=1 -1 4 -2 5 -3
right_child=3 2 -4 -5 -6 -7
leaf_value=0.03126897370099023 0.034727500707737939 -0.055250843228188941 -0.014060326272016494 0.05815610558706167 -0.07108356045993687 -0.039700391053905021
leaf_weight=4.7693140581250182 4.2947632037103158 3.8401071391999775 5.4620613902807227 7.4026957415044308 4.2683119475841522 3.4421033784747124
leaf_count=33 43 51 42 92 28 50
internal_value=0 -0.0266228 -0.0428522 0.0495542 -0.0564675 -0.0479006
internal_weight=0 21.7819 17.0126 11.6975 11.5505 7.28221
internal_count=339 204 171 135 129 101
shrinkage=0.05


Tree=42
num_leaves=7
num_cat=0
split_feature=7 21 39 30 0 12
split_gain=16.8647 5.96391 5.8706 0.436675 0.215158 0.108499
threshold=0.25574055666003975 0.33208955223880604 -0.077129946623117118 0.048408962538699786 0.22594538312272233 0.10620553173443902
decision_type=2 2 2 2 2 2
left_child=2 -2 -1 4 -4 -3
right_child=1 5 3 -5 -6 -7
leaf_value=0.011534998612370102 -0.0086226618680941333 0.062031124864780331 -0.055131110610567462 -0.06801460721044629 -0.037886496343028424 0.052070018485202187
leaf_weight=4.6174510195851353 5.1750203780829933 4.7280297242104989 4.269209682941435 4.1946710199117661 3.1385544836521149 6.4808701500296593
leaf_count=31 37 45 58 32 50 86
internal_value=0 0.0357742 -0.0361477 -0.0551241 -0.0478248 0.0562717
internal_weight=0 16.3839 16.2199 11.6024 7.40776 11.2089
internal_count=339 168 171 140 108 131
shrinkage=0.05


Tree=43
num_leaves=6
num_cat=0
split_feature=30 39 39 6 20
split_gain=15.9733 5.79309 4.02063 0.374809 0.163369
threshold=0.062447387456333249 -0.077940298924125156 -0.082301358886634271 0.076862699156513573 0.39007470651013876
decision_type=2 2 2 2 2
left_child=2 4 -1 -4 -2
right_child=1 -3 3 -5 -6
leaf_value=0.0032509425071746132 0.067977213768709105 -0.00013077385422368773 -0.04089232679593803 -0.060380825149528097 0.054446187784750313
leaf_weight=4.3967675790190688 3.6112547889351863 7.1101865395903578 3.8204704821109789 6.9647535420954227 5.8353198207914829
leaf_count=26 33 53 59 80 88
internal_value=0 0.0339598 -0.0370486 -0.0534774 0.0596189
internal_weight=0 16.5568 15.182 10.7852 9.44657
internal_count=339 174 165 139 121
shrinkage=0.05


Tree=44
num_leaves=7
num_cat=0
split_feature=7 21 39 30 3 12
split_gain=15.1933 5.50935 5.2489 0.414992 0.224073 0.0962604
threshold=0.25574055666003975 0.33208955223880604 -0.077129946623117118 0.048408962538699786 0.11997879109225876 0.10620553173443902
decision_type=2 2 2 2 2 2
left_child=2 -2 -1 4 -4 -3
right_child=1 5 3 -5 -6 -7
leaf_value=0.0097979810140094523 -0.0077069783294320907 0.061169733910723979 -0.054622538187598969 -0.067116904096715044 -0.036288774395909544 0.051463896809339132
leaf_weight=4.5358165204524985 5.1226855516433707 4.4411815442144853 3.9072621241211909 3.9841411747038364 2.9061605706810951 6.0137206837534904
leaf_count=31 37 45 58 32 50 86
internal_value=0 0.0347727 -0.0353377 -0.0542982 -0.0468026 0.0555869
internal_weight=0 15.5776 15.3334 10.7976 6.81342 10.4549
internal_count=339 168 171 140 108 131
shrinkage=0.05


Tree=45
num_leaves=6
num_cat=0
split_feature=23 24 29 35 22
split_gain=14.5138 5.17913 2.19106 1.23808 0.0163839
threshold=0.16724832874557607 0.43901472627616717 0.11252131706677161 1.8778784397066051 0.39713133124159578
decision_type=2 2 2 2 2
left_child=1 2 -1 4 -2
right_child=3 -3 -4 -5 -6
leaf_value=-0.021085078703698697 0.058411212265818385 0.0078694150278795696 -0.064876852669729521 0.021557783933297131 0.053733292681214379
leaf_weight=4.7827968485653454 3.4492536894977075 6.6522148065268984 7.0913407653570175 4.0348345451056957 4.0927122496068478
leaf_count=56 39 60 76 38 70
internal_value=0 -0.0274507 -0.0472379 0.043913 0.0558727
internal_weight=0 18.5264 11.8741 11.5768 7.54197
internal_count=339 192 132 147 109
shrinkage=0.05


Tree=46
num_leaves=6
num_cat=0
split_feature=26 30 31 15 38
split_gain=14.1295 9.34333 1.07989 0.946236 0.137909
threshold=0.16633386581469653 0.060156725006105527 0.54482579657212471 0.096419022441193214 0.93942863004631805
decision_type=2 2 2 2 2
left_child=3 -2 4 -1 -3
right_child=1 2 -4 -5 -6
leaf_value=-0.033553163444088381 -0.023397391189373822 0.054995201975073328 0.031061994734636847 -0.064291721732785065 0.068149483716407028
leaf_weight=5.2785409018397349 6.5874930508434799 4.2683429308235628 4.7598610743880263 4.7625446766614914 3.7369327023625374
leaf_count=72 54 62 56 57 38
internal_value=0 0.0249645 0.0499218 -0.0481326 0.0611357
internal_weight=0 19.3526 12.7651 10.0411 8.00528
internal_count=339 210 156 129 100
shrinkage=0.05


Tree=47
num_leaves=7
num_cat=0
split_feature=22 39 1 32 21 25
split_gain=13.2116 7.60044 3.45854 0.677314 0.277909 0.0045907
threshold=0.35305543104736298 -0.083442965504779143 0.3933040243490023 1.1511533867060133 0.28744669509594895 0.25789019219761145
decision_type=2 2 2 2 2 2
left_child=1 -1 3 -3 -5 -2
right_child=5 2 -4 4 -6 -7
leaf_value=0.027351571324327084 0.056104741023126153 -0.072051685535273996 -0.0025206058848238882 -0.055172988645181123 -0.034547156321297436 0.053663266466608066
leaf_weight=5.8146796375513121 3.2480885758996001 3.9191140048205835 4.3368128240108499 3.5940815880894661 2.9932218417525291 4.7279727384448051
leaf_count=42 39 37 35 58 43 85
internal_value=0 -0.0211044 -0.0400865 -0.0555929 -0.0458008 0.0546575
internal_weight=0 20.6579 14.8432 10.5064 6.5873 7.97606
internal_count=339 215 173 138 101 124
shrinkage=0.05


Tree=48
num_leaves=6
num_cat=0
split_feature=26 13 21 15 23
split_gain=12.5531 7.12874 2.04671 0.893278 0.132852
threshold=0.16633386581469653 0.031991154244132354 0.35740938166311303 0.096419022441193214 0.22765926071569012
decision_type=2 2 2 2 2
left_child=3 -2 -3 -1 -4
right_child=1 2 4 -5 -6
leaf_value=-0.032330763891042447 -0.024791555611625965 0.018630212890560081 0.06628086825815703 -0.06311956625725354 0.053447157858789208
leaf_weight=5.0050617940723914 5.3116451911628273 4.9727586284279814 3.7433615215122682 4.4506917595863342 4.3713548630475998
leaf_count=72 51 47 31 57 81
internal_value=0 0.0240614 0.0438888 -0.0468226 0.0593674
internal_weight=0 18.3991 13.0875 9.45575 8.11472
internal_count=339 210 159 129 112
shrinkage=0.05


Tree=49
num_leaves=6
num_cat=0
split_feature=22 39 17 20 25
split_gain=11.9605 6.85654 1.79336 0.0792519 0.0040292
threshold=0.35305543104736298 -0.077940298924125156 0.21964387194544424 0.21664887940234787 0.25789019219761145
decision_type=2 2 2 2 2
left_child=1 -1 3 -3 -2
right_child=4 2 -4 -5 -6
leaf_value=0.018480457501111738 0.05571005912655258 -0.053451099392067963 -0.019541926018258979 -0.063774778768497145 0.053336535789166667
leaf_weight=7.2411005534231707 3.0389102697372428 4.1225913837552071 5.0370021723210812 3.3857460618019104 4.3437891080975533
leaf_count=54 39 76 46 39 85
internal_value=0 -0.0202612 -0.0426226 -0.0581064 0.0543135
internal_weight=0 19.7864 12.5453 7.50834 7.3827
internal_count=339 215 161 115 124
shrinkage=0.05


Tree=50
num_leaves=6
num_cat=0
split_feature=27 30 33 27 9
split_gain=11.3429 5.65596 1.59495 0.617439 0.363542
threshold=0.52044673539518904 0.074890137929624748 0.58328808793725873 0.61202749140893475 0.26232097725358033
decision_type=2 2 2 2 2
left_child=1 2 4 -2 -1
right_child=3 -3 -4 -5 -6
leaf_value=-0.043393960027207329 0.029484951886728828 0.019610526998380663 -0.014051713687441889 0.056684280343365923 -0.063909008837399403
leaf_weight=4.3458830416202598 3.3821160420775396 5.3731228783726683 3.6198956966400138 5.4466327279806137 4.2923825085163116
leaf_count=65 43 42 46 92 51
internal_value=0 -0.0231635 -0.0419127 0.0462648 -0.053588
internal_weight=0 17.6313 12.2582 8.82875 8.63827
internal_count=339 204 162 135 116
shrinkage=0.05


Tree=51
num_leaves=6
num_cat=0
split_feature=26 13 21 15 22
split_gain=10.7704 6.59021 1.99565 0.78962 0.110809
threshold=0.16054313099041531 0.031991154244132354 0.35740938166311303 0.096419022441193214 0.371233627172668
decision_type=2 2 2 2 2
left_child=3 -2 -3 -1 -4
right_child=1 2 4 -5 -6
leaf_value=-0.03167059904581819 -0.024417094608995216 0.017204284318739771 0.065556672569314675 -0.062366785848413486 0.053282155588192083
leaf_weight=4.3235110603272933 5.2476704157888916 4.7255878522992116 3.3157565630972385 4.0645838938653469 4.1275310292840004
leaf_count=69 53 47 29 57 84
internal_value=0 0.022419 0.0426164 -0.0465449 0.0587501
internal_weight=0 17.4165 12.1689 8.38809 7.44329
internal_count=339 213 160 126 113
shrinkage=0.05


Tree=52
num_leaves=6
num_cat=0
split_feature=22 39 17 3 25
split_gain=10.3569 6.10403 1.72861 0.0647507 0.00340585
threshold=0.35305543104736298 -0.077940298924125156 0.21964387194544424 0.15766702014846232 0.25789019219761145
decision_type=2 2 2 2 2
left_child=1 -1 3 -3 -2
right_child=4 2 -4 -5 -6
leaf_value=0.017885112061608557 0.055211229597784052 -0.053216127097462596 -0.018387503459234272 -0.063050498127353249 0.052907684028104099
leaf_weight=6.974341277033095 2.7659606523811808 3.8055858705192804 4.818305429071188 2.9878545477986336 3.8217066526412964
leaf_count=54 39 78 46 37 85
internal_value=0 -0.0190876 -0.0412945 -0.0575414 0.0538749
internal_weight=0 18.5861 11.6117 6.79344 6.58767
internal_count=339 215 161 115 124
shrinkage=0.05


Tree=53
num_leaves=6
num_cat=0
split_feature=30 39 13 37 23
split_gain=9.9361 4.59367 2.92125 0.150641 0.145243
threshold=0.062447387456333249 -0.077940298924125156 0.032486113134527907 2.0018444523694168 0.20590837593393632
decision_type=2 2 2 2 2
left_child=2 4 3 -1 -2
right_child=1 -3 -4 -5 -6
leaf_value=-0.047052852403796697 0.068019074585475306 -0.0015785915089448902 -0.0046492791696941078 -0.062050095448788173 0.053016280084855996
leaf_weight=3.3129208777099866 2.6405970491468906 5.8595333360135538 5.1866196915507317 3.3854927457869053 4.1462546363472939
leaf_count=64 27 53 52 49 94
internal_value=0 0.0308531 -0.03282 -0.0546327 0.0588535
internal_weight=0 12.6464 11.885 6.69841 6.78685
internal_count=339 174 165 113 121
shrinkage=0.05


Tree=54
num_leaves=6
num_cat=0
split_feature=27 13 1 33 12
split_gain=9.36116 5.1068 2.74398 0.638972 0.276529
threshold=0.52044673539518904 0.053012898815460605 0.35322962461954671 0.52604122685722732 0.064034302407765101
decision_type=2 2 2 2 2
left_child=1 2 4 -2 -1
right_child=3 -3 -4 -5 -6
leaf_value=-0.046620091199418082 0.026819726130519292 0.026817067292298043 -0.0038636055972439895 0.056166206844869664 -0.065233482635505102
leaf_weight=4.6238708477467352 3.0172646548598996 4.0517375916242591 3.9512168839573851 4.8146331775933504 3.5102070644497871
leaf_count=87 42 36 38 93 43
internal_value=0 -0.021761 -0.0380474 0.0448604 -0.0546526
internal_weight=0 16.137 12.0853 7.8319 8.13408
internal_count=339 204 168 135 130
shrinkage=0.05


Tree=55
num_leaves=6
num_cat=0
split_feature=22 39 17 30 25
split_gain=9.01995 5.27209 1.74878 0.0611789 0.00252695
threshold=0.35305543104736298 -0.077940298924125156 0.21964387194544424 0.043615211456109484 0.25789019219761145
decision_type=2 2 2 2 2
left_child=1 -1 3 -3 -2
right_child=4 2 -4 -5 -6
leaf_value=0.016857908322355928 0.054706324992408288 -0.052844359791558382 -0.016501372458543519 -0.062936193442072769 0.05261208923020308
leaf_weight=6.6910366732627198 2.5058935321867457 3.5383550450205803 4.6544246450066566 2.6091458778828382 3.3876517172902822
leaf_count=54 39 87 46 28 85
internal_value=0 -0.0180186 -0.0396222 -0.0571276 0.0535025
internal_weight=0 17.493 10.8019 6.1475 5.89355
internal_count=339 215 161 115 124
shrinkage=0.05


Tree=56
num_leaves=5
num_cat=0
split_feature=26 21 15 35
split_gain=8.61032 5.8929 0.757269 0.667378
threshold=0.16054313099041531 0.36154051172707902 0.096419022441193214 1.1672148460877676
decision_type=2 2 2 2
left_child=2 -2 -1 -3
right_child=1 3 -4 -5
leaf_value=-0.029010294310834808 -0.013413151415710218 0.034016354327998544 -0.061255365915560571 0.061860068003557755
leaf_weight=3.7097024396061924 6.8936917129904023 4.110987011343239 3.5759709160774946 4.5163648277521133
leaf_count=69 77 57 57 79
internal_value=0 0.0210525 -0.0448369 0.0485924
internal_weight=0 15.521 7.28567 8.62735
internal_count=339 213 126 136
shrinkage=0.05


Tree=57
num_leaves=5
num_cat=0
split_feature=22 21 4 19
split_gain=8.32799 3.96807 2.43017 0.779635
threshold=0.32566362866676629 0.30197228144989346 0.35609822154012821 0.065406354075978015
decision_type=2 2 2 2
left_child=1 -1 -3 -2
right_child=3 2 -4 -5
leaf_value=-0.05191667796090102 0.021444812834827034 -0.025636284042047326 0.027167508467090453 0.055451075178250445
leaf_weight=6.2319145537912872 2.603787023574113 4.4310122728347761 4.2871525343507528 4.7787248361855745
leaf_count=99 42 50 52 96
internal_value=0 -0.021449 0.000329951 0.0434572
internal_weight=0 14.9501 8.71816 7.38251
internal_count=339 201 102 138
shrinkage=0.05


Tree=58
num_leaves=6
num_cat=0
split_feature=13 24 30 4 22
split_gain=7.86452 5.69886 1.97978 0.920724 0.132352
threshold=0.067516128188749261 0.43901472627616717 0.068359400972080875 0.40164304414552682 0.22289456646247321
decision_type=2 2 2 2 2
left_child=1 2 4 -2 -1
right_child=3 -3 -4 -5 -6
leaf_value=-0.052849015114341515 0.02628378145670664 0.01905745970495458 -0.012419464034331723 0.065993386797302669 -0.067588640871870165
leaf_weight=3.4041215199977177 2.5543756764382115 6.1962154638022175 3.5157378576695919 3.4064107742160559 2.7560228947550058
leaf_count=83 43 80 29 76 28
internal_value=0 -0.0183819 -0.0423573 0.0489766 -0.0594435
internal_weight=0 15.8721 9.67588 5.96079 6.16014
internal_count=339 220 140 119 111
shrinkage=0.05


Tree=59
num_leaves=5
num_cat=0
split_feature=22 24 31 25
split_gain=7.46354 4.93593 1.55744 0.00177888
threshold=0.35305543104736298 0.43901472627616717 0.34060942798391242 0.25789019219761145
decision_type=2 2 2 2
left_child=1 2 -1 -2
right_child=3 -3 -4 -5
leaf_value=-0.062358534293586149 0.054103459302322382 0.018700633514700273 -0.0221825862676783 0.052212305141965024
leaf_weight=3.9804438538849407 2.1964331530034533 6.1858797650784245 6.1227433439344168 2.8659600056707859
leaf_count=69 39 72 74 85
internal_value=0 -0.0164744 -0.0380111 0.0530328
internal_weight=0 16.2891 10.1032 5.06239
internal_count=339 215 143 124
shrinkage=0.05


Tree=60
num_leaves=5
num_cat=0
split_feature=26 30 31 15
split_gain=7.14603 5.93178 1.20044 0.778408
threshold=0.16054313099041531 0.06123576135998085 0.54482579657212471 0.096419022441193214
decision_type=2 2 2 2
left_child=3 -2 -3 -1
right_child=1 2 -4 -5
leaf_value=-0.02604805652882124 -0.020054308621530417 0.060864862608444308 0.022781064002412421 -0.060386967904024175
leaf_weight=3.3393726702779558 5.6360466703772536 5.247016513720153 3.4165144916623831 3.2628821618855
leaf_count=69 57 99 57 57
internal_value=0 0.0198722 0.0458463 -0.0430186
internal_weight=0 14.2996 8.66353 6.60225
internal_count=339 213 156 126
shrinkage=0.05


Tree=61
num_leaves=5
num_cat=0
split_feature=13 21 28 17
split_gain=6.81845 5.2025 1.4703 0.415894
threshold=0.076434727062857852 0.36633795309168454 0.28484131677508384 0.30422428490244374
decision_type=2 2 2 2
left_child=1 2 -1 -2
right_child=3 -3 -4 -5
leaf_value=-0.058001867428969879 0.072817982001938453 0.014774152743272796 -0.014883302890466599 0.041164573588124483
leaf_weight=5.2715271674096638 2.1035645548254243 7.8249209690839043 3.1634962372481823 2.0480729471892118
leaf_count=94 57 98 43 47
internal_value=0 -0.0145902 -0.0418306 0.0572028
internal_weight=0 16.2599 8.43502 4.15164
internal_count=339 235 137 104
shrinkage=0.05


Tree=62
num_leaves=5
num_cat=0
split_feature=7 30 1 28
split_gain=6.59394 4.05087 0.824625 0.27775
threshold=0.35795228628230619 0.056140201136760125 0.24129184984781862 0.2914449043958211
decision_type=2 2 2 2
left_child=1 2 -1 -2
right_child=3 -3 -4 -5
leaf_value=-0.058977508785263213 0.034381053469467675 0.0099967774882722925 -0.026048178659724492 0.05723775104857836
leaf_weight=3.8468008767813462 2.3650708757340899 7.0048092361539602 3.7590658329427242 3.0344156324863434
leaf_count=71 47 79 74 68
internal_value=0 -0.017437 -0.0427028 0.0472261
internal_weight=0 14.6107 7.60587 5.39949
internal_count=339 224 145 115
shrinkage=0.05


Tree=63
num_leaves=6
num_cat=0
split_feature=39 30 33 11 2
split_gain=6.43385 5.39882 2.21286 0.343378 0.127724
threshold=-0.10448352235366813 0.074890137929624748 0.58144962950452828 0.14405056577086281 0.31145048718125912
decision_type=2 2 2 2 2
left_child=3 2 4 -1 -2
right_child=1 -3 -4 -5 -6
leaf_value=0.060981453108810292 -0.05208219104044727 0.022309116291041754 -0.0055715498398660641 0.035183981811572125 -0.066835000644485526
leaf_weight=2.5497070197016027 3.5234495885670167 5.4230523332953444 2.9805888030678034 2.6106371022760868 2.5138181131333113
leaf_count=48 95 72 47 57 20
internal_value=0 -0.0171141 -0.040822 0.0479304 -0.058225
internal_weight=0 14.4409 9.01786 5.16034 6.03727
internal_count=339 234 162 105 115
shrinkage=0.05


Tree=64
num_leaves=7
num_cat=0
split_feature=39 13 21 1 27 3
split_gain=6.11315 3.8754 2.05128 0.959786 0.0616827 0.0360038
threshold=-0.083442965504779143 0.042189175155678556 0.36154051172707902 0.36591139668583017 0.3620274914089347 0.21219512195121948
decision_type=2 2 2 2 2 2
left_child=2 3 -1 4 -2 -4
right_child=1 -3 5 -5 -6 -7
leaf_value=0.0041736686795559152 -0.051912324019135182 0.016284618555270719 0.062030820454133676 -0.018488795643055788 -0.063066104102466394 0.052917228081904327
leaf_weight=3.1790235880762365 2.840348029509185 4.0744589380919933 1.8973318934440611 2.4234783239662647 2.1993281506001949 2.5271060708910227
leaf_count=38 94 55 20 29 23 80
internal_value=0 -0.0229344 0.0348116 -0.0443458 -0.0567799 0.0568254
internal_weight=0 11.5376 7.60346 7.46315 5.03968 4.42444
internal_count=339 201 138 146 117 100
shrinkage=0.05


Tree=65
num_leaves=7
num_cat=0
split_feature=26 38 30 15 25 16
split_gain=5.94503 4.90845 1.16507 0.786138 0.241278 0.0714636
threshold=0.16054313099041531 2.7552135616352076 0.06632897619502727 0.096419022441193214 0.19662174617496678 0.098244949494949455
decision_type=2 2 2 2 2 2
left_child=3 2 -2 -1 -4 -6
right_child=1 -3 4 -5 5 -7
leaf_value=-0.023526062641805665 0.014705330526854507 -0.021954452837143305 0.067743773864674561 -0.060038093296215712 0.053283071476581303 0.038454838006436086
leaf_weight=2.9894090965390232 2.5833980236202461 4.6352684050798407 2.2978775892406702 2.9086418095976114 1.8084739204496147 1.4754643831402061
leaf_count=69 26 52 27 57 57 51
internal_value=0 0.0191392 0.0424675 -0.0415321 0.0553165 0.0466208
internal_weight=0 12.8005 8.16521 5.89805 5.58182 3.28394
internal_count=339 213 161 126 135 108
shrinkage=0.05


Tree=66
num_leaves=6
num_cat=0
split_feature=7 39 12 21 7
split_gain=5.62466 4.55018 1.17529 0.250859 0.0279369
threshold=0.35795228628230619 -0.077940298924125156 0.081821608632144369 0.35407782515991476 0.14580019880715708
decision_type=2 2 2 2 2
left_child=1 -1 4 -2 -3
right_child=3 2 -4 -5 -6
leaf_value=0.016752786385975316 0.032928686902052605 -0.05253463324949046 -0.01452071002833211 0.055985172709628023 -0.059987030521066742
leaf_weight=5.8057052735239276 2.0415292568504801 2.7329312544316062 2.5838936120271683 2.7946984013542533 2.3294340260326862
leaf_count=70 32 85 36 83 33
internal_value=0 -0.0166197 -0.041959 0.0462523 -0.0559638
internal_weight=0 13.452 7.64626 4.83623 5.06237
internal_count=339 224 154 115 118
shrinkage=0.05


Tree=67
num_leaves=6
num_cat=0
split_feature=27 23 33 19 4
split_gain=5.28651 3.69914 2.29605 0.512944 0.0760709
threshold=0.58762886597938147 0.18156458906802989 0.58144962950452828 0.064559927034534212 0.49760765550239244
decision_type=2 2 2 2 2
left_child=1 2 3 -1 -2
right_child=4 -3 -4 -5 -6
leaf_value=-0.032552249900361388 0.043772509348048952 0.032061455713629859 -0.0021158149952728773 -0.061866325717588655 0.05771823774204593
leaf_weight=2.6670891549438256 1.831120979972183 3.2719496693462125 4.6074074171483517 3.3879444403573871 2.0985107431188226
leaf_count=58 61 52 63 60 45
internal_value=0 -0.0144437 -0.0287146 -0.0489542 0.0512198
internal_weight=0 13.9344 10.6624 6.05503 3.92963
internal_count=339 233 181 118 106
shrinkage=0.05


Tree=68
num_leaves=7
num_cat=0
split_feature=13 39 27 17 30 26
split_gain=5.42665 5.74393 1.60142 0.545577 0.0891376 0.00089436
threshold=0.076434727062857852 -0.077940298924125156 0.41907216494845362 0.29740481151733289 0.06123576135998085 0.15079872204472847
decision_type=2 2 2 2 2 2
left_child=1 -1 4 -2 5 -3
right_child=3 2 -4 -5 -6 -7
leaf_value=0.021846775855446417 0.080198587263544716 -0.051491630632611751 -0.0076669186070668395 0.039294224661996995 -0.065468065061593181 -0.053113213547015981
leaf_weight=6.3603380629792818 1.4930396014824503 1.9839114816859376 2.3521063700318336 1.7955256188288329 1.9858959540724752 1.4881041832268236
leaf_count=76 53 80 21 51 19 39
internal_value=0 -0.0134285 -0.042156 0.0578652 -0.0570192 -0.0521866
internal_weight=0 14.1704 7.81002 3.28857 5.45791 3.47202
internal_count=339 235 159 104 138 119
shrinkage=0.05


Tree=69
num_leaves=7
num_cat=0
split_feature=26 38 21 38 25 29
split_gain=4.88365 4.21283 1.58254 1.09701 0.150559 0.0115517
threshold=0.16054313099041531 2.7552135616352076 0.32156183368869945 0.92115489695782593 0.19662174617496678 0.249442476715204
decision_type=2 2 2 2 2 2
left_child=3 2 -2 -1 -4 -6
right_child=1 -3 4 -5 5 -7
leaf_value=-0.010526556175079582 0.0091547669776613945 -0.020880097472597586 0.068136721748808513 -0.057418475742241737 0.047052763489025491 0.053527691024128937
leaf_weight=2.0000491421669748 2.5391288753598911 4.3691464904695749 2.0649013323709369 3.3137560281902552 1.382353011518717 1.37301948107779
leaf_count=40 31 52 24 86 58 48
internal_value=0 0.0180117 0.041101 -0.0397689 0.057929 0.0502793
internal_weight=0 11.7285 7.3594 5.31381 4.82027 2.75537
internal_count=339 213 161 126 130 106
shrinkage=0.05


Tree=70
num_leaves=7
num_cat=0
split_feature=13 39 27 17 30 26
split_gain=4.95166 5.1412 1.57069 0.587547 0.0748798 0.000789154
threshold=0.076434727062857852 -0.077940298924125156 0.41907216494845362 0.3009092631180148 0.062447387456333249 0.15079872204472847
decision_type=2 2 2 2 2 2
left_child=1 -1 4 -2 5 -3
right_child=3 2 -4 -5 -6 -7
leaf_value=0.020666156754491242 0.081899185376453965 -0.051385611586071182 -0.0069223670906099644 0.037738885486899423 -0.064731108250681832 -0.05295296785830126
leaf_weight=6.2141056079417476 1.3737062504515045 1.8876902833580982 2.3221343196928501 1.6675434429198501 1.8039753306657074 1.3977491324767468
leaf_count=76 54 82 21 50 17 39
internal_value=0 -0.0128758 -0.0409986 0.0576857 -0.0565465 -0.0520524
internal_weight=0 13.6257 7.41155 3.04125 5.08941 3.28544
internal_count=339 235 159 104 138 121
shrinkage=0.05


Tree=71
num_leaves=7
num_cat=0
split_feature=13 39 7 10 30 26
split_gain=4.66224 4.77706 1.71213 0.607325 0.0644459 0.00154345
threshold=0.076434727062857852 -0.077940298924125156 0.24239562624254471 0.20894441426760815 0.062447387456333249 0.15443290734824283
decision_type=2 2 2 2 2 2
left_child=1 -1 4 -2 5 -3
right_child=3 2 -4 -5 -6 -7
leaf_value=0.019730654582622447 0.080602131666405993 -0.051295013778142634 -0.0035944037608933604 0.03491167638737569 -0.064090426522800212 -0.053524790844142127
leaf_weight=6.1840899791568527 1.4289814550429576 1.862788761034609 2.2105463333427906 1.4811280937865374 1.7831200417131183 1.3303374452516434
leaf_count=76 52 86 21 52 17 35
internal_value=0 -0.0124874 -0.0402105 0.0573475 -0.0564761 -0.052224
internal_weight=0 13.3709 7.18679 2.91011 4.97625 3.19313
internal_count=339 235 159 104 138 121
shrinkage=0.05


Tree=72
num_leaves=5
num_cat=0
split_feature=27 13 21 36
split_gain=4.45677 3.46926 2.50187 0.210126
threshold=0.60395189003436434 0.053012898815460605 0.36633795309168454 -0.17704884555844663
decision_type=2 2 2 2
left_child=1 2 3 -1
right_child=-2 -3 -4 -5
leaf_value=-0.061922275809234678 0.054755173311562544 0.028241618651942319 0.0017987775953857582 -0.042109021661250294
leaf_weight=2.4459652351215464 3.0117323771119127 3.6804075781255952 3.8178186016157269 2.9545864900574088
leaf_count=37 99 62 54 87
internal_value=0 -0.0127971 -0.0291816 -0.0510826
internal_weight=0 12.8988 9.21837 5.40055
internal_count=339 240 178 124
shrinkage=0.05


Tree=73
num_leaves=6
num_cat=0
split_feature=13 24 1 31 34
split_gain=4.2135 4.40789 1.68472 0.648676 0.211173
threshold=0.076434727062857852 0.43901472627616717 0.39600946905647616 0.48181773793101346 0.67803469399681426
decision_type=2 2 2 2 2
left_child=1 2 4 -2 -1
right_child=3 -3 -4 -5 -6
leaf_value=-0.04063474826277598 0.08309737865188381 0.023374703744765198 -0.00379861828527721 0.033955777878526376 -0.061613918068826302
leaf_weight=1.9990102425217608 1.2539943549782049 5.2430023467168212 2.6321773640811443 1.4457734264433382 2.9991307370364666
leaf_count=53 47 89 32 57 61
internal_value=0 -0.011921 -0.0361736 0.0567812 -0.0532233
internal_weight=0 12.8733 7.63032 2.69977 4.99814
internal_count=339 235 146 104 114
shrinkage=0.05


Tree=74
num_leaves=5
num_cat=0
split_feature=27 13 21 38
split_gain=4.05512 3.03977 2.32971 0.220427
threshold=0.60395189003436434 0.053012898815460605 0.36633795309168454 2.4786036172931469
decision_type=2 2 2 2
left_child=1 2 3 -1
right_child=-2 -3 -4 -5
leaf_value=-0.039805352102630337 0.054494308182396978 0.026764184959056893 0.0018466455413242242 -0.060575556419768507
leaf_weight=2.6462080711498839 2.7894895076751718 3.5760228410363188 3.8014268074184656 2.4694633325561881
leaf_count=68 99 62 54 56
internal_value=0 -0.0121822 -0.0278008 -0.0498317
internal_weight=0 12.4931 8.9171 5.11567
internal_count=339 240 178 124
shrinkage=0.05


Tree=75
num_leaves=5
num_cat=0
split_feature=39 30 11 11
split_gain=3.85221 3.30427 1.26261 0.392628
threshold=-0.10448352235366813 0.074890137929624748 0.18338932107496461 0.13343131188118815
decision_type=2 2 2 2
left_child=3 2 -2 -1
right_child=1 -3 -4 -5
leaf_value=0.060645208833461972 -0.055884958429389481 0.01986932605821836 -0.013045614051339902 0.028388842516268914
leaf_weight=1.7826811773702513 3.7245544111356121 4.2600500583648682 3.1957785291597247 2.0037868749350309
leaf_count=42 98 72 64 63
internal_value=0 -0.0147753 -0.0361019 0.0435752
internal_weight=0 11.1804 6.92033 3.78647
internal_count=339 234 162 105
shrinkage=0.05


Tree=76
num_leaves=7
num_cat=0
split_feature=13 39 27 19 30 26
split_gain=3.74192 4.16132 1.64271 0.71927 0.0567364 0.000557698
threshold=0.076434727062857852 -0.077940298924125156 0.42577319587628865 0.10524024708760001 0.068359400972080875 0.15443290734824283
decision_type=2 2 2 2 2 2
left_child=1 -1 4 -2 5 -3
right_child=3 2 -4 -5 -6 -7
leaf_value=0.019656427162410523 0.087406163429701811 -0.051181022604250254 -0.0020326201328463643 0.032732149616341341 -0.063533270545633777 -0.052623297590568309
leaf_weight=5.7360383803024879 1.0590681703761231 1.6512369140982621 2.0629862174391747 1.3924598712474106 1.622412785887718 1.1282193968072531
leaf_count=76 54 88 20 50 16 35
internal_value=0 -0.0113437 -0.038849 0.0563515 -0.0561034 -0.0517665
internal_weight=0 12.2009 6.46486 2.45153 4.40187 2.77946
internal_count=339 235 159 104 139 123
shrinkage=0.05


Tree=77
num_leaves=5
num_cat=0
split_feature=27 39 33 14
split_gain=3.6054 2.92697 2.57187 0.904268
threshold=0.60395189003436434 -0.071139724148389885 0.58144962950452828 0.20088724207091138
decision_type=2 2 2 2
left_child=1 2 -1 -3
right_child=-2 3 -4 -5
leaf_value=-0.021103528204492204 0.054267300721998091 -0.056994347655150747 0.040703927587945443 -0.013675577828976361
leaf_weight=3.3429234316572538 2.5203993935137996 3.1174706062301984 3.3897727038711309 1.9634875096380708
leaf_count=53 99 89 55 43
internal_value=0 -0.0116053 0.0100152 -0.0402542
internal_weight=0 11.8137 6.7327 5.08096
internal_count=339 240 108 132
shrinkage=0.05


Tree=78
num_leaves=7
num_cat=0
split_feature=13 39 27 17 30 7
split_gain=3.44687 3.69631 1.71454 0.735018 0.0477049 0.000413183
threshold=0.076434727062857852 -0.077940298924125156 0.46374570446735397 0.30422428490244374 0.068359400972080875 0.14791252485089462
decision_type=2 2 2 2 2 2
left_child=1 -1 4 -2 5 -3
right_child=3 2 -4 -5 -6 -7
leaf_value=0.018320542696262727 0.086608528013225175 -0.051176940473708979 0.0014318296046657601 0.029878165101095068 -0.062735318482669 -0.052452703764184962
leaf_weight=5.6118085375055662 1.057049974333496 1.6561581394635134 1.9102473743259905 1.241615045815706 1.526697155088186 1.0289821112528441
leaf_count=76 57 93 17 47 16 33
internal_value=0 -0.0109905 -0.0378585 0.0559658 -0.0556783 -0.0516658
internal_weight=0 11.7339 6.12208 2.29867 4.21184 2.68514
internal_count=339 235 159 104 142 126
shrinkage=0.05


Tree=79
num_leaves=6
num_cat=0
split_feature=27 39 30 1 4
split_gain=3.3086 2.58914 1.96249 0.910671 0.0205556
threshold=0.60395189003436434 -0.071139724148389885 0.056140201136760125 0.34274602637808588 0.39184797327796345
decision_type=2 2 2 2 2
left_child=1 2 -1 4 -3
right_child=-2 3 -4 -5 -6
leaf_value=-0.020647911916490125 0.054068915355646036 -0.059542261498472852 0.034109576543708463 -0.010214533752725845 -0.051337901213833526
leaf_weight=3.0060860300436607 2.3440196299925455 1.5720947431400412 3.5909199519082904 1.7364301811903713 1.4842321053147314
leaf_count=42 99 58 66 32 42
internal_value=0 -0.0111613 0.009158 -0.0391299 -0.055558
internal_weight=0 11.3898 6.59701 4.79276 3.05633
internal_count=339 240 108 132 100
shrinkage=0.05


Tree=80
num_leaves=6
num_cat=0
split_feature=13 24 30 17 20
split_gain=3.20227 3.45653 2.08073 0.762917 0.0586562
threshold=0.076434727062857852 0.43901472627616717 0.071226369048622298 0.30782345141125217 0.25755958733546785
decision_type=2 2 2 2 2
left_child=1 2 4 -2 -1
right_child=3 -3 -4 -5 -6
leaf_value=-0.051790398464951259 0.088473749886215758 0.022337609007485132 -0.00093691511689836997 0.028586161199167966 -0.064156102777233645
leaf_weight=2.0003154338337468 0.9811360612511647 4.6571711953729391 2.7811128161847591 1.1611702148802576 1.842174789868295
leaf_count=97 58 89 30 46 19
internal_value=0 -0.0106694 -0.0338773 0.0560136 -0.0577188
internal_weight=0 11.2808 6.6236 2.14231 3.84249
internal_count=339 235 146 104 116
shrinkage=0.05


Tree=81
num_leaves=6
num_cat=0
split_feature=27 39 33 16 0
split_gain=3.02066 2.38136 2.21531 0.934222 0.0190821
threshold=0.60395189003436434 -0.071139724148389885 0.58144962950452828 0.084911616161616119 0.29220502626721573
decision_type=2 2 2 2 2
left_child=1 2 -1 4 -3
right_child=-2 3 -4 -5 -6
leaf_value=-0.020528525019582678 0.053850655618619951 -0.051590303370776275 0.038269667495742184 -0.0092046931682122461 -0.059768654467763832
leaf_weight=3.1890605185180894 2.1719308295287201 1.3973099347203963 3.2188421357423067 1.7306025847792623 1.4568932005204258
leaf_count=53 99 75 55 32 25
internal_value=0 -0.0106777 0.00900721 -0.03819 -0.0557648
internal_weight=0 10.9927 6.4079 4.58481 2.8542
internal_count=339 240 108 132 100
shrinkage=0.05


Tree=82
num_leaves=6
num_cat=0
split_feature=13 26 21 10 34
split_gain=2.94228 3.22161 3.26452 0.776295 0.141021
threshold=0.076434727062857852 0.16054313099041531 0.36633795309168454 0.21374253123302547 0.57329921246821791
decision_type=2 2 2 2 2
left_child=1 4 -3 -2 -1
right_child=3 2 -4 -5 -6
leaf_value=-0.035677754389616914 0.08656377166042728 -0.026268545912891034 0.041181972079918229 0.024518558689204856 -0.055896901017830583
leaf_weight=1.3772048223763689 1.0049909786321234 3.4155540820211172 3.7781707514077425 1.0115864486433563 2.3069590348750353
leaf_count=44 55 51 61 49 79
internal_value=0 -0.010316 0.00915671 0.0554397 -0.0483386
internal_weight=0 10.8779 7.19372 2.01658 3.68416
internal_count=339 235 112 104 123
shrinkage=0.05


Tree=83
num_leaves=6
num_cat=0
split_feature=39 21 36 0 39
split_gain=2.80192 2.29888 2.92314 0.372032 0.0523233
threshold=-0.10448352235366813 0.30197228144989346 -0.14208455474676934 0.32817454683136932 -0.066956280300123794
decision_type=2 2 2 2 2
left_child=3 4 -3 -1 -2
right_child=1 2 -4 -5 -6
leaf_value=0.022766805019627953 -0.056809585518209464 0.033864581153381153 -0.033407969948327919 0.057358641627477717 -0.043538984110988742
leaf_weight=1.4688149373978387 1.4424125244840982 3.5298847756348541 2.976340097375215 1.6508972984738646 1.5313226999714951
leaf_count=17 30 71 62 88 71
internal_value=0 -0.013556 0.00309005 0.0410722 -0.0499759
internal_weight=0 9.47996 6.50622 3.11971 2.97374
internal_count=339 234 133 105 101
shrinkage=0.05


Tree=84
num_leaves=6
num_cat=0
split_feature=13 23 24 10 30
split_gain=2.70525 3.01125 2.70324 0.782517 0.131446
threshold=0.076434727062857852 0.11351012583562717 0.41425080895463251 0.21374253123302547 0.031778446169575848
decision_type=2 2 2 2 2
left_child=1 4 -3 -2 -1
right_child=3 2 -4 -5 -6
leaf_value=-0.035923218417830909 0.08794731886266699 -0.019844545973022307 0.042362619130092712 0.023601238050297877 -0.056042561828190778
leaf_weight=1.3154797600582226 0.92294132383540339 3.7961968407034874 3.2343019349500537 0.96808222029358149 2.1203435445204377
leaf_count=64 55 51 58 49 62
internal_value=0 -0.00997543 0.00877316 0.0550063 -0.0483394
internal_weight=0 10.4663 7.0305 1.89102 3.43582
internal_count=339 235 109 104 126
shrinkage=0.05


Tree=85
num_leaves=5
num_cat=0
split_feature=27 9 39 4
split_gain=2.57441 2.85392 2.61778 0.0595466
threshold=0.58762886597938147 0.27938079191238413 -0.071139724148389885 0.5075381420962356
decision_type=2 2 2 2
left_child=1 2 -1 -2
right_child=3 -3 -4 -5
leaf_value=0.036890532627787402 0.03978829722616857 -0.046391386405294013 -0.028696236228948666 0.056177645815689917
leaf_weight=3.6357306712307027 1.0391167402267467 3.6097773569636047 2.6161226411350063 1.1876257704570887
leaf_count=75 64 78 80 42
internal_value=0 -0.0109933 0.00944539 0.0485295
internal_weight=0 9.86163 6.25185 2.22674
internal_count=339 233 155 106
shrinkage=0.05


Tree=86
num_leaves=4
num_cat=0
split_feature=27 9 26
split_gain=2.4399 2.30492 2.71923
threshold=0.60395189003436434 0.27938079191238413 0.16633386581469653
decision_type=2 2 2
left_child=1 2 -1
right_child=-2 -3 -4
leaf_value=-0.026647561804771805 0.053420548498620171 -0.040084696225564903 0.039721384072726899
leaf_weight=2.8588966093957406 1.8095829579979188 3.8426749156787992 3.353807782754302
leaf_count=89 99 83 68
internal_value=0 -0.0096463 0.00918042
internal_weight=0 10.0554 6.2127
internal_count=339 240 157
shrinkage=0.05


Tree=87
num_leaves=6
num_cat=0
split_feature=7 39 33 8 39
split_gain=2.32565 2.19327 2.02656 0.281496 0.249566
threshold=0.35795228628230619 -0.071139724148389885 0.58144962950452828 0.32272727272727275 -0.068235431702375088
decision_type=2 2 2 2 2
left_child=1 2 -1 -3 -2
right_child=4 3 -4 -5 -6
leaf_value=-0.0242394149203271 0.054137179069718461 -0.02621221634180014 0.035500273106185996 -0.055941885567526745 0.022471157262702716
leaf_weight=2.7285165074281386 1.573588874191046 1.3138860408216708 2.9593596439808607 2.0208688895218074 1.0291434209793813
leaf_count=51 90 53 49 71 25
internal_value=0 -0.0120331 0.0068427 -0.0442285 0.0416162
internal_weight=0 9.02263 5.68788 3.33475 2.60273
internal_count=339 224 100 124 115
shrinkage=0.05


Tree=88
num_leaves=6
num_cat=0
split_feature=39 21 36 11 39
split_gain=2.23054 2.00744 2.48975 0.42927 0.0465656
threshold=-0.10448352235366813 0.30197228144989346 -0.14208455474676934 0.13580710749646394 -0.068428597997640686
decision_type=2 2 2 2 2
left_child=3 4 -3 -1 -2
right_child=1 2 -4 -5 -6
leaf_value=0.05976773389428295 -0.055669284957314907 0.032691742505831622 -0.032010625599439818 0.020208658318633846 -0.042389815481397308
leaf_weight=1.3206180054694425 1.2749962918460371 3.2947674347087732 2.709520041476936 1.4265478767920283 1.3689486845396439
leaf_count=43 27 71 62 62 74
internal_value=0 -0.0124915 0.00349388 0.0392255 -0.0487936
internal_weight=0 8.64823 6.00429 2.74717 2.64394
internal_count=339 234 133 105 101
shrinkage=0.05


Tree=89
num_leaves=7
num_cat=0
split_feature=13 39 7 10 30 7
split_gain=2.42478 2.54773 1.69068 0.765773 0.0317608 0.000557372
threshold=0.076434727062857852 -0.077940298924125156 0.26138170974155078 0.20894441426760815 0.071226369048622298 0.15156560636182903
decision_type=2 2 2 2 2 2
left_child=1 -1 4 -2 5 -3
right_child=3 2 -4 -5 -6 -7
leaf_value=0.01646050241884113 0.091539585151974745 -0.050924827319122318 0.0081363460198456816 0.023539348550861011 -0.061700695412787859 -0.052616140724018629
leaf_weight=4.7012412641197434 0.78612631419673629 1.2478994345292447 1.5329344943165777 0.87466500024311244 1.2497251294553278 0.79902145359665144
leaf_count=76 52 98 18 52 13 30
internal_value=0 -0.00974125 -0.0352467 0.0557269 -0.0554198 -0.051585
internal_weight=0 9.53082 4.82958 1.66079 3.29665 2.04692
internal_count=339 235 159 104 141 128
shrinkage=0.05


Tree=90
num_leaves=5
num_cat=0
split_feature=13 21 24 10
split_gain=2.26244 2.42589 1.00554 0.760218
threshold=0.076434727062857852 0.36633795309168454 0.42646767483325626 0.21374253123302547
decision_type=2 2 2 2
left_child=1 2 -1 -2
right_child=3 -3 -4 -5
leaf_value=-0.056118899964495553 0.090618470840068618 0.015324701452486215 -0.0087168319600495446 0.021780239820484621
leaf_weight=2.5823946977034193 0.77031637309119172 4.8112990455701947 1.9739839290268717 0.83670003246515989
leaf_count=92 55 98 45 49
internal_value=0 -0.00943631 -0.0355827 0.0547775
internal_weight=0 9.36768 4.55638 1.60702
internal_count=339 235 137 104
shrinkage=0.05


Tree=91
num_leaves=5
num_cat=0
split_feature=13 24 36 25
split_gain=2.17959 2.29342 1.40369 0.774999
threshold=0.023165943839909702 0.42217526249752363 -0.19390940131528378 0.27705174103288027
decision_type=2 2 2 2
left_child=-1 2 -2 -3
right_child=1 3 -4 -5
leaf_value=-0.049222653297747741 0.017723097715983724 0.0096466351060452635 -0.034567699160860721 0.057031115145527105
leaf_weight=1.8639407162554569 2.3128414447419345 1.3464059045072647 2.8834110498428327 2.4030271891970187
leaf_count=87 52 46 65 89
internal_value=0 0.010212 -0.0112932 0.0400155
internal_weight=0 8.94569 5.19625 3.74943
internal_count=339 252 117 135
shrinkage=0.05


Tree=92
num_leaves=6
num_cat=0
split_feature=13 23 14 10 18
split_gain=2.09198 2.47526 1.80977 0.749434 0.106018
threshold=0.076434727062857852 0.11351012583562717 0.13765849678757178 0.21374253123302547 0.19070467721055892
decision_type=2 2 2 2 2
left_child=1 4 -3 -2 -1
right_child=3 2 -4 -5 -6
leaf_value=-0.055532923556357396 0.091057393478199911 -0.018829800524127457 0.035007958306441912 0.020942258100401345 -0.035672654431391664
leaf_weight=1.7428266122005864 0.72251863940618999 3.0806186520494521 3.164322494994849 0.80653565120883286 1.0936407269909976
leaf_count=72 55 62 47 49 54
internal_value=0 -0.00914267 0.00844989 0.0540735 -0.0478755
internal_weight=0 9.08141 6.24494 1.52905 2.83647
internal_count=339 235 109 104 126
shrinkage=0.05


Tree=93
num_leaves=6
num_cat=0
split_feature=39 21 36 37 9
split_gain=1.83578 1.75188 2.03966 0.517503 0.0466206
threshold=-0.10448352235366813 0.30197228144989346 -0.14208455474676934 2.2538346878886926 0.280855096882898
decision_type=2 2 2 2 2
left_child=3 4 -3 -1 -2
right_child=1 2 -4 -5 -6
leaf_value=0.011606171817229094 -0.039956995540088594 0.030664933548346287 -0.030301247689250563 0.057579932177235629 -0.054056514809663683
leaf_weight=1.0889737289398911 1.0594094628468158 3.0866256006993353 2.4694795496761799 1.3978507241699842 1.3128016251139341
leaf_count=32 57 71 62 73 44
internal_value=0 -0.0117898 0.00356776 0.0374481 -0.0477598
internal_weight=0 7.92832 5.55611 2.48682 2.37221
internal_count=339 234 133 105 101
shrinkage=0.05


Tree=94
num_leaves=6
num_cat=0
split_feature=13 26 21 10 31
split_gain=1.93106 2.30865 2.33894 0.722299 0.15284
threshold=0.076434727062857852 0.16054313099041531 0.36633795309168454 0.21374253123302547 0.38254158356384477
decision_type=2 2 2 2 2
left_child=1 4 -3 -2 -1
right_child=3 2 -4 -5 -6
leaf_value=-0.05590605524173517 0.091094973174355151 -0.02472483878966019 0.03823075114548713 0.020473479316977947 -0.032520265384624943
leaf_weight=1.6252017880324259 0.6766726532951004 2.7620805972255766 3.1668930021114647 0.77873271075077355 1.2255260143429039
leaf_count=83 55 51 61 49 40
internal_value=0 -0.00887642 0.00890216 0.0533081 -0.0458525
internal_weight=0 8.7797 5.92897 1.45541 2.85073
internal_count=339 235 112 104 123
shrinkage=0.05


Tree=95
num_leaves=6
num_cat=0
split_feature=22 24 29 13 26
split_gain=1.85136 1.60623 1.66109 0.000266328 3.48175e-05
threshold=0.35305543104736298 0.43901472627616717 0.11016004197822381 0.070924807339586574 0.30123801916932919
decision_type=2 2 2 2 2
left_child=1 2 -1 -2 -5
right_child=3 -3 -4 4 -6
leaf_value=0.0026183198240761697 0.052261278331079186 0.017943454090436337 -0.054018181825576495 0.051194952574188483 0.050576368889581794
leaf_weight=2.5218486613593978 0.57853410346433587 3.3561868495307863 2.6602946205530316 0.46027027466334403 0.44976588874123991
leaf_count=59 24 72 84 31 69
internal_value=0 -0.00900407 -0.0264565 0.0514225 0.0508892
internal_weight=0 8.53833 5.18214 1.48857 0.910036
internal_count=339 215 143 124 100
shrinkage=0.05


Tree=96
num_leaves=5
num_cat=0
split_feature=13 24 15 25
split_gain=1.83526 1.87776 1.34902 0.773008
threshold=0.023165943839909702 0.42217526249752363 0.11846216240574402 0.27157008275848687
decision_type=2 2 2 2
left_child=-1 2 -2 -3
right_child=1 3 -4 -5
leaf_value=-0.048408488082485504 0.021131774864844709 0.0064040489119377283 -0.032496801149185808 0.056176671970747077
leaf_weight=1.6354120147880173 1.9954568375833313 1.2216649325564506 2.8438514303416014 2.158181942300871
leaf_count=87 45 43 72 92
internal_value=0 0.00958913 -0.0103834 0.0381861
internal_weight=0 8.21916 4.83931 3.37985
internal_count=339 252 117 135
shrinkage=0.05


Tree=97
num_leaves=6
num_cat=0
split_feature=13 23 21 31 18
split_gain=1.76179 2.19462 1.95554 0.688988 0.101307
threshold=0.076434727062857852 0.11351012583562717 0.36633795309168454 0.47457031803888083 0.19070467721055892
decision_type=2 2 2 2 2
left_child=1 4 -3 -2 -1
right_child=3 2 -4 -5 -6
leaf_value=-0.055377974329716174 0.089196670710336406 -0.023557296987971404 0.034821515732560586 0.018080473115682647 -0.034798967770415724
leaf_weight=1.5621516858227535 0.66278813360259003 2.6271708030253649 3.1597986402921379 0.70056419377215207 0.96900172671303142
leaf_count=72 44 49 60 60 54
internal_value=0 -0.00866651 0.00831868 0.0526533 -0.0474997
internal_weight=0 8.31812 5.78697 1.36335 2.53115
internal_count=339 235 109 104 126
shrinkage=0.05


Tree=98
num_leaves=5
num_cat=0
split_feature=13 24 15 25
split_gain=1.6351 1.78827 1.23082 0.728008
threshold=0.023165943839909702 0.42217526249752363 0.11846216240574402 0.27404410551949632
decision_type=2 2 2 2
left_child=-1 2 -2 -3
right_child=1 3 -4 -5
leaf_value=-0.047547285607106277 0.019820716050075109 0.0067742372760246222 -0.031961419171448215 0.055912221646158881
leaf_weight=1.5203319985885171 1.9570026504807172 1.1973847178742292 2.7744458632078022 2.034575134050101
leaf_count=87 45 44 72 91
internal_value=0 0.00903921 -0.0105435 0.0377075
internal_weight=0 7.96341 4.73145 3.23196
internal_count=339 252 117 135
shrinkage=0.05


Tree=99
num_leaves=5
num_cat=0
split_feature=27 9 26 31
split_gain=1.57841 2.19855 1.91031 0.0315062
threshold=0.58762886597938147 0.27938079191238413 0.16633386581469653 0.47457031803888083
decision_type=2 2 2 2
left_child=1 2 -1 -2
right_child=3 -3 -4 -5
leaf_value=-0.022620406370379046 0.054304096356990676 -0.04479304377431842 0.038961040499139302 0.039719052207254829
leaf_weight=2.3345254098530859 0.76828213315457083 2.7703729653730989 2.734391208505258 0.71473770530428737
leaf_count=89 44 78 66 62
internal_value=0 -0.00897615 0.0105993 0.0472749
internal_weight=0 7.83929 5.06892 1.48302
internal_count=339 233 155 106
shrinkage=0.05


Tree=100
num_leaves=5
num_cat=0
split_feature=13 28 9 26
split_gain=1.51294 1.3798 2.04246 1.60908
threshold=0.023165943839909702 0.32121032919377096 0.28317186183656279 0.16054313099041531
decision_type=2 2 2 2
left_child=-1 2 3 -2
right_child=1 -3 -4 -5
leaf_value=-0.046974728410367858 -0.019376048869202189 0.046812642745344461 -0.043000573580060403 0.04653027945954516
leaf_weight=1.4444858545903114 1.6005171029828491 1.8213649794925002 2.067258894443512 2.1978675494901836
leaf_count=87 39 83 53 77
internal_value=0 0.00879735 -0.00300694 0.0187595
internal_weight=0 7.68701 5.86564 3.79838
internal_count=339 252 169 116
shrinkage=0.05


Tree=101
num_leaves=5
num_cat=0
split_feature=27 9 39 16
split_gain=1.43955 1.92474 1.66939 0.028347
threshold=0.58762886597938147 0.27938079191238413 -0.071139724148389885 0.11771464646464642
decision_type=2 2 2 2
left_child=1 2 -1 -2
right_child=3 -3 -4 -5
leaf_value=0.033593963387833596 0.053483615228865716 -0.043185776965076264 -0.026062220072516587 0.039186304526448307
leaf_weight=2.9482938859146084 0.73203482036478795 2.6272423330228776 1.947211138205603 0.6585958075011149
leaf_count=75 63 78 80 43
internal_value=0 -0.00866216 0.00986542 0.0467125
internal_weight=0 7.52275 4.89551 1.39063
internal_count=339 233 155 106
shrinkage=0.05


Tree=102
num_leaves=5
num_cat=0
split_feature=13 26 36 17
split_gain=1.39807 1.93024 1.19101 0.0236838
threshold=0.067516128188749261 0.16633386581469653 -0.18629882908995093 0.14770789922333774
decision_type=2 2 2 2
left_child=1 3 -2 -1
right_child=2 -3 -4 -5
leaf_value=-0.043990314924235122 0.074040854288928273 0.0069208722286374959 -0.0061255186662659538 -0.054995561717830002
leaf_weight=0.79040699731558595 1.0379665091168133 4.8148056771606207 0.83684237708803255 1.2814439898356793
leaf_count=62 97 99 22 59
internal_value=0 -0.0104436 0.0382577 -0.0507971
internal_weight=0 6.88666 1.87481 2.07185
internal_count=339 220 119 121
shrinkage=0.05


Tree=103
num_leaves=6
num_cat=0
split_feature=13 24 29 30 27
split_gain=1.37133 1.50631 1.08102 0.65015 0.0307848
threshold=0.023165943839909702 0.42217526249752363 0.097009051554506107 0.056140201136760125 0.5049828178694159
decision_type=2 2 2 2 2
left_child=-1 2 -2 -3 -5
right_child=1 3 -4 4 -6
leaf_value=-0.046349311121599707 0.017405951058201249 0.0098567471581850908 -0.032404203762873333 0.064913506477994473 0.051087249142502747
leaf_weight=1.3477985609788445 1.9903848378453401 1.2664781366474929 2.4059928944334388 0.77398880012333371 0.83900461194571108
leaf_count=87 42 29 75 8 98
internal_value=0 0.00855823 -0.00985351 0.0366693 0.0577217
internal_weight=0 7.27585 4.39638 2.87947 1.61299
internal_count=339 252 117 135 106
shrinkage=0.05


Tree=104
num_leaves=6
num_cat=0
split_feature=31 36 19 26 19
split_gain=1.31671 2.07505 0.898038 1.17702 0.454398
threshold=0.34060942798391242 -0.14443702447218465 0.06621823307491391 0.25507188498402561 0.057201193980349056
decision_type=2 2 2 2 2
left_child=4 2 -2 -4 -1
right_child=1 -3 3 -5 -6
leaf_value=-0.053207475758504277 0.069556318299426767 -0.02525780215645497 -0.017412019953183637 0.051199608872747687 -0.010064472721012664
leaf_weight=1.185109004378319 1.266826151753776 2.2698203606996685 1.2148582986555996 1.2875297046266494 1.2583560706116257
leaf_count=57 46 79 27 85 45
internal_value=0 0.0125108 0.035255 0.0178901 -0.0309893
internal_weight=0 6.03903 3.76921 2.50239 2.44347
internal_count=339 237 158 112 102
shrinkage=0.05


Tree=105
num_leaves=5
num_cat=0
split_feature=13 28 9 26
split_gain=1.25516 1.17465 1.72952 1.35815
threshold=0.023165943839909702 0.32121032919377096 0.28317186183656279 0.16054313099041531
decision_type=2 2 2 2
left_child=-1 2 3 -2
right_child=1 -3 -4 -5
leaf_value=-0.045820228289016302 -0.017935641174518815 0.045456062462276049 -0.041603314524911311 0.044653096105822923
leaf_weight=1.2675688362214712 1.5234104632399978 1.6288657850818706 1.887735000811517 2.0108267260948196
leaf_count=87 39 83 53 77
internal_value=0 0.00822201 -0.00296382 0.0176746
internal_weight=0 7.05084 5.42197 3.53424
internal_count=339 252 169 116
shrinkage=0.05


Tree=106
num_leaves=5
num_cat=0
split_feature=21 39 23 1
split_gain=1.22329 1.0597 0.856131 0.490216
threshold=0.30197228144989346 -0.077940298924125156 0.15339903657097911 0.35322962461954671
decision_type=2 2 2 2
left_child=2 3 -1 -2
right_child=1 -3 -4 -5
leaf_value=-0.055113799007148946 0.012154119031001632 -0.0068253906920298438 0.0021228922513352312 0.056563497293667386
leaf_weight=1.3854026298504325 1.1021780050359669 2.9797519184648991 1.2363807680085299 1.4246070382650939
leaf_count=91 43 94 23 88
internal_value=0 0.013373 -0.0281221 0.0371922
internal_weight=0 5.50654 2.62178 2.52679
internal_count=339 225 114 131
shrinkage=0.05


Tree=107
num_leaves=7
num_cat=0
split_feature=13 21 4 39 8 28
split_gain=1.19218 1.52276 1.28167 0.614228 0.26342 0.0234212
threshold=0.067516128188749261 0.36633795309168454 0.32472691161866946 -0.094078685726767211 0.31792929292929289 0.22728168736447862
decision_type=2 2 2 2 2 2
left_child=1 3 -2 -1 -4 -5
right_child=2 -3 4 5 -6 -7
leaf_value=-0.0044594736799143837 -0.016044196536848611 0.0151468559823261 0.10237066183617381 -0.055151804147498068 0.050906188102096087 -0.044540682549960901
leaf_weight=1.1355916606262324 0.6793926719110458 3.0718492693267763 0.42990825162269153 1.1040210137143738 0.58970218768808991 0.98309563123621035
leaf_count=12 18 86 12 57 89 65
internal_value=0 -0.0100423 0.0371566 -0.0340523 0.0726057 -0.0501536
internal_weight=0 6.29456 1.699 3.22271 1.01961 2.08712
internal_count=339 220 119 134 101 122
shrinkage=0.05


Tree=108
num_leaves=8
num_cat=0
split_feature=24 13 30 25 8 27 39
split_gain=1.24237 2.14999 1.51092 1.10844 0.199765 0.00384192 8.40902e-05
threshold=0.23826190318959253 0.067516128188749261 0.062447387456333249 0.28825760883274637 0.28939393939393948 0.38745704467353953 -0.067509175625374188
decision_type=2 2 2 2 2 2 2
left_child=-1 2 3 5 -3 6 -2
right_child=1 4 -4 -5 -6 -7 -8
leaf_value=-0.0490912831227516 -0.051436876436315962 0.092704194261267692 0.0254156672585647 0.0061826405751146223 0.051454138641221704 -0.055615244014993376 -0.050504104960540953
leaf_weight=1.1079118426423518 0.52451851055957333 0.49447767564561196 2.3344466672278941 1.3881100150756536 0.72212383768055588 0.8456584676168859 0.44798801909200914
leaf_count=39 31 15 53 21 97 14 69
internal_value=0 0.00803185 -0.00518391 -0.0274631 0.0682199 -0.0531505 -0.0510072
internal_weight=0 6.75732 5.54072 3.20628 1.2166 1.81816 0.972507
internal_count=339 300 188 135 112 114 100
shrinkage=0.05


Tree=109
num_leaves=5
num_cat=0
split_feature=32 24 10 21
split_gain=1.10937 1.4371 1.32044 0.468013
threshold=1.7529977590175003 0.43901472627616717 0.096722795582111165 0.30477078891258008
decision_type=2 2 2 2
left_child=1 2 -1 -3
right_child=-2 3 -4 -5
leaf_value=-0.034444175770093351 -0.044353873929265819 0.0099261042310014366 0.023307705966970294 0.055405742975257737
leaf_weight=2.3454657377442345 1.1920425125863401 0.89815690903924439 1.7123338511446489 1.5280675176763905
leaf_count=81 84 20 56 98
internal_value=0 0.00812795 -0.0100737 0.0385698
internal_weight=0 6.48402 4.0578 2.42622
internal_count=339 255 137 118
shrinkage=0.05


Tree=110
num_leaves=6
num_cat=0
split_feature=7 33 39 21 37
split_gain=1.10575 1.24316 1.37242 0.192774 0.0727674
threshold=0.35795228628230619 0.6860981074120206 -0.089549071157734042 0.31383262260127937 2.3057401565066322
decision_type=2 2 2 2 2
left_child=1 2 -1 -2 -4
right_child=3 -3 4 -5 -6
leaf_value=0.010737984830943407 0.016160816546802976 0.023128845141526404 -0.055857508671657556 0.053299757864916655 -0.038484884567004496
leaf_weight=1.6096034086076536 0.57141486927866914 1.9731604917906223 1.4372892042156316 0.89931397745385766 1.0381241805152965
leaf_count=35 17 55 83 98 51
internal_value=0 -0.00946071 -0.0252022 0.0388704 -0.0485719
internal_weight=0 6.05818 4.08502 1.47073 2.47541
internal_count=339 224 169 115 134
shrinkage=0.05


Tree=111
num_leaves=8
num_cat=0
split_feature=24 13 30 25 24 27 30
split_gain=1.15656 1.93062 1.35303 1.00253 0.183041 0.00286369 6.90984e-05
threshold=0.23826190318959253 0.067516128188749261 0.062447387456333249 0.28825760883274637 0.34623258271148377 0.40618556701030933 0.037480472133094668
decision_type=2 2 2 2 2 2 2
left_child=-1 2 3 5 -3 6 -2
right_child=1 4 -4 -5 -6 -7 -8
leaf_value=-0.048303193023181992 -0.050558730673703034 0.092599948943395224 0.024800184409487815 0.0053812425770409867 0.051258102507235503 -0.055197013843648106 -0.051426570864639268
leaf_weight=1.0623314869590101 0.45404103305190824 0.44486652640625812 2.2258625901304185 1.3415593139361588 0.67243342555593699 0.72782011236995459 0.46352009777911007
leaf_count=39 72 17 53 21 95 12 30
internal_value=0 0.0080752 -0.00470868 -0.0266986 0.0677189 -0.0528549 -0.0509971
internal_weight=0 6.3301 5.2128 2.98694 1.1173 1.64538 0.917561
internal_count=339 300 188 135 112 114 102
shrinkage=0.05


Tree=112
num_leaves=8
num_cat=0
split_feature=36 1 39 30 14 30 7
split_gain=1.00643 1.63675 0.591059 0.557947 0.0110938 0.00759783 0.000697884
threshold=-0.14443702447218465 0.23165370307744323 -0.083442965504779143 0.084221849334989191 0.16335792228983242 0.06123576135998085 0.26138170974155078
decision_type=2 2 2 2 2 2 2
left_child=1 -1 5 4 -2 -3 -7
right_child=3 2 -4 -5 -6 6 -8
leaf_value=-0.033466677639784385 -0.053616903399372633 0.059145318940519123 0.013526259249362196 0.00092967089338909985 -0.044316817858869512 0.053375992250940363 0.050509203215557845
leaf_weight=1.3902822866803033 0.68631175975315295 0.61022671964019515 2.1076149130240087 0.97044054989237327 0.60186437331140041 0.39601709553971887 0.45758792606648058
leaf_count=45 51 8 58 21 52 10 94
internal_value=0 0.0125606 0.030478 -0.0277021 -0.0492717 0.0548849 0.0518392
internal_weight=0 4.96173 3.57145 2.25862 1.28818 1.46383 0.853605
internal_count=339 215 170 124 103 112 104
shrinkage=0.05


end of trees

feature_importances:
Column_39=65
Column_27=52
Column_30=46
Column_22=38
Column_13=36
Column_26=27
Column_21=26
Column_7=23
Column_23=19
Column_24=19
Column_33=19
Column_25=14
Column_1=12
Column_11=11
Column_15=11
Column_17=10
Column_36=10
Column_9=9
Column_31=9
Column_10=8
Column_35=8
Column_19=7
Column_20=7
Column_29=7
Column_4=6
Column_5=5
Column_6=5
Column_28=5
Column_32=5
Column_38=5
Column_0=4
Column_12=4
Column_14=4
Column_3=3
Column_8=3
Column_16=3
Column_34=3
Column_37=3
Column_18=2
Column_2=1

parameters:
[boosting: gbdt]
[objective: binary]
[metric: binary_logloss]
[tree_learner: serial]
[device_type: cpu]
[data: ]
[valid: ]
[num_iterations: 10000]
[learning_rate: 0.05]
[num_leaves: 15]
[num_threads: 0]
[force_col_wise: 0]
[force_row_wise: 0]
[histogram_pool_size: -1]
[max_depth: -1]
[min_data_in_leaf: 50]
[min_sum_hessian_in_leaf: 0.001]
[bagging_fraction: 0.5]
[pos_bagging_fraction: 1]
[neg_bagging_fraction: 1]
[bagging_freq: 0]
[bagging_seed: 10961]
[feature_fraction: 0.8]
[feature_fraction_bynode: 1]
[feature_fraction_seed: 53]
[extra_trees: 0]
[extra_seed: 11644]
[early_stopping_round: 50]
[first_metric_only: 0]
[max_delta_step: 0]
[lambda_l1: 0]
[lambda_l2: 0]
[min_gain_to_split: 0]
[drop_rate: 0.1]
[max_drop: 50]
[skip_drop: 0.5]
[xgboost_dart_mode: 0]
[uniform_drop: 0]
[drop_seed: 30626]
[top_rate: 0.2]
[other_rate: 0.1]
[min_data_per_group: 100]
[max_cat_threshold: 32]
[cat_l2: 10]
[cat_smooth: 10]
[max_cat_to_onehot: 4]
[top_k: 20]
[monotone_constraints: ]
[monotone_constraints_method: basic]
[monotone_penalty: 0]
[feature_contri: ]
[forcedsplits_filename: ]
[refit_decay_rate: 0.9]
[cegb_tradeoff: 1]
[cegb_penalty_split: 0]
[cegb_penalty_feature_lazy: ]
[cegb_penalty_feature_coupled: ]
[path_smooth: 0]
[interaction_constraints: ]
[verbosity: -1]
[saved_feature_importance_type: 0]
[max_bin: 255]
[max_bin_by_feature: ]
[min_data_in_bin: 3]
[bin_construct_sample_cnt: 200000]
[data_random_seed: 4071]
[is_enable_sparse: 1]
[enable_bundle: 1]
[use_missing: 1]
[zero_as_missing: 0]
[feature_pre_filter: 1]
[pre_partition: 0]
[two_round: 0]
[header: 0]
[label_column: ]
[weight_column: ]
[group_column: ]
[ignore_column: ]
[categorical_feature: ]
[forcedbins_filename: ]
[objective_seed: 602]
[num_class: 1]
[is_unbalance: 0]
[scale_pos_weight: 1]
[sigmoid: 1]
[boost_from_average: 1]
[reg_sqrt: 0]
[alpha: 0.9]
[fair_c: 1]
[poisson_max_delta_step: 0.7]
[tweedie_variance_power: 1.5]
[lambdarank_truncation_level: 20]
[lambdarank_norm: 1]
[label_gain: ]
[eval_at: ]
[multi_error_top_k: 1]
[auc_mu_weights: ]
[num_machines: 1]
[local_listen_port: 12400]
[time_out: 120]
[machine_list_filename: ]
[machines: ]
[gpu_platform_id: -1]
[gpu_device_id: -1]
[gpu_use_dp: 0]

end of parameters

pandas_categorical:null
