tree
version=v3
num_class=1
num_tree_per_iteration=1
label_index=0
max_feature_idx=29
objective=binary sigmoid:1
feature_names=Column_0 Column_1 Column_2 Column_3 Column_4 Column_5 Column_6 Column_7 Column_8 Column_9 Column_10 Column_11 Column_12 Column_13 Column_14 Column_15 Column_16 Column_17 Column_18 Column_19 Column_20 Column_21 Column_22 Column_23 Column_24 Column_25 Column_26 Column_27 Column_28 Column_29
feature_infos=[0:0.96734346159307139] [0.022658099425092899:0.81501521812647959] [0:0.98894340404947845] [0:1] [0:1] [0:1] [0:1] [0:1] [0:1] [0:1] [0:0.8819482165489767] [0.00041990806223470001:0.78142680339462534] [0.0040946143335061002:0.84309475568958203] [0.0007956697634283:1.0000000000000002] [0.037835265322772503:1] [0:1] [0:0.76717171717171717] [0:0.7747679484750899] [0:1] [0.0025392811243314002:0.7588546632947778] [0:1] [0.0125266524520256:1] [0:1] [0:1] [0.066565409760285105:1] [0.0068205411803513999:1] [0:1] [0:0.99759450171821296] [0:1] [0:1]
tree_sizes=908 1500 1924 2567 3005 3018 3342 3230 3221 3229 3335 3230 3335 3214 3108 3111 3016 3328 3227 3334 3442 3434 3237 3232 3225 3543 3350 3433 3322 3222 3216 3341 3443 3331 3124 3338 3347 3347 3341 3354 3459 3341 3461 3243 3454 3358 3462 3465 3471 3346 3469 3697 3587 3356 3459 3793 3473 3592 3895 3780 3587 3690 3472 3570 3483 3687 3584 3367 4009 3808 3893

Tree=0
num_leaves=8
num_cat=0
split_feature=22 27 21 7 12 19 4
split_gain=240.585 22.9004 17.6562 3.95857 1.39401 0.372222 0.371831
threshold=0.27212510583196381 0.46666666666666662 0.21815031982942432 0.24018389662027831 0.12081232624982331 0.018611030499011853 0.28857091270199514
decision_type=2 2 2 2 2 2 2
left_child=1 4 -2 -4 5 -1 -5
right_child=2 -3 3 6 -6 -7 -8
leaf_value=-0.080000000000000016 -0.020000000000000004 0.033333333333333333 0.042857142857142858 0.080000000000000016 -0.059999999999999998 -0.10000000000000001 0.10000000000000001
leaf_weight=2.4999999999999991 3.7499999999999991 3.7499999999999991 3.4999999999999991 2.4999999999999991 2.4999999999999991 33.5 33
leaf_count=10 15 15 14 10 10 134 132
internal_value=0 -0.0846154 0.0836257 0.0935897 -0.0961039 -0.0986111 0.0985915
internal_weight=0 42.25 42.75 39 38.5 36 35.5
internal_count=340 169 171 156 154 144 142
shrinkage=0.05


Tree=1
num_leaves=13
num_cat=0
split_feature=22 27 21 20 12 20 29 7 1 19 4 0
split_gain=217.605 20.7342 16.1749 4.92445 1.26923 0.372002 0.354276 0.00469691 0.00112239 0.000625116 0.000273505 1.42109e-14
threshold=0.27212510583196381 0.46666666666666662 0.18390191897654587 0.30327285663464959 0.12081232624982331 0.26556385627890428 0.06545979273252002 0.25206262425447318 0.25735542779844428 0.020545720879454953 0.33623724835244201 0.29267830943253353
decision_type=2 2 2 2 2 2 2 2 2 2 2 2
left_child=1 4 -2 -4 5 9 -5 -8 -9 -1 -10 -11
right_child=2 -3 3 6 -6 -7 7 8 10 11 -12 -13
leaf_value=-0.096064496839170621 -0.032336600272770188 0.031675619485647503 0.037167764121653096 0.076012498896200098 -0.057052211634729393 -0.075285103848222623 0.097636842485792963 0.096397726576386886 0.09579043659657499 -0.095241872246060316 0.095241872246060344 -0.095241872246060344
leaf_weight=2.4957798719406119 2.9996999502181998 3.7489586323499671 4.2417436838150016 2.4954519867897025 2.4977514147758475 2.4939848184585562 2.4983432590961447 2.4949583411216762 2.4951067268848446 25.436356455087665 25.436356455087662 5.4862729609012595
leaf_count=10 12 15 17 10 10 10 10 10 10 102 102 22
internal_value=0 -0.0805614 0.0796123 0.0880792 -0.0915161 -0.0939131 0.0941761 0.0955528 0.0953816 -0.0953033 0.0952909 -0.0952419
internal_weight=0 42.1591 42.6617 39.662 38.4101 35.9124 35.4202 32.9248 30.4264 33.4184 27.9315 30.9226
internal_count=340 169 171 159 154 144 142 132 122 134 112 124
shrinkage=0.05


Tree=2
num_leaves=17
num_cat=0
split_feature=22 27 22 1 19 13 27 1 7 12 19 23 9 0 1 0
split_gain=197.605 18.8834 11.7154 12.0332 1.37331 1.26794 0.363364 0.0274266 0.00159721 0.000738176 0.000391557 0.000398379 7.67529e-05 5.50854e-05 3.93684e-07 1.42109e-14
threshold=0.27212510583196381 0.46666666666666662 0.32342248119926298 0.37521136286777135 0.031445628290701001 0.052489923384099253 0.36975945017182138 0.23554277984443683 0.29284294234592445 0.10561654808462516 0.020545720879454953 0.12903067243413294 0.11731255265374881 0.39419754839320376 0.28525532634426781 0.27564011548109246
decision_type=2 2 2 2 2 2 2 2 2 2 2 2 2 2 2 2
left_child=1 5 3 -2 -4 6 9 -6 -9 10 -1 15 -10 -14 -15 -12
right_child=2 -3 4 -5 7 -7 -8 8 12 -11 11 -13 13 14 -16 -17
leaf_value=-0.091845306443559482 -0.029423606813009692 0.030115825431497979 0.05314922305101652 0.093044967508611937 0.096793197910383766 -0.052998624712577637 -0.071464298446575758 0.092293106286058413 0.091448920935363845 -0.092139611066582722 -0.091131780775723564 -0.091795306526308851 0.091378790159302614 0.091110522548297018 0.091131780775723592 -0.091131780775723592
leaf_weight=2.4802656769752529 4.734821602702139 3.7460408359765998 2.4840054363012305 3.4798365980386734 2.4890052974224117 2.4858610332012168 2.4787053167819968 3.723312288522723 2.4780734777450588 2.4808650314807883 18.077179282903678 2.4799811244010916 2.4775210767984417 2.4762009382247951 18.077179282903671 7.6766103804111472
leaf_count=10 19 15 10 14 10 10 10 15 10 10 73 10 10 10 73 31
internal_value=0 -0.0770089 0.0760743 0.0224557 0.0889512 -0.0875251 -0.0899311 0.0917547 0.0913257 -0.09131 -0.091243 -0.0911901 0.0911845 0.0911561 0.0911292 -0.0911318
internal_weight=0 41.9055 42.42 8.21466 34.2053 38.1595 35.6736 31.7213 29.2323 33.1949 30.714 28.2338 25.509 23.0309 20.5534 25.7538
internal_count=340 169 171 33 138 154 144 128 118 134 124 114 103 93 83 104
shrinkage=0.05


Tree=3
num_leaves=23
num_cat=0
split_feature=7 20 23 21 13 14 12 27 21 13 9 10 29 23 1 20 16 7 5 1 1 0
split_gain=177.846 16.4084 15.8623 23.7273 2.10591 0.353958 0.297319 0.057464 0.0281626 0.00187108 0.00131386 0.000600248 0.000205584 7.61093e-05 5.48917e-06 1.91745e-06 2.15631e-07 7.08837e-08 2.17743e-08 7.58831e-10 4.03872e-11 7.10543e-15
threshold=0.24018389662027831 0.31661330487371048 0.15343590247738892 0.38192963752665249 0.049772318910418008 0.069245674269979865 0.066248880931065304 0.39553264604810995 0.27785181236673778 0.062024886159455152 0.10214827295703431 0.10137606373347811 0.06545979273252002 0.12272660243806521 0.57507609063239762 0.40199217360369982 0.070454545454545423 0.15228628230616303 0.33424329795718055 0.5064254311802503 0.35593506932702063 0.21789956931231955
decision_type=2 2 2 2 2 2 2 2 2 2 2 2 2 2 2 2 2 2 2 2 2 2
left_child=1 4 3 -2 5 -1 -4 11 -8 -10 -11 12 -7 17 15 -12 -17 21 -18 20 -20 -14
right_child=2 -3 6 -5 -6 7 8 -9 9 10 14 -13 13 -15 -16 16 18 -19 19 -21 -22 -23
leaf_value=-0.069485876113998743 -0.083106336811307274 0.026800506507185774 0.070260593365103166 0.092612266396338114 -0.044544046122444413 -0.088021286943468335 0.092922277458305391 -0.095292233456468783 0.089131202562182044 0.088565245594357397 0.087501991122313327 -0.088443959680365503 -0.087549100739152008 -0.087842158111102214 0.087618567438658701 0.087531906726171005 0.087544414893287653 -0.087540423673430734 0.087549338407135149 0.087548173097505885 0.087549100739152078 -0.087549100739152091
leaf_weight=2.6987250447273246 3.7230574637651435 3.7185121625661841 2.4636563807725897 3.9692840278148651 3.211222603917121 2.9443658292293646 2.9733725339174297 2.7220292538404456 2.4600219130516079 3.6870293915271786 2.9387947171926561 2.456319034099578 9.7977453470230191 2.4520386755466452 2.450054168701171 2.44927650690079 3.4291499108076087 2.6942911595106116 2.4494385719299299 2.4494277387857428 6.6134781092405319 8.8179708123207075
leaf_count=11 15 15 10 16 13 12 12 11 10 15 12 10 40 10 10 10 14 11 10 10 27 36
internal_value=0 -0.0734163 0.0724676 0.00756528 -0.0832764 -0.0868729 0.086996 -0.0883445 0.0882885 0.0878122 0.0876896 -0.087696 -0.0876272 -0.0875784 0.0875479 0.0875393 0.0875457 -0.087548 0.0875479 0.087549 0.0875492 -0.0875491
internal_weight=0 41.5132 42.056 7.69234 37.7947 34.5835 34.3637 31.8848 31.9 28.9267 26.4666 29.1627 26.7064 23.762 22.7796 20.3296 17.3908 21.31 14.9415 11.5123 9.06292 18.6157
internal_count=340 169 171 31 154 141 140 130 130 118 108 119 109 97 93 83 71 87 61 47 37 76
shrinkage=0.05


Tree=4
num_leaves=27
num_cat=0
split_feature=22 27 21 20 6 28 27 22 13 5 13 11 14 29 8 1 22 18 13 18 17 5 8 21 8 8
split_gain=164.387 16.1513 13.7056 4.16707 1.12156 1.12099 0.361462 0.0159265 0.0116661 0.00146585 0.0005616 0.000557241 0.000472228 7.60461e-05 4.07726e-05 1.96167e-05 1.46198e-05 1.14783e-05 1.08928e-06 1.68173e-07 1.23937e-07 2.04434e-08 3.25541e-09 1.52794e-09 3.84247e-10 6.6791e-13
threshold=0.27212510583196381 0.46666666666666662 0.18390191897654587 0.29704731412308788 0.15205014058106844 0.087226493199290364 0.36975945017182138 0.31669903879675282 0.049772318910418008 0.23762345868351634 0.037678512060186957 0.10340788543140027 0.082877247849882721 0.080775285320739812 0.31767676767676772 0.27815353398714909 0.23165994322426411 0.09544380030393422 0.072185551683046967 0.26654753194123942 0.21310854328471299 0.33424329795718055 0.23762626262626263 0.52452025586353968 0.46818181818181825 0.28308080808080816
decision_type=2 2 2 2 2 2 2 2 2 2 2 2 2 2 2 2 2 2 2 2 2 2 2 2 2 2
left_child=1 5 -2 -4 -5 -1 8 -6 10 -9 12 -11 -7 -14 -13 -16 19 -17 -19 20 22 -20 -15 24 -23 -24
right_child=2 -3 3 4 7 6 -8 9 -10 11 -12 14 13 16 15 17 -18 18 21 -21 -22 23 25 -25 -26 -27
leaf_value=-0.051153577697386578 -0.033058108880147291 0.028146942678060796 0.018220002702798856 0.050048936234945773 0.088496323413692748 -0.0851490168604222 -0.064869107676546259 0.085623745774971477 -0.08803107116683842 0.085023590174075889 -0.085225150564783525 0.084586622496884312 -0.084712257345542677 -0.084399486931634127 0.084259040495385698 0.084506841785808556 -0.08453188800592297 0.084363042191530166 0.084395791402395129 -0.084388840759809305 -0.084413435058489417 0.084400811825849936 -0.084401532083829292 0.084399863774658301 0.0844015910757758 -0.084401502427522396
leaf_weight=2.910435438156127 2.9896010905504218 3.7322844564914694 2.7044615596532813 2.466995730996131 2.9441980868577948 2.6662440896034338 2.4269626289606085 3.4001134932041195 2.6975719183683387 4.6008116900920895 3.151261404156684 3.1420092731714275 2.4185049235820797 2.4145842194557288 2.4127313047647503 2.6575251817703274 2.4162414371967307 2.4141096472740164 2.4145361632108679 2.4144457131624213 2.4147641956806174 2.4146014004945737 2.4146107733249655 2.4145891517400742 4.5877619236707687 8.9340584278106672
leaf_count=12 12 15 11 10 12 11 10 14 11 19 13 13 10 10 10 11 10 10 10 10 10 10 10 10 19 37
internal_value=0 -0.0710202 0.0700764 0.0780695 0.0825819 -0.0809484 -0.0834715 0.0849847 -0.0848849 0.0846452 -0.0845947 0.0845223 -0.0845185 -0.0844468 0.0844196 0.0843924 -0.0844162 0.0844114 0.0843937 -0.0844012 -0.084403 0.0843999 -0.0844012 0.0844009 0.0844013 -0.0844015
internal_weight=0 41.012 41.564 38.5744 35.87 37.2797 34.3692 33.403 31.9423 30.4588 29.2447 27.0587 26.0935 23.4272 22.4579 19.3159 21.0087 16.9031 14.2456 18.5925 16.178 11.8315 13.7633 9.41695 7.00236 11.3487
internal_count=340 169 171 159 148 154 142 138 132 126 121 112 108 97 93 80 87 70 59 77 67 49 57 39 29 47
shrinkage=0.05


Tree=5
num_leaves=27
num_cat=0
split_feature=7 20 23 21 13 19 12 27 1 23 13 9 13 28 14 23 28 16 13 16 16 1 19 26 9 4
split_gain=149.755 14.1226 13.5126 21.0026 3.10095 1.08397 0.283278 0.105687 0.0371717 0.00352239 0.00234273 0.000804285 0.000627294 0.000221549 4.11751e-05 5.40756e-06 3.27286e-06 6.54069e-07 1.21281e-07 5.15178e-08 7.13511e-08 5.73686e-09 4.1182e-09 2.28152e-10 1.58984e-11 2.359e-12
threshold=0.24018389662027831 0.33635716826752043 0.15343590247738892 0.38192963752665249 0.049772318910418008 0.020545720879454953 0.066248880931065304 0.38470790378006864 0.23300642543118014 0.12903067243413294 0.062024886159455152 0.10214827295703431 0.037678512060186957 0.12950916617386163 0.089625046741679912 0.22679905623279592 0.18490045338064262 0.068611111111111109 0.025827515231659402 0.10055555555555556 0.083080808080808075 0.45992560027054435 0.043330154913422556 0.19528753993610223 0.33350884582982304 0.35609822154012821
decision_type=2 2 2 2 2 2 2 2 2 2 2 2 2 2 2 2 2 2 2 2 2 2 2 2 2 2
left_child=1 4 3 -2 5 -1 -4 9 -8 12 -10 -12 13 -7 -15 -13 -17 -18 22 20 -19 -21 -16 24 25 -24
right_child=2 -3 6 -5 -6 7 8 -9 10 -11 11 15 -14 14 18 16 17 19 -20 21 -22 -23 23 -25 -26 -27
leaf_value=-0.050831050790288268 -0.078530006811968298 0.048019282356698417 0.064568578023937867 0.087801443266280643 -0.030224869975812797 -0.082148451145575924 0.088297574911376298 -0.091552114569022111 0.083284353809069539 -0.083780347564065161 0.08241520937540224 0.081540111157983333 -0.082475819425412933 -0.081835374377221951 -0.081614905802032123 0.081671768458317737 0.081587261198752856 0.081615628099477117 -0.081607174006487926 0.081617750156680602 0.081605774605369635 0.081614885924972194 -0.081617136015800756 -0.081616601153977328 -0.081617264252723448 -0.081617073209002952
leaf_weight=2.8719148039817801 3.681929573416709 2.453034132719039 2.4085897356271735 3.9167770147323608 3.4032361954450598 2.3816997110843792 2.4369863271713283 3.1825374960899344 2.6348305791616466 2.3965482413768759 3.5787737816572216 2.6090481579303768 2.8634846508502951 2.3767631947994259 2.8477650880813625 2.374070197343829 2.8472028225660351 3.5597247779369336 4.5087125897407523 4.0344157516956329 3.7967729121446609 3.0850784480571747 4.0343980193138105 2.3731663078069678 2.3731774985790253 2.3731742352247238
leaf_count=12 15 10 10 16 14 10 10 13 11 10 15 11 12 10 12 10 12 15 19 17 16 13 17 10 10 10
internal_value=0 -0.0682559 0.067381 0.00720606 -0.0757645 -0.0802459 0.0810854 -0.0829098 0.0823704 -0.0819457 0.081864 0.0817194 -0.0817775 -0.0816916 -0.0816395 0.0816078 0.0816167 0.0816092 -0.0816143 0.0816135 0.0816105 0.0816165 -0.0816166 -0.081617 -0.0816172 -0.0816171
internal_weight=0 40.4396 40.9642 7.59871 37.9866 34.5833 33.3655 31.7114 30.9569 28.5289 28.5199 25.8851 26.1323 23.2689 20.8872 22.3063 19.6973 17.3232 18.5104 14.476 7.3565 7.11949 14.0017 11.1539 8.78075 6.40757
internal_count=340 169 171 31 159 145 140 133 130 120 120 109 110 98 88 94 83 73 78 61 31 30 59 47 37 27
shrinkage=0.05


Tree=6
num_leaves=30
num_cat=0
split_feature=22 26 1 26 13 23 8 7 25 21 23 19 29 17 28 14 12 22 28 22 12 9 11 15 28 21 16 10 19
split_gain=139.215 15.0047 7.93128 7.26717 2.10014 1.93884 0.321773 0.0843495 0.0246695 0.00897878 0.00480465 0.00182326 0.00106223 0.000604005 0.000204785 0.000100601 4.88024e-05 3.26228e-05 3.27534e-06 1.94546e-06 1.12791e-06 3.17682e-07 5.4983e-08 2.76107e-08 1.2581e-08 2.65104e-09 1.86674e-10 4.56453e-11 2.39098e-12
threshold=0.25892723741222173 0.16054313099041531 0.19563747040919843 0.31928913738019177 0.048903806140478658 0.14773397561934717 0.24166666666666667 0.25206262425447318 0.25037110341415147 0.29291044776119407 0.17840640975226107 0.020545720879454953 0.1036993309720582 0.25715097556355376 0.13236743544253893 0.10592514532413226 0.085119917071102072 0.20319737038697147 0.20057165385373552 0.39090592160964194 0.080502285256561265 0.14237573715248517 0.1240938826025459 0.14527443145972904 0.19258821210329205 0.55636993603411533 0.11287878787878781 0.054191562556581557 0.05794397689426916
decision_type=2 2 2 2 2 2 2 2 2 2 2 2 2 2 2 2 2 2 2 2 2 2 2 2 2 2 2 2 2
left_child=3 -2 -3 4 8 -4 -7 -8 11 -9 -11 -1 -12 14 -13 -16 -14 20 -18 -20 24 -21 -23 -24 -17 26 -25 28 -26
right_child=1 2 5 -5 -6 6 7 9 -10 10 12 13 16 -15 15 17 18 -19 19 21 -22 22 23 25 27 -27 -28 -29 -30
leaf_value=-0.080797387722713609 -0.047627117195381784 -0.012824170879061476 0.032948963293927366 0.0092914854122971707 -0.035422587832541604 0.061335673717307762 0.089451917455836472 0.082698966080959654 -0.084534623900647254 0.081534536132518445 0.080191005740370858 -0.079708206059586728 0.07937559143703965 -0.080011061692625063 -0.079443232485735149 -0.079135105664400213 0.079189217866477771 -0.079307379443720002 0.079083484137041693 0.079115687843686902 -0.079100388451034009 0.079128865902177548 0.079132593423051886 0.079139723274256141 -0.079139166907347847 0.079137372176039375 0.079139136837979587 -0.079139390453776465 -0.079139110086935485
leaf_weight=2.3586057126522091 2.9062263220548621 2.6886669993400565 2.4285552352666846 2.6772185266017905 2.8971850872039786 2.3555846959352484 2.4228058755397788 2.3731899708509472 2.6120544373989096 2.6057004779577282 2.8163736909627941 2.3377384245395723 2.3309478014707592 3.0461341589689246 3.9651991128921535 2.3262062370777157 2.3273153007030514 3.2616296857595435 2.3251119107008007 2.3257964700460425 2.3254725933074942 2.3260748088359824 2.3261532634496671 2.3263034224510193 3.4894377142190915 2.3262539654970169 3.2568076103925705 2.3262965232133865 3.9546940475702286
leaf_count=10 12 11 10 11 12 10 10 10 11 11 12 10 10 13 17 10 10 14 10 10 10 10 10 10 15 10 14 10 17
internal_value=0 0.0620273 0.0700826 -0.0700977 -0.0761877 0.0761279 0.0791723 0.0804817 -0.079878 0.0797491 0.0794926 -0.0794642 0.079277 -0.0793478 -0.0792636 -0.0792156 0.0791593 -0.0791646 0.0791335 0.079126 -0.0791323 0.0791327 0.0791358 0.0791374 -0.0791384 0.0791388 0.0791394 -0.0791392 -0.0791391
internal_weight=0 42.4679 39.5616 37.5779 34.9007 36.873 34.4444 32.0888 32.0035 29.666 27.2928 29.3914 24.6871 27.0328 23.9867 21.6489 21.8708 17.6837 19.5398 17.2125 14.4221 14.8874 12.5616 10.2355 12.0966 7.90936 5.58311 9.77043 7.44413
internal_count=340 180 168 160 149 157 147 137 137 127 117 126 106 116 103 93 94 76 84 74 62 64 54 44 52 34 24 42 32
shrinkage=0.05


Tree=7
num_leaves=29
num_cat=0
split_feature=22 26 27 1 4 28 8 23 13 11 22 19 15 5 27 14 18 1 3 20 19 4 9 11 19 15 3 12
split_gain=128.066 13.8264 8.01358 7.39973 1.97061 1.31238 0.31557 0.0406261 0.0192849 0.00996576 0.00439568 0.000979402 0.00044797 0.000132576 9.82947e-05 4.6937e-05 4.35784e-05 2.7032e-05 1.22413e-05 9.94962e-07 6.29771e-07 4.29415e-08 3.8338e-08 1.62683e-08 2.81209e-09 1.34628e-09 2.56829e-10 1.34273e-10
threshold=0.25892723741222173 0.16054313099041531 0.46666666666666662 0.19563747040919843 0.28022027624808171 0.087226493199290364 0.24974747474747477 0.16901789225324418 0.043636696438910806 0.066113419377652013 0.34284575925095878 0.021893094537263503 0.23712710667828282 0.25863443960493232 0.35945017182130584 0.087296461229901021 0.09544380030393422 0.27815353398714909 0.17677624602332978 0.42529348986125942 0.10361648908972816 0.24158165568294679 0.19439764111204713 0.14703412305516264 0.043330154913422556 0.32447351819028453 0.12714740190880167 0.040333600339254559
decision_type=2 2 2 2 2 2 2 2 2 2 2 2 2 2 2 2 2 2 2 2 2 2 2 2 2 2 2 2
left_child=2 -2 5 -3 -5 -1 -6 -8 11 -9 -11 -7 14 -12 15 -13 -15 -18 20 -19 21 -17 -21 -24 -23 -25 27 -26
right_child=1 3 -4 4 6 8 7 9 -10 10 13 12 -14 16 -16 18 17 19 -20 22 -22 24 23 25 26 -27 -28 -29
leaf_value=-0.040338245000221609 -0.045353170240519637 -0.01217831094131358 0.010973215941432808 0.029701706888749381 0.059081743234238399 -0.078108545728003895 0.082715786825616616 0.080593263104337232 -0.081210135459685778 0.079252832172756527 0.077292922720465701 -0.077172718475755922 -0.077608966966474097 0.077078001938766391 -0.077305771042374558 -0.076913977599793959 0.076726657876978716 0.076882539973073871 -0.077039714141464807 0.076913228684138912 -0.076893682403274224 -0.076920021967484278 0.076916555156386485 0.076922051649829348 -0.076921996502418488 0.076920634496275453 -0.076921566275076292 -0.076922492410821788
leaf_weight=2.5561906844377509 2.8995069563388816 2.6896665394306174 2.9617428481578818 2.3691125512123099 2.3208478838205329 2.5335755050182405 4.2781993299722698 2.3403948843479183 3.3029590547084799 2.3197133094072369 2.7407145202159908 2.2812016457319357 3.4354990720748892 3.6459747850894955 2.2843333035707465 2.2747690677642849 2.2699168026447323 2.2739680558443061 2.2778824269771567 2.5022249072790137 2.7291015833616248 2.2749224156141263 2.2748345136642438 3.8674558252096176 3.4124589562416077 2.9574194699525833 2.2749616503715515 2.2749851495027542
leaf_count=11 12 11 12 10 10 11 18 10 14 10 12 10 15 16 10 10 10 10 10 11 12 10 10 17 15 13 10 10
internal_value=0 0.059972 -0.0678998 0.0678327 0.0737839 -0.074788 0.0768745 0.0781867 -0.0775964 0.0774741 0.0771804 -0.0771709 -0.0770778 0.076967 -0.0769952 -0.0769594 0.0769219 0.0768866 -0.0769316 0.0769128 -0.0769154 -0.0769202 0.0769187 0.0769202 -0.0769216 0.0769214 -0.076922 -0.0769222
internal_weight=0 41.75 36.8746 38.8504 36.1608 33.9128 33.7917 31.4708 31.3566 27.1926 24.8522 28.0537 25.5201 22.5325 22.0846 19.8003 19.7918 16.1458 17.5191 13.8759 15.2412 12.5121 11.6019 9.09971 10.2373 6.82488 7.96241 5.68744
internal_count=340 180 160 168 157 148 147 137 137 119 109 123 112 99 97 87 87 71 77 61 67 55 51 40 45 30 35 25
shrinkage=0.05


Tree=8
num_leaves=29
num_cat=0
split_feature=7 3 23 21 23 11 12 1 5 10 9 19 7 8 8 6 18 24 23 14 11 6 26 18 6 5 6 19
split_gain=118.296 11.4962 11.143 17.7932 2.46301 0.293558 0.292586 0.0520267 0.0426961 0.00814967 0.00351981 0.00137401 0.00118976 0.000351504 0.000189228 0.000121688 2.74002e-05 1.03316e-05 9.82053e-06 5.84776e-06 1.47857e-06 5.36795e-07 1.67236e-07 4.28043e-08 3.64367e-08 2.8218e-09 1.06523e-09 3.50399e-10
threshold=0.24018389662027831 0.23310710498409334 0.15343590247738892 0.38192963752665249 0.14260961462839164 0.37853606789250355 0.066248880931065304 0.23300642543118014 0.28915403962947067 0.10579395256201336 0.081613310867733671 0.020545720879454953 0.31478628230616307 0.28661616161616171 0.20681818181818187 0.12744845360824739 0.083694489784431766 0.30495938717559262 0.22679905623279592 0.24982153176734531 0.11250221004243276 0.097563261480787214 0.28238817891373807 0.10458997016941522 0.078233364573570705 0.42104778847923446 0.51007497656982204 0.074147008830479616
decision_type=2 2 2 2 2 2 2 2 2 2 2 2 2 2 2 2 2 2 2 2 2 2 2 2 2 2 2 2
left_child=1 4 3 -2 5 8 -4 -8 9 11 -9 -1 -12 -14 -13 16 -16 -18 -15 20 -20 24 -22 -24 27 -25 -27 -19
right_child=2 -3 6 -5 -6 -7 7 10 -10 -11 12 14 13 18 15 -17 17 21 19 -21 22 -23 23 25 -26 26 -28 -29
leaf_value=-0.076379472014526051 -0.073484711570863434 0.029367722925702635 0.057340577036157893 0.081919466958441767 -0.02781912862344247 -0.058906507925942445 0.083014250435366824 0.077159671432478094 -0.082239692629657565 -0.078316915318358618 0.076094455964114599 -0.075461875919171154 0.075574962085832864 0.074824219852184334 -0.075122964140027476 -0.075327686249583858 -0.075015648880232211 -0.074928507662754606 0.07488403596301689 0.075003160062957056 0.074911619585652747 -0.074898634734364714 0.074920773944656002 0.074930187509557974 -0.074921226008393321 0.074927360880591279 0.074928806596969863 -0.07492933010515905
leaf_weight=2.2603837698698142 3.5899367332458487 3.1387899518012992 2.288537040352824 3.7827458828687668 3.0836424529552451 2.7255777269601813 2.3662352412939098 2.2766816765069988 2.5524962097406378 2.30142618715763 2.6990730762481716 2.9050229787826565 2.238662242889407 2.6603632420301464 2.6709304898977342 2.9002800881862631 4.0007481575012198 3.1081369966268522 2.8843973875045803 2.2222800105810157 2.219593256711959 2.2192036211490631 2.2198672741651517 2.2201479226350784 2.2198805510997772 2.6640764176845551 2.4421174377202988 2.2201223969459534
leaf_count=10 15 13 10 16 13 12 10 10 11 10 12 13 10 12 12 13 18 14 13 10 10 10 10 10 10 12 11 10
internal_value=0 -0.062318 0.0615671 0.00624943 -0.0705011 -0.0746033 0.0745547 0.0759079 -0.0760605 -0.0754721 0.0752792 -0.075205 0.0751043 0.0749815 -0.0750856 -0.0750291 -0.0749764 -0.074948 0.0749135 0.0749276 0.0749161 -0.0749203 0.074924 0.0749269 -0.0749266 0.0749287 0.0749281 -0.0749289
internal_weight=0 38.3066 38.7747 7.37268 35.1679 32.0842 31.402 29.1135 29.3586 26.8061 26.7473 24.5047 24.4706 21.7715 22.2443 19.3393 16.439 13.7681 19.5328 16.8725 14.6502 9.76734 11.7658 9.54621 7.54814 7.32634 5.10619 5.32826
internal_count=340 169 171 31 156 143 140 130 131 120 120 110 110 98 100 87 74 62 88 76 66 44 53 43 34 33 23 24
shrinkage=0.05


Tree=9
num_leaves=29
num_cat=0
split_feature=22 26 27 21 24 28 22 17 13 4 19 13 16 28 23 6 11 28 14 29 15 4 22 15 28 15 12 19
split_gain=108.965 12.3605 7.07548 5.90527 1.89038 1.27056 0.0400855 0.0150588 0.0124799 0.00224055 0.000567016 0.000400598 0.000230674 0.000127235 0.000102591 8.35293e-05 1.2971e-05 1.20907e-05 8.81945e-06 6.50364e-06 5.18868e-06 1.92102e-06 1.30012e-06 3.56001e-07 7.33089e-08 3.41381e-09 4.33993e-09 1.84508e-09
threshold=0.25892723741222173 0.16054313099041531 0.46666666666666662 0.21815031982942432 0.33731757247573141 0.087226493199290364 0.33562428407789241 0.21831786323167268 0.043636696438910806 0.3390809786043153 0.021893094537263503 0.052489923384099253 0.11372474747474741 0.19258821210329205 0.12335332284703102 0.12409793814432986 0.28063118811881188 0.23487088507786327 0.10135295917326716 0.33228387773842322 0.15672785171388234 0.41134783786223711 0.42128592061357634 0.14527443145972904 0.23487088507786327 0.28530657614083588 0.18988832869999528 0.055663806088746957
decision_type=2 2 2 2 2 2 2 2 2 2 2 2 2 2 2 2 2 2 2 2 2 2 2 2 2 2 2 2
left_child=2 -2 5 -3 -5 -1 7 -6 10 -8 -7 -11 14 -13 15 16 18 -15 -12 22 21 24 -19 -24 -20 26 -25 -26
right_child=1 3 -4 4 6 8 9 -9 -10 11 12 13 -14 17 -16 -17 -18 19 20 -21 -22 -23 23 25 27 -27 -28 -29
leaf_value=-0.03648101998028732 -0.043557612700224346 -0.0042805767452756393 0.010249544747459661 0.038930707431760608 0.080846845940722473 -0.074090750473476949 0.07490758909787551 0.075827052435313569 -0.076680041004591026 0.073879707028741637 -0.073229892369557278 0.073490656222460538 -0.073752491892336777 0.073225756109904352 -0.073561848592311796 -0.073431375631791682 -0.073268246897520872 0.073080285591854255 -0.073118266764070267 0.073030751110178968 -0.073050094194598333 -0.073177264206748083 0.073106343446445343 0.07312614961311692 -0.07312714802594826 0.073130058488342337 0.073129182548273677 -0.073129166017694244
leaf_weight=2.482055500149726 2.8733483701944342 2.9127775430679312 2.9330575019121161 4.3161978125572196 2.563336834311488 2.4132940918207231 2.2142867445945766 3.5814652144908905 3.1659023761749259 2.1851294040679958 2.1658457368612423 2.6092516183853176 2.3998289555311194 2.1656719297170666 2.1765097677707663 3.2584750056266776 2.1671597361564627 2.1607738286256781 3.2431325018405897 2.8067114353179923 2.159724459052085 2.1640727967023849 2.3778441846370679 2.1623595505952835 2.3786332905292511 2.5949926823377609 2.5949565023183823 2.1624632626771927
leaf_count=11 12 12 12 19 11 11 10 16 14 10 10 12 11 10 10 15 10 10 15 13 10 10 11 10 11 12 12 10
internal_value=0 0.0563633 -0.0641096 0.0640718 0.0698707 -0.0708542 0.0743197 0.0779211 -0.0737119 0.0733927 -0.0733598 0.0732378 -0.0732871 0.0731657 -0.0732361 -0.0732001 -0.0731543 0.0731155 -0.073137 0.0730992 -0.0731203 -0.0731356 0.0731154 0.0731232 -0.073124 0.0731286 0.0731278 -0.0731281
internal_weight=0 40.1191 35.2702 37.2458 34.333 32.3371 30.0168 6.1448 29.855 23.872 26.6891 21.6577 24.2758 19.4726 21.876 19.6995 16.441 16.8633 14.2739 14.6976 12.108 9.9483 11.8909 9.73015 7.78423 7.35231 4.75732 4.5411
internal_count=340 180 160 168 156 148 137 27 137 110 123 100 112 90 101 91 76 78 66 68 56 46 55 45 36 34 22 21
shrinkage=0.05


Tree=10
num_leaves=30
num_cat=0
split_feature=7 3 22 21 13 19 15 22 22 16 24 13 28 8 17 18 4 1 11 13 17 25 22 21 4 22 9 15 4
split_gain=101.767 10.1879 8.78396 4.24435 1.48379 0.965039 0.327405 0.141761 0.0344878 0.00716214 0.00522333 0.00421176 0.00224295 0.000652712 0.000195737 6.13313e-05 3.70544e-05 2.51475e-05 2.20595e-05 1.09472e-05 9.79001e-06 1.12308e-05 7.12748e-06 3.33048e-06 1.00953e-06 2.48022e-07 1.9829e-07 4.90049e-08 3.73011e-08
threshold=0.24018389662027831 0.23310710498409334 0.25593904078888402 0.23400852878464815 0.049772318910418008 0.020545720879454953 0.45680746237269815 0.25519199163304945 0.28930723641615624 0.12541666666666665 0.32245922208281058 0.047222813682531409 0.11886457717327022 0.26439393939393951 0.24133358590642168 0.083694489784431766 0.37564322469982853 0.27815353398714909 0.29002386845827438 0.025827515231659402 0.27950369388141694 0.29960900738326007 0.39389411823297976 0.41711087420042653 0.41586169540489309 0.19458140345634736 0.19439764111204713 0.30145402108931424 0.30315067256477385
decision_type=2 2 2 2 2 2 2 2 2 2 2 2 2 2 2 2 2 2 2 2 2 2 2 2 2 2 2 2 2
left_child=1 4 -2 -4 5 -1 8 9 -5 12 -10 -12 -7 -13 15 -14 -15 -18 19 23 22 -22 -19 24 25 28 -24 -23 -17
right_child=2 -3 3 6 -6 7 -8 -9 10 -11 11 13 14 16 -16 18 17 20 -20 -21 21 27 26 -25 -26 -27 -28 -29 -30
leaf_value=-0.041405412120298517 -0.020188642260542133 0.027633701822226211 0.0052868531387966202 0.078468500073393344 -0.033360213670642805 -0.073283277316946172 0.052381680657795276 -0.084836781979449605 0.07426932428005871 -0.074757239102124715 0.07364174987673304 0.072419119366601323 -0.071772562034595838 0.071685664888180692 -0.072049533519962225 -0.071488649614715377 0.071319125184753585 0.071384518056448409 -0.071659655855085422 -0.071404092966875762 0.071623898279130099 0.071496778946811362 0.071477255321267572 -0.071566219599956196 -0.071525140797892628 -0.071472663677330059 0.071496830709973785 0.071486231672049358 -0.071497440618756264
leaf_weight=2.6305581629276302 3.24106641113758 3.1017038077116004 2.6543358117341986 2.2697835117578569 2.9734502285718909 2.1649841666221716 2.1620295196771613 2.34961213171482 2.4095531702041653 2.1626798510551444 2.8303498327732113 2.1367495357990292 2.5356051623821321 2.3205946683883694 2.1229297518730155 2.312584340572359 2.3051272183656719 2.3080752789974195 2.1089184880256644 3.1485203355550757 2.5289650112390518 2.3129333704710007 2.1019031703472137 2.1053221076726905 2.3141225278377533 2.1017227619886398 3.3642699122428894 2.1022539734840393 2.5232309401035309
leaf_count=12 14 13 11 10 13 10 10 10 11 10 13 10 12 11 10 11 11 11 10 15 12 11 10 10 11 10 16 10 12
internal_value=0 -0.0590651 0.058442 0.0659803 -0.0670794 -0.070358 0.0711516 -0.0730829 0.0725514 -0.0720041 0.0720488 0.0718287 -0.0717501 0.0715898 -0.071594 -0.0715435 0.0714982 0.0714727 -0.0715086 -0.0714866 0.0714967 0.0715399 0.0714582 -0.0715095 -0.0714965 -0.071487 0.0714893 0.0714918 -0.0714932
internal_weight=0 36.6559 37.048 33.8069 33.5542 30.5808 31.1526 27.9502 28.9906 25.6006 26.7208 24.3112 23.4379 21.4809 21.273 19.15 19.3441 17.0235 16.6144 14.5055 14.7184 6.94415 7.77425 11.357 9.25166 6.93754 5.46617 4.41519 4.83582
internal_count=340 169 171 157 156 143 146 131 136 121 126 115 111 102 101 91 92 81 79 69 70 33 37 54 44 33 26 21 23
shrinkage=0.05


Tree=11
num_leaves=29
num_cat=0
split_feature=7 23 21 3 23 10 12 1 25 13 9 29 7 24 8 10 8 21 17 15 12 23 7 21 26 7 28 12
split_gain=94.1596 9.74518 15.4828 9.5079 2.30953 0.319026 0.312892 0.0666025 0.0349365 0.00696489 0.00385929 0.00218703 0.000576079 0.000479054 0.000215968 9.66514e-05 4.11111e-05 2.12462e-05 2.60816e-05 1.90852e-05 1.08107e-05 6.47089e-06 2.20867e-06 1.44771e-06 8.52273e-07 4.56691e-07 2.35874e-08 6.02643e-09
threshold=0.24018389662027831 0.15343590247738892 0.38192963752665249 0.23310710498409334 0.14260961462839164 0.12207133804091971 0.066248880931065304 0.23300642543118014 0.27035732650309013 0.040760331566423412 0.081613310867733671 0.06545979273252002 0.31478628230616307 0.35415703625437495 0.20681818181818187 0.017055947854426903 0.32045454545454555 0.27785181236673778 0.1739060428111385 0.38497010845074658 0.051477170993733161 0.25494003145890681 0.067420477137176915 0.23947228144989344 0.27731629392971252 0.45668489065606366 0.2687758722649321 0.18534137492343217
decision_type=2 2 2 2 2 2 2 2 2 2 2 2 2 2 2 2 2 2 2 2 2 2 2 2 2 2 2 2
left_child=3 2 -2 4 5 8 -3 -8 9 11 -9 -1 -12 -14 -13 -16 -15 20 22 21 23 -18 -19 -17 -23 -26 -27 -28
right_child=1 6 -4 -5 -6 -7 7 10 -10 -11 12 14 13 16 15 17 19 18 -20 -21 -22 24 -24 -25 25 26 27 -29
leaf_value=-0.071758480655897225 -0.070588397780389001 0.051320363986295948 0.077189064583164019 0.026342705850379192 -0.023638777239948741 -0.051201624305646488 0.079343859103645664 0.072441337053847518 -0.077147783008414711 -0.073273340477784887 0.070931059841752506 -0.070601004066993059 0.070844037216129779 0.070252522466381431 -0.070407662767275281 -0.070000412210744975 0.069923389017721521 -0.070070687017595834 -0.070228037734357318 0.070157213739321947 -0.069884998499529769 0.070039484350290795 -0.070010650364872043 -0.070052916601587703 0.069988003290042622 0.070007268237745543 0.07001192997916654 0.070015771903588736
leaf_weight=2.321283429861082 3.4962021857500067 2.1452371925115612 3.5949551314115524 3.0912941247224799 3.0072018057107917 2.1785581558942786 2.2767600566148785 2.12846212089062 2.1826419234275809 2.1563604176044455 2.4915209561586407 2.2706667184829739 2.0761133730411556 2.051536217331889 2.0574735701084164 3.6734995841980007 2.6486751586198798 3.0657950490713102 2.6658222675323486 2.047555297613143 2.035754531621933 2.0425210744142523 3.0619228184223175 2.0430854707956314 3.0604324191808683 2.0411339849233627 2.0413377434015274 2.0415055751800537
leaf_count=11 15 10 16 13 13 10 10 10 10 10 12 11 10 10 10 18 13 15 13 10 10 10 15 10 15 10 10 10
internal_value=0 0.0568876 0.00432932 -0.0574756 -0.0653945 -0.0696205 0.0696983 0.0711613 -0.0710778 -0.0705553 0.0704062 -0.0703026 0.070214 0.0701249 -0.0701407 -0.0700845 0.0700419 -0.0700443 -0.0700975 0.0700147 -0.0699839 0.0699937 -0.0700407 -0.0700192 0.0700103 0.0700038 0.0700117 0.0700139
internal_weight=0 36.1839 7.09116 35.8114 32.7201 29.7129 29.0928 26.9476 27.5343 25.3517 24.6708 23.1953 22.5423 20.0508 20.874 18.6034 17.9747 16.5459 8.79354 15.9232 7.75234 13.8756 6.12772 5.71659 11.2269 9.18441 6.12398 4.08284
internal_count=340 171 31 169 156 143 140 130 133 123 120 113 110 98 102 91 88 81 43 78 38 68 30 28 55 45 30 20
shrinkage=0.05


Tree=12
num_leaves=30
num_cat=0
split_feature=7 23 21 23 13 19 22 22 1 18 4 28 12 8 15 8 19 14 13 19 15 23 14 9 7 13 28 14 11
split_gain=87.3574 9.14479 14.2751 8.95453 2.91318 1.00287 0.314078 0.202996 0.0507376 0.00528432 0.00273742 0.00119679 0.000511412 0.000214698 0.000110881 7.98571e-05 0.000153441 8.44195e-05 1.7002e-05 1.27583e-05 1.2725e-05 3.01571e-06 2.66953e-06 2.06708e-06 7.05926e-07 5.08893e-07 4.81096e-08 2.77022e-08 7.42993e-09
threshold=0.24018389662027831 0.15343590247738892 0.38192963752665249 0.19122345654738493 0.049772318910418008 0.020545720879454953 0.3154539568703621 0.25593904078888402 0.24129184984781862 0.32219845781505047 0.33100117360296116 0.11462645377488666 0.076120246901946007 0.28055555555555561 0.42808003124342847 0.43914141414141422 0.10774498016942356 0.087296461229901021 0.23738975491129963 0.11517280930862452 0.13415898098356713 0.23970212347620917 0.22345922425808204 0.17133529907329392 0.40198807157057664 0.020691149387931904 0.28316577961758338 0.14649692354760849 0.14548709335219237
decision_type=2 2 2 2 2 2 2 2 2 2 2 2 2 2 2 2 2 2 2 2 2 2 2 2 2 2 2 2 2
left_child=3 2 -2 4 5 -1 -3 9 -8 11 -10 -7 -12 -14 18 17 -17 -13 21 20 23 -15 24 -19 -23 27 -26 -25 -28
right_child=1 6 -4 -5 -6 7 8 -9 10 -11 12 15 13 14 -16 16 -18 19 -20 -21 -22 22 -24 25 26 -27 28 -29 -30
leaf_value=-0.037630176955586667 -0.068106944075222262 0.04962556838288848 0.075201414062472383 0.03873313162391237 -0.017206300808971137 -0.069973026349102407 0.076957151314348216 -0.08384822498764348 0.070554063593188776 -0.071529793197016814 0.069612816237248035 -0.069007306554943124 0.069266091527675114 0.068592519671826474 0.06905149651966265 -0.068628994188551881 -0.069235539404266411 -0.06861261177437937 0.068800230692841191 -0.068541664833912039 -0.068782287689449273 0.068624625907729345 0.068712149748870466 -0.068652000649019579 0.068650399157489425 -0.06868426414253552 0.068657240459834859 -0.068659869422650274 0.068661388575690263
leaf_weight=2.5369825959205654 3.4437358528375617 2.1018374562263515 3.5076837539672852 2.3274374008178702 3.1659889817237845 2.2403462678194144 2.2138883918523815 2.5810016691684714 2.6719228327274349 2.0501367449760428 2.0207460820674923 1.9946705698967004 2.0072359293699291 1.9758415520191217 2.1972222775220862 1.9776169955730427 2.2055607736110687 2.3721707165241224 2.1841762512922278 1.9733334332704533 2.3819276988506308 2.3728926479816419 1.9816124588251103 1.9787409603595731 2.176529198884964 2.5743681341409683 1.9789949804544447 2.5728590041399002 2.3750351369380951
leaf_count=12 15 10 16 10 14 11 10 11 13 10 10 10 10 10 11 10 11 12 11 10 12 12 10 10 11 13 10 13 12
internal_value=0 0.0555825 0.0042064 -0.0560171 -0.0627805 -0.0676816 0.068221 -0.0705155 0.0697153 -0.0691007 0.0690456 -0.0688771 0.0688561 0.0687767 0.0687197 -0.0687545 -0.0689488 -0.0687032 0.0686713 -0.0686594 -0.068679 0.0686493 0.0686597 -0.068653 0.068648 -0.0686665 0.0686565 -0.0686564 0.0686595
internal_weight=0 35.2094 6.95142 34.9331 32.6057 29.4397 28.2579 26.9027 26.1561 24.3217 23.9422 22.2716 21.2703 19.2495 17.2423 20.0312 4.18318 15.8481 15.0451 13.8534 11.8801 12.8609 10.8851 9.49814 8.90345 7.12597 6.53056 4.5516 4.35403
internal_count=340 171 31 169 159 145 140 133 130 122 120 112 107 97 87 101 21 80 76 70 60 65 55 48 45 36 33 23 22
shrinkage=0.05


Tree=13
num_leaves=29
num_cat=0
split_feature=7 23 21 3 23 10 11 1 5 13 19 9 13 8 8 15 6 21 14 29 1 1 12 0 8 17 17 8
split_gain=81.134 8.58985 13.1857 8.47642 2.3184 0.324404 0.314534 0.0443323 0.0258608 0.00909039 0.00314093 0.00264261 0.000377426 0.000280977 0.000209813 9.56383e-05 2.19711e-05 3.45366e-05 7.08808e-06 4.47851e-06 3.63431e-06 1.633e-06 1.15621e-06 7.90652e-07 2.94373e-07 9.94497e-08 8.69837e-08 9.02806e-09
threshold=0.24018389662027831 0.15343590247738892 0.38192963752665249 0.23310710498409334 0.14260961462839164 0.06742712294043092 0.37853606789250355 0.23300642543118014 0.28915403962947067 0.043636696438910806 0.020545720879454953 0.081613310867733671 0.063603151300527808 0.28055555555555561 0.20681818181818187 0.42808003124342847 0.10524835988753511 0.29424307036247349 0.10592514532413226 0.16076347894529711 0.4097057828880622 0.17940480216435573 0.12870470715732932 0.26783094325334855 0.41515151515151522 0.16309907179390035 0.29551051335480205 0.32045454545454555
decision_type=2 2 2 2 2 2 2 2 2 2 2 2 2 2 2 2 2 2 2 2 2 2 2 2 2 2 2 2
left_child=3 2 -2 4 6 -3 8 -7 9 10 -1 -9 -13 -14 -12 19 18 -18 -16 20 -15 -20 -21 25 -24 27 -26 -23
right_child=1 5 -4 -5 -6 7 -8 11 -10 -11 14 12 13 15 16 -17 17 -19 21 22 -22 23 24 -25 26 -27 -28 -29
leaf_value=-0.069605961755550935 -0.065816723146074854 0.047739985568545931 0.073404068690243268 0.024809889968843056 -0.02034007333272202 0.075239029498791424 -0.049723966731524183 0.069504130062471359 -0.073602523918497725 -0.071198971298801345 -0.067959134254764117 0.068234600158176825 0.068074762435477429 0.06742158027544011 -0.067514602679316582 0.067780506479850386 -0.067442573287658417 -0.067724251160710611 -0.067458769596669757 0.067377934109388221 0.067516656963199737 -0.067417945719530928 0.067401566803069426 -0.067379376418140319 0.067427777658478669 -0.067406741120331765 0.06741473064432045 -0.067422592661430497
leaf_weight=2.0221219956875016 3.3868353217840186 2.0515685528516796 3.4162104576826096 3.0562091618776313 2.9544900506734839 2.1735087633132961 2.4323105812072745 2.0088445842266109 2.2952827364206305 2.0748325437307349 2.5243496000766781 2.1495656222105053 2.1444113403558758 2.1078818291425732 2.305375978350642 2.128251150250434 2.4921504110097876 1.9317059367895124 1.918217509984969 2.8709166795015317 1.9212046861648557 1.9160899370908717 2.6813021600246429 1.9140199869871137 2.8749173730611801 1.9154925048351286 2.2991016656160355 2.2996043711900711
leaf_count=10 15 10 16 13 13 10 12 10 11 10 13 11 11 11 12 11 13 10 10 15 10 10 14 10 15 10 12 12
internal_value=0 0.0543831 0.00409425 -0.0546348 -0.062468 0.066864 -0.0669067 0.068411 -0.0685387 -0.0680401 -0.0677315 0.067771 0.0676066 0.0675356 -0.0675343 0.0674672 -0.06747 -0.0675656 -0.0674356 0.067422 0.0674669 -0.0674173 0.0674051 -0.0674074 0.067415 -0.0674162 0.067422 -0.0674205
internal_weight=0 34.2145 6.80305 34.0523 30.996 27.4115 28.0416 25.3599 25.6092 23.314 21.2391 23.1864 21.1776 19.028 19.217 16.8836 16.6927 4.42386 12.2688 14.7553 4.02909 9.96342 10.7262 8.04521 7.85532 6.13119 5.17402 4.21569
internal_count=340 171 31 169 156 140 143 130 131 120 110 120 110 99 100 88 87 23 64 77 21 52 56 42 41 32 27 22
shrinkage=0.05


Tree=14
num_leaves=28
num_cat=0
split_feature=7 23 21 20 13 14 12 20 1 18 9 28 7 24 24 11 8 5 5 16 10 0 5 15 6 21 8
split_gain=75.4458 8.0758 12.1994 7.95786 1.83343 0.365258 0.328481 0.0633861 0.036159 0.00371667 0.00214568 0.00134992 0.000511343 0.000264619 0.000261423 8.59864e-05 2.01247e-05 1.78995e-05 3.34866e-05 1.09135e-05 4.23282e-06 1.3225e-06 7.54529e-07 3.18649e-07 2.50975e-07 1.19245e-07 4.24095e-08
threshold=0.24018389662027831 0.15343590247738892 0.38192963752665249 0.31661330487371048 0.049772318910418008 0.069245674269979865 0.066248880931065304 0.26200640341515474 0.23300642543118014 0.32219845781505047 0.081613310867733671 0.11886457717327022 0.31478628230616307 0.23826190318959253 0.35415703625437495 0.27311704384724184 0.32045454545454555 0.23124348199496964 0.1974725476964603 0.16626262626262625 0.11611443056309977 0.28321264612617736 0.33976443162996139 0.22439691170727313 0.45970009372071224 0.38606076759061841 0.32045454545454555
decision_type=2 2 2 2 2 2 2 2 2 2 2 2 2 2 2 2 2 2 2 2 2 2 2 2 2 2 2
left_child=3 2 -2 4 5 -1 -3 9 -8 11 -10 -7 -12 -13 -14 17 -16 18 21 20 -18 25 -22 -24 -25 26 -15
right_child=1 6 -4 -5 -6 7 8 -9 10 -11 12 13 14 15 16 -17 19 -19 -20 -21 22 -23 23 24 -26 -27 -28
leaf_value=-0.04610127961069696 -0.063691452945867533 0.046177591095282883 0.071772703197610241 0.017805019081674176 -0.023676280107743534 -0.067614045006313656 0.07345023445134824 -0.075765824520298494 0.068200047500593483 -0.068766954464274152 0.06716932381950301 -0.066893981739890654 0.066931379098962004 -0.066275910041582051 0.066464765115712338 -0.066651379415324327 0.066201909417669721 -0.066145064991972147 -0.066506734993492217 0.066391869774852633 0.066304446964294439 -0.066239495324045536 0.06628589994286492 0.066251872471620954 0.066277902468247163 -0.066295901081199426 -0.066284730480007756
leaf_weight=2.1560644805431428 3.3263947665691367 2.0096982121467617 3.321565642952919 3.5135190635919562 2.8534608185291281 2.6905172318220236 2.116562873125079 2.149417355656623 1.9464751482009912 2.1276408284902564 2.2769434899091747 2.450921148061755 1.8892813026905084 2.2232327163219434 1.8633467406034494 1.8733610808849324 1.8483761847019184 1.8449893295764912 1.8653959780931462 2.231157809495925 3.1523614376783353 2.035628080368042 3.5212190002202988 1.8512934148311617 1.8528088331222532 1.8538462370634077 3.5210902541875839
leaf_count=11 15 10 16 15 13 14 10 10 10 11 12 13 10 12 10 10 10 10 10 12 17 11 19 10 10 10 19
internal_value=0 0.053276 0.00399142 -0.0533451 -0.0617776 -0.0658355 0.0656121 -0.0675626 0.067203 -0.0667785 0.0666136 -0.0665707 0.0664629 -0.0664118 0.0663746 -0.0663342 0.0663101 -0.0662896 -0.0663128 0.0662902 0.0662716 -0.0662753 0.066284 0.0662751 0.0662649 -0.0662849 -0.0662813
internal_weight=0 33.2075 6.64796 33.1591 29.6456 26.7921 26.5595 24.636 24.5498 22.4866 22.4333 20.359 20.4868 17.6685 18.2098 15.2175 16.3206 13.3442 11.4992 14.4572 12.2261 9.6338 10.3777 7.22532 3.7041 7.59817 5.74432
internal_count=340 171 31 169 154 141 140 130 130 120 120 109 110 95 98 82 88 72 62 78 66 52 56 39 20 41 31
shrinkage=0.05


Tree=15
num_leaves=28
num_cat=0
split_feature=7 23 21 3 23 28 22 21 5 13 24 19 10 9 11 14 15 28 6 13 21 18 7 29 14 24 1
split_gain=70.2184 7.59906 11.3034 7.5629 2.28415 0.343083 0.3414 0.0275725 0.0166548 0.0118129 0.00170242 0.00154998 0.000992721 7.89477e-05 3.30964e-05 3.76889e-05 3.08744e-05 1.25656e-05 2.24189e-05 4.77476e-06 2.47379e-06 1.22375e-06 4.66369e-07 4.42124e-07 8.47217e-08 7.18269e-08 5.35256e-09
threshold=0.24018389662027831 0.15343590247738892 0.38192963752665249 0.23310710498409334 0.14260961462839164 0.087226493199290364 0.3154539568703621 0.265724946695096 0.28915403962947067 0.043636696438910806 0.34623258271148377 0.021893094537263503 0.080137606373347769 0.11299494524010097 0.28549328147100422 0.087296461229901021 0.40776429236638928 0.15582495564754581 0.10524835988753511 0.072185551683046967 0.53424840085287861 0.1052935216975291 0.3959741550695825 0.19401810310901216 0.21276812727334529 0.33038367562570164 0.38129861345958743
decision_type=2 2 2 2 2 2 2 2 2 2 2 2 2 2 2 2 2 2 2 2 2 2 2 2 2 2 2
left_child=3 2 -2 4 5 -1 -3 -8 9 11 -9 -7 -12 -14 15 -13 19 -17 21 -15 22 -19 -21 25 26 -23 -24
right_child=1 6 -4 -5 -6 8 7 10 -10 -11 12 14 13 16 -16 17 -18 18 -20 20 -22 23 24 -25 -26 -27 -28
leaf_value=-0.045426548603527489 -0.06170920692103378 0.044371285274296735 0.070286962851615481 0.023012378595649325 -0.017838094345904922 -0.066755184893694183 0.071658133002607857 0.066733698606698408 -0.070256236214530129 -0.069493088504731057 0.06651008899715781 -0.065498912697040501 0.065606115528825892 0.065165710043341624 -0.065500516238453307 -0.065144728997120135 0.065451279163429452 -0.06527596796692571 -0.065402941272656445 0.065208037616291056 0.06528454480470311 -0.065229692443009954 0.065242232049934318 -0.065208263994105634 0.065228252932395675 -0.065241371490488434 0.065238748717671158
leaf_weight=2.1522648483514848 3.2631958425045005 1.955212309956553 3.2246460169553757 3.0348152816295615 2.9049952477216712 2.0659137666225531 2.044677302241328 2.8063819408416775 2.3522845804691306 1.9974393397569645 1.8620415925979639 1.8060122579336191 1.8123176842927957 2.3213140815496436 1.9867264181375492 2.1411556154489508 1.803175926208495 1.7925116121768931 2.6997175067663184 1.788296639919279 2.868825450539588 2.1475910395383835 2.5066228657960892 1.7883007377386091 1.9685248434543607 3.4017430245876312 1.9692494273185728
leaf_count=11 15 10 16 13 13 11 10 15 12 10 10 10 10 13 11 12 10 10 15 10 16 12 14 10 11 19 11
internal_value=0 0.0522506 0.00389673 -0.0521157 -0.0599142 -0.0645561 0.0644542 0.0661074 -0.0662589 -0.0658281 0.0655846 -0.0654589 0.0654139 0.0652942 -0.0653082 -0.065284 0.065257 -0.0652562 -0.0652764 0.0652309 0.0652446 -0.0652389 0.0652306 -0.0652299 0.0652369 -0.0652369 0.0652407
internal_weight=0 32.1945 6.48784 32.2715 29.2367 26.3317 25.7066 23.7514 24.1794 21.8271 21.7068 19.8297 18.9004 17.0383 17.7638 15.777 15.226 13.971 11.8299 13.4228 11.1015 9.13015 8.23269 7.33763 6.4444 5.54933 4.47587
internal_count=340 171 31 169 156 143 140 130 132 120 120 110 105 95 99 88 85 78 66 75 62 51 46 41 36 31 25
shrinkage=0.05


Tree=16
num_leaves=27
num_cat=0
split_feature=7 20 23 21 13 19 22 1 18 24 12 8 14 19 8 8 14 21 13 9 22 20 9 4 12 14
split_gain=65.4184 7.21126 7.1925 9.98976 2.83437 1.08031 0.180918 0.0228029 0.00274544 0.00149984 0.000483663 0.000404692 0.000190057 8.64284e-05 7.64002e-05 5.58512e-05 9.28986e-06 7.25375e-06 5.60404e-06 3.33739e-06 4.61293e-06 1.54965e-06 4.90217e-07 3.71911e-07 1.77441e-07 4.13774e-08
threshold=0.24018389662027831 0.33635716826752043 0.16901789225324418 0.36780383795309174 0.049772318910418008 0.020545720879454953 0.25593904078888402 0.24129184984781862 0.32219845781505047 0.34623258271148377 0.079230080572963268 0.20681818181818187 0.085647754699663417 0.10774498016942356 0.28661616161616171 0.43914141414141422 0.29326579868783359 0.45602345415778256 0.025948920242511154 0.48283487784330242 0.62398525822999162 0.43792244752757031 0.29696714406065711 0.41757696127110239 0.038425293313857557 0.19772580480674443
decision_type=2 2 2 2 2 2 2 2 2 2 2 2 2 2 2 2 2 2 2 2 2 2 2 2 2 2
left_child=1 4 3 -2 5 -1 8 -4 11 -9 -11 -7 -13 17 -12 -15 19 18 22 20 21 -16 24 -23 -14 -25
right_child=2 -3 7 -5 -6 6 -8 9 -10 10 14 12 13 15 16 -17 -18 -19 -20 -21 -22 23 -24 25 -26 -27
leaf_value=-0.030413697772805899 -0.045196180812318382 0.034850576927141046 0.070195553335264227 0.068687125010367181 -0.011831870705333581 -0.065065570237807777 -0.078989728901264336 0.065652750813681479 -0.066527977340927177 0.065136596678072783 0.064649157214230465 -0.06489298578220086 -0.064281008086408117 -0.064368354237490752 0.064215336248957602 -0.064759085790208878 0.064408443385682496 -0.064365706384916066 -0.064192999285555094 0.064349882768158159 0.064333750524644684 0.064248227011466333 -0.064304394902113773 0.064278423386844905 -0.064262321699459515 0.064269152332752572
leaf_weight=2.3217038214206793 4.015378043055537 2.2711243182420722 1.9845325946807886 3.7000655829906464 3.024049535393714 2.6618883758783438 2.4588173925876609 2.8933850526809719 1.8108453154563893 2.137120112776759 1.7518566250801111 1.7650663405656839 3.2833455204963666 1.9058881700038903 1.7236296385526637 1.7583214491605756 1.7364920824766148 1.9069834947586048 2.4108997583389282 1.7325966209173191 2.5972207635641089 1.7258648276329038 1.7296103686094282 3.2830191999673843 2.0721817463636398 1.9000082015991209
leaf_count=12 19 10 10 19 14 15 11 16 10 12 10 10 19 11 10 10 10 11 14 10 15 10 10 19 12 11
internal_value=0 -0.0509602 0.0512978 0.0094184 -0.0576551 -0.0629673 -0.0661478 0.0650676 -0.0646657 0.0645938 0.064429 -0.0644927 -0.0644021 -0.0643446 0.064337 -0.0645559 0.0642998 -0.0642767 -0.0642588 0.0642853 0.0642753 0.0642577 -0.0642813 0.0642683 -0.0642738 0.064275
internal_weight=0 31.3807 31.1812 7.71544 29.1096 26.0856 23.7638 23.4657 21.305 21.4812 18.5878 19.4942 16.8323 15.0672 16.4507 3.66421 14.6988 11.403 9.49604 12.9623 11.2297 8.63252 7.08514 6.90889 5.35553 5.18303
internal_count=340 169 171 38 159 145 133 133 122 123 107 112 97 87 95 21 85 66 55 75 65 50 41 40 31 30
shrinkage=0.05


Tree=17
num_leaves=30
num_cat=0
split_feature=27 20 21 3 27 24 28 20 6 21 10 3 19 12 24 14 8 19 21 19 12 12 14 19 10 4 14 28 1
split_gain=61.3511 11.3515 9.72158 4.52308 2.51958 1.16693 0.360069 0.0314584 0.0304859 0.0192394 0.0147917 0.00440682 0.0012252 0.000504015 0.000368284 0.000152925 6.72887e-05 1.70292e-05 1.36503e-05 1.43451e-05 8.11269e-06 7.09232e-06 3.75338e-06 1.17353e-06 9.60152e-07 1.94855e-07 1.2563e-07 3.30272e-08 4.28047e-09
threshold=0.36975945017182138 0.33475631447883319 0.38192963752665249 0.23310710498409334 0.46666666666666662 0.45948623126196925 0.087226493199290364 0.2824617573817147 0.18332942830365509 0.265724946695096 0.10646387832699616 0.19018027571580062 0.023965977087738153 0.081774489940159262 0.34623258271148377 0.089625046741679912 0.29494949494949502 0.12679822561253679 0.29424307036247349 0.074872517723145807 0.047495641520991359 0.31637845733402448 0.25150423224666013 0.045472133548913059 0.11855875430019912 0.41586169540489309 0.14918244552469659 0.28316577961758338 0.38332769699019276
decision_type=2 2 2 2 2 2 2 2 2 2 2 2 2 2 2 2 2 2 2 2 2 2 2 2 2 2 2 2 2
left_child=3 2 5 6 -4 -2 -1 -6 -3 -10 11 12 -8 -11 -15 -14 -16 18 20 23 26 22 24 -20 -18 -26 -17 -27 -29
right_child=1 8 4 -5 7 -7 10 -9 9 13 -12 -13 15 14 16 17 21 -19 19 -21 -22 -23 -24 -25 25 27 -28 28 -30
leaf_value=-0.042476858550805942 -0.067209731739866996 0.070553780863661875 -0.00027988338246910644 0.015074468388739021 0.07345046267436417 -0.019005450898636884 -0.064763080364294665 0.064485395262928347 0.068861350037274657 0.064349640308810185 -0.067331121854328005 -0.066167805166825786 -0.063874282469605512 0.064181459439185892 0.063738524292603752 -0.063369337832344122 0.063340884327151944 -0.063235621966606467 -0.063431708274623202 -0.06356973433101 -0.063250371808273739 0.063486258949911542 0.063456662743066355 -0.063378848803132729 0.063368445783942393 0.06338109697109999 -0.063387932927386578 0.063391079244690493 0.063387926443111323
leaf_weight=2.0470154136419358 3.0101536065340024 2.00313372910023 1.9134354740381239 2.0304006785154334 2.2439471036195759 2.1538059413433075 1.9306294769048786 1.7351773381233213 1.9240097552537943 2.0757262557745007 3.5636584907770148 1.8120232671499241 1.6968069374561299 1.8923891037702585 1.6902491152286518 1.664637997746466 1.6625599563121776 1.9858207404613484 1.6690173894166944 1.6783666759729383 1.8215442597866056 2.1747065335512152 1.670829340815543 2.8310528099536896 1.8310329318046568 1.6654897481203077 1.9991784840822218 1.9994499236345289 2.3323742747306824
leaf_count=11 14 10 10 9 11 10 11 10 10 12 19 10 10 11 10 10 10 12 10 10 11 13 10 17 11 10 12 12 14
internal_value=0 0.0445898 0.00297845 -0.0566623 0.0468688 -0.0471045 -0.0625593 0.0695411 0.0646612 0.0640969 -0.064374 -0.063822 -0.063576 0.0636143 0.0635241 -0.0634266 0.0634413 -0.063371 -0.063394 -0.063445 -0.0633366 0.0634037 0.0633876 -0.0633985 0.0633754 0.0633827 -0.0633795 0.0633871 0.0633894
internal_weight=0 33.9785 11.0565 26.7302 5.89256 5.16396 24.6998 3.97912 22.922 20.9188 22.6527 19.0891 17.2771 18.9948 16.9191 15.3464 15.0267 13.6496 11.6638 6.17844 5.48536 13.3364 11.1617 4.50007 9.49091 7.82835 3.66382 5.99731 4.33182
internal_count=340 188 55 152 31 24 143 21 133 123 132 113 103 113 101 92 90 82 70 37 33 80 67 27 57 47 22 36 26
shrinkage=0.05


Tree=18
num_leaves=29
num_cat=0
split_feature=22 26 21 26 13 24 3 7 25 13 29 18 6 28 9 15 22 18 1 24 15 4 12 7 14 15 1 2
split_gain=57.1826 8.70976 4.81441 4.18359 1.83727 1.23078 0.0925842 0.0160173 0.013369 0.00271862 0.00224269 0.000283051 0.000358003 0.000145998 0.000110357 9.76987e-05 3.48981e-05 2.75333e-05 3.6686e-05 2.2885e-05 9.25715e-06 5.01567e-06 2.77233e-06 3.29767e-07 1.00062e-07 6.24647e-08 6.55071e-09 4.22655e-09
threshold=0.25892723741222173 0.16054313099041531 0.21815031982942432 0.31928913738019177 0.048903806140478658 0.33731757247573141 0.18856839872746553 0.28071570576540761 0.25037110341415147 0.047222813682531409 0.051423324150596854 0.068779197388416716 0.12744845360824739 0.19051843090873258 0.10646588037068236 0.086092168113678022 0.35305543104736298 0.081302414588844463 0.27815353398714909 0.26731823284685996 0.14839126385676094 0.41586169540489309 0.32907694482401179 0.3959741550695825 0.12805520617330113 0.27723285366659661 0.41190395671288454 0.21107732706792898
decision_type=2 2 2 2 2 2 2 2 2 2 2 2 2 2 2 2 2 2 2 2 2 2 2 2 2 2 2 2
left_child=3 -2 -3 4 8 -4 -7 -8 10 -9 -1 -12 13 15 -11 -13 -16 -18 -19 -15 21 24 23 -20 -21 26 -25 -26
right_child=1 2 5 -5 -6 6 7 9 -10 14 11 12 -14 19 16 -17 17 18 22 20 -22 -23 -24 25 27 -27 -28 -29
leaf_value=-0.064651295532244371 -0.041334552033210639 -0.011296362365364521 0.032631287117517178 0.012027558811925172 -0.017464075443029494 0.074260064764135464 0.06749829554398816 0.064542992616199904 -0.067341887473143 0.063018128617443686 -0.063448642739473024 -0.062692452270960083 -0.063327032518244564 -0.062753089227861811 0.062804816202553751 -0.063203389870074955 0.062752465196866017 0.062320892528745286 0.062539755487561785 -0.062551114856374143 -0.062454366680007013 -0.062656283260091913 0.062629580720565126 0.062568006935721232 -0.062564429438576791 0.062555820230435447 0.062564022950851214 -0.06256797455016265
leaf_weight=1.9230398684740198 2.6309777498245266 2.5954961329698589 3.5380255132913616 2.2627588510513297 2.4089201092720023 2.1260224729776409 2.0505034029483822 2.088087826967242 1.9648597836494435 1.6384735107421899 1.8302354067564035 1.7747193574905424 2.6536638587713233 1.9426287561655033 1.6222239136695851 1.9788005948066709 1.6186234652996052 1.743832156062125 1.9236524105072002 1.603916347026823 1.5963744372129438 1.9341130703687666 1.6098350882530201 2.8893773704767227 1.6049358844757082 1.925130248069763 1.6049052625894544 1.7657280415296552
leaf_count=11 12 12 19 11 12 11 11 12 11 10 11 11 16 12 10 12 10 11 12 10 10 12 10 18 10 12 10 11
internal_value=0 0.0457701 0.0536795 -0.0530749 -0.0589716 0.0600728 0.0643234 0.0633036 -0.0634011 0.0628428 -0.0630254 -0.0628581 -0.062794 -0.0626943 0.0626286 -0.0629618 0.0625859 0.0625592 0.0625324 -0.0625983 -0.0625629 -0.062588 0.0625695 0.0625579 -0.0625614 0.0625634 0.0625666 -0.0625663
internal_weight=0 31.6052 28.9742 27.2447 24.9819 26.3787 22.8407 20.7146 22.573 18.6641 20.6082 18.6851 16.8549 14.2012 16.5761 3.75352 14.9376 13.3154 11.6967 10.4477 8.50507 6.90869 9.9529 8.34307 4.97458 6.41941 4.49428 3.37066
internal_count=340 180 168 160 149 156 137 126 137 115 126 115 104 88 103 23 93 83 73 65 53 43 62 52 31 40 28 21
shrinkage=0.05


Tree=19
num_leaves=30
num_cat=0
split_feature=7 20 21 3 20 28 1 5 13 20 24 19 13 8 27 8 24 14 14 13 17 13 26 26 27 8 4 27 20
split_gain=53.6395 6.16224 8.5477 6.13956 1.8438 0.448936 0.0204104 0.0135302 0.0117155 0.007146 0.00183849 0.00127839 0.000597911 0.00011326 8.21039e-05 6.82371e-05 3.82368e-05 1.65608e-05 1.19783e-05 8.6854e-06 5.01697e-06 4.86198e-06 1.69838e-06 1.39723e-06 4.31362e-07 3.81952e-07 1.33311e-07 8.70273e-08 3.52796e-08
threshold=0.24018389662027831 0.32355033795802207 0.36780383795309174 0.23310710498409334 0.27107790821771616 0.087226493199290364 0.24129184984781862 0.28915403962947067 0.043636696438910806 0.2824617573817147 0.32245922208281058 0.021893094537263503 0.049772318910418008 0.26313131313131327 0.35945017182130584 0.46136363636363636 0.37462854124017703 0.28714688785396197 0.097273685284019418 0.030384872562093952 0.18116120477363132 0.072185551683046967 0.26773162939297129 0.52575878594249226 0.61408934707903784 0.22979797979797986 0.44118443621919301 0.76048109965635746 0.19085734614016361
decision_type=2 2 2 2 2 2 2 2 2 2 2 2 2 2 2 2 2 2 2 2 2 2 2 2 2 2 2 2 2
left_child=3 2 -2 4 5 -1 -3 8 11 -4 -8 -7 -12 -14 15 18 -15 21 -13 20 25 -18 -23 24 -24 -20 28 -26 -27
right_child=1 6 9 -5 -6 7 10 -9 -10 -11 12 14 13 16 -16 -17 17 -19 19 -21 -22 22 23 -25 27 26 -28 -29 -30
leaf_value=-0.036509441188364147 -0.041927490436852601 0.067640338657736498 0.067720617386103174 0.020420015001721747 -0.019844960963209243 -0.063298085943052126 0.063719893177760153 -0.066676060536353443 -0.066268559570716021 0.063218153262487239 0.062898286318089081 -0.061946206694860464 0.062292588124632467 0.062079935275801426 -0.062238105380643172 -0.062166983300487012 0.061718630631403738 0.061970734345103209 -0.06177216229248178 -0.061895499553804606 -0.061694525737960006 0.061855860696026714 0.061771007132640499 0.061843184930178499 0.061804764434261042 -0.061801375747569914 -0.061787794043101141 0.061789806514493485 -0.061811006015017295
leaf_weight=1.748725518584261 3.8588395416736629 1.84752753376961 1.8985636234283449 2.9347150623798361 3.1181296408176413 1.8222869485616779 1.6740005761384988 2.1098902970552436 1.8186079561710347 1.64465956389904 1.6260384470224405 1.5562914609909047 1.5836238116025914 1.5661412179470051 1.5780321061611164 1.5720630288124073 1.6919771879911412 1.5579987764358509 1.5425518900156001 1.8625975549221028 1.5361874550580976 1.7040708661079387 2.0051647871732712 1.5482519567012785 2.6268321424722672 2.471873864531517 1.5438165366649625 1.5439791381359098 1.5456980764865873
leaf_count=10 19 10 10 13 15 11 10 12 10 10 10 10 10 10 10 10 11 10 10 12 10 11 13 10 17 16 10 10 10
internal_value=0 0.0487807 0.00955852 -0.0481107 -0.0558979 -0.0608483 0.0626218 -0.062879 -0.0624539 0.0656307 0.0621371 -0.0620466 0.0619853 0.0618915 -0.0618967 -0.0618571 0.0618469 0.0618181 -0.0618168 -0.0617976 -0.0617765 0.0617967 0.0618107 0.0618007 0.0617901 -0.0617942 -0.0618003 0.0617992 -0.0618051
internal_weight=0 28.3777 7.40206 28.7615 25.8268 22.7086 20.9756 20.9599 18.85 3.54322 19.1281 17.0314 17.4541 15.828 15.2091 13.6311 14.2444 12.6783 12.059 10.5027 8.64013 11.1203 9.4283 7.72423 6.17598 7.10394 5.56139 4.17081 4.01757
internal_count=340 171 39 169 156 141 132 131 119 20 122 109 112 102 98 88 92 82 78 68 56 72 61 50 40 46 36 27 26
shrinkage=0.05


Tree=20
num_leaves=31
num_cat=0
split_feature=27 20 21 13 27 13 14 22 20 6 21 13 29 24 12 28 15 8 11 15 12 14 12 8 4 25 26 6 28 1
split_gain=50.344 10.0099 8.26783 4.21124 2.14834 1.80075 0.173517 0.0481549 0.0277577 0.0241203 0.0175817 0.00548966 0.00126856 0.000500982 0.000244424 0.00016244 4.72399e-05 3.88042e-05 1.9368e-05 8.22325e-06 4.26049e-06 2.07741e-06 9.15055e-07 2.21223e-07 1.57771e-07 8.65301e-08 3.31686e-08 3.02451e-08 1.86347e-08 4.49801e-09
threshold=0.36975945017182138 0.33475631447883319 0.38192963752665249 0.062024886159455152 0.46666666666666662 0.030870492605500902 0.069245674269979865 0.25270182778026801 0.2824617573817147 0.18332942830365509 0.265724946695096 0.041619505489374257 0.073527482618391662 0.34623258271148377 0.081774489940159262 0.13236743544253893 0.23712710667828282 0.29494949494949502 0.29002386845827438 0.15672785171388234 0.31637845733402448 0.25150423224666013 0.10799604202987327 0.23762626262626263 0.41586169540489309 0.15863822025594007 0.030343450479233154 0.050152296157450753 0.28316577961758338 0.37521136286777135
decision_type=2 2 2 2 2 2 2 2 2 2 2 2 2 2 2 2 2 2 2 2 2 2 2 2 2 2 2 2 2 2
left_child=3 2 5 6 -4 -2 -1 11 -6 -3 -11 12 -8 -12 -15 -14 18 -16 19 23 21 22 -19 -17 -24 26 -25 -28 -26 -30
right_child=1 9 4 -5 8 -7 7 -9 -10 10 13 -13 15 14 17 16 -18 20 -20 -21 -22 -23 24 25 28 -27 27 -29 29 -31
leaf_value=-0.046167225900911983 -0.076872226716783662 0.067764214060511752 0.00065490187287209605 0.0074521591959844985 0.070766149512290641 -0.016580492329952044 -0.062608363478778295 -0.07087899057227337 0.061930600298403929 0.066518265817159236 0.062074241496513916 -0.06400811308943051 -0.061674127023306637 0.061774265285245003 0.06137573289923183 -0.061070566790350389 -0.061392139947181602 0.061048135128164219 -0.061261862488558673 -0.060960153657327244 0.06117438359889768 0.061147829232785889 0.06107778783162781 -0.061088332992463912 0.061090783401801088 -0.061081113610730889 -0.061102736019434237 -0.061093748141158068 0.061099363558158495 0.061095910963947987
leaf_weight=1.8024629056453765 2.2907221764326113 1.8639864325523401 1.8365873247385023 2.5035484582185736 2.086260169744492 2.6960199326276779 1.759529516100893 1.5335427522659291 1.5488213300704954 1.7869241684675241 1.8785710334777856 2.1887880265712729 1.5281382352113713 1.6943564862012852 1.5093566477298725 1.4841401726007442 1.5076415836811055 1.4821701496839503 1.5000694692134846 1.4745482057332981 1.9406636655330647 1.4906500279903401 1.6332302242517469 1.4856598824262617 1.4858694672584531 1.4850437641143797 1.4868873208761213 2.5264085382223129 1.6352621465921404 2.2294611781835556
leaf_count=11 11 10 10 12 11 13 11 8 10 10 12 13 10 11 10 10 10 10 10 10 13 10 11 10 10 10 10 17 11 15
internal_value=0 0.0421391 0.00229142 -0.0539597 0.044732 -0.0442763 -0.0610243 -0.062366 0.0670015 0.0623395 0.0618007 -0.0616575 -0.0613406 0.0613042 0.0612084 -0.0611866 -0.0611291 0.0611369 -0.0610944 -0.0610691 0.0611066 0.0610934 0.0610838 -0.0610881 0.0610914 -0.0610918 -0.0610947 -0.0610971 0.0610955 0.0610974
internal_weight=0 31.0889 10.4584 24.2664 5.47167 4.98674 21.7629 19.9604 3.63508 20.6305 18.7665 18.4269 16.2381 16.9796 15.101 14.4785 12.9504 13.4067 11.4428 9.94269 11.8973 9.95664 8.46599 8.46814 6.98382 6.984 5.49896 4.0133 5.35059 3.86472
internal_count=340 188 55 152 31 24 140 129 21 133 123 121 108 113 101 97 87 90 77 67 80 67 57 57 47 47 37 27 36 26
shrinkage=0.05


Tree=21
num_leaves=31
num_cat=0
split_feature=27 20 21 13 28 13 8 14 20 7 21 13 29 24 12 28 15 8 11 15 12 14 10 8 4 25 26 6 28 1
split_gain=47.028 9.54303 7.61138 4.05322 2.12048 1.71406 0.274216 0.180832 0.040494 0.0200487 0.0146771 0.00457332 0.0010562 0.000415451 0.000203494 0.000135721 3.94956e-05 3.22989e-05 1.61208e-05 6.84036e-06 3.54698e-06 1.72899e-06 8.63896e-07 1.8405e-07 9.28507e-08 7.19895e-08 2.75903e-08 2.51626e-08 1.44438e-08 2.66346e-09
threshold=0.36975945017182138 0.33475631447883319 0.38192963752665249 0.062024886159455152 0.2794204612655235 0.030870492605500902 0.49166666666666675 0.069245674269979865 0.27107790821771616 0.27142147117296228 0.265724946695096 0.041619505489374257 0.073527482618391662 0.34623258271148377 0.081774489940159262 0.13236743544253893 0.23712710667828282 0.29494949494949502 0.29002386845827438 0.15672785171388234 0.31637845733402448 0.25150423224666013 0.11855875430019912 0.23762626262626263 0.41586169540489309 0.15863822025594007 0.030343450479233154 0.050152296157450753 0.28316577961758338 0.37521136286777135
decision_type=2 2 2 2 2 2 2 2 2 2 2 2 2 2 2 2 2 2 2 2 2 2 2 2 2 2 2 2 2 2
left_child=3 2 5 7 -4 -2 -6 -1 11 -3 -11 12 -9 -12 -15 -14 18 -16 19 23 21 22 -19 -17 -24 26 -25 -28 -26 -30
right_child=1 9 4 -5 6 -7 -8 8 -10 10 13 -13 15 14 17 16 -18 20 -20 -21 -22 -23 24 25 28 -27 27 -29 29 -31
leaf_value=-0.04489024775624658 -0.075057467453816598 0.066625485925717057 -0.0018555379988387734 0.0070761485549133063 0.079086305775870835 -0.015781210683677323 0.051522819459741458 -0.061845196800547002 -0.069554965432031643 0.065480298231947717 0.061346860180083729 -0.063146557750598714 -0.060977253199438745 0.061069413138470446 0.060698643223160043 -0.060414711427021352 -0.060714526860119557 0.060391675787160974 -0.060592703081194146 -0.060311998107554013 0.060511319026153303 0.060486600788185144 0.060423902753184371 -0.060431239843660459 0.060433520468633706 -0.060424523192151094 -0.060444638127950458 -0.060436276836217065 0.060440999707173308 0.060438289958622618
leaf_weight=1.7620884031057418 2.2303335964679736 1.8027258217334772 1.7376433908939359 2.5047210007905951 1.8134984374046328 2.6910680830478668 1.7959001660346983 1.6938439011573851 1.485808953642844 1.7260311543941522 1.8074735701084161 2.1097223311662665 1.469799831509589 1.6298505663871754 1.4513526260852803 1.4266938716173152 1.4497114866971959 1.4245740175247172 1.4422675222158421 1.4173239469528187 1.8657299429178227 1.4330566823482502 1.5702688246965406 1.4281788915395734 1.4283836483955381 1.427576810121536 1.429378390312195 2.4286729246377945 1.5719600170850756 2.143217533826828
leaf_count=11 11 10 10 12 10 13 11 11 8 10 12 13 10 11 10 10 10 10 10 10 13 10 11 10 10 10 10 17 11 15
internal_value=0 0.0413589 0.00222594 -0.0530399 0.0435247 -0.0426447 0.0653718 -0.06022 -0.0616263 0.0615977 0.0610956 -0.0609616 -0.0606663 0.060632 0.060543 -0.0605229 -0.0604692 0.0604764 -0.0604369 -0.0604134 0.0604483 0.060436 0.060427 -0.060431 0.0604345 -0.0604345 -0.0604372 -0.0604394 0.0604378 0.0604394
internal_weight=0 30.1231 10.2684 23.4758 5.34704 4.9214 3.6094 20.9711 19.209 19.8546 18.0519 17.7232 15.6134 16.3259 14.5184 13.9196 12.4498 12.8885 11.0001 9.55782 11.4372 9.57146 8.1384 8.1405 6.71383 6.71381 5.28623 3.85805 5.14356 3.71518
internal_count=340 188 55 152 31 24 21 140 129 133 123 121 108 113 101 97 87 90 77 67 80 67 57 57 47 47 37 27 36 26
shrinkage=0.05


Tree=22
num_leaves=29
num_cat=0
split_feature=7 23 21 3 23 10 10 21 27 28 29 29 21 14 24 22 16 8 15 10 10 4 8 7 16 28 28 17
split_gain=44.1062 5.60425 7.47657 5.32781 2.05374 0.423316 0.327102 0.0174681 0.0156021 0.00295705 0.00226559 0.00159671 0.000447777 0.000183923 0.000109211 5.84321e-05 1.17103e-05 1.03817e-05 9.27488e-06 2.12357e-06 1.47481e-06 7.68818e-07 2.70687e-07 4.8116e-08 3.58687e-08 2.67143e-08 2.64842e-08 5.95681e-09
threshold=0.24018389662027831 0.15343590247738892 0.38192963752665249 0.23310710498409334 0.14260961462839164 0.13976099945681694 0.06742712294043092 0.27785181236673778 0.39553264604810995 0.087226493199290364 0.10061655516200967 0.082841401023219172 0.29770788912579965 0.085647754699663417 0.35415703625437495 0.35305543104736298 0.084545454545454465 0.31767676767676772 0.15672785171388234 0.11721890277023352 0.063262719536483769 0.56260720411663823 0.23762626262626263 0.38635685884691856 0.036414141414141406 0.24669820618963142 0.24669820618963142 0.29276378101913247
decision_type=2 2 2 2 2 2 2 2 2 2 2 2 2 2 2 2 2 2 2 2 2 2 2 2 2 2 2 2
left_child=3 2 -2 4 5 8 -3 -8 9 -1 -9 12 -11 -13 -12 -16 18 -17 20 -19 22 23 -15 -21 25 -24 -25 -28
right_child=1 6 -4 -5 -6 -7 7 10 -10 11 14 13 -14 16 15 17 -18 19 -20 21 -22 -23 24 26 -26 -27 27 -29
leaf_value=-0.062401211168195504 -0.05352887009324804 0.037412362214420646 0.063438120752344382 0.018935194488703261 -0.01198650617709403 -0.033703365341085083 0.064893106729023486 0.061674093947307544 -0.065561755393078278 -0.060549858177175543 0.060336050740172113 -0.060432763974411656 -0.061782017530507466 -0.059798685059794104 0.060178430112465445 0.059964586607565928 -0.059934694190170792 0.059763740037505897 -0.059692612827818951 0.059813182304515072 -0.059875358201036247 0.059862418168351743 -0.059832521455464915 0.059817538003307705 -0.059819286408983312 -0.059822657530454841 0.059827120098053167 0.059823408315384879
leaf_weight=1.5788362175226378 2.8881835937500027 1.6398832798004175 2.5925777107477188 2.8543085306882849 2.6512952446937552 1.5634670853614796 2.1996913403272655 2.1141548603773144 1.5546350926160801 1.4330077916383772 1.4188676625490177 1.4250924289226521 1.5188527256250379 1.3701033890247325 1.4010707139968861 1.3847200721502293 2.2093421369791022 1.5034457892179478 1.4959606230258939 1.3714661300182323 1.3771886229515073 1.3760375231504438 1.3732818812131884 1.3718775510787962 2.4696747064590454 1.3723581731319425 2.4709988683462143 1.9214002937078474
leaf_count=10 15 10 16 13 13 9 13 14 9 10 10 10 10 10 10 10 16 11 11 10 10 10 10 10 18 10 18 14
internal_value=0 0.0466355 0.00180031 -0.0455552 -0.0534239 -0.0587206 0.0588164 0.0607102 -0.0607601 -0.0603365 0.0601469 -0.0601334 -0.0611839 -0.0598965 0.0599198 0.0598737 -0.0598311 0.0598363 -0.0598068 0.0598185 -0.0598283 0.0598282 -0.0598185 0.0598216 -0.0598237 -0.0598276 0.0598236 0.0598255
internal_weight=0 25.6544 5.48076 26.2474 23.3931 20.7418 20.1736 18.5337 19.1783 17.6237 16.334 16.0449 2.95186 13.093 14.2199 12.801 11.6679 11.3999 9.45857 10.0152 7.96261 8.51178 6.58542 7.13574 5.21531 2.74564 5.76428 4.3924
internal_count=340 171 31 169 156 143 140 130 134 125 117 115 20 95 103 93 85 83 69 73 58 62 48 52 38 20 42 32
shrinkage=0.05


Tree=23
num_leaves=29
num_cat=0
split_feature=27 20 21 13 13 27 14 20 6 1 13 29 24 12 28 10 10 12 9 5 15 20 21 21 11 28 6 1
split_gain=41.3838 8.70278 6.7187 3.7765 1.62429 1.46077 0.190382 0.0377822 0.0182843 0.0102343 0.00359015 0.000806025 0.000295422 0.000209238 0.00016888 2.9916e-05 2.02023e-05 2.46386e-05 1.75646e-05 1.20313e-05 7.10969e-06 1.41255e-06 6.17666e-07 4.79136e-07 2.16603e-07 1.77329e-07 5.81257e-08 2.1884e-08
threshold=0.36975945017182138 0.33475631447883319 0.38192963752665249 0.062024886159455152 0.030870492605500902 0.48814432989690726 0.069245674269979865 0.27107790821771616 0.18332942830365509 0.24129184984781862 0.043636696438910806 0.070149547422274708 0.34623258271148377 0.081774489940159262 0.12950916617386163 0.092956726416802415 0.028698171283722554 0.022145785233001852 0.11731255265374881 0.23124348199496964 0.40776429236638928 0.42529348986125942 0.53424840085287861 0.40285181236673778 0.18891442715700138 0.24866942637492612 0.086656513589503215 0.38129861345958743
decision_type=2 2 2 2 2 2 2 2 2 2 2 2 2 2 2 2 2 2 2 2 2 2 2 2 2 2 2 2
left_child=3 2 4 6 -2 -4 -1 10 -3 -10 11 -8 -11 -14 -13 16 17 -16 -15 23 21 -20 25 24 26 -23 -18 -27
right_child=1 8 5 -5 -6 -7 7 -9 9 12 -12 14 13 18 15 -17 19 -19 20 -21 -22 22 -24 -25 -26 27 -28 -29
leaf_value=-0.042747533399525868 -0.07311125678295409 0.065266176364527292 0.010446314044339836 0.0066814392619599277 -0.014348107294874221 0.064719152261788357 -0.060603656224437641 -0.068226352539261445 0.063633442382406466 0.060062104907090387 -0.06191913842846905 -0.059882011619623733 0.059910508655094036 0.059457403491466512 -0.059231370013663721 -0.05950676635953428 -0.059257312008751929 -0.05953584134396455 0.059201423425295711 -0.059086719123155634 0.05937314836977621 0.059234704019602326 0.059280576239833474 -0.059280239841615172 -0.059228969605627284 0.059257729734413817 -0.059244601511070361 0.059250511881036472
leaf_weight=1.6692638099193633 2.1269145756959933 1.711576640605929 2.1319047808647156 2.4747183173894873 2.6301619857549667 2.9628803431987762 1.4360740184783995 1.4215843230485905 1.6064968407154108 1.6718117743730534 1.6787923425436009 1.3713462054729451 1.5155030786991108 1.3371038585901249 1.3156033307313904 1.4751321673393238 2.3727008849382405 1.3424792140722273 1.3125895410776118 1.3011862635612486 1.3292607069015492 1.5791388452053068 2.1126224100589752 1.3203244507312772 1.315384194254875 2.2409562170505524 1.4486133456230161 1.9762527495622633
leaf_count=11 11 10 12 12 13 19 10 8 10 12 11 10 11 10 10 11 18 10 10 10 10 12 16 10 10 17 11 15
internal_value=0 0.0400325 0.0021099 -0.0514978 -0.0406214 0.0420088 -0.0588931 -0.0604073 0.0603446 0.0598397 -0.0597286 -0.0594785 0.0594354 0.0593572 -0.0593566 -0.059296 -0.0592662 -0.0593851 0.0592867 -0.0592254 0.059265 0.0592495 0.0592574 -0.0592534 -0.0592465 0.059249 -0.0592525 0.0592543
internal_weight=0 28.2452 9.85186 21.9432 4.75708 5.09479 19.4685 17.7992 18.3933 16.6817 16.3776 14.6988 15.0752 13.4034 13.2628 11.8914 10.4163 2.65808 11.8879 7.75821 10.5508 9.22156 7.90897 6.45702 5.1367 5.79635 3.82131 4.21721
internal_count=340 188 55 152 24 31 140 129 133 123 121 110 113 101 100 90 79 20 90 59 80 70 60 49 39 44 29 32
shrinkage=0.05


Tree=24
num_leaves=29
num_cat=0
split_feature=7 23 21 3 23 12 10 21 27 13 29 19 28 27 14 24 5 8 13 8 14 21 10 29 27 4 1 28
split_gain=38.7472 5.10196 6.61527 4.83913 1.99225 0.456002 0.325509 0.0137655 0.00453528 0.00527237 0.00206657 0.000913987 0.000412553 7.53857e-05 5.49637e-05 4.94563e-05 2.07428e-05 2.99515e-05 9.56613e-06 8.3338e-06 1.56086e-06 1.16821e-06 2.55337e-07 7.89411e-08 5.19059e-08 2.58618e-08 9.24427e-09 3.22088e-09
threshold=0.24018389662027831 0.15343590247738892 0.38192963752665249 0.23310710498409334 0.14260961462839164 0.12081232624982331 0.06742712294043092 0.27785181236673778 0.3620274914089347 0.04272148943402846 0.10061655516200967 0.021893094537263503 0.11462645377488666 0.51804123711340211 0.087296461229901021 0.3660437165687116 0.2467793386908779 0.45429292929292947 0.072185551683046967 0.33585858585858597 0.23848454975014446 0.4644189765458423 0.051421328987868851 0.10773317591499407 0.61408934707903784 0.38069874514760321 0.47159283057152518 0.31894342598068209
decision_type=2 2 2 2 2 2 2 2 2 2 2 2 2 2 2 2 2 2 2 2 2 2 2 2 2 2 2 2
left_child=3 2 -2 4 5 8 -3 -8 9 11 -9 -1 -13 -12 -14 -15 17 21 -17 -20 24 22 23 -16 -21 -25 27 -26
right_child=1 6 -4 -5 -6 -7 7 10 -10 -11 13 12 14 15 16 18 -18 -19 19 20 -22 -23 -24 25 26 -27 -28 -29
leaf_value=-0.060154035135657896 -0.05121976392687299 0.035731907757235969 0.061984379459782406 0.017846015167053666 -0.010747380966403696 -0.029682205448045913 0.063393230538247289 0.060545181992082801 -0.062055702558424776 -0.061965932612672803 0.059151301251629873 -0.059691205269655156 -0.059075455537680545 0.059058015957803016 -0.0587080792312063 0.058624228443615214 -0.058558265877873772 -0.05898229436784011 0.058870033540788881 0.058711982179606048 0.058776777448797758 -0.058765376640089274 -0.058695833432107172 -0.05872604456928246 0.058722738293056458 -0.058717033144229214 0.058719793908885057 0.058726224363824422
leaf_weight=1.5363926738500762 2.7700908780097988 1.5640781372785593 2.4161273241043091 2.8075370341539374 2.5936065763235083 1.3752638399600972 2.0603690817952183 1.9717967808246601 1.6520931720733631 1.671060912311076 1.4325869679450978 1.3526909500360478 1.2986669838428486 1.2975076884031285 1.2632674723863582 1.756161332130431 1.4972917810082425 1.288919150829315 1.2791817337274531 1.5163996219635008 1.5242333859205244 1.2689771503210066 1.6406174004077909 2.1506730467081074 1.264766186475754 1.2641837596893308 1.6438055932521818 1.3916332870721815
leaf_count=11 15 10 16 13 13 8 13 14 11 11 11 10 10 10 10 14 12 10 10 12 12 10 13 17 10 10 13 11
internal_value=0 0.0453992 0.00151917 -0.043948 -0.0518866 -0.0574265 0.0575671 0.0595599 -0.0595599 -0.0593059 0.059036 -0.0590006 -0.0588646 0.058809 -0.0587688 0.058767 -0.0587304 -0.0587595 0.0587306 0.0587523 0.0587317 -0.0587216 -0.0587128 -0.0587188 0.0587199 -0.0587227 0.0587227 0.0587246
internal_weight=0 23.8887 5.18622 24.6612 21.8537 19.2601 18.7025 17.1384 17.8848 16.2327 15.0781 14.5617 13.0253 13.1063 11.6726 11.6737 10.3739 8.87664 10.3762 8.62002 7.34084 7.58772 6.31874 4.67812 5.8166 3.41486 4.30021 2.6564
internal_count=340 171 31 169 156 143 140 130 135 124 117 113 102 103 92 92 82 70 82 68 58 60 50 37 46 27 34 21
shrinkage=0.05


Tree=25
num_leaves=32
num_cat=0
split_feature=27 20 1 27 10 0 23 24 7 13 1 20 29 12 24 28 14 12 11 9 10 15 15 20 28 11 28 16 11 6 10
split_gain=36.4607 7.96682 5.68282 5.35515 3.53763 1.04859 0.461417 0.364297 0.0166165 0.0112979 0.00715771 0.002473 0.00106043 0.000235254 0.000188974 8.84359e-05 8.04415e-05 3.03232e-05 2.71442e-05 1.20078e-05 9.03179e-06 7.48212e-06 4.97584e-06 1.13795e-06 5.08225e-07 3.52324e-07 1.74019e-07 1.98694e-08 1.30694e-08 4.60959e-09 2.56556e-09
threshold=0.36975945017182138 0.33475631447883319 0.37521136286777135 0.52852233676975946 0.14942965779467679 0.38473188508684747 0.14401051907196222 0.44297695304761281 0.27142147117296228 0.047222813682531409 0.24129184984781862 0.2559587335467805 0.051423324150596854 0.081774489940159262 0.34623258271148377 0.12950916617386163 0.087296461229901021 0.086415681100692615 0.27311704384724184 0.11731255265374881 0.028698171283722554 0.15672785171388234 0.40776429236638928 0.42529348986125942 0.20530258229844278 0.21819748939179631 0.2687758722649321 0.050404040404040361 0.1240938826025459 0.037675726335520111 0.17479630635524168
decision_type=2 2 2 2 2 2 2 2 2 2 2 2 2 2 2 2 2 2 2 2 2 2 2 2 2 2 2 2 2 2 2
left_child=4 2 3 7 5 9 -4 -2 -3 11 -10 12 -1 -12 -15 -14 -17 18 20 -16 -18 24 23 -21 -22 26 -25 29 -28 -26 -30
right_child=1 8 6 -5 -6 -7 -8 -9 10 -11 13 -13 15 14 19 16 17 -19 -20 22 21 -23 -24 25 27 -27 28 -29 30 -31 -32
leaf_value=-0.059828119567524068 -0.071455194625292595 0.06406724594607692 0.035516368129283354 0.04335449043924073 0.025824918607766464 -0.014609630416830775 0.072346794585286742 -0.041596146753729558 0.06204104485901394 -0.063113315988351168 0.058976078552820221 -0.060690490397009071 -0.058764729421505471 0.058867013677464775 0.058398385678695125 -0.058702984447125295 -0.058325686424632539 -0.058512790207904501 -0.058446549625637702 0.05817406786400401 -0.058185217661444813 -0.058075398191677834 0.058326871126965052 0.058202943532955187 -0.058221970077985019 0.0582439535212292 0.058220243035679881 -0.058216706140063523 0.058228188719090017 -0.058226005835229577 0.05822513045475608
leaf_weight=1.3698604404926431 2.382632181048395 1.6226851493120218 1.7292566299438479 1.8605252429842947 1.4286249577999104 1.4322744458913792 1.673241078853607 1.7881503552198408 1.4897313266992558 1.5922595113515843 1.5436859056353558 1.4185056090354908 1.262890763580798 1.4061606451869 1.2308161631226529 1.2584392130374897 1.4663603603839854 1.2412972301244725 1.4816377982497213 1.207556314766405 1.2088365256786344 1.1969953104853628 1.2236321195960034 1.2107307240366934 1.2127518281340601 2.0655447170138359 1.2125679850578306 1.2121927887201307 1.2134102806448939 1.6984510272741316 1.5770125240087507
leaf_count=10 12 10 11 11 8 6 11 10 10 10 12 10 10 11 10 10 12 10 12 10 10 10 10 10 10 17 10 10 10 14 13
internal_value=0 0.0388105 0.00196114 -0.0271864 -0.0500619 -0.0557521 0.0536284 -0.0586536 0.0592551 -0.0590964 0.0587474 -0.0586973 -0.0585038 0.0583941 0.0583214 -0.0583668 -0.0583248 -0.0582804 -0.05825 0.0582513 -0.0582136 -0.0581884 0.0582326 0.058219 -0.0582137 0.0582265 0.0582196 -0.0582221 0.0582246 -0.0582243 0.0582265
internal_weight=0 26.4373 9.43381 6.03131 20.4814 19.0528 3.4025 4.17078 17.0035 17.6205 15.3808 16.0282 14.6097 13.8911 12.3474 13.2399 11.977 10.7185 9.47723 10.9413 7.99559 6.52923 9.71045 8.48682 5.33223 7.27927 5.21372 4.1234 4.00299 2.9112 2.79042
internal_count=340 188 55 33 152 144 22 22 133 138 123 128 118 113 101 108 98 88 78 90 66 54 80 70 44 60 43 34 33 24 23
shrinkage=0.05


Tree=26
num_leaves=30
num_cat=0
split_feature=27 20 21 13 4 23 14 20 6 1 13 29 12 24 28 10 8 10 12 5 15 9 20 21 17 12 28 27 17
split_gain=34.1288 7.62412 5.61774 3.44011 1.99519 1.64449 0.21139 0.0368407 0.0139514 0.00602697 0.00238983 0.000473109 0.000197653 0.000157951 9.70205e-05 2.95037e-05 1.33742e-05 1.19967e-05 1.50489e-05 7.16759e-06 1.28816e-06 9.08639e-07 6.6853e-07 3.19687e-07 1.46234e-07 6.86038e-08 6.40257e-08 7.81838e-09 3.02088e-09
threshold=0.36975945017182138 0.33475631447883319 0.41444562899786785 0.062024886159455152 0.49580211248533007 0.13878784899724733 0.069245674269979865 0.27659196015652798 0.18332942830365509 0.24129184984781862 0.043636696438910806 0.06545979273252002 0.081774489940159262 0.34623258271148377 0.12950916617386163 0.092956726416802415 0.29494949494949502 0.028698171283722554 0.022145785233001852 0.23124348199496964 0.38497010845074658 0.13995366470092657 0.43151903237282113 0.40285181236673778 0.15832544042432276 0.045752249917542252 0.24866942637492612 0.61408934707903784 0.29551051335480205
decision_type=2 2 2 2 2 2 2 2 2 2 2 2 2 2 2 2 2 2 2 2 2 2 2 2 2 2 2 2 2
left_child=3 2 4 6 -2 -4 -1 10 -3 -10 11 -8 -11 -14 -13 17 -15 18 -16 23 21 -18 -23 24 25 -19 -24 -28 -29
right_child=1 8 5 -5 -6 -7 7 -9 9 12 -12 14 13 16 15 -17 20 19 -20 -21 -22 22 26 -25 -26 -27 27 28 -30
leaf_value=-0.039381479764328792 -0.056745397539133463 0.063215944535625276 0.0057999032085287163 0.0062175813288103338 0.0085633155804210551 0.070194708560034305 -0.058861036219323863 -0.067268812657516761 0.061330489498272203 0.058462539505465587 -0.060049031781774856 -0.058270056298502584 0.058359170856717595 0.057942755826258067 -0.057736335713518397 -0.058020119510044314 0.057797571793043706 -0.057760713555712585 -0.057989631787177691 -0.057619387012708738 0.057810703653427324 0.057715209830130038 0.057746409270023218 -0.057779556552580061 -0.057734889224057978 -0.057746158372741198 0.057756253220965427 0.057762185514502955 0.05775910822769828
leaf_weight=1.5285197794437468 3.264313682913782 1.5639450773596788 1.6293884962797163 2.4449282586574546 1.8222935199737547 2.5322728976607323 1.2719577774405468 1.2018164098262776 1.4330763667821873 1.4809705018997181 1.5042271316051472 1.2117533683776844 1.3487713411450375 1.1823839247226704 1.1603669300675377 1.3084700927138317 1.1669756770133952 2.2098356857895856 1.1854616329073904 1.1473485380411146 1.2853115946054448 1.1579616442322729 1.1614987179636953 1.1650551334023473 1.1602320075035093 1.277619272470474 1.2788401767611501 1.861172750592232 1.3954750970005987
leaf_count=11 17 10 11 12 10 17 10 7 10 12 11 10 11 10 10 11 10 19 10 10 11 10 10 10 10 11 11 16 12
internal_value=0 0.0381683 0.00190009 -0.0493049 -0.0333483 0.0449826 -0.0571368 -0.0588541 0.0587255 0.0582495 -0.0581615 -0.0579447 0.057918 0.0578498 -0.0578462 -0.0577978 0.0577844 -0.0577666 -0.0578643 -0.0577336 0.0577642 0.0577568 0.0577498 -0.0577561 -0.0577503 -0.0577554 0.0577569 0.0577596 0.0577609
internal_weight=0 25.5647 9.24827 19.7776 5.08661 4.16166 17.3327 15.8041 16.3164 14.7524 14.6023 13.0981 13.3194 11.8384 11.8261 10.6144 10.4896 9.30592 2.34583 6.96009 9.30724 8.02192 6.85495 5.81274 4.64769 3.48745 5.69699 4.53549 3.25665
internal_count=340 188 55 152 27 28 140 129 133 123 122 111 113 101 101 91 90 80 20 60 80 69 59 50 40 30 49 39 28
shrinkage=0.05


Tree=27
num_leaves=31
num_cat=0
split_feature=22 21 4 0 12 26 15 26 2 27 22 13 19 14 8 12 12 1 17 14 5 6 14 8 0 1 17 11 11 8
split_gain=31.9522 6.61544 2.74661 3.88813 2.20659 1.59836 0.608043 0.196543 0.172713 0.0122933 0.00743792 0.00280005 0.000681985 0.000163497 0.00016184 0.000123165 2.96564e-05 1.95811e-05 1.39255e-05 1.43028e-05 5.70594e-06 4.05668e-06 1.53266e-06 6.98342e-07 5.79297e-07 8.43379e-08 8.23483e-08 1.14695e-08 8.85638e-09 1.45255e-09
threshold=0.25519199163304945 0.23400852878464815 0.3390809786043153 0.38473188508684747 0.12510012722046837 0.31928913738019177 0.18230089824856552 0.22871405750798723 0.32813903669407785 0.39553264604810995 0.31669903879675282 0.044309093422089656 0.020545720879454953 0.085647754699663417 0.20681818181818187 0.079230080572963268 0.090821278801300462 0.28525532634426781 0.34892972153817015 0.21839412584559947 0.2467793386908779 0.30951265229615749 0.26556073019002618 0.36994949494949497 0.28321264612617736 0.37250591816029754 0.16131843152112138 0.14083495403111743 0.17554367043847244 0.32272727272727275
decision_type=2 2 2 2 2 2 2 2 2 2 2 2 2 2 2 2 2 2 2 2 2 2 2 2 2 2 2 2 2 2
left_child=4 -2 3 -3 5 9 -5 -4 -9 11 -10 12 -1 -14 -15 -12 20 -17 21 -20 22 -19 24 -23 26 -25 28 -27 29 -16
right_child=1 2 7 6 -6 -7 -8 8 10 -11 15 -13 13 14 16 17 -18 18 19 -21 -22 23 -24 25 -26 27 -28 -29 -30 -31
leaf_value=-0.058700189578379192 -0.029287100192574436 -0.036671388945258392 0.04363500531283989 0.066754369320515913 0.0080226409726803956 -0.001047328253947612 0.022316916901953487 0.075218929944647295 0.061222006058030104 -0.063003442564740011 0.057874868290422266 -0.060089178224703693 -0.058036754857415496 -0.057861234384526061 -0.057323164022313633 0.057132528076641056 -0.057577194245017338 0.05723535849661944 0.057587311307776591 0.057346559000012634 -0.057199284603620497 0.057372003409643491 -0.05737527789985785 0.057338057684548471 -0.05728083867677311 0.057318351406507241 -0.057307377692313137 0.057324993798355955 -0.05731935330541793 -0.057325565069489381
leaf_weight=1.2582777589559651 3.2367160841822651 2.1011964231729534 2.1613505035638836 2.0822001099586491 1.5703661739826191 1.3241429552435864 1.2213239371776579 1.6140424534678448 1.4314661249518383 1.2265513539314259 1.1705880537629116 1.221821792423724 1.1866879984736431 1.751374840736388 1.1143160462379444 1.0907158404588688 1.1407571062445629 1.2143756598234157 1.1430089101195338 1.3402917906641958 1.1000753566622732 1.1197317466139791 1.1200408041477201 1.2275806218385699 1.2204102948307989 1.1137699335813525 1.1125229001045225 1.5603326782584188 1.2252723574638364 1.4489646628499029
leaf_count=10 18 11 16 14 9 8 9 10 10 8 10 9 10 15 10 10 10 11 10 12 10 10 10 11 11 10 10 14 11 13
internal_value=0 0.0373731 0.0473657 0.0165038 -0.0487474 -0.0538559 0.0503257 0.0576701 0.0598328 -0.0581919 0.057832 -0.0577958 -0.057591 -0.0574786 -0.0574196 0.0573901 -0.0573381 0.0573323 0.0573572 0.0574574 -0.0573054 0.0573174 -0.0573215 0.0573372 -0.0573117 0.0573272 -0.0573193 0.0573222 -0.0573228 -0.0573245
internal_weight=0 24.8287 21.592 5.40472 19.0216 17.4512 3.30352 16.1873 14.0259 16.1271 12.4119 14.9005 13.6787 12.4204 11.2337 10.9804 9.48236 9.80981 8.71909 2.4833 8.3416 6.23579 7.24153 5.02141 6.12149 3.90168 4.90108 2.6741 3.78855 2.56328
internal_count=340 186 168 34 154 145 23 134 118 137 108 129 120 110 100 98 85 88 78 22 75 56 65 45 55 35 44 24 34 23
shrinkage=0.05


Tree=28
num_leaves=30
num_cat=0
split_feature=7 21 23 23 21 12 26 10 10 6 22 21 22 27 0 19 28 9 14 16 8 21 10 13 8 6 18 21 18
split_gain=30.3571 4.28845 8.34865 4.26259 5.47209 2.30127 0.410186 0.298776 0.277142 0.152788 0.11206 0.0123056 0.0085418 0.00166999 0.000958798 0.00057208 0.000196833 4.26138e-05 2.8565e-05 9.45379e-06 3.55585e-06 4.65524e-06 3.48312e-06 3.47527e-06 1.56009e-06 3.44048e-07 2.07133e-07 1.05268e-07 7.47159e-09
threshold=0.24018389662027831 0.4644189765458423 0.14260961462839164 0.15343590247738892 0.38192963752665249 0.14891862601894171 0.26497603833865818 0.069853340575773956 0.11611443056309977 0.15205014058106844 0.28930723641615624 0.27785181236673778 0.25519199163304945 0.50773195876288668 0.20677741492735097 0.028059920124925704 0.13897102306327622 0.10646588037068236 0.10592514532413226 0.16626262626262625 0.32045454545454555 0.25039978678038383 0.077602752127466965 0.072185551683046967 0.35757575757575766 0.088812089971883765 0.17564867450892102 0.37739872068230285 0.10726346597624811
decision_type=2 2 2 2 2 2 2 2 2 2 2 2 2 2 2 2 2 2 2 2 2 2 2 2 2 2 2 2 2
left_child=1 5 14 4 -2 6 8 -5 9 10 12 -9 15 -13 -3 -1 -17 -15 -18 23 21 -20 25 -19 -25 -22 27 -26 -29
right_child=3 2 -4 7 -6 -7 -8 11 -10 -11 -12 13 -14 17 -16 16 18 19 20 -21 22 -23 -24 24 26 -27 -28 28 -30
leaf_value=-0.057993067308528337 -0.04791938793014968 -0.057127922412611311 0.080848498451807443 0.034473505329425606 0.060310387393683301 0.016338896317979714 -0.029132158391289211 0.061712438321731525 -0.081943253083385639 -0.040139497249203453 -0.074544720113911611 0.058524516461157666 -0.06195586281290949 0.057262691793028619 -0.059101845027678693 -0.057661876435652085 -0.057192116952792915 0.056843579462751807 -0.057039672576914446 0.057045075037605301 -0.056930777021007906 -0.056901225367462019 -0.05680755724421354 0.056977687119875248 0.056897428387835618 -0.056894598588691593 0.056934753244932801 0.056912378988137217 0.056917596735194025
leaf_weight=2.0018590241670706 2.5611286684870747 1.197651952505111 1.924927085638046 1.5226846262812639 2.1468594148755074 1.1344387382268895 1.1946695894002903 1.7297114729881276 1.2676792815327633 1.1591398566961277 1.075484737753867 2.0555317252874366 1.0541832223534573 1.1064465790987004 1.2649325206875799 1.1462909430265407 1.0974912643432615 1.4809395596384982 1.0808578431606295 1.6228883266448964 1.4968167468905456 1.3854599073529241 1.054516978561878 1.2894585728645322 1.0652793571352956 1.1714346483349798 1.1766024753451345 1.0670471265912058 1.9217843934893606
leaf_count=17 15 11 9 11 16 6 8 12 8 10 5 17 7 10 10 10 10 14 10 15 14 13 10 12 10 11 11 10 18
internal_value=0 -0.0413179 0.0028372 0.0432648 0.00143378 -0.0525031 -0.0573281 0.0555441 -0.0595751 -0.0575089 -0.0591113 0.0577544 -0.0576665 0.0572189 -0.0581418 -0.0572332 -0.0570528 0.0569688 -0.056957 0.056935 -0.0569153 -0.0569619 -0.0568845 0.0569127 0.0569284 -0.0569149 0.0569163 0.0569109 0.0569157
internal_weight=0 21.7078 4.38751 20.7464 4.70799 17.3203 16.1859 16.0384 14.9912 13.7235 12.5644 14.5157 11.4889 12.786 2.46258 10.4347 8.43287 10.7304 7.28658 9.624 6.18909 2.46632 3.72277 8.00111 6.52017 2.66825 5.23071 4.05411 2.98883
internal_count=340 169 30 171 31 139 133 140 125 117 107 129 102 117 21 95 78 100 68 90 58 23 35 75 61 25 49 38 28
shrinkage=0.05


Tree=29
num_leaves=29
num_cat=0
split_feature=7 23 21 1 20 23 11 22 13 1 5 23 24 19 17 10 28 7 5 1 19 0 29 14 28 18 6 13
split_gain=28.4701 4.05903 4.75422 4.04755 5.74935 1.18262 0.813651 0.0899857 0.0177929 0.00566544 0.00346648 0.000854919 0.000797254 0.000262206 0.000286033 0.000173472 5.03173e-05 4.97045e-05 4.00278e-05 6.90844e-06 5.41707e-06 4.88765e-06 1.91728e-06 3.14534e-06 1.04233e-06 4.52084e-07 1.89581e-07 2.67338e-08
threshold=0.24018389662027831 0.16901789225324418 0.36780383795309174 0.40040581670612096 0.2509782995375312 0.19122345654738493 0.36836987270155591 0.28930723641615624 0.051789509859954612 0.24129184984781862 0.28731366173854372 0.12447158867479351 0.32245922208281058 0.023965977087738153 0.25430952831975756 0.080137606373347769 0.23102700571653859 0.44145129224652097 0.21098398871234894 0.15522489009130866 0.082507635117394215 0.49122059728335471 0.33785911058638335 0.13318829248393788 0.18085945200078848 0.22025384139134352 0.099086223055295172 0.015778915871930702
decision_type=2 2 2 2 2 2 2 2 2 2 2 2 2 2 2 2 2 2 2 2 2 2 2 2 2 2 2 2
left_child=3 2 -2 5 -5 6 7 8 10 -3 11 13 -11 -1 18 -14 17 -17 19 -15 21 -18 23 -22 -21 -25 27 -26
right_child=1 9 -4 4 -6 -7 -8 -9 -10 12 -12 -13 15 14 -16 16 20 -19 -20 24 22 -23 -24 25 26 -27 -28 -29
leaf_value=-0.057478543045064716 -0.032022655697906736 0.060233421850267088 0.059767694778548958 -0.057627868587487752 0.05596554433319615 -0.0048442013205598619 -0.014077292438084156 -0.071927057896471636 -0.063781201637710547 0.057978308443542063 -0.059882274110680249 -0.058225074140523504 0.05726180105410178 -0.056651729616401761 -0.057444494856558836 0.057031621449502773 0.056391464249119387 0.056600768899614011 -0.056867073793469308 -0.056467280650083509 0.056658256542431354 0.056535345526997884 0.056513875462707891 0.056541811506364496 -0.056523448258382847 0.056581977297660783 -0.056503360601893954 -0.05653295382195013
leaf_weight=1.2375769540667594 3.2885359674692181 1.321833662688731 2.4703738614916801 2.1364488899707785 2.32738097012043 1.2276059389114369 1.0831057727336872 1.2358144521713246 1.1370995044708241 1.2841577976942051 1.1182444319128979 1.1822361946105946 1.1030148565769184 1.0343122184276561 1.1123756542801855 1.1812198534607872 1.0044943168759348 1.5448339432477949 1.056996554136276 1.1153593882918356 1.0361617133021352 1.4312555342912672 1.3255872577428816 1.841603569686413 1.4292777925729758 1.1306846886873243 1.0184682533144949 1.5330891385674474
leaf_count=11 19 10 19 19 12 6 9 6 7 11 9 10 10 10 10 11 10 15 10 11 10 14 13 18 14 11 10 15
internal_value=0 0.0427608 0.00735224 -0.0406472 0.00159821 -0.0520611 -0.0558511 -0.0590349 -0.057807 0.057116 -0.0572332 -0.0569568 0.0567962 -0.0567996 -0.0566984 0.0566653 0.0566026 0.0567875 -0.0565829 -0.0565339 0.0565378 0.056476 0.056566 0.0565832 -0.05651 0.0565571 -0.056522 -0.0565284
internal_weight=0 19.9638 5.75891 20.9854 4.46383 16.5216 15.294 14.2109 12.975 14.2048 11.8379 10.7197 12.883 9.53746 8.29988 11.5989 10.4958 2.72605 7.1875 6.13051 7.76979 2.43575 5.33404 4.00845 5.09619 2.97229 3.98084 2.96237
internal_count=340 171 38 169 31 138 132 123 117 133 110 101 123 91 80 112 102 26 70 60 76 24 52 39 50 29 39 29
shrinkage=0.05


Tree=30
num_leaves=29
num_cat=0
split_feature=27 20 21 10 4 21 23 23 6 1 10 29 10 20 24 6 21 15 24 7 8 15 15 1 27 7 27 29
split_gain=26.853 6.47982 4.43904 3.44319 1.74235 1.50645 1.0799 0.366859 0.00975142 0.0050428 0.00212308 0.000699813 0.000122497 0.000113699 0.000100416 6.37508e-05 2.3431e-05 1.65443e-05 1.57034e-05 1.11841e-05 2.21984e-06 1.69705e-06 9.3612e-07 5.16654e-07 1.05401e-07 9.4912e-08 1.72674e-08 3.2378e-09
threshold=0.36975945017182138 0.33475631447883319 0.41444562899786785 0.16599674090168384 0.49580211248533007 0.52332089552238836 0.14158965788438851 0.15027772316162014 0.18875351452671038 0.24129184984781862 0.11553503530689836 0.06545979273252002 0.083432916892992856 0.24848808253290644 0.34623258271148377 0.14451733833177133 0.37859808102345421 0.096644335626520819 0.30495938717559262 0.33844433399602386 0.33257575757575758 0.14839126385676094 0.38497010845074658 0.30334798782549882 0.61013745704467359 0.11692345924453278 0.66512027491408943 0.2683654729109276
decision_type=2 2 2 2 2 2 2 2 2 2 2 2 2 2 2 2 2 2 2 2 2 2 2 2 2 2 2 2
left_child=3 2 4 5 -2 7 -4 10 -3 -10 11 -1 -11 15 -14 16 18 -18 -13 -16 -21 25 23 -22 -25 -20 -26 -28
right_child=1 8 6 -5 -6 -7 -8 -9 9 12 -12 13 14 -15 19 -17 17 -19 21 20 22 -23 -24 24 26 -27 27 -29
leaf_value=-0.057547343724245116 -0.053201238250199394 0.060934483197054981 0.014050534797385161 0.03258757729774963 0.00981982691145202 -0.013403062178594636 0.06818492663545031 -0.085697948996675419 0.059647366402401869 0.056834393151449905 -0.058822223642054777 -0.056333864342429485 0.056708262537596602 -0.056822130304448729 0.056346907255366091 -0.056632064701407803 -0.056543773674109156 -0.056263235044469076 -0.056173548065395755 0.056251065545915496 0.056135519122755134 -0.056089715363855965 0.056221517802236658 0.05618932551240529 0.056166150294588581 -0.056154685550514387 0.056171782528413275 0.056175509136975714
leaf_weight=1.463217712938788 3.0296604037284869 1.4961407184600819 1.7420944124460223 1.2594281584024418 1.7190345525741575 2.0603342428803435 1.9551869332790373 1.1958115249872197 1.2694072648882855 1.053121119737624 1.1020929887890805 1.5935691073536853 1.1463587433099736 1.2575852200388897 1.2979459092020968 1.3370965495705602 1.017030715942383 1.0874729007482526 1.760814160108567 1.1851017028093336 0.97338408231735218 0.96769391000270832 0.9840913414955138 1.0781774967908857 1.0750443637371065 1.0734772384166715 1.0758129581809046 1.2720144912600515
leaf_count=13 17 11 13 7 10 16 15 6 10 10 9 16 11 12 13 13 10 11 18 12 10 10 10 11 11 11 11 13
internal_value=0 0.0361413 0.00159728 -0.0469967 -0.0303875 -0.0532941 0.0426777 -0.0592258 0.0571212 0.0566615 -0.0567254 -0.0565254 0.0563213 -0.0563773 0.0562677 -0.056314 -0.0562573 -0.0563988 -0.0562021 0.0562112 0.0561882 -0.0561469 0.0561766 0.0561685 0.0561757 -0.0561664 0.0561714 0.0561738
internal_weight=0 22.3526 8.44598 17.1756 4.74869 15.9162 3.69728 13.8559 13.9066 12.4105 12.6601 11.558 11.1411 10.0947 10.0879 8.83715 7.50006 2.1045 5.39555 8.94157 7.64363 3.80199 6.45852 5.47443 4.50105 2.83429 3.42287 2.34783
internal_count=340 188 55 152 27 145 28 129 133 122 123 114 112 101 102 89 76 21 55 91 78 39 66 56 46 29 35 24
shrinkage=0.05


Tree=31
num_leaves=30
num_cat=0
split_feature=23 26 22 21 1 7 10 6 6 27 1 13 29 24 18 10 16 11 10 4 15 17 23 24 24 24 24 18 17
split_gain=25.1823 6.79105 2.57451 3.80645 2.2146 1.29652 0.637118 0.215734 0.0129605 0.0103804 0.00422413 0.0018796 0.000339226 0.000246957 0.000144739 8.31324e-05 5.54657e-05 3.72991e-05 9.35548e-06 7.92157e-06 1.84847e-06 1.75148e-06 1.66348e-06 4.72359e-07 3.43404e-07 2.70509e-07 3.73541e-08 3.18461e-08 1.99221e-08
threshold=0.12447158867479351 0.16054313099041531 0.32342248119926298 0.41444562899786785 0.32651335813324306 0.27142147117296228 0.14316494658699977 0.25480318650421746 0.21430412371134019 0.4063573883161512 0.24129184984781862 0.04272148943402846 0.06545979273252002 0.33731757247573141 0.083694489784431766 0.080137606373347769 0.084545454545454465 0.28063118811881188 0.021075502444323702 0.37293491017423502 0.38497010845074658 0.18116120477363132 0.25616889500589857 0.44297695304761281 0.44627880869048403 0.53840058112659317 0.30495938717559262 0.13723476107390106 0.14060428111384732
decision_type=2 2 2 2 2 2 2 2 2 2 2 2 2 2 2 2 2 2 2 2 2 2 2 2 2 2 2 2 2
left_child=5 4 3 -3 -2 6 9 -5 -4 11 -10 12 -1 -12 -14 -15 17 18 -16 -17 22 23 -21 26 -24 27 -20 -26 -28
right_child=1 2 8 7 -6 -7 -8 -9 10 -11 13 -13 14 15 16 19 -18 -19 21 20 -22 -23 24 -25 25 -27 28 -29 -30
leaf_value=-0.056970218230663172 -0.065039778158321113 -0.020412954253463622 0.061218581993039749 0.070302780082273711 0.017151826769545821 0.00052133649152301528 -0.015936744897215065 0.042781934768425678 0.059099591511335418 -0.061276774097361687 0.056726819163087798 -0.058442169900188502 -0.056523613010863616 0.056346033571294002 -0.055994147745135982 0.055985882921261547 -0.056227686775086543 -0.056170644485154457 -0.055820817642062995 0.055776165127484026 0.055906576893227304 -0.05576127720461236 0.055869058893101647 -0.055868508449354343 0.055826938164848842 0.055859924112415173 -0.055836649720564291 0.055837213102845284 -0.055826769415552702
leaf_weight=1.0690797865390749 2.0327222496271165 3.1585171148180988 1.5166832879185665 1.6969449371099474 1.3732161223888395 1.1923767402768124 1.0317094475030888 1.2269598245620725 1.2184052765369404 1.1522986143827427 1.0326893627643574 0.94969660788774568 1.3055684268474568 0.99495261907577415 0.95388231426477244 1.1450893208384494 1.5693856403231619 1.0728301703929899 1.1208322495222094 1.0209698826074598 1.0391506031155584 0.92632946372032154 1.222112603485584 0.93994756788015354 1.7761234641075136 1.1267395764589307 1.1232490688562395 1.3105575293302534 0.93478015810251225
leaf_count=10 15 17 12 11 7 8 7 11 10 8 10 8 13 10 10 12 16 11 12 11 11 10 13 10 19 12 12 14 10
internal_value=0 0.0332373 0.0446229 0.0176438 -0.0319015 -0.0495495 -0.0537689 0.0587542 0.0568659 -0.0567444 0.0563105 -0.0563079 -0.0561239 0.055992 -0.0560329 0.0559132 -0.0559588 -0.0558991 -0.0558505 0.0558634 0.0558447 -0.0558234 0.0558347 -0.0558374 0.0558457 0.055839 -0.0558282 0.0558313 -0.0558322
internal_weight=0 22.8918 19.4859 6.08242 3.40594 15.342 14.1496 2.9239 13.4035 13.1179 11.8868 11.9656 11.0159 10.6684 9.94681 9.6357 8.64124 7.07185 5.99902 8.64074 7.49565 5.04514 6.4565 4.11881 5.43553 4.21342 3.17886 3.08668 2.05803
internal_count=340 195 173 39 22 145 137 22 134 130 122 122 114 112 104 102 91 75 64 92 80 54 69 44 58 45 34 33 22
shrinkage=0.05


Tree=32
num_leaves=31
num_cat=0
split_feature=7 23 21 21 23 12 26 12 12 6 22 21 22 2 24 27 19 24 8 20 9 21 4 2 13 18 8 25 11 17
split_gain=23.7061 3.63809 4.51251 3.54698 6.88215 2.17642 0.371363 0.255232 0.21525 0.157454 0.0609128 0.00967091 0.00499339 0.00119005 0.000976794 0.000638774 0.000216477 5.31927e-05 4.54228e-05 2.14896e-05 8.62885e-06 4.24377e-06 4.04866e-06 3.25631e-06 2.68309e-06 3.99756e-07 2.55423e-07 9.41645e-08 7.10278e-08 7.98715e-09
