tree
version=v3
num_class=1
num_tree_per_iteration=1
label_index=0
max_feature_idx=29
objective=binary sigmoid:1
feature_names=Column_0 Column_1 Column_2 Column_3 Column_4 Column_5 Column_6 Column_7 Column_8 Column_9 Column_10 Column_11 Column_12 Column_13 Column_14 Column_15 Column_16 Column_17 Column_18 Column_19 Column_20 Column_21 Column_22 Column_23 Column_24 Column_25 Column_26 Column_27 Column_28 Column_29
feature_infos=[0:0.96734346159307139] [0.022658099425092899:0.81501521812647959] [0:0.98894340404947845] [0:1] [0:1] [0:1] [0:1] [0:1] [0:1] [0:1] [0:0.8819482165489767] [0.00041990806223470001:0.78142680339462534] [0.0040946143335061002:0.84309475568958203] [0.0007956697634283:1.0000000000000002] [0.037835265322772503:1] [0:1] [0:0.76717171717171717] [0:0.7747679484750899] [0:1] [0.0025392811243314002:0.7588546632947778] [0:1] [0.0125266524520256:1] [0:1] [0:1] [0.066565409760285105:1] [0.0068205411803513999:1] [0:1] [0:0.99759450171821296] [0:1] [0:1]
tree_sizes=842 1679 2321 2627 3161 3053 3060 3157 2849 3087 3289 3503 3406 3395 3403

Tree=0
num_leaves=8
num_cat=0
split_feature=7 20 20 20 24 11 20
split_gain=233.902 22.4432 19.2346 5.775 5.25 1.61383 0.370588
threshold=0.24018389662027831 0.31661330487371048 0.24706510138740664 0.32355033795802207 0.45948623126196925 0.31820190947666194 0.27107790821771616
decision_type=2 2 2 2 2 2 2
left_child=1 5 -2 4 -4 6 -1
right_child=2 -3 3 -5 -6 -7 -8
leaf_value=-0.40000000000000002 -0.18181818181818182 0.13333333333333333 0 0.40000000000000002 0.34999999999999992 -0.26666666666666666 -0.32000000000000006
leaf_weight=31.5 2.7499999999999991 3.7499999999999991 2.9999999999999991 33 4 4.4999999999999991 2.4999999999999991
leaf_count=126 11 15 12 132 16 18 10
internal_value=0 -0.333728 0.329825 0.365 0.2 -0.379221 -0.394118
internal_weight=0 42.25 42.75 40 7 38.5 34
internal_count=340 169 171 160 28 154 136
shrinkage=0.2


Tree=1
num_leaves=15
num_cat=0
split_feature=27 20 21 0 27 24 20 12 11 27 12 20 5 0
split_gain=154.834 21.5484 18.6247 8.85591 5.83298 3.05599 0.346538 0.334782 0.026287 0.0237365 0.00233023 0.00155648 0.000990181 1.42109e-14
threshold=0.36975945017182138 0.33475631447883319 0.36780383795309174 0.37739599602442148 0.46666666666666662 0.45948623126196925 0.28868729989327641 0.11581774489940157 0.33323019801980197 0.43745704467353946 0.086415681100692615 0.25293489861259344 0.23762345868351634 0.69473235837001301
decision_type=2 2 2 2 2 2 2 2 2 2 2 2 2 2
left_child=3 2 5 7 -4 -2 -6 8 10 -3 11 -1 -11 -14
right_child=1 9 4 -5 6 -7 -8 -9 -10 12 -12 -13 13 -15
leaf_value=-0.3340640126482714 -0.3883825043029866 0.35491081488225812 -0.031276300151649929 0.060776411273154578 0.38255937797473516 -0.086150408764000957 0.28234297609292525 -0.26010113684870823 -0.35318566033917037 0.33829307271883446 -0.34058727362628893 -0.33917883971673296 0.33406401264827151 0.33406401264827157
leaf_weight=22.584510505199443 2.9798259735107413 2.4457646161317816 2.4376112371683103 2.4631898999214163 3.1869251579046249 2.4291596859693527 2.4344795048236847 2.4176937043666831 3.6841155588626853 2.4112389236688641 2.9019448459148398 2.6601027846336356 24.506596505641941 2.6428682506084433
leaf_count=94 12 10 10 10 13 10 10 10 15 10 12 11 102 11
internal_value=0 0.246668 0.0344313 -0.305506 0.227113 -0.252651 0.339158 -0.33185 -0.337299 0.335976 -0.33522 -0.334603 0.334409 0.334064
internal_weight=0 45.4745 13.468 36.7116 8.05902 5.40899 5.6214 34.2484 31.8307 32.0065 28.1466 25.2446 29.5607 27.1495
internal_count=340 188 55 152 33 22 23 142 132 133 117 105 123 113
shrinkage=0.2


Tree=2
num_leaves=21
num_cat=0
split_feature=22 21 27 27 23 14 17 22 27 14 29 7 14 17 22 3 25 2 14 4
split_gain=114.258 12.4057 8.09306 6.20145 1.64826 3.23031 0.6495 0.0738253 0.0146668 0.00332849 0.0010049 0.00055285 0.000331289 0.000157742 7.43394e-05 3.07856e-05 1.27818e-05 1.77408e-06 1.65769e-06 3.22757e-07
threshold=0.25892723741222173 0.18390191897654587 0.46666666666666662 0.35945017182130584 0.15835135666535588 0.15691606893972873 0.26946391362000383 0.33562428407789241 0.35945017182130584 0.29326579868783359 0.051423324150596854 0.28807157057654081 0.19101199986402417 0.1551240765296458 0.23666517256835498 0.094400848356309616 0.19249837490661773 0.2683297629742244 0.12553965394159836 0.35027534531010202
decision_type=2 2 2 2 2 2 2 2 2 2 2 2 2 2 2 2 2 2 2 2
left_child=2 -2 6 -3 5 -5 8 -6 9 10 -1 -9 14 -14 15 -12 -13 -17 -19 -18
right_child=1 3 -4 4 7 -7 -8 11 -10 -11 12 16 13 -15 -16 17 19 18 -20 -21
leaf_value=-0.30093495851893731 -0.17307054542177258 -0.051747402533148003 0.061869611987072262 0.0062675365789644794 0.3280304502568116 0.33044415644434072 -0.21412536877941335 0.29923262848785892 -0.31458387946688504 -0.30403305509021111 -0.29674438281331228 0.29553211978969596 -0.29702679332700843 -0.29936282006361548 -0.29730706577051202 -0.29599089218703933 0.29590997274583036 -0.2959464460708125 -0.2957060207251298 0.29599089218703928
leaf_weight=2.4487535059452155 2.8319111019372931 2.3751004338264456 2.8646673858165732 2.3638593405485144 3.2681665569543865 2.5622744411230087 4.09523981809616 2.2097918093204525 2.2979511320590964 3.1455803364515296 2.1968056857585969 2.8438284546136883 2.4182482510805121 2.215611919760704 2.2007477581500998 7.2313148975372297 2.190655022859576 2.4100435525178909 2.1890067607164383 19.721767902374268
leaf_count=11 12 10 12 10 14 11 18 10 10 14 10 13 11 10 10 33 10 11 10 90
internal_value=0 0.23058 -0.260529 0.261034 0.282163 0.174884 -0.288644 0.299642 -0.299257 -0.297926 -0.297102 0.296202 -0.296652 -0.298144 -0.296226 -0.296057 0.295931 -0.295929 -0.295832 0.295983
internal_weight=0 40.3674 35.714 37.5354 35.1603 4.92613 32.8493 30.2342 28.7541 26.4561 23.3105 26.966 20.8618 4.63386 16.2279 14.0272 24.7563 11.8304 4.59905 21.9124
internal_count=340 180 160 168 158 21 148 137 130 120 106 123 95 21 74 64 113 54 21 100
shrinkage=0.2


Tree=3
num_leaves=24
num_cat=0
split_feature=6 13 21 13 14 4 21 13 21 0 13 5 21 17 25 29 0 0 6 29 13 21 4
split_gain=72.627 12.1163 10.4194 8.3112 1.92571 1.79845 1.67821 1.23023 0.183744 0.0846833 0.0446937 0.00692337 0.00378896 0.0025476 0.00247504 0.000631974 0.000196357 6.76878e-05 6.25208e-06 3.20763e-06 2.91338e-07 2.18669e-08 2.18208e-10
threshold=0.16931818181818184 0.04565388738844741 0.36780383795309174 0.062024886159455152 0.082877247849882721 0.46149679516114478 0.27398720682302785 0.030870492605500902 0.52332089552238836 0.32557148942212127 0.062024886159455152 0.21098398871234894 0.26026119402985076 0.20401591210456524 0.19021839314647188 0.21772924045651318 0.18098348241753043 0.39916702162904077 0.24707122774133083 0.087695133149678625 0.020691149387931904 0.5910181236673776 0.37753904486774398
decision_type=2 2 2 2 2 2 2 2 2 2 2 2 2 2 2 2 2 2 2 2 2 2 2
left_child=3 2 7 4 -1 -4 -3 -2 9 11 -8 13 -13 15 -12 16 -6 -16 -19 -18 -21 22 -20
right_child=1 6 5 -5 8 -7 10 -9 -10 -11 14 12 -14 -15 17 -17 19 18 21 20 -22 -23 -24
leaf_value=-0.1210656126830164 -0.31735873106760509 0.12651794006795086 0.059314250292921339 0.10283587119663307 -0.27322222746393021 0.30438777262025213 0.29723637431379374 -0.1111601169967807 -0.2187167574592051 -0.31517131672989479 0.27789951425046755 -0.27683790963061372 -0.28849385300991631 -0.27964484788846411 0.27259563138925008 -0.2753312689781251 -0.27106869778199988 0.27101129802579138 0.27139979140549886 -0.27139077045995313 -0.27130651551559182 0.27137497915540004 0.27139747803920256
leaf_weight=3.7808102965354982 2.4283596575260145 3.4418665617704418 2.096731498837471 2.8678608238697043 2.7436233460903301 2.7935586124658585 3.3479604423046139 2.2113167494535446 2.1824117302894583 2.3789150714874259 2.7750697731971767 2.3974457532167426 2.0863016843795776 2.2310381829738608 1.952476412057879 2.3749403357505789 2.1278432458639127 1.9335946887731577 1.93868789076805 3.4894291460514069 3.0999715626239777 1.9383676648139943 10.274888500571249
leaf_count=18 11 16 10 13 14 13 16 10 11 11 14 12 10 11 10 12 11 10 10 18 16 10 53
internal_value=0 0.190048 -0.00438409 -0.221902 -0.254135 0.199312 0.257176 -0.219082 -0.27417 -0.279448 0.275789 -0.275312 -0.282261 -0.273373 0.272339 -0.272362 -0.271747 0.271484 0.271349 -0.271282 -0.271351 0.271395 0.271398
internal_weight=0 37.1329 9.52997 31.7606 28.8927 4.89029 27.6029 4.63968 25.1119 22.9295 24.161 20.5506 4.48375 16.0668 20.8131 13.8358 11.4609 18.038 16.0855 8.71724 6.5894 14.1519 12.2136
internal_count=340 183 44 157 144 23 139 21 126 115 123 104 22 82 107 71 59 93 83 45 34 73 63
shrinkage=0.2


Tree=4
num_leaves=29
num_cat=0
split_feature=20 21 27 25 11 11 21 12 20 7 27 27 17 21 11 10 20 7 12 7 25 17 9 25 0 7 4 21
split_gain=63.357 8.72493 8.28762 3.47637 1.90269 2.52887 0.756764 0.407635 0.637765 0.092223 0.0148389 0.0125744 0.0063687 0.00105304 0.000465166 0.000537173 0.000259308 5.90898e-05 3.2641e-05 2.70133e-05 1.97734e-05 1.09517e-05 3.81759e-06 2.7182e-06 4.31739e-08 3.7977e-09 5.10703e-11 1.86162e-12
threshold=0.2824617573817147 0.18390191897654587 0.597938144329897 0.14670469870283592 0.31820190947666194 0.4052775813295616 0.52452025586353968 0.063728030909861913 0.30327285663464959 0.24018389662027831 0.3620274914089347 0.47302405498281785 0.25374123887099831 0.30197228144989346 0.24383398161244693 0.022813688212927705 0.24848808253290644 0.32119781312127244 0.099962305046411917 0.080839960238568556 0.059619097515304954 0.18116120477363132 0.25989890480202188 0.19972640218878249 0.41573193241516404 0.40198807157057664 0.39586530649092722 0.53424840085287861
decision_type=2 2 2 2 2 2 2 2 2 2 2 2 2 2 2 2 2 2 2 2 2 2 2 2 2 2 2 2
left_child=2 -2 4 -3 6 -6 9 -5 -9 10 12 -10 14 -13 15 -1 19 -15 -19 20 -17 22 -21 -20 -25 -26 -27 -28
right_child=1 3 -4 7 5 -7 -8 8 11 -11 -12 13 -14 17 -16 16 -18 18 23 21 -22 -23 -24 24 25 26 27 -29
leaf_value=-0.25796253672485897 -0.13802137375060095 0.0199704275838746 0.21299127633395118 0.32440239282968675 0.054227521516095417 -0.26911112362910938 -0.13597694146679584 0.14040301179041079 0.27209547576017473 -0.30242842891377997 -0.27473515180709218 0.25955255016291229 -0.26670384462808516 0.25548092864320038 -0.25858898898618843 -0.25424808031517804 -0.25683934719315049 0.25345253456693301 0.25415244865072972 -0.25437808219316876 -0.25521657851469348 -0.25362218823211263 -0.25401056983325238 0.2543946822046782 0.2544379509604599 0.25442854499672501 0.25442725673007921 0.25442749870907855
leaf_weight=2.4301207810640539 2.7971815168857601 2.7904163151979473 1.7774756103754032 2.9889136552810696 2.0049300193786617 1.8699529916048048 2.0429822206497184 2.0846136808395412 1.8685075491666818 2.1551489681005469 2.1302349716424933 1.7622600197792078 2.4011771082878104 1.8659602850675607 1.9046063572168339 1.6784004420042022 1.8859349042177189 1.6639924496412266 1.6767019033431996 2.3529982566833496 1.6945838779211042 1.8338632583618162 2.1762608140707016 1.6810098290443409 1.6817752867937077 1.6816091537475566 5.2129172384738922 1.6815905570983884
leaf_count=14 12 14 9 14 10 10 11 10 10 10 11 10 13 11 11 10 11 10 10 14 10 11 13 10 10 10 31 10
internal_value=0 0.199123 -0.206027 0.23205 -0.232104 -0.10181 -0.252556 0.254944 0.245862 -0.263074 -0.258934 0.256444 -0.257101 0.254897 -0.255656 -0.255258 -0.254693 0.254418 0.254289 -0.254277 -0.254735 -0.254035 -0.254201 0.254391 0.254424 0.254429 0.254428 0.254427
internal_weight=0 31.4374 30.3387 28.6403 28.5612 3.87488 24.6863 25.8499 22.8609 22.6433 20.4882 20.7763 18.3579 18.9078 15.9568 14.0522 11.622 17.1456 15.2796 9.73611 3.37298 6.36312 4.52926 13.6156 11.9389 10.2579 8.57612 6.89451
internal_count=340 172 168 160 159 20 139 146 132 128 118 122 107 112 94 83 69 102 91 58 20 38 27 81 71 61 51 41
shrinkage=0.2


Tree=5
num_leaves=28
num_cat=0
split_feature=7 3 21 7 13 19 21 17 3 13 29 25 13 21 3 5 18 17 13 3 13 7 18 25 5 21 4
split_gain=50.1183 6.46349 4.74281 5.41088 1.41017 0.894079 0.544119 1.1907 0.116218 0.0532636 0.0281474 0.0181666 0.00397625 0.0027667 0.000617496 0.000222676 0.00016058 7.04688e-05 6.67937e-05 5.72745e-05 1.04473e-05 2.25095e-06 3.23957e-07 2.74931e-07 3.15854e-09 8.67395e-12 2.17781e-12
threshold=0.24018389662027831 0.23310710498409334 0.29291044776119407 0.42661530815109344 0.049772318910418008 0.021893094537263503 0.35860874200426451 0.33320704678916463 0.19766702014846235 0.062024886159455152 0.32703659976387262 0.27035732650309013 0.038117437868650954 0.45602345415778256 0.073743372216330857 0.25495368382307843 0.083694489784431766 0.19255540822125397 0.011940649759618052 0.26148462354188756 0.024370655101438505 0.37263916500994038 0.16185906455788823 0.23188869808190474 0.34467210600576664 0.55636993603411533 0.51566308567301633
decision_type=2 2 2 2 2 2 2 2 2 2 2 2 2 2 2 2 2 2 2 2 2 2 2 2 2 2 2
left_child=1 4 3 -2 5 -1 7 -4 11 10 -8 12 13 14 -7 -11 -16 18 -18 -17 22 -21 -20 -23 -25 26 -26
right_child=2 -3 6 -5 -6 8 9 -9 -10 15 -12 -13 -14 -15 16 19 17 -19 20 21 -22 23 -24 24 25 -27 -28
leaf_value=-0.12105072734093179 -0.133944472997238 0.094778542473144642 0.25250041266291423 0.28025820655062555 -0.075970119177954654 -0.24726976409348814 0.27980004673772574 0.035829489382143385 -0.30632722138040663 0.24492499335740112 0.2487511194559601 -0.26713706507855706 -0.25472447345943383 -0.2505464103840489 -0.24461147174174502 0.24348849596860533 -0.24346299914451405 -0.2435769790439376 -0.24216647005871314 0.24191519414717955 -0.24147064405122906 0.24210699044023321 -0.24204867355926588 0.24221148752104607 0.24220068759950419 0.24220137795636021 0.24220098864023215
leaf_weight=2.3219611346721747 3.3135095983743694 2.856472671031951 2.6671575754880932 2.037139043211937 2.3601353764533988 1.5156178772449589 2.8908511400222805 1.6373071968555448 1.4680406153202046 1.4880749881267537 1.9595564901828764 1.7705811262130726 1.7975394278764714 2.7150373309850684 1.9271041005849827 1.46321840584278 1.4632289856672267 2.1995750814676285 1.8694415390491488 1.4322499632835377 1.4220060408115385 1.4367033541202525 1.8660143017768858 1.4390343129634855 2.4459506571292877 1.4388099908828733 1.582681283354759
leaf_count=14 17 13 17 11 13 10 15 10 7 10 13 10 11 17 13 10 10 15 13 10 10 10 13 10 17 10 11
internal_value=0 -0.190049 0.192542 0.0237539 -0.222993 -0.238528 0.233816 0.170084 -0.252158 0.249423 0.267256 -0.24787 -0.245836 -0.24477 -0.243491 0.242626 -0.242958 -0.242596 -0.24227 0.242322 -0.241932 0.242147 -0.242108 0.242187 0.242203 0.242201 0.242201
internal_weight=0 27.5528 27.2322 5.35065 24.6963 22.3361 21.8816 4.30446 20.0142 17.5771 4.85041 18.5461 16.7756 14.978 12.263 12.7267 10.7474 8.82027 6.62069 11.2386 5.15746 9.77543 3.73546 8.34318 6.90648 5.46744 4.02863
internal_count=340 169 171 28 156 143 143 27 129 116 28 122 112 101 84 88 74 61 46 78 36 68 26 58 48 38 28
shrinkage=0.2


Tree=6
num_leaves=28
num_cat=0
split_feature=27 20 21 13 27 13 19 20 21 20 15 19 21 21 12 19 19 26 23 15 27 1 5 5 0 5 5
split_gain=38.1564 8.0974 6.8999 3.63666 1.72113 1.16602 0.191045 0.0456242 0.0365455 0.0149506 0.011524 0.00227703 0.00184534 0.000674542 0.000486536 0.000150484 0.000136801 4.51806e-05 3.56262e-05 3.32705e-05 2.86358e-05 3.64776e-06 1.77235e-06 3.64217e-07 1.25126e-08 4.56861e-11 3.68594e-12
threshold=0.36975945017182138 0.33475631447883319 0.38192963752665249 0.062024886159455152 0.46666666666666662 0.030870492605500902 0.020545720879454953 0.27107790821771616 0.27785181236673778 0.2824617573817147 0.091800102141977313 0.14350220416511203 0.51745735607675925 0.35194562899786785 0.080502285256561265 0.053936403963351358 0.037716098005886954 0.16673322683706074 0.22679905623279592 0.079145011566076812 0.22414089347079033 0.34460601961447407 0.10707932028709892 0.34467210600576664 0.47749538548913817 0.46491012821299316 0.56705110115943824
decision_type=2 2 2 2 2 2 2 2 2 2 2 2 2 2 2 2 2 2 2 2 2 2 2 2 2 2 2
left_child=3 2 5 6 -4 -2 -1 11 -3 -6 -10 12 14 -12 16 -15 -8 19 -17 22 -21 -20 -18 -23 -25 -26 -27
right_child=1 8 4 -5 9 -7 7 -9 10 -11 13 -13 -14 15 -16 18 17 -19 21 20 -22 23 -24 24 25 26 -28
leaf_value=-0.17125567450237236 -0.27472373466381261 0.26432036995041464 0.017812004170019432 0.023876892178247129 0.27067935986191743 -0.07455876182441934 -0.23493783348898833 -0.27348770897254832 0.25032508407373205 0.24348577387752732 0.23701789552913954 -0.24221861555467178 -0.24142239526971609 0.23496531411783952 -0.23676552865677103 0.23186125678894159 -0.23299504283695535 -0.23216498486337769 0.23271290945264367 -0.23447534211370302 -0.23324974020625727 0.23301842211815835 -0.23267566383980365 0.23310060601109123 0.23312492137687918 0.23312320492505131 0.23312368544767428
leaf_weight=1.8457625657320083 2.0659198462963122 2.058524131774905 1.8432328850030897 2.5168275386095038 1.8895824924111368 2.6667283922433853 2.0151386111974734 1.4098163098096836 1.941256672143935 1.4137543514370916 2.2128548473119727 1.9789664521813382 1.5554341375827778 1.6348447874188412 2.2119498997926703 1.1842645555734623 1.4586861208081248 1.6701294183731077 1.2077978253364543 1.3761140480637553 1.710283540189266 2.0675212368369102 1.327563516795635 1.2183689326047895 1.2190104573965075 1.3408617377281191 1.2189779803156851
leaf_count=12 11 12 10 12 11 13 16 8 13 10 17 14 11 13 17 10 12 14 10 11 14 17 11 10 10 11 10
internal_value=0 0.15683 0.012364 -0.201724 0.172645 -0.161936 -0.232317 -0.23906 0.239307 0.259041 0.23593 -0.235888 -0.234948 0.23383 -0.234093 0.233194 -0.233474 -0.233083 0.232887 -0.233344 -0.233796 0.233034 -0.232843 0.233089 0.233118 0.233124 0.233123
internal_weight=0 27.1835 9.87922 21.0767 5.14657 4.73265 18.5598 16.7141 17.3043 3.30334 15.2458 15.3043 13.3253 13.3045 11.7699 11.0916 9.55792 7.54278 9.4568 5.87265 3.0864 8.27254 2.78625 7.06474 4.99722 3.77885 2.55984
internal_count=340 188 55 152 31 24 140 128 133 21 121 120 106 108 95 91 78 62 78 48 25 68 23 58 41 31 21
shrinkage=0.2


Tree=7
num_leaves=29
num_cat=0
split_feature=22 21 27 7 21 12 15 0 22 27 27 1 12 14 21 14 14 15 9 29 12 25 1 7 6 9 25 29
split_gain=30.1518 5.52854 3.09966 2.62228 4.13914 1.69879 0.303271 0.191838 0.0746564 0.0233297 0.00186183 0.00182666 0.000591078 0.000589197 0.000573375 0.000562911 0.000309708 0.000150649 4.24073e-05 3.34426e-05 2.72042e-05 1.46389e-05 1.45227e-05 8.56367e-06 1.11329e-06 1.31688e-07 3.79196e-08 5.05949e-09
threshold=0.25892723741222173 0.21815031982942432 0.48814432989690726 0.24018389662027831 0.45175906183368875 0.15674032888847003 0.48350707483401939 0.32557148942212127 0.306987399770905 0.36975945017182138 0.50240549828178704 0.34460601961447407 0.062714979032182011 0.17525580446680486 0.3386194029850747 0.23477920930074442 0.087296461229901021 0.35327605371466347 0.11731255265374881 0.09104027285845466 0.081774489940159262 0.16882537280127294 0.34460601961447407 0.10333001988071566 0.34208059981255862 0.2362047177759056 0.27554792327618832 0.28666535484717309
decision_type=2 2 2 2 2 2 2 2 2 2 2 2 2 2 2 2 2 2 2 2 2 2 2 2 2 2 2 2
left_child=2 -2 5 4 -3 7 8 9 -5 11 -10 12 16 -13 -12 -14 -1 18 -16 -18 -20 23 -22 25 -24 -21 -26 -28
right_child=1 3 -4 6 -6 -7 -8 -9 10 -11 14 13 15 -15 17 -17 19 -19 20 21 22 -23 24 -25 26 -27 27 -29
leaf_value=-0.22998183147180243 -0.1051660383310523 -0.17586145191339891 0.093504425212671952 0.26676122874597968 0.23963405032343413 0.0086555017073976209 0.12249946025032132 -0.14365701814155654 0.2343826337882268 -0.25512847080784062 0.23072692405102271 -0.23646410302696516 -0.22804613204969948 -0.2311971166902593 0.2274567674122342 -0.23341518395256153 -0.22736657334525226 0.22884068844176048 0.22523556780495035 -0.22616152280194857 0.22692703816433651 -0.22555161727340511 0.22599927224240177 -0.22678544700912451 0.22618593142566334 -0.22606469367176221 0.22623754095578996 0.2262198317140135
leaf_weight=1.1221598163247195 2.8642872497439411 1.8174999952316313 1.472126930952071 2.3698040246963528 2.0304508358240128 1.3312313109636296 1.0397344902157772 1.0506762340664852 1.6564160808920849 1.5668753162026394 1.5810712799429882 1.3945143893361085 1.9306085407733919 2.1740169301629066 1.162569984793661 1.3118535950779913 1.055852837860584 1.0809699445962895 1.09170825779438 1.1252362430095679 1.2510608062148092 1.3049227222800253 1.2215446159243581 1.143659360706806 1.0236813277006152 1.1220303773880003 1.7429005876183512 1.0247035101056097
leaf_count=10 15 10 9 15 10 7 9 9 14 10 14 11 18 19 11 11 10 10 11 11 12 13 12 11 10 11 17 10
internal_value=0 0.154784 -0.185302 0.191839 0.0433833 -0.208578 0.227001 -0.226317 0.234146 -0.232012 0.228125 -0.229365 -0.227992 -0.233255 0.227198 -0.230218 -0.226943 0.226617 0.226334 -0.22635 0.226157 -0.226121 0.226317 -0.22634 0.226165 -0.226113 0.226219 0.226231
internal_weight=0 22.9584 19.1058 20.0941 3.84795 17.6336 16.2462 16.3024 15.2064 15.2517 12.8366 13.6849 10.1163 3.56853 11.1802 3.24246 6.87386 9.59914 8.51817 5.7517 7.3556 4.69585 6.26389 3.39093 5.01283 2.24727 3.79129 2.7676
internal_count=340 180 160 165 20 151 145 144 136 135 121 125 95 30 107 29 66 93 83 56 72 46 61 33 49 22 37 27
shrinkage=0.2


Tree=8
num_leaves=26
num_cat=0
split_feature=22 24 23 24 18 14 17 23 20 5 14 9 17 17 8 22 24 18 17 16 0 17 0 16 22
split_gain=23.9154 4.43344 1.99177 1.81695 2.98007 1.64805 0.385127 0.363136 0.0063993 0.00554333 0.00240034 0.00236471 0.0015949 0.000866849 0.000711395 0.00109697 0.000397703 0.000314443 0.000169851 2.77051e-05 2.5747e-05 1.05481e-05 5.29352e-06 2.81849e-06 7.00542e-07
threshold=0.29652871158922256 0.70613484778445501 0.12447158867479351 0.33731757247573141 0.1207013001632239 0.14918244552469659 0.26946391362000383 0.18222817538340547 0.37282106012095328 0.58361450217778066 0.27951524628616103 0.36267902274641944 0.19255540822125397 0.21500284144724377 0.3666666666666667 0.44544050998555712 0.25014858350392927 0.083694489784431766 0.077969312369767022 0.041060606060606006 0.25954848786028695 0.31549535896950182 0.23186142268919499 0.073156565656565614 0.48304198416255789
decision_type=2 2 2 2 2 2 2 2 2 2 2 2 2 2 2 2 2 2 2 2 2 2 2 2 2
left_child=1 2 6 4 -2 -4 11 -5 -9 10 14 13 -13 16 15 -10 18 -18 -1 20 -19 23 -21 -16 -25
right_child=3 -3 5 7 -6 -7 -8 8 9 -11 -12 12 -14 -15 21 -17 17 19 -20 22 -22 -23 -24 24 -26
leaf_value=-0.22689522853189792 -0.1225336815665593 0.18907918569451043 -0.17033669592297335 0.13265726645911202 0.24537532215302904 0.060110972030240031 -0.13751957734476902 0.23919528769695125 0.22987569081219392 0.23720741403033269 0.23323481436786056 -0.22556148423055866 -0.23660328158108357 -0.2292391907735695 0.22043618508143004 0.22145786206473739 -0.22533334640058569 -0.22131502945825213 -0.2234058766367496 -0.22129842333452615 -0.22251423555630334 0.22145185137688594 -0.22067345640373381 0.22068916400711902 0.22089895527023279
leaf_weight=1.118428550660614 1.8576377779245405 1.4771725460886944 2.6448350101709357 1.8921383172273625 1.6744828745722768 2.3392112329602242 2.4501387178897849 1.5885968953371037 1.0640213042497619 1.3792943954467762 0.90032323449850071 1.0737978145480149 1.0205810368061063 0.94940682500600893 1.2609840333461764 1.4813389703631399 0.9776547998189925 1.6502649337053301 1.1136087477207182 0.8684111908078197 1.2651727199554441 0.87194069474935521 1.4427881985902784 1.1890554130077364 1.3705190345644949
leaf_count=11 10 11 18 15 14 15 18 13 10 13 9 11 9 9 15 17 10 19 12 10 14 10 17 14 16
internal_value=0 -0.14462 -0.170682 0.179081 0.051882 -0.0621784 -0.209503 0.213646 0.227444 0.225483 0.223496 -0.224866 -0.230942 -0.22351 0.222285 0.224977 -0.222865 -0.222041 -0.225154 -0.221425 -0.221835 0.220824 -0.220908 0.220681 0.220801
internal_weight=0 20.3915 18.9143 16.5303 3.53212 4.98405 13.9303 12.9982 11.1061 9.51748 8.13818 11.4801 2.09438 9.38574 7.23786 2.54536 8.43633 6.20429 2.23204 5.22664 2.91544 4.6925 2.3112 3.82056 2.55957
internal_count=340 184 173 156 24 33 140 132 117 104 91 122 20 102 82 27 93 70 23 60 33 55 27 45 30
shrinkage=0.2


Tree=9
num_leaves=28
num_cat=0
split_feature=20 27 21 13 6 19 3 21 20 6 7 17 13 21 21 27 23 19 19 26 26 21 7 23 6 3 3
split_gain=18.2842 5.18264 3.61766 2.72222 0.893212 0.819476 0.047652 0.0201471 0.00706115 0.00387577 0.000810077 0.000730219 0.000569423 0.00025463 8.49913e-05 4.89018e-05 4.41867e-05 2.71779e-05 1.07733e-05 7.28327e-06 1.60457e-05 1.45598e-06 1.20936e-06 2.07689e-06 3.62453e-07 3.03128e-07 1.18105e-07
threshold=0.33635716826752043 0.46666666666666662 0.38192963752665249 0.055403643644541006 0.15205014058106844 0.023965977087738153 0.19766702014846235 0.27785181236673778 0.2824617573817147 0.22427366447985003 0.28807157057654081 0.24370145860958511 0.038976611791601702 0.51319296375266543 0.35194562899786785 0.095876288659793765 0.12052693668895006 0.046163094399071306 0.17587371999502507 0.16673322683706074 0.12424121405750796 0.28478144989339021 0.42169483101391653 0.27312721195438461 0.050152296157450753 0.35527041357370098 0.49459172852598093
decision_type=2 2 2 2 2 2 2 2 2 2 2 2 2 2 2 2 2 2 2 2 2 2 2 2 2 2 2
left_child=1 3 -3 5 -2 -1 9 -6 -4 11 -9 12 13 15 -12 -7 19 -16 22 20 21 24 23 -19 -17 -24 -27
right_child=4 2 8 -5 7 6 -8 10 -10 -11 14 -13 -14 -15 17 16 -18 18 -20 -21 -22 -23 25 -25 -26 26 -28
leaf_value=-0.083643805719881281 0.05660002509082708 -0.093352999085400568 0.24659053013922741 0.043215507215644253 0.24294275299148693 -0.21874969903805552 -0.25929273709716072 0.22368664638499491 0.22466399333838086 -0.23265043432431406 0.21865264754693337 -0.22345261080266843 -0.2233372948063338 -0.22095197773671421 0.21797843693949034 -0.21667879737900222 -0.21844553463674626 0.21626063725124856 0.21740009231449778 -0.21634080879093476 -0.21776475996752254 -0.21686782534086332 0.21684904208436184 0.21672622376714276 -0.21647624110951114 0.21673854246701199 0.21664469777948089
leaf_weight=1.9108483344316507 1.5057456642389286 2.9054675549268714 1.4244416654109957 2.0416707322001448 1.5126058533787716 0.76480225473641983 1.4326388165354718 0.87754334509372522 0.99985308200120915 0.91911138594150621 1.4589783474802969 1.2751415371894834 0.80095306038856495 0.84843498468399037 0.89790940284728993 0.71048650890588827 0.76584836840629567 0.69482885301113106 0.9556068256497382 1.0468649193644521 0.74652647227048863 1.3618646860122678 0.71645858138799701 0.85461711138486862 0.70300200581550598 1.2827502340078356 0.92198681086301792
leaf_count=18 8 17 11 12 12 10 9 10 11 8 19 14 9 10 12 10 10 10 13 15 10 19 10 12 10 18 13
internal_value=0 -0.112724 0.0571603 -0.171795 0.200367 -0.204834 -0.225191 0.221646 0.237547 -0.220278 0.217926 -0.219018 -0.218288 -0.217706 0.217277 -0.217254 -0.21704 0.216959 0.216791 -0.216804 -0.216942 -0.21672 0.21666 0.216517 -0.216578 0.216736 0.216699
internal_weight=0 20.658 5.32976 15.3282 11.679 13.2865 11.3757 10.1733 2.42429 9.94304 8.66068 9.02392 7.74878 6.94783 7.78314 6.0994 5.33459 6.32416 5.42625 4.56874 3.52188 2.77535 4.47064 1.54945 1.41349 2.9212 2.20474
internal_count=340 203 39 164 137 152 134 129 22 125 117 117 103 94 107 84 74 88 76 64 49 39 63 22 20 41 31
shrinkage=0.2


Tree=10
num_leaves=30
num_cat=0
split_feature=23 26 1 26 13 24 13 0 26 23 13 15 1 24 23 17 24 18 8 1 24 17 10 15 15 15 10 13 18
split_gain=14.8738 4.4847 3.06084 2.54307 2.48141 1.87275 0.287073 0.130379 0.0992098 0.0136497 0.00629721 0.00203876 0.00143487 0.0010942 0.000559713 0.000502442 0.000178791 9.35904e-05 8.8387e-05 7.09299e-05 3.56562e-05 1.79514e-05 1.33178e-05 1.04736e-06 8.34399e-07 7.52045e-07 5.51172e-07 5.22579e-08 1.86212e-08
threshold=0.14773397561934717 0.16054313099041531 0.19563747040919843 0.29420926517571894 0.078825471891938309 0.52123093178366253 0.033784212865942652 0.34473945761749253 0.21281948881789137 0.18222817538340547 0.038976611791601702 0.18230089824856552 0.26428812986134592 0.5413722512051774 0.22679905623279592 0.29276378101913247 0.24222412996103806 0.088478640175606457 0.26666666666666677 0.34460601961447407 0.35415703625437495 0.33320704678916463 0.026235741444866904 0.13092949199387152 0.13415898098356713 0.1711854477724036 0.050479811696541657 0.14922170049197048 0.16031125119603759
decision_type=2 2 2 2 2 2 2 2 2 2 2 2 2 2 2 2 2 2 2 2 2 2 2 2 2 2 2 2 2
left_child=3 -2 -3 4 7 -5 -4 10 -8 -10 13 -12 -11 15 -14 16 18 -18 -1 22 -16 24 -19 26 -22 -26 28 -27 -24
right_child=1 2 6 5 -6 -7 8 -9 9 12 11 -13 14 -15 20 -17 17 19 -20 -21 21 -23 23 -25 25 27 -28 -29 -30
leaf_value=-0.21548601303207782 -0.1442392969344658 -0.082673989774779216 0.30873337246834254 -0.11774591871092284 0.13745411317635234 0.23689533189653111 0.16106595187710593 -0.13157137169923896 0.23793657159717668 0.2228525611070715 -0.22320181303403228 -0.2366351176432705 0.21976718597213973 -0.22243235953368046 0.21519056838030073 -0.22085792421960188 -0.21633030977467854 -0.21445564387771943 -0.21867818309211026 -0.21567171198152513 0.21329473199922805 0.21438677044053628 -0.21345796453232962 -0.21323836331837209 0.21369040327430852 0.21340944859530958 -0.21366855538191656 0.21348039084364923 -0.21340770528285888
leaf_weight=0.71818378940224448 1.8837339058518399 1.4843545891344536 1.3769657164812077 1.3413303568959229 0.87569460272789079 1.0713271275162695 1.3613511659204949 0.73520395159721452 1.3259511850774268 0.98446229845285405 0.96107644587755092 0.85303641110658646 0.73624198138713826 1.0703573599457739 0.71043866127729405 0.65088984370231617 0.88090594857931126 0.62346516177058253 0.67123309150338173 0.85872956737875927 1.0517166890203955 1.054656635969877 0.59071860834956191 0.8148597590625285 0.65854460373520884 1.0009967163205145 0.59824019670486439 0.7098889760673045 0.58877712488174438
leaf_count=11 11 10 10 11 4 10 15 6 13 13 12 8 10 13 11 8 13 10 9 13 18 17 10 14 11 17 10 12 10
internal_value=0 0.143371 0.186868 -0.14694 -0.186133 0.0397306 0.223336 -0.212825 0.21108 0.21935 -0.218872 -0.229518 0.215782 -0.216477 0.214607 -0.215566 -0.215023 -0.214461 -0.217028 -0.214057 0.213874 0.213665 -0.213626 -0.213426 0.213443 0.213509 -0.213512 0.213439 -0.213433
internal_weight=0 14.3393 12.4556 13.904 11.4914 2.41266 10.9712 10.6157 9.59425 8.2329 9.88047 1.81411 6.90695 8.06636 5.92248 6.996 6.34511 4.9557 1.38942 4.07479 5.18624 4.4758 3.21606 2.5926 3.42115 2.36943 1.77774 1.71089 1.1795
internal_count=340 168 157 172 151 21 147 147 137 122 141 20 109 121 96 108 100 80 20 67 86 75 54 44 58 40 30 29 20
shrinkage=0.2


Tree=11
num_leaves=32
num_cat=0
split_feature=20 27 13 6 27 9 17 24 20 13 18 27 4 9 26 19 19 17 14 0 6 14 24 27 19 17 4 13 14 0 17
split_gain=11.4397 3.28273 3.17306 1.47786 1.14984 1.72489 0.770517 0.222702 0.0101624 0.00180277 0.00150015 0.00238937 0.00129082 0.00166283 0.000654713 0.000518695 0.000422268 0.00039821 6.95782e-05 2.1697e-05 1.77089e-05 1.34548e-05 6.09245e-06 4.24776e-06 3.52048e-06 2.23279e-06 2.20072e-06 1.29166e-06 7.82422e-07 5.40111e-07 1.25007e-07
threshold=0.33635716826752043 0.38024054982817873 0.071438443923959316 0.12187207122774131 0.52147766323024058 0.26400589721988194 0.26425459367304416 0.60674899293402906 0.27659196015652798 0.051789509859954612 0.30566499690437327 0.56134020618556713 0.43351087839667785 0.18502527379949438 0.23063099041533547 0.18280060251786132 0.021893094537263503 0.28461829892025009 0.29326579868783359 0.31823560035969528 0.29299437675726342 0.10135295917326716 0.42118470580466216 0.30596219931271473 0.043330154913422556 0.3301761697291154 0.25182811230477575 0.071438443923959316 0.19606010130196819 0.21032703866723462 0.28461829892025009
decision_type=2 2 2 2 2 2 2 2 2 2 2 2 2 2 2 2 2 2 2 2 2 2 2 2 2 2 2 2 2 2 2
left_child=1 2 8 -2 5 -3 -7 -6 9 16 11 12 13 14 -5 20 -1 18 19 21 -13 -18 -22 24 -23 27 -26 -24 29 -28 -29
right_child=3 4 -4 10 7 6 -8 -9 -10 -11 -12 15 -14 -15 -16 -17 17 -19 -20 -21 22 23 25 -25 26 -27 28 30 -30 -31 -32
leaf_value=-0.21697253304390643 -0.047840366071000062 0.094224719469735332 0.14178986426622195 0.22127401975946956 0.079329768858995731 -0.040153408990565839 -0.2560696255825427 0.22251650495877873 -0.23611803873931558 -0.22439977812728007 0.22363041460184321 0.21209751694500195 0.2110431398925858 0.22917029988289786 0.2121485138132452 0.21818095985493002 -0.21209805572689855 -0.21655830302754431 -0.21340677928682569 -0.21250483918005636 0.21159136246365495 -0.21154169392974667 0.21044415983150999 -0.2105200642068851 -0.21135060255571678 0.21120649966764626 -0.21114237303268157 0.21087649609182701 -0.21069120245377149 -0.21087264472323711 0.21075558115177087
leaf_weight=0.85204809904099033 0.9546291083097439 2.113459847867488 1.1231142580509175 0.77725327387452192 0.88558697700500466 1.3219624795019629 1.322465546429157 0.85298075526952744 0.90663185343146313 0.58121674135327328 0.92994692921638478 0.68307843431830439 0.54331093654036511 0.79805809259414662 0.52819432318210602 0.48033918440341938 0.5334983430802821 0.7421940155327319 0.74464396759867657 0.54674433916807164 0.511987425386906 0.6165187135338791 0.47051358595490489 0.56950679421424855 0.55677182599902186 0.50030020251870144 0.49894557520747163 0.83154468983411767 0.5297679230570792 0.73351975157856941 0.58094659447669983
leaf_count=12 4 14 5 10 9 12 9 12 8 7 13 13 11 9 10 8 10 11 13 10 10 12 10 12 11 10 10 17 11 15 12
internal_value=0 -0.099258 -0.17396 0.18677 0.0103859 -0.0404769 -0.148132 0.14958 -0.216117 -0.213701 0.216103 0.215059 0.219734 0.221978 0.217582 0.21201 -0.212803 -0.212218 -0.211614 -0.211322 0.211182 -0.211162 0.210965 -0.21102 -0.211117 0.210831 -0.211004 0.210731 -0.210894 -0.210982 0.210827
internal_weight=0 16.0316 9.53512 8.5901 6.49646 4.75789 2.64443 1.73857 8.41201 7.50538 7.63547 6.70553 2.64682 2.10351 1.30545 4.05871 6.92416 6.07211 5.32992 4.58527 3.57837 4.03853 2.89529 3.50503 2.93552 2.38331 2.31901 1.883 1.76223 1.23247 1.41249
internal_count=340 203 147 137 56 35 21 21 142 134 133 120 40 29 20 80 127 115 104 91 72 81 59 71 59 49 47 39 36 25 29
shrinkage=0.2


Tree=12
num_leaves=31
num_cat=0
split_feature=22 23 28 27 4 27 10 25 5 27 5 25 19 23 27 27 19 10 17 22 10 19 26 25 28 17 20 28 15 27
split_gain=9.04579 2.54971 3.28747 2.37068 0.921751 0.854604 0.983762 0.375345 0.304651 0.0318771 0.00312867 0.000859662 0.00105109 0.000460803 0.00037571 0.000348863 0.000216467 0.000238954 4.63349e-05 1.50692e-05 1.22895e-05 8.42186e-06 3.22059e-06 2.41291e-06 2.54004e-06 7.71403e-07 7.68218e-08 7.56065e-08 3.14786e-08 2.40818e-08
threshold=0.32342248119926298 0.12447158867479351 0.2794204612655235 0.31379725085910654 0.35271282838313628 0.48814432989690726 0.1915987687850805 0.20656634746922023 0.28915403962947067 0.41975945017182131 0.34467210600576664 0.19249837490661773 0.18280060251786132 0.25616889500589857 0.61013745704467359 0.36975945017182138 0.021893094537263503 0.11553503530689836 0.25715097556355376 0.092235669107027213 0.11721890277023352 0.030512831142987404 0.30822683706070292 0.17362788757264414 0.2519219396806624 0.1551240765296458 0.60796869441479906 0.36457717327025435 0.22236909303932467 0.15068728522336769
decision_type=2 2 2 2 2 2 2 2 2 2 2 2 2 2 2 2 2 2 2 2 2 2 2 2 2 2 2 2 2 2
left_child=1 5 4 -2 7 6 10 -3 -4 -5 15 -11 13 14 -13 16 -1 18 19 -18 -15 -21 -22 24 25 29 27 -24 -28 -23
right_child=3 2 8 9 -6 -7 -8 -9 -10 11 -12 12 -14 20 -16 -17 17 -19 -20 21 22 23 26 -25 -26 -27 28 -29 -30 -31
leaf_value=-0.21366995830834568 -0.165160869385888 -0.10884585861781437 0.28021638243512065 0.25678147317861522 -0.00037375577310271333 0.042695514980556792 0.062880898573064656 -0.2717297605604117 0.13091685034543474 0.21857996308109315 -0.22729984843035578 0.21694591219239012 0.21840552810923317 0.21007948624992812 0.21005173718967593 -0.21609941854260739 -0.21024765985783211 -0.21403378116399985 -0.21126982082792287 -0.20983557450097329 0.20928903102649379 -0.20873159459843707 0.20878539502575549 -0.20861738386793349 -0.2093237075354494 -0.20907626156680259 0.2087926952268262 0.20890024125830686 0.20871534570379083 -0.20879758572115537
leaf_weight=0.70725258067250418 0.71713559329509635 1.1344369128346445 0.99191185459494624 0.73898471891880024 1.8709369786083696 0.6909876875579356 0.5653085634112357 1.1291457712650297 1.2180017828941343 0.85499155148863781 0.4999033287167548 0.66477831080555894 0.79295523092150677 0.448223385959864 0.60299409925937653 0.4653007499873637 0.49514139443635974 0.50762907415628422 0.49609180539846409 0.48739586025476489 0.75582097843289409 0.44085080921649999 0.52396309375762917 0.7124764397740363 0.80448041856288899 0.49613115936517715 0.40334789454936981 0.40770489349961281 0.44007410481572151 0.44394653290510178
leaf_count=12 3 14 7 9 14 6 3 7 15 15 5 11 14 10 14 7 11 9 10 11 18 11 13 18 19 12 10 10 11 11
internal_value=0 -0.093178 0.00100976 0.180282 -0.104244 -0.169663 -0.190266 -0.190097 0.197929 0.217625 -0.212093 0.212716 0.211721 0.210473 0.213667 -0.210838 -0.2104 -0.209926 -0.20945 -0.209217 0.209114 -0.209066 0.208943 -0.208937 -0.209041 -0.208877 0.208796 0.208836 0.208752 -0.208765
internal_weight=0 14.1573 6.34443 7.35097 4.13452 7.8129 7.12191 2.26358 2.20991 6.63384 6.5566 5.89485 5.03986 4.24691 1.26777 6.0567 5.5914 4.88414 4.37651 3.88042 2.97913 3.38528 2.53091 2.89789 2.18541 1.38093 1.77509 0.931668 0.843422 0.884797
internal_count=340 202 57 138 35 145 139 21 22 135 136 126 111 97 25 131 124 112 103 93 72 82 62 71 53 34 44 23 21 22
shrinkage=0.2


Tree=13
num_leaves=31
num_cat=0
split_feature=22 1 20 9 7 3 14 15 6 7 1 21 14 22 22 5 3 19 19 3 21 22 15 14 25 15 19 9 15 19
split_gain=7.04764 3.24647 2.92625 1.91506 1.43112 1.9592 1.98925 0.363966 0.0947078 0.0158114 0.0110387 0.00212675 0.000610942 0.000511968 0.000296494 7.28125e-05 7.09983e-05 7.00874e-05 6.9333e-05 5.34285e-06 3.22998e-06 6.75023e-07 2.80579e-07 2.56514e-07 1.18305e-07 3.96749e-08 3.63347e-08 3.49172e-08 2.28023e-08 3.40216e-09
threshold=0.32342248119926298 0.3965167399391275 0.2509782995375312 0.064764111204717659 0.16993041749502982 0.20502651113467654 0.22966311996464628 0.11883768438129001 0.12962746016869722 0.14115308151093439 0.2930334798782549 0.29424307036247349 0.30669340857327393 0.24294038547736438 0.36949051247572096 0.25863443960493232 0.12133616118769881 0.029700952144051454 0.11517280930862452 0.17329798515376457 0.35194562899786785 0.39713133124159578 0.38497010845074658 0.19606010130196819 0.15039147771924208 0.18725778832577283 0.05794397689426916 0.22809604043807918 0.14839126385676094 0.12735099429266331
decision_type=2 2 2 2 2 2 2 2 2 2 2 2 2 2 2 2 2 2 2 2 2 2 2 2 2 2 2 2 2 2
left_child=1 4 16 -2 9 6 -6 -4 -5 12 -11 -10 13 17 -13 -16 -3 -1 19 23 -17 -22 25 24 26 28 -19 -27 -23 -29
right_child=3 2 7 8 5 -7 -8 -9 11 10 -12 14 -14 -15 15 20 -18 18 -20 -21 21 22 -24 -25 -26 27 -28 29 -30 -31
leaf_value=-0.2104263723441672 -0.10191851449196553 -0.20814907129954319 0.28824358649854137 0.2990443159247928 0.18530724793109787 -0.22226684601280888 -0.18446625679893885 0.12909432993611691 0.21922789612959204 -0.21908801157505661 -0.25525724038241709 0.21255144755499231 -0.21724876148693384 -0.21571705247600859 0.20991321117923145 0.20774245518394269 -0.21162707071118902 -0.20712264706983735 -0.21006291641903463 -0.20803534448463618 0.20685212659509988 0.20713172671198957 0.20732101657248131 -0.2070161553197096 -0.20729704167904017 0.20705492894704786 -0.20720778207349366 0.20714640344052154 0.20719789025237653 0.20711779026100269
leaf_weight=0.5000571645796329 0.86325897090136905 0.4461394958198065 1.1485810577869418 0.53339546173810948 1.6218731291592123 1.7576741501688955 0.90758876875042904 1.1505907103419302 0.86301830038428295 0.75213225930929162 0.61228227987885475 0.55634414963424239 0.42976116761565197 0.42427418753504742 0.45937544107437167 0.38947588205337558 0.49554620683193207 0.49808296933770202 0.44776251167058934 0.32798210158944119 0.31928203441202674 0.43217384442687068 0.37425603345036496 0.42555232346057881 0.3390381783246994 0.36198749020695664 0.33565477281808853 0.33306750282645226 0.40231026336550713 0.33181266486644745
leaf_count=11 10 12 7 3 18 12 14 15 14 14 6 12 8 7 11 11 10 15 11 9 10 13 11 13 10 11 10 10 12 10
internal_value=0 -0.0855939 0.0869743 0.174524 -0.145219 -0.0600745 0.0526299 0.208599 0.219075 -0.216898 -0.235319 0.210232 -0.210156 -0.209232 0.208271 0.207571 -0.209979 -0.208274 -0.207821 -0.2073 0.207206 0.207124 0.207163 -0.207149 -0.207197 0.207131 -0.207157 0.207105 0.207164 0.207132
internal_weight=0 12.6206 3.24086 6.21976 9.37972 4.28714 2.52946 2.29917 5.3565 5.09258 1.36441 4.8231 3.72817 3.2984 3.96009 3.40374 0.941686 2.87413 2.37407 1.92631 2.94437 2.55489 2.23561 1.59833 1.17278 1.86135 0.833738 1.02687 0.834484 0.66488
internal_count=340 202 44 138 158 44 32 22 128 114 20 125 94 86 111 99 22 79 68 57 88 77 67 48 35 56 25 31 25 20
shrinkage=0.2


Tree=14
num_leaves=31
num_cat=0
split_feature=27 1 23 21 7 21 9 7 4 19 12 23 1 25 23 24 23 12 4 19 23 4 18 17 12 24 1 21 17 18
split_gain=5.64123 3.0621 2.37046 1.25766 1.03386 1.48575 1.9942 0.675909 0.504271 0.263481 0.0766326 0.00618629 0.00446293 0.000529244 0.000413872 4.70896e-05 3.21372e-05 2.55457e-05 1.85419e-05 1.4644e-05 9.10906e-06 6.68146e-06 2.10887e-06 7.18425e-07 2.75765e-07 2.20483e-07 4.46573e-08 4.35541e-08 1.30229e-08 1.11156e-08
threshold=0.51804123711340211 0.3965167399391275 0.12447158867479351 0.4644189765458423 0.16993041749502982 0.19709488272921108 0.38331929233361423 0.28071570576540761 0.42236165026631772 0.068930254411785019 0.1273618244357537 0.15754030672434127 0.23300642543118014 0.2734619825169059 0.16901789225324418 0.25014858350392927 0.077787062524577219 0.062714979032182011 0.58201679155005881 0.030944681674336304 0.045934919386551261 0.37293491017423502 0.10895198964372146 0.34390983140746356 0.097983319983037262 0.33038367562570164 0.3070679742982752 0.26252665245202567 0.27950369388141694 0.1052935216975291
decision_type=2 2 2 2 2 2 2 2 2 2 2 2 2 2 2 2 2 2 2 2 2 2 2 2 2 2 2 2 2 2
left_child=1 3 16 4 10 -6 8 -2 -7 -4 11 13 -9 15 -14 17 -3 -1 21 -17 -21 -16 -22 24 -23 -24 -26 -27 29 -28
right_child=7 2 9 -5 5 6 -8 12 -10 -11 -12 -13 14 -15 18 19 -18 -19 -20 20 22 23 25 -25 26 27 28 -29 -30 -31
leaf_value=-0.20713711597626575 -0.04467535172354823 -0.20662430590481293 0.26093651290697556 0.16681896906035909 -0.25417357900613041 0.037246086764201512 -0.23809394254377525 0.22328636419767861 0.26211883368384331 0.12730095783851222 -0.28894491325364718 -0.2313455495712724 0.21232232438358684 -0.21562790533780923 0.20658607785918204 -0.20750569145125844 -0.20921944702369585 -0.20949730265372249 0.20764891492606902 -0.20714776430495802 -0.20634482722160641 0.20555495451165917 -0.20597622474414157 0.20601658258020758 0.20570895673485134 -0.20570467627331823 0.20579406026789315 -0.20580372146938633 0.20577063754363129 0.20584851278158367
leaf_weight=0.38296739943325642 0.46094071120023627 0.33693689107894842 1.188760267570615 0.51530701108276922 1.2535320371389391 0.83716546744108222 0.82736211270093907 0.85227517783641804 0.76192345656454563 1.1719751767814157 0.57999561727046955 0.51124039292335499 0.51344761066138778 0.3048985507339238 0.57244246080517847 0.40834299661219153 0.44030594266951084 0.35207484290003777 0.29851206392049778 0.32149074971675862 0.43829424679279316 0.26231455802917469 0.28093024529516675 0.50762189924716938 0.26968637295067288 0.26952799968421459 0.32832878082990646 0.52063950337469578 0.3543193731456995 0.27601649612188339
leaf_count=12 7 11 11 7 12 15 9 11 8 14 4 5 11 6 19 12 11 9 9 10 15 10 10 18 10 10 12 19 13 10
internal_value=0 -0.0741663 0.0948523 -0.136085 -0.155474 -0.0773669 0.0139734 0.185319 0.144392 0.194594 -0.221242 -0.210882 0.210352 -0.207692 0.207093 -0.206879 -0.208094 -0.208268 0.206157 -0.206423 -0.206181 0.205984 -0.205975 0.205811 0.205741 -0.205824 0.205781 -0.20577 0.205801 0.205819
internal_weight=0 11.7037 3.13798 8.56569 8.05039 3.67998 2.42645 4.69591 1.59909 2.36074 4.3704 3.79041 4.23496 3.27917 3.38269 2.97427 0.777243 0.735042 2.86924 2.23923 1.83088 2.57073 1.50939 1.99829 1.49067 1.0711 1.22835 0.790168 0.958665 0.604345
internal_count=340 210 47 163 156 44 32 130 23 25 112 108 123 103 112 97 22 21 101 76 64 92 54 73 55 39 45 29 35 22
shrinkage=0.2


end of trees

feature_importances:
Column_21=32
Column_27=28
Column_17=23
Column_13=21
Column_19=20
Column_20=20
Column_7=17
Column_14=16
Column_23=16
Column_22=14
Column_25=14
Column_0=13
Column_15=13
Column_24=13
Column_5=12
Column_1=11
Column_3=11
Column_4=11
Column_12=11
Column_6=9
Column_9=9
Column_18=9
Column_26=8
Column_10=6
Column_29=6
Column_11=5
Column_28=3
Column_8=2
Column_16=2
Column_2=1

parameters:
[boosting: gbdt]
[objective: binary]
[metric: binary_logloss]
[tree_learner: serial]
[device_type: cpu]
[data: ]
[valid: ]
[num_iterations: 10000]
[learning_rate: 0.2]
[num_leaves: 63]
[num_threads: 0]
[force_col_wise: 0]
[force_row_wise: 0]
[histogram_pool_size: -1]
[max_depth: -1]
[min_data_in_leaf: 10]
[min_sum_hessian_in_leaf: 0.001]
[bagging_fraction: 1]
[pos_bagging_fraction: 1]
[neg_bagging_fraction: 1]
[bagging_freq: 0]
[bagging_seed: 21709]
[feature_fraction: 0.5]
[feature_fraction_bynode: 1]
[feature_fraction_seed: 24116]
[extra_trees: 0]
[extra_seed: 15571]
[early_stopping_round: 50]
[first_metric_only: 0]
[max_delta_step: 0]
[lambda_l1: 0]
[lambda_l2: 0]
[min_gain_to_split: 0]
[drop_rate: 0.1]
[max_drop: 50]
[skip_drop: 0.5]
[xgboost_dart_mode: 0]
[uniform_drop: 0]
[drop_seed: 15722]
[top_rate: 0.2]
[other_rate: 0.1]
[min_data_per_group: 100]
[max_cat_threshold: 32]
[cat_l2: 10]
[cat_smooth: 10]
[max_cat_to_onehot: 4]
[top_k: 20]
[monotone_constraints: ]
[monotone_constraints_method: basic]
[monotone_penalty: 0]
[feature_contri: ]
[forcedsplits_filename: ]
[refit_decay_rate: 0.9]
[cegb_tradeoff: 1]
[cegb_penalty_split: 0]
[cegb_penalty_feature_lazy: ]
[cegb_penalty_feature_coupled: ]
[path_smooth: 0]
[interaction_constraints: ]
[verbosity: -1]
[saved_feature_importance_type: 0]
[max_bin: 255]
[max_bin_by_feature: ]
[min_data_in_bin: 3]
[bin_construct_sample_cnt: 200000]
[data_random_seed: 4074]
[is_enable_sparse: 1]
[enable_bundle: 1]
[use_missing: 1]
[zero_as_missing: 0]
[feature_pre_filter: 1]
[pre_partition: 0]
[two_round: 0]
[header: 0]
[label_column: ]
[weight_column: ]
[group_column: ]
[ignore_column: ]
[categorical_feature: ]
[forcedbins_filename: ]
[objective_seed: 10917]
[num_class: 1]
[is_unbalance: 0]
[scale_pos_weight: 1]
[sigmoid: 1]
[boost_from_average: 1]
[reg_sqrt: 0]
[alpha: 0.9]
[fair_c: 1]
[poisson_max_delta_step: 0.7]
[tweedie_variance_power: 1.5]
[lambdarank_truncation_level: 20]
[lambdarank_norm: 1]
[label_gain: ]
[eval_at: ]
[multi_error_top_k: 1]
[auc_mu_weights: ]
[num_machines: 1]
[local_listen_port: 12400]
[time_out: 120]
[machine_list_filename: ]
[machines: ]
[gpu_platform_id: -1]
[gpu_device_id: -1]
[gpu_use_dp: 0]

end of parameters

pandas_categorical:null
