tree
version=v3
num_class=1
num_tree_per_iteration=1
label_index=0
max_feature_idx=19
objective=binary sigmoid:1
feature_names=Column_0 Column_1 Column_2 Column_3 Column_4 Column_5 Column_6 Column_7 Column_8 Column_9 Column_10 Column_11 Column_12 Column_13 Column_14 Column_15 Column_16 Column_17 Column_18 Column_19
feature_infos=[0.022658099425092899:1] [0.0314421947342962:1] [0.089193825042881605:1] [0:1] [0:1] [0:1] [0.0018468223791416999:1] [0.0040213075132890996:0.96899502799786319] [0:1] [0:1] [0.0025392811243314002:0.41268327736550448] [0.0125266524520256:1] [0.020319737038697099:0.89093082324816986] [0.0094376720408965008:0.79797483287455762] [0:1] [0:1] [0:0.88258785942492013] [0:1] [0:1] [0:1]
tree_sizes=754 643 751 647 649 746 751 749 744 748 648 643 749 648 645 745 646 747 744 647 749 641 644 748 748 748 646 744 644 642 750 748 643 746 643 749 645 645 749 745 644 645 752 749 644 750 644 748 749 749 643 752 646 640 752 647 645 643 646 747 748 743 647 646 643 648 752 647 746 644 746 646 747 647 748 647 645 750 745 645 751 749 649 649 743 752 644 745 750 642 747 645 751 747 752 861 851 754 751 751 752 753 859 642 750 751 965 755 746 857 863 862 863 859 754 752 856 968 965 649 968 861 864 753 856 964 757 865 649 866 543 753 870 758 977 652 650 755 653 867 651 864 651 870 866 753 1080 862 1193 756 863 864 654 1085 870 867 1193 864 964 757 759 861 978 977 971 978 869 761 652 1088 761 982 654 972 757 761 864 861 1088 654 862 761 970 864 1082 762 1083 871 764 655 655 977 763 864 755 979 974 655 867 1086 656 1083 1425 870 759 977 973 871 1089 872 870 871 868 864 871 764 869 760 1299 653 877 768 761 974 760 764 764 656 984 979 875 986 764 657 659 1321 974 659 878 660 872 768 987 877 765 876 982 871 880 987 870 766 768 774 987 767 881 659 772 884 873 1332 658 769 766 769 661 663 874 888 882 660 763 989 766 992 878 771 774 880 772 772 888 1101 661 665 886 886 999 877 665 664 878 883 665 775 882 988 775 883 891 1108 780 1104 555 1213 879 1091 992 556 1102 772 889 878 992 987 1000 995 889 886 666 886 777 777 1102 774 995 776 560 556 776 999 884 556 997 884 771 770 991 883 886 1109 769 886 890 557 776 889 777 1452 779 883 669 663 997 887 671 888 892 559 1003 880 1005 1000 888 996 775 776 782 556 776 1110 895 562 670 779 889 998 779 1112 889 786 672 780 780 777 783 1114 894 892 777 891 1000 886 670 777 888 894 782 888 1117 778 1119 561 892 561 784 901

Tree=0
num_leaves=6
num_cat=0
split_feature=4 13 0 3 0
split_gain=236.764 12.5385 5.51558 0.193018 1.42109e-14
threshold=0.25772862823061632 0.12272660243806521 0.33006425431180247 0.12911784553094902 0.43523841731484608
decision_type=2 2 2 2 2
left_child=1 3 -2 -1 -4
right_child=2 -3 4 -5 -6
leaf_value=-0.097605536789700825 0.054395785968087008 -0.044066609340601484 0.094396134062241691 -0.1056056064085318 0.094396134062241718
leaf_weight=12.499891221523287 12.499891221523283 12.999886870384215 15.249867290258409 18.999834656715393 12.499891221523283
leaf_count=50 50 52 61 76 50
internal_value=-0.00589972 -0.0853807 0.0819737 -0.102431 0.0943961
internal_weight=0 44.4996 40.2496 31.4997 27.7498
internal_count=339 178 161 126 111
shrinkage=1


Tree=1
num_leaves=5
num_cat=0
split_feature=17 12 9 12
split_gain=214.492 27.4725 0.4527 0.431212
threshold=0.48917525773195875 0.25344887693610246 0.13076208701525302 0.38044723342795966
decision_type=2 2 2 2
left_child=1 2 -1 -2
right_child=3 -3 -4 -5
leaf_value=-0.083672238423574741 0.084560762867976619 -0.0058132271802154283 -0.095484751515894528 0.09604393515997961
leaf_weight=12.472881153225897 12.478453427553175 12.73895677924156 23.192265823483467 23.707567185163498
leaf_count=50 50 51 93 95
internal_value=0 -0.0688412 -0.0913537 0.0920841
internal_weight=0 48.4041 35.6651 36.186
internal_count=339 194 143 145
shrinkage=0.05


Tree=2
num_leaves=6
num_cat=0
split_feature=4 12 13 5 11
split_gain=196.241 8.32567 6.69013 0.0518785 0.0031203
threshold=0.24212226640159043 0.34683002141540914 0.11240414864333462 0.27021903959561921 0.43123667377398728
decision_type=2 2 2 2 2
left_child=2 -2 3 -1 -3
right_child=1 4 -4 -5 -6
leaf_value=-0.091305741433036755 0.043239897685268563 0.092641420042281653 -0.047588930012222232 -0.086986260986351413 0.091604297376562047
leaf_weight=15.854719623923303 12.434534996747969 14.901164114475252 14.458752393722532 12.378391742706297 14.128623411059378
leaf_count=64 50 60 58 50 57
internal_value=0 0.0774732 -0.0752474 -0.0894119 0.0921367
internal_weight=0 41.4643 42.6919 28.2331 29.0298
internal_count=339 167 172 114 117
shrinkage=0.05


Tree=3
num_leaves=5
num_cat=0
split_feature=17 12 8 11
split_gain=179.344 23.3007 0.485762 0.421493
threshold=0.48917525773195875 0.25344887693610246 0.076741670922582411 0.39898720682302785
decision_type=2 2 2 2
left_child=1 2 -1 -2
right_child=3 -3 -4 -5
leaf_value=-0.076376978005783913 0.077368618367889816 -0.0052711042394196495 -0.088653511378361971 0.088799905867999643
leaf_weight=12.523470282554625 12.316842526197432 12.710156723856924 22.596528023481369 23.352898627519608
leaf_count=51 50 51 92 95
internal_value=0 -0.0632815 -0.0842758 0.0848527
internal_weight=0 47.8302 35.12 35.6697
internal_count=339 194 143 145
shrinkage=0.05


Tree=4
num_leaves=5
num_cat=0
split_feature=17 13 8 11
split_gain=163.751 21.6666 0.461718 0.400521
threshold=0.48917525773195875 0.13318423122296499 0.076741670922582411 0.39898720682302785
decision_type=2 2 2 2
left_child=1 2 -1 -2
right_child=3 -3 -4 -5
leaf_value=-0.073419669935604212 0.074300105180006612 -0.0048407107498505972 -0.085461165603637299 0.085507444457368478
leaf_weight=12.380096003413199 12.187457516789435 12.705608010292051 22.301060155034065 23.047067135572433
leaf_count=51 50 51 92 95
internal_value=0 -0.0606988 -0.0811627 0.0816309
internal_weight=0 47.3868 34.6812 35.2345
internal_count=339 194 143 145
shrinkage=0.05


Tree=5
num_leaves=6
num_cat=0
split_feature=4 13 11 6 1
split_gain=151.954 6.89018 5.7846 0.361082 0.01046
threshold=0.24212226640159043 0.19122345654738493 0.38672707889125807 0.054843382219808008 0.53527745145463357
decision_type=2 2 2 2 2
left_child=2 -2 3 -1 -3
right_child=1 4 -4 -5 -6
leaf_value=-0.084459422333038769 0.038324884653453378 0.084151494532027346 -0.038901221061200739 -0.073170243518021344 0.082207771614647221
leaf_weight=16.330581277608875 12.418777987360953 13.216103032231333 12.554269045591353 12.508310243487356 14.532575681805609
leaf_count=68 51 55 52 52 61
internal_value=0 0.0692798 -0.0672305 -0.079563 0.0831335
internal_weight=0 40.1675 41.3932 28.8389 27.7487
internal_count=339 167 172 120 116
shrinkage=0.05


Tree=6
num_leaves=6
num_cat=0
split_feature=17 13 0 13 1
split_gain=139.286 7.36833 6.88507 0.184309 0.0162804
threshold=0.42027491408934708 0.18586561148250103 0.31518430842069661 0.096600963429020761 0.53527745145463357
decision_type=2 2 2 2 2
left_child=2 -2 3 -1 -3
right_child=1 4 -4 -5 -6
leaf_value=-0.076576654816070788 0.034373678651650225 0.082102714070140886 -0.037339943746815707 -0.084990156338447365 0.079666622087986361
leaf_weight=14.284524068236353 12.375571638345717 13.218918800354006 14.353601858019827 11.958691403269766 14.253348082303999
leaf_count=61 51 56 60 50 61
internal_value=0 0.0664081 -0.0651823 -0.0804106 0.0808388
internal_weight=0 39.8478 40.5968 26.2432 27.4723
internal_count=339 168 171 111 117
shrinkage=0.05


Tree=7
num_leaves=6
num_cat=0
split_feature=12 14 16 16 13
split_gain=129.71 7.04281 4.68037 0.218287 0.0615021
threshold=0.277354449922805 0.43076008716898906 0.15511182108626195 0.064081469648562303 0.25862662209988213
decision_type=2 2 2 2 2
left_child=2 -2 3 -1 -3
right_child=1 4 -4 -5 -6
leaf_value=-0.070429009003765183 0.036583995111020562 0.082566989597055107 -0.037971068195508564 -0.079415826302528497 0.077587706613394258
leaf_weight=11.82032832503319 14.977324038743971 12.011069923639299 11.826619401574133 15.774335667490957 12.821358323097227
leaf_count=51 63 51 50 68 56
internal_value=0 0.0636635 -0.0642875 -0.0755663 0.0799961
internal_weight=0 39.8098 39.4213 27.5947 24.8324
internal_count=339 170 169 119 107
shrinkage=0.05


Tree=8
num_leaves=6
num_cat=0
split_feature=4 0 11 0 3
split_gain=120.763 5.92797 5.06155 0.235507 0.071906
threshold=0.24212226640159043 0.31518430842069661 0.38672707889125807 0.23554277984443683 0.34344518741181523
decision_type=2 2 2 2 2
left_child=2 -2 3 -1 -3
right_child=1 4 -4 -5 -6
leaf_value=-0.078276892606176818 0.033590452659147063 0.07921135129969939 -0.034456525954703575 -0.068958842950705659 0.073978243839537397
leaf_weight=12.319085001945497 11.705192625522612 11.712455570697786 12.22306953370571 15.083841204643248 14.934101268649099
leaf_count=54 50 51 52 66 66
internal_value=0 0.0632498 -0.0612131 -0.0731478 0.0762784
internal_weight=0 38.3517 39.626 27.4029 26.6466
internal_count=339 167 172 120 117
shrinkage=0.05


Tree=9
num_leaves=6
num_cat=0
split_feature=4 13 0 8 13
split_gain=111.182 7.49561 4.39768 0.217332 0.0402706
threshold=0.25772862823061632 0.12272660243806521 0.33006425431180247 0.082449604950881716 0.26858041683051515
decision_type=2 2 2 2 2
left_child=1 3 -2 -1 -4
right_child=2 -3 4 -5 -6
leaf_value=-0.065985615359103827 0.03817870084092282 -0.024837090591263655 0.077760731376379733 -0.075001675764640161 0.073706515058524658
leaf_weight=11.094568014144899 11.543119609355925 12.507343411445616 11.354867354035379 16.81262232363224 13.298885345458983
leaf_count=50 50 52 50 76 61
internal_value=0 -0.0570018 0.0636486 -0.0714173 0.0755738
internal_weight=0 40.4145 36.1969 27.9072 24.6538
internal_count=339 178 161 126 111
shrinkage=0.05


Tree=10
num_leaves=5
num_cat=0
split_feature=17 13 8 11
split_gain=105.641 15.394 0.560016 0.364251
threshold=0.48917525773195875 0.13318423122296499 0.076741670922582411 0.39898720682302785
decision_type=2 2 2 2
left_child=1 2 -1 -2
right_child=3 -3 -4 -5
leaf_value=-0.060273644921877659 0.062309868570208274 -0.0034322303566631236 -0.07427051638668021 0.073559665460016604
leaf_weight=11.116176307201387 11.085467904806139 12.420802071690558 20.010272085666656 20.504111066460609
leaf_count=51 50 51 92 95
internal_value=0 -0.0504927 -0.0692718 0.0696119
internal_weight=0 43.5473 31.1264 31.5896
internal_count=339 194 143 145
shrinkage=0.05


Tree=11
num_leaves=5
num_cat=0
split_feature=17 13 9 11
split_gain=97.6457 15.0276 0.778861 0.154881
threshold=0.495360824742268 0.13318423122296499 0.12851072212528844 0.40525053304904063
decision_type=2 2 2 2
left_child=1 2 -1 -2
right_child=3 -3 -4 -5
leaf_value=-0.055860108330462892 0.06440956446972719 -0.002019983863736711 -0.072565440394650224 0.071885003638756911
leaf_weight=10.674927279353144 10.808992698788645 12.629580795764921 20.143528491258621 19.302306160330772
leaf_count=50 50 52 95 92
internal_value=0 -0.0479547 -0.066779 0.0692016
internal_weight=0 43.448 30.8185 30.1113
internal_count=339 197 145 142
shrinkage=0.05


Tree=12
num_leaves=6
num_cat=0
split_feature=12 14 17 15 13
split_gain=91.3141 6.08391 3.65557 0.260396 0.0597804
threshold=0.277354449922805 0.43076008716898906 0.2996735395189003 0.095186812973581267 0.25862662209988213
decision_type=2 2 2 2 2
left_child=2 -2 3 -1 -3
right_child=1 4 -4 -5 -6
leaf_value=-0.061508727850197467 0.030222809698682126 0.074881930847629424 -0.032777031388882931 -0.071884189653598746 0.069685969052078217
leaf_weight=10.569074973464014 14.109872505068777 10.843537494540216 10.98502281308174 14.13469561934471 11.308727234601973
leaf_count=51 63 51 50 68 56
internal_value=0 0.0558843 -0.0567743 -0.0674452 0.0722294
internal_weight=0 36.2621 35.6888 24.7038 22.1523
internal_count=339 170 169 119 107
shrinkage=0.05


Tree=13
num_leaves=5
num_cat=0
split_feature=17 12 8 11
split_gain=85.2642 12.7811 0.571579 0.379979
threshold=0.48917525773195875 0.25344887693610246 0.076741670922582411 0.39898720682302785
decision_type=2 2 2 2
left_child=1 2 -1 -2
right_child=3 -3 -4 -5
leaf_value=-0.055212129661598421 0.057547275018973831 -0.0038951873697504434 -0.06990031063392238 0.069453597732241565
leaf_weight=10.324201673269274 10.382165163755419 12.385087952017782 18.47736006975174 18.899665638804436
leaf_count=51 50 51 92 95
internal_value=0 -0.0463703 -0.0646352 0.0652321
internal_weight=0 41.1866 28.8016 29.2818
internal_count=339 194 143 145
shrinkage=0.05


Tree=14
num_leaves=5
num_cat=0
split_feature=17 12 9 17
split_gain=79.0667 13.3325 0.813595 0.166365
threshold=0.495360824742268 0.25593904078888402 0.12710361906906056 0.61013745704467359
decision_type=2 2 2 2
left_child=1 2 -1 -2
right_child=3 -3 -4 -5
leaf_value=-0.050989557681721434 0.060125823415263679 -0.0001057478129120736 -0.068636571830013302 0.068134681024680455
leaf_weight=9.970879018306734 10.317026019096376 12.137926712632177 18.934135288000107 17.454302757978439
leaf_count=50 52 50 97 90
internal_value=0 -0.0440823 -0.0625492 0.0651594
internal_weight=0 41.0429 28.905 27.7713
internal_count=339 197 147 142
shrinkage=0.05


Tree=15
num_leaves=6
num_cat=0
split_feature=12 14 11 17 12
split_gain=73.768 5.76854 4.51036 0.596067 0.0537368
threshold=0.277354449922805 0.43076008716898906 0.38486140724946705 0.25178694158075604 0.395886249315205
decision_type=2 2 2 2 2
left_child=2 -2 3 -1 -3
right_child=1 4 -4 -5 -6
leaf_value=-0.057732000217283856 0.026690490608674611 0.0713927609256262 -0.026438988967852385 -0.074044358788563316 0.066245381826580629
leaf_weight=11.359464079141619 13.638761311769484 9.8166165798902529 10.801037535071371 11.045628830790518 10.48699615895748
leaf_count=61 63 50 53 55 57
internal_value=0 0.0518401 -0.0529794 -0.0657739 0.0687341
internal_weight=0 33.9424 33.2061 22.4051 20.3036
internal_count=339 170 169 116 107
shrinkage=0.05


Tree=16
num_leaves=5
num_cat=0
split_feature=17 13 3 17
split_gain=69.4301 10.9836 0.619804 0.356721
threshold=0.48917525773195875 0.13318423122296499 0.1235813753757438 0.60807560137457051
decision_type=2 2 2 2
left_child=1 2 -1 -2
right_child=3 -3 -4 -5
leaf_value=-0.050858714798632014 0.054187850177816889 -0.0037880873687217102 -0.066761969842548827 0.06611727206377653
leaf_weight=9.6335665732622164 9.9345594644546527 12.299923479557036 16.82992023229599 16.972700536251068
leaf_count=52 52 51 91 93
internal_value=0 -0.0428276 -0.0609727 0.0617128
internal_weight=0 38.7634 26.4635 26.9073
internal_count=339 194 143 145
shrinkage=0.05


Tree=17
num_leaves=6
num_cat=0
split_feature=17 13 0 11 17
split_gain=64.5455 12.5936 0.899403 0.195446 0.183473
threshold=0.495360824742268 0.14506734172237512 0.31518430842069661 0.40525053304904063 0.25178694158075604
decision_type=2 2 2 2 2
left_child=1 2 4 -2 -1
right_child=3 -3 -4 -5 -6
leaf_value=-0.059167142959319664 0.056116163108882858 0.0064467109792152033 -0.045334944312909305 0.065226337007551233 -0.069029429371061726
leaf_weight=9.0923096835613304 9.2688963562250155 10.359057337045668 9.369973883032797 16.136601731181145 9.7973122298717481
leaf_count=52 50 43 49 92 53
internal_value=0 -0.0407128 -0.058 0.0619026 -0.0642823
internal_weight=0 38.6187 28.2596 25.4055 18.8896
internal_count=339 197 154 142 105
shrinkage=0.05


Tree=18
num_leaves=6
num_cat=0
split_feature=4 0 0 6 15
split_gain=61.156 5.1091 4.61996 0.35649 0.136409
threshold=0.24212226640159043 0.31518430842069661 0.32617517754480879 0.052543907296758958 0.31702418721075765
decision_type=2 2 2 2 2
left_child=2 -2 3 -1 -3
right_child=1 4 -4 -5 -6
leaf_value=-0.067304506970515598 0.02124110551119494 0.069438903897683493 -0.021549383830016769 -0.054185443197237886 0.061257143831580818
leaf_weight=12.285130620002752 9.8811433911323565 9.3923409730196017 10.752025932073591 8.9512073546648008 11.132617741823195
leaf_count=69 50 51 54 49 66
internal_value=0 0.0507804 -0.0482541 -0.0617748 0.0650012
internal_weight=0 30.4061 31.9884 21.2363 20.525
internal_count=339 167 172 118 117
shrinkage=0.05


Tree=19
num_leaves=5
num_cat=0
split_feature=17 12 9 11
split_gain=56.7201 10.9602 0.62625 0.428908
threshold=0.48917525773195875 0.25593904078888402 0.12977711487589352 0.39898720682302785
decision_type=2 2 2 2
left_child=1 2 -1 -2
right_child=3 -3 -4 -5
leaf_value=-0.047617672369438618 0.050007064149419557 0.00061130031608938541 -0.064218771013112227 0.063748077815437482
leaf_weight=8.7997379302978533 8.9241597056388873 11.556391775608061 16.028253793716431 15.616712123155592
leaf_count=51 50 48 95 95
internal_value=0 -0.0396124 -0.0583349 0.0587512
internal_weight=0 36.3844 24.828 24.5409
internal_count=339 194 146 145
shrinkage=0.05


Tree=20
num_leaves=6
num_cat=0
split_feature=12 12 11 17 9
split_gain=53.2254 5.65389 3.93862 0.635216 0.0569989
threshold=0.277354449922805 0.35305543104736298 0.38486140724946705 0.25178694158075604 0.15827095176450717
decision_type=2 2 2 2 2
left_child=2 -2 3 -1 -3
right_child=1 4 -4 -5 -6
leaf_value=-0.052158353950299753 0.017673784876593133 0.060402617440022344 -0.022323952412309628 -0.070269912067466606 0.065870033222899513
leaf_weight=9.6999125778675133 10.814906015992166 10.758284866809847 9.8201157450675947 9.6648116111755353 8.5597815960645658
leaf_count=61 52 67 53 55 51
internal_value=0 0.0466201 -0.0481175 -0.0611977 0.0628252
internal_weight=0 30.133 29.1848 19.3647 19.3181
internal_count=339 170 169 116 118
shrinkage=0.05


Tree=21
num_leaves=5
num_cat=0
split_feature=17 13 9 11
split_gain=50.125 10.9547 1.8019 0.199441
threshold=0.495360824742268 0.15199813212740856 0.13413913435019983 0.40764925373134342
decision_type=2 2 2 2
left_child=1 2 -1 -2
right_child=3 -3 -4 -5
leaf_value=-0.038320046692946461 0.052658286578346362 0.0097050861934025474 -0.064826251530261905 0.06231677706808713
leaf_weight=11.192915722727777 8.7927233576774615 9.2830923944711667 15.010046139359472 13.630443617701529
leaf_count=65 53 39 93 89
internal_value=0 -0.0369685 -0.0535038 0.0585294
internal_weight=0 35.4861 26.203 22.4232
internal_count=339 197 158 142
shrinkage=0.05


Tree=22
num_leaves=5
num_cat=0
split_feature=13 17 0 18
split_gain=46.7168 15.9039 2.19523 0.150745
threshold=0.19122345654738493 0.46666666666666662 0.28390260399053097 0.26621328602404898
decision_type=2 2 2 2
left_child=1 2 -1 -2
right_child=3 -3 -4 -5
leaf_value=-0.066198573969088223 0.055638011074263929 0.024143095042624137 -0.037723276713272719 0.06436475738459245
leaf_weight=14.657246053218843 8.549846753478052 8.8381251096725446 12.575349822640417 11.748333916068075
leaf_count=92 50 47 73 77
internal_value=0 -0.0341355 -0.0530494 0.0606889
internal_weight=0 36.0707 27.2326 20.2982
internal_count=339 212 165 127
shrinkage=0.05


Tree=23
num_leaves=6
num_cat=0
split_feature=4 0 16 8 3
split_gain=44.6099 4.88292 4.41589 0.684318 0.132737
threshold=0.24212226640159043 0.31518430842069661 0.16325878594249202 0.069606753387208217 0.34344518741181523
decision_type=2 2 2 2 2
left_child=2 -2 3 -1 -3
right_child=1 4 -4 -5 -6
leaf_value=-0.046315958240849893 0.016564736890113948 0.066544029560543866 -0.014665802437137623 -0.065298339898357857 0.057833414531723165
leaf_weight=8.3649456501007133 8.9786113202571887 8.1786956340074557 8.9816229194402677 10.979920670390127 9.4003967642784101
leaf_count=53 50 51 47 72 66
internal_value=0 0.0465638 -0.0436384 -0.0570901 0.061886
internal_weight=0 26.5577 28.3265 19.3449 17.5791
internal_count=339 167 172 125 117
shrinkage=0.05


Tree=24
num_leaves=6
num_cat=0
split_feature=13 4 0 13 18
split_gain=41.8407 13.4314 1.8832 0.399609 0.159857
threshold=0.19122345654738493 0.24212226640159043 0.34409874873182272 0.10456399921352727 0.27330967869110984
decision_type=2 2 2 2 2
left_child=1 2 3 -1 -2
right_child=4 -3 -4 -5 -6
leaf_value=-0.054909622874680146 0.054148251909685509 0.017852330097856129 -0.031451784245856457 -0.07033290328673078 0.06335976412546121
leaf_weight=10.197204358875757 8.4019588008523005 9.4433882534503919 7.6293938755989066 7.1406133919954291 10.718157872557638
leaf_count=75 52 51 44 42 75
internal_value=0 -0.0329409 -0.0521525 -0.0612617 0.0593119
internal_weight=0 34.4106 24.9672 17.3378 19.1201
internal_count=339 212 161 117 127
shrinkage=0.05


Tree=25
num_leaves=6
num_cat=0
split_feature=17 13 0 17 17
split_gain=39.4765 10.3535 2.67979 0.365146 0.220261
threshold=0.495360824742268 0.15401346834447502 0.37081501521812649 0.28783505154639172 0.61013745704467359
decision_type=2 2 2 2 2
left_child=1 2 3 -1 -2
right_child=4 -3 -4 -5 -6
leaf_value=-0.054848083496019863 0.04914070336103124 0.015074288681143506 -0.024516557197236753 -0.069680488918592604 0.060016668508071191
leaf_weight=10.148586392402654 7.5484448373317745 8.0988596975803357 7.1695826053619376 7.0193144083023062 12.145703226327894
leaf_count=76 52 35 42 44 90
internal_value=0 -0.033895 -0.0501906 -0.0609125 0.0558481
internal_weight=0 32.4363 24.3375 17.1679 19.6941
internal_count=339 197 162 120 142
shrinkage=0.05


Tree=26
num_leaves=5
num_cat=0
split_feature=16 7 19 19
split_gain=37.2055 12.3222 0.991547 0.511793
threshold=0.16325878594249202 0.047372235234348962 0.10192837465564741 0.1787682014954742
decision_type=2 2 2 2
left_child=2 -2 -1 -3
right_child=1 3 -4 -5
leaf_value=-0.042715425168613916 -0.0042064074195805861 0.06809674938254616 -0.065916510443129003 0.051476918803644835
leaf_weight=8.115391358733179 13.192032761871817 8.3314761370420474 10.646338276565073 10.432252712547777
leaf_count=55 76 54 75 79
internal_value=0 0.0328227 -0.0558809 0.0588565
internal_weight=0 31.9558 18.7617 18.7637
internal_count=339 209 130 133
shrinkage=0.05


Tree=27
num_leaves=6
num_cat=0
split_feature=13 16 0 1 5
split_gain=35.1568 13.3233 2.0869 0.478304 0.173896
threshold=0.19122345654738493 0.25283546325878598 0.33006425431180247 0.27838435491673003 0.18955349620892997
decision_type=2 2 2 2 2
left_child=1 2 3 -1 -2
right_child=4 -3 -4 -5 -6
leaf_value=-0.053276732578716748 0.051746931179509272 0.021460915765256036 -0.027796066130003978 -0.07059720355977496 0.061796193403627221
leaf_weight=9.5140438675880485 7.8384140357375172 8.7833703532814962 6.927905671298503 6.85975457727909 9.5494710579514486
leaf_count=78 52 51 44 39 75
internal_value=0 -0.0310183 -0.0507999 -0.0605331 0.057266
internal_weight=0 32.0851 23.3017 16.3738 17.3879
internal_count=339 212 161 117 127
shrinkage=0.05


Tree=28
num_leaves=5
num_cat=0
split_feature=17 0 0 17
split_gain=33.1015 9.39473 0.859821 0.235887
threshold=0.495360824742268 0.32617517754480879 0.23554277984443683 0.61013745704467359
decision_type=2 2 2 2
left_child=1 2 -1 -2
right_child=3 -3 -4 -5
leaf_value=-0.064913276649160426 0.046886322059403129 0.0033066972052244454 -0.043425413202851114 0.05868720925901405
leaf_weight=8.9859164357185417 6.9241232722997692 11.747080586850641 9.6602750942110998 10.902060516178606
leaf_count=62 52 66 69 90
internal_value=0 -0.0317163 -0.0537808 0.0541035
internal_weight=0 30.3933 18.6462 17.8262
internal_count=339 197 131 142
shrinkage=0.05


Tree=29
num_leaves=5
num_cat=0
split_feature=13 11 2 18
split_gain=31.4387 11.1503 1.26134 0.208026
threshold=0.19122345654738493 0.40764925373134342 0.42394150040624717 0.27695643603390502
decision_type=2 2 2 2
left_child=1 2 -1 -2
right_child=3 -3 -4 -5
leaf_value=-0.061272165769837197 0.049980600121767679 0.011900356477145518 -0.0355025715045676 0.061312665253657563
leaf_weight=12.554018333554273 7.4764933288097408 10.550272136926649 7.6372299343347541 8.836243733763693
leaf_count=93 53 66 53 74
internal_value=0 -0.0297578 -0.051525 0.0561189
internal_weight=0 30.7415 20.1912 16.3127
internal_count=339 212 146 127
shrinkage=0.05


Tree=30
num_leaves=6
num_cat=0
split_feature=16 13 13 19 17
split_gain=30.1731 13.1102 2.65247 0.944047 0.160939
threshold=0.16325878594249202 0.13882471490365708 0.19122345654738493 0.10192837465564741 0.61013745704467359
decision_type=2 2 2 2 2
left_child=3 -2 -3 -1 -4
right_child=1 2 4 -5 -6
leaf_value=-0.039866359946038626 -0.030071537435444523 0.025726709791696101 0.067386430257040261 -0.063753309376342424 0.056860178342432427
leaf_weight=7.3410902246832874 6.7912154197692898 7.8045082241296795 6.9054194912314397 9.4748664349317533 7.6584590524435043
leaf_count=55 44 43 49 75 73
internal_value=0 0.0307739 0.0492471 -0.0533253 0.0618512
internal_weight=0 29.1596 22.3684 16.816 14.5639
internal_count=339 209 165 130 122
shrinkage=0.05


Tree=31
num_leaves=6
num_cat=0
split_feature=16 12 14 8 12
split_gain=28.1003 10.6661 2.74918 0.976035 0.112212
threshold=0.16325878594249202 0.26116838487972516 0.41656210790464254 0.096419022441193214 0.38044723342795966
decision_type=2 2 2 2 2
left_child=3 -2 -3 -1 -4
right_child=1 2 4 -5 -6
leaf_value=-0.041941997583492568 -0.024753547318025097 0.02451910078922092 0.06572720912744702 -0.066739747655945272 0.056565853877977093
leaf_weight=9.415766045451166 6.7821614444255856 8.3183479085564631 6.6597467660903913 6.8584258928894988 6.7100317478179932
leaf_count=76 43 52 47 54 67
internal_value=0 0.0299737 0.0470877 -0.0523925 0.0611293
internal_weight=0 28.4703 21.6881 16.2742 13.3698
internal_count=339 209 166 130 114
shrinkage=0.05


Tree=32
num_leaves=5
num_cat=0
split_feature=17 0 0 11
split_gain=26.3786 8.23657 0.841303 0.295672
threshold=0.495360824742268 0.32617517754480879 0.23554277984443683 0.40764925373134342
decision_type=2 2 2 2
left_child=1 2 -1 -2
right_child=3 -3 -4 -5
leaf_value=-0.062831586654172225 0.043743522428309346 0.0041127572840053243 -0.04040978491447475 0.057809024782072255
leaf_weight=8.0688819661736542 6.2241349294781676 11.243648231029509 8.6884680539369565 9.3474837318062765
leaf_count=62 53 66 69 89
internal_value=0 -0.0289932 -0.0512062 0.0521869
internal_weight=0 28.001 16.7574 15.5716
internal_count=339 197 131 142
shrinkage=0.05


Tree=33
num_leaves=6
num_cat=0
split_feature=16 12 14 19 12
split_gain=25.1346 9.60355 2.67347 1.0534 0.10749
threshold=0.16325878594249202 0.26116838487972516 0.41656210790464254 0.097205824478551708 0.3747198565665622
decision_type=2 2 2 2 2
left_child=3 -2 -3 -1 -4
right_child=1 2 4 -5 -6
leaf_value=-0.035545957449109648 -0.023484322788155106 0.023553794674980002 0.065210276537188847 -0.062047243728175119 0.055900544907264871
leaf_weight=6.4438777491450301 6.5978666618466404 8.1201293841004389 6.0713257640600187 8.968545272946356 6.3364299014210701
leaf_count=51 43 52 45 79 69
internal_value=0 0.0289922 0.0458587 -0.0509672 0.060456
internal_weight=0 27.1258 20.5279 15.4124 12.4078
internal_count=339 209 166 130 114
shrinkage=0.05


Tree=34
num_leaves=5
num_cat=0
split_feature=13 11 11 0
split_gain=24.2226 9.32245 1.36937 0.332996
threshold=0.19122345654738493 0.40764925373134342 0.23334221748400857 0.34950963814677033
decision_type=2 2 2 2
left_child=1 2 -1 -2
right_child=3 -3 -4 -5
leaf_value=-0.067763636252168732 0.044922394284143304 0.012021836805183844 -0.03861055430551439 0.060540221375184333
leaf_weight=6.1870279386639657 6.0077565610408765 9.7809018492698652 11.542950056493281 7.9023502990603447
leaf_count=49 48 66 97 79
internal_value=0 -0.0271656 -0.0487838 0.0537949
internal_weight=0 27.5109 17.73 13.9101
internal_count=339 212 146 127
shrinkage=0.05


Tree=35
num_leaves=6
num_cat=0
split_feature=13 17 0 1 0
split_gain=22.5311 8.81388 2.76388 0.394533 0.351899
threshold=0.19122345654738493 0.46666666666666662 0.37318227933716602 0.27838435491673003 0.34950963814677033
decision_type=2 2 2 2 2
left_child=1 2 3 -1 -2
right_child=4 -3 -4 -5 -6
leaf_value=-0.049872063464362938 0.043753209785840796 0.019765096757289283 -0.016621458100800176 -0.067489164182822553 0.060068268448060957
leaf_weight=7.9951250702142769 5.8635890409350377 7.5170305892825118 6.2837420329451552 5.274628721177578 7.5745140537619591
leaf_count=86 48 47 41 38 79
internal_value=0 -0.0262494 -0.0439389 -0.0568747 0.0529493
internal_weight=0 27.0705 19.5535 13.2698 13.4381
internal_count=339 212 165 124 127
shrinkage=0.05


Tree=36
num_leaves=5
num_cat=0
split_feature=16 7 8 5
split_gain=21.6903 8.43947 1.021 0.548162
threshold=0.16325878594249202 0.047372235234348962 0.096419022441193214 0.28032855939342871
decision_type=2 2 2 2
left_child=2 -2 -1 -3
right_child=1 3 -4 -5
leaf_value=-0.038005005795891555 -0.0035785434385754746 0.061783672874246603 -0.065171582502320066 0.040845495833219586
leaf_weight=8.1579920724034292 11.614763982594015 8.8407745063304883 6.0039005875587454 4.8356244117021552
leaf_count=76 76 86 54 47
internal_value=0 0.0277633 -0.0495222 0.0543805
internal_weight=0 25.2912 14.1619 13.6764
internal_count=339 209 130 133
shrinkage=0.05


Tree=37
num_leaves=5
num_cat=0
split_feature=16 7 8 5
split_gain=20.158 8.03526 1.00547 0.549981
threshold=0.16325878594249202 0.047372235234348962 0.096419022441193214 0.28032855939342871
decision_type=2 2 2 2
left_child=2 -2 -1 -3
right_child=1 3 -4 -5
leaf_value=-0.037075393758604441 -0.0034006018170149714 0.061243823809781564 -0.064495961603662402 0.039925808957793442
leaf_weight=7.9497656002640706 11.611484512686731 8.481857128441332 5.7693982198834419 4.7030619680881491
leaf_count=76 76 86 54 47
internal_value=0 0.0269293 -0.0486067 0.0536397
internal_weight=0 24.7964 13.7192 13.1849
internal_count=339 209 130 133
shrinkage=0.05


Tree=38
num_leaves=6
num_cat=0
split_feature=17 13 10 4 11
split_gain=19.1943 6.44318 1.76526 2.29037 0.373246
threshold=0.495360824742268 0.16057559968541088 0.083181321946298514 0.11061133200795231 0.39898720682302785
decision_type=2 2 2 2 2
left_child=1 2 3 -1 -2
right_child=4 -3 -4 -5 -6
leaf_value=-0.049184551076551383 0.038762201145499317 0.0189614667036745 -0.059758250963360716 -0.0046547622385472867 0.056402486712440816
leaf_weight=6.1073214784264618 4.7997950464487058 6.1104917824268332 7.1248850151896468 5.4775294438004494 7.9908894300460815
leaf_count=63 48 29 60 45 94
internal_value=0 -0.0256158 -0.0401744 -0.0281301 0.0497828
internal_weight=0 24.8202 18.7097 11.5849 12.7907
internal_count=339 197 168 108 142
shrinkage=0.05


Tree=39
num_leaves=6
num_cat=0
split_feature=16 0 4 19 12
split_gain=18.0325 7.38725 2.9209 1.09273 0.0662012
threshold=0.16325878594249202 0.29540074399729449 0.25772862823061632 0.097205824478551708 0.35305543104736298
decision_type=2 2 2 2 2
left_child=3 -2 -3 -1 -4
right_child=1 2 4 -5 -6
leaf_value=-0.030744148203531482 -0.017912059822783623 0.01378001780100355 0.063199503638616858 -0.060069786883098011 0.055283990435367691
leaf_weight=5.5868177562952024 6.8295644149184254 5.4906343966722515 4.1729559525847417 7.3631518743932247 7.1974923685193062
leaf_count=51 54 29 32 79 94
internal_value=0 0.0259581 0.0437277 -0.0474183 0.058189
internal_weight=0 23.6906 16.8611 12.95 11.3704
internal_count=339 209 155 130 126
shrinkage=0.05


Tree=40
num_leaves=5
num_cat=0
split_feature=13 11 11 0
split_gain=17.6594 7.7389 1.33164 0.450236
threshold=0.19122345654738493 0.40764925373134342 0.23334221748400857 0.33581332431518424
decision_type=2 2 2 2
left_child=1 2 -1 -2
right_child=3 -3 -4 -5
leaf_value=-0.065907054706627999 0.039048463259685556 0.012841063853671109 -0.034957930181195328 0.059220104679822506
leaf_weight=5.324173059314492 4.6370356902480108 8.9331265762448293 10.010367460548876 6.8568240813910961
leaf_count=49 41 66 97 86
internal_value=0 -0.0241528 -0.0457035 0.0510821
internal_weight=0 24.2677 15.3345 11.4939
internal_count=339 212 146 127
shrinkage=0.05


Tree=41
num_leaves=5
num_cat=0
split_feature=13 11 7 0
split_gain=16.4257 7.24442 2.37834 0.576375
threshold=0.19122345654738493 0.45802238805970158 0.029236194382496705 0.33006425431180247
decision_type=2 2 2 2
left_child=1 2 -1 -2
right_child=3 -3 -4 -5
leaf_value=-0.058554534182354304 0.035831301054686397 0.021188840859365773 -0.02145395960265838 0.059256604866338027
leaf_weight=8.8028650805354172 4.2597858086228353 6.6121193990111342 8.4818800687789899 6.8459866419434547
leaf_count=96 39 48 68 88
internal_value=0 -0.0233217 -0.0403487 0.0502715
internal_weight=0 23.8969 17.2847 11.1058
internal_count=339 212 164 127
shrinkage=0.05


Tree=42
num_leaves=6
num_cat=0
split_feature=17 7 16 9 13
split_gain=15.7765 6.94421 2.52692 0.154165 0.0253843
threshold=0.51185567010309285 0.048903806140478658 0.16325878594249202 0.18352845162379686 0.097719229256783322
decision_type=2 2 2 2 2
left_child=1 2 4 -2 -1
right_child=3 -3 -4 -5 -6
leaf_value=-0.054903804402344381 0.055659199047836852 0.021172618040459612 -0.018902410273223758 0.042949598165525231 -0.060210321924868242
leaf_weight=4.962050620466476 6.7815020047128183 6.5824928171932688 8.0934672392904741 3.6810817681252956 4.1288997232913971
leaf_count=66 89 41 52 46 45
internal_value=0 -0.0224958 -0.039223 0.0511875 -0.0573139
internal_weight=0 23.7669 17.1844 10.4626 9.09095
internal_count=339 204 163 135 111
shrinkage=0.05


Tree=43
num_leaves=6
num_cat=0
split_feature=16 13 13 19 17
split_gain=14.9193 7.81114 2.23883 1.11321 0.11474
threshold=0.16325878594249202 0.13882471490365708 0.19122345654738493 0.092876820149547415 0.55360824742268044
decision_type=2 2 2 2 2
left_child=3 -2 -3 -1 -4
right_child=1 2 4 -5 -6
leaf_value=-0.027401231380653274 -0.025658349144401939 0.020559867665300536 0.064942684183919214 -0.058794028054814255 0.053655357295209864
leaf_weight=4.8410850539803487 5.7238558605313328 6.773248769342902 3.8869423866271955 6.7774416767060757 5.3511776700615883
leaf_count=47 44 43 35 83 87
internal_value=0 0.0244736 0.0423952 -0.0457136 0.0584045
internal_weight=0 21.7352 16.0114 11.6185 9.23812
internal_count=339 209 165 130 122
shrinkage=0.05


Tree=44
num_leaves=5
num_cat=0
split_feature=4 0 9 15
split_gain=14.0072 4.65693 3.01664 0.155395
threshold=0.24212226640159043 0.29912073047007098 0.12238982383069731 0.27841002803892462
decision_type=2 2 2 2
left_child=2 -2 -1 -3
right_child=1 3 -4 -5
leaf_value=-0.010203942182522205 -0.0059345362558572293 0.061827974685229409 -0.051700963941354788 0.049289896759934178
leaf_weight=9.0411007814109343 4.6626845225691786 4.1035938858985883 8.4941635541617853 6.212509386241436
leaf_count=73 38 44 99 85
internal_value=0 0.0355342 -0.0303053 0.0542774
internal_weight=0 14.9788 17.5353 10.3161
internal_count=339 167 172 129
shrinkage=0.05


Tree=45
num_leaves=6
num_cat=0
split_feature=17 0 16 12 9
split_gain=13.4678 6.47957 0.922658 0.537097 0.166872
threshold=0.51185567010309285 0.33327696990192751 0.17851437699680514 0.21031923900592658 0.18352845162379686
decision_type=2 2 2 2 2
left_child=1 2 3 -1 -2
right_child=4 -3 -4 -5 -6
leaf_value=-0.041669769297719109 0.055124028131773653 0.011258783546299058 -0.027229514878810448 -0.067662934990226853 0.041223546487178443
leaf_weight=4.1199690215289646 6.0700446926057321 9.152190759778021 5.2658521756529808 3.8393253721296787 3.3509667776525021
leaf_count=67 89 66 37 34 46
internal_value=0 -0.0210839 -0.043466 -0.0542081 0.0501798
internal_weight=0 22.3773 13.2251 7.95929 9.42101
internal_count=339 204 138 101 135
shrinkage=0.05


Tree=46
num_leaves=5
num_cat=0
split_feature=13 11 7 0
split_gain=12.8933 6.16737 2.29296 0.490984
threshold=0.19122345654738493 0.45802238805970158 0.029236194382496705 0.33581332431518424
decision_type=2 2 2 2
left_child=1 2 -1 -2
right_child=3 -3 -4 -5
leaf_value=-0.057920729006668441 0.03541429042447395 0.020796620759902806 -0.019330484662013495 0.058359110781778259
leaf_weight=7.5636183768510872 4.0835436470806581 6.1942790597677222 7.838471382856369 5.4341861121356487
leaf_count=96 41 48 68 86
internal_value=0 -0.0213365 -0.0382813 0.0485147
internal_weight=0 21.5964 15.4021 9.51773
internal_count=339 212 164 127
shrinkage=0.05


Tree=47
num_leaves=6
num_cat=0
split_feature=16 13 14 6 12
split_gain=12.2643 6.66897 2.24939 1.1177 0.116919
threshold=0.16325878594249202 0.13882471490365708 0.41656210790464254 0.081930110447220664 0.35305543104736298
decision_type=2 2 2 2 2
left_child=3 -2 -3 -1 -4
right_child=1 2 4 -5 -6
leaf_value=-0.056860280991326576 -0.02443364465312596 0.019357165183786662 0.065476259361080896 -0.023486299324687907 0.053228194109131849
leaf_weight=6.3621286265552062 5.3947469443082836 6.6967695690691453 3.5714001841843128 4.1419455707073212 4.2876879423856735
leaf_count=88 44 54 30 42 81
internal_value=0 0.0230512 0.0406502 -0.0437003 0.0587941
internal_weight=0 19.9506 14.5559 10.5041 7.85909
internal_count=339 209 165 130 111
shrinkage=0.05


Tree=48
num_leaves=6
num_cat=0
split_feature=13 0 14 12 0
split_gain=11.5061 5.68824 2.78831 0.634696 0.526692
threshold=0.19122345654738493 0.39042948934731142 0.45684474674767223 0.24348822152497632 0.33581332431518424
decision_type=2 2 2 2 2
left_child=1 2 3 -1 -2
right_child=4 -3 -4 -5 -6
leaf_value=-0.043008625920712348 0.033629555312305263 0.015792988548800041 -0.0079842984542425281 -0.069650083077826816 0.058086601132921883
leaf_weight=4.7158851400017792 3.9049637950956804 7.1286289021372786 4.6675489172339431 4.2505696639418602 5.0458403006196022
leaf_count=81 41 56 48 27 86
internal_value=0 -0.0204002 -0.039324 -0.0556381 0.0474167
internal_weight=0 20.7626 13.634 8.96645 8.9508
internal_count=339 212 156 108 127
shrinkage=0.05


Tree=49
num_leaves=6
num_cat=0
split_feature=17 7 16 9 1
split_gain=11.1428 5.36016 2.28923 0.17158 0.0141666
threshold=0.51185567010309285 0.048903806140478658 0.16325878594249202 0.17459334721675016 0.25900076014097168
decision_type=2 2 2 2 2
left_child=1 2 4 -2 -1
right_child=3 -3 -4 -5 -6
leaf_value=-0.053894690731299967 0.054678766598877229 0.020027113099674344 -0.016436687557370998 0.039799737778568552 -0.058365812757062652
leaf_weight=4.1355277076363617 5.1821793839335424 6.0894566997885695 7.5380172915756702 3.0946193486452103 3.099396925419569
leaf_count=69 87 41 52 48 42
internal_value=0 -0.0194478 -0.0357195 0.0491156 -0.0558101
internal_weight=0 20.8624 14.7729 8.2768 7.23492
internal_count=339 204 163 135 111
shrinkage=0.05


Tree=50
num_leaves=5
num_cat=0
split_feature=13 0 10 9
split_gain=10.6649 7.47294 1.62487 0.58814
threshold=0.11240414864333462 0.33006425431180247 0.068446581816674262 0.15095401587212248
decision_type=2 2 2 2
left_child=3 -2 -3 -1
right_child=1 2 -4 -5
leaf_value=-0.029828493788125271 -0.012165989447684166 0.075186217359488133 0.034374658617346579 -0.055778644701766966
leaf_weight=3.7339439131319541 9.1107501424849051 3.9439769722521287 6.390959843993187 5.2581694796681404
leaf_count=53 85 40 90 71
internal_value=0 0.0208467 0.049949 -0.0450029
internal_weight=0 19.4457 10.3349 8.99211
internal_count=339 215 130 124
shrinkage=0.05


Tree=51
num_leaves=6
num_cat=0
split_feature=17 0 16 12 9
split_gain=10.2217 4.9808 0.885668 0.546435 0.181518
threshold=0.51185567010309285 0.33327696990192751 0.17851437699680514 0.21557348473529556 0.18352845162379686
decision_type=2 2 2 2 2
left_child=1 2 3 -1 -2
right_child=4 -3 -4 -5 -6
leaf_value=-0.038311992752063984 0.054395880010230206 0.0099620160176783525 -0.024202679241178433 -0.067058346887133316 0.038575859488452102
leaf_weight=3.4121452458202892 4.9419161938130847 8.6089405938982946 4.9036405496299267 3.2068345062434673 2.8640100210905075
leaf_count=70 89 66 37 31 46
internal_value=0 -0.0188108 -0.0403079 -0.0522393 0.0485915
internal_weight=0 20.1316 11.5226 6.61898 7.80593
internal_count=339 204 138 101 135
shrinkage=0.05


Tree=52
num_leaves=5
num_cat=0
split_feature=13 0 10 9
split_gain=9.77548 6.52739 1.54757 0.608633
threshold=0.11240414864333462 0.33006425431180247 0.068446581816674262 0.14940620251027184
decision_type=2 2 2 2
left_child=3 -2 -3 -1
right_child=1 2 -4 -5
leaf_value=-0.028376748412223953 -0.010905074731400448 0.073152200767809872 0.032518893483164155 -0.055423039865427182
leaf_weight=3.5501252710819262 8.8912132419645804 3.8009627442806941 6.1102677620947361 5.0233480520546436
leaf_count=52 85 40 90 72
internal_value=0 0.0201989 0.0481018 -0.0442236
internal_weight=0 18.8024 9.91123 8.57347
internal_count=339 215 130 124
shrinkage=0.05


Tree=53
num_leaves=5
num_cat=0
split_feature=7 17 6 3
split_gain=9.53385 6.38216 1.96171 1.3533
threshold=0.053582568481764951 0.42027491408934708 0.15985877240630089 0.16101772897368263
decision_type=2 2 2 2
left_child=1 3 -2 -1
right_child=2 -3 -4 -5
leaf_value=-0.025731802801278077 0.019510153293649204 0.01770799071101798 0.065963275668869767 -0.060573660110505301
leaf_weight=5.2374227494001442 4.7765428703278285 6.6035965532064429 4.3356366325169802 5.9566111490130424
leaf_count=78 52 54 82 73
internal_value=0 -0.0212751 0.0416129 -0.044272
internal_weight=0 17.7976 9.11218 11.194
internal_count=339 205 134 151
shrinkage=0.05


Tree=54
num_leaves=6
num_cat=0
split_feature=17 0 4 9 9
split_gain=8.93039 4.32129 0.931911 0.202083 0.00451552
threshold=0.51185567010309285 0.32617517754480879 0.17316103379721667 0.18634265773625255 0.14279281814600098
decision_type=2 2 2 2 2
left_child=1 2 4 -2 -1
right_child=3 -3 -4 -5 -6
leaf_value=-0.055996814509406523 0.054052592677557312 0.0075818400282279298 -0.024456110832968309 0.036499933960070771 -0.053047710890459655
leaf_weight=2.8990691155195289 4.5814116019755593 8.9637665040791017 4.9628666788339615 2.5538347736001015 2.3502342496067286
leaf_count=49 91 70 34 44 51
internal_value=0 -0.0177527 -0.0399901 0.0477702 -0.0546764
internal_weight=0 19.1759 10.2122 7.13525 5.2493
internal_count=339 204 134 135 100
shrinkage=0.05


Tree=55
num_leaves=5
num_cat=0
split_feature=16 13 6 17
split_gain=8.68217 5.51792 1.36777 0.0900937
threshold=0.16325878594249202 0.19122345654738493 0.086402317581024762 0.53762886597938153
decision_type=2 2 2 2
left_child=2 -2 -1 -3
right_child=1 3 -4 -5
leaf_value=-0.056483469673468401 -0.0011936052090777229 0.06430449007406612 -0.015792438441079786 0.052319580717195273
leaf_weight=5.3131492659449595 10.712320130318405 2.7936151549220076 3.3782626055181026 3.574390709400177
leaf_count=91 87 30 39 92
internal_value=0 0.0207178 -0.0406673 0.0575773
internal_weight=0 17.0803 8.69141 6.36801
internal_count=339 209 130 122
shrinkage=0.05


Tree=56
num_leaves=5
num_cat=0
split_feature=6 16 11 3
split_gain=8.10961 8.62878 5.98764 0.154427
threshold=0.15985877240630089 0.16325878594249202 0.36500533049040523 0.14400956996503278
decision_type=2 2 2 2
left_child=1 3 -3 -1
right_child=-2 2 -4 -5
leaf_value=-0.046854261604606005 0.066576974887651727 -0.030050429219058039 0.038302439528867548 -0.060914412070798576
leaf_weight=3.8941316641867223 3.8738093748688689 5.1985033489763728 8.3504506070166808 3.9175954591482878
leaf_count=68 82 48 85 56
internal_value=0 -0.0120534 0.0120766 -0.0539055
internal_weight=0 21.3607 13.549 7.81173
internal_count=339 257 133 124
shrinkage=0.05


Tree=57
num_leaves=5
num_cat=0
split_feature=7 17 6 3
split_gain=7.87079 5.42098 1.86612 1.40786
threshold=0.053582568481764951 0.42027491408934708 0.15985877240630089 0.16101772897368263
decision_type=2 2 2 2
left_child=1 3 -2 -1
right_child=2 -3 -4 -5
leaf_value=-0.022646617344942201 0.018383126311828438 0.016431877511373174 0.066233601773037817 -0.060049034465258368
leaf_weight=4.6990446858108097 4.5295547209680063 6.2934770192950955 3.7035209573805332 5.4154387693852186
leaf_count=78 52 54 82 73
internal_value=0 -0.0200022 0.0399079 -0.0426724
internal_weight=0 16.408 8.23308 10.1145
internal_count=339 205 134 151
shrinkage=0.05


Tree=58
num_leaves=5
num_cat=0
split_feature=13 14 9 2
split_gain=7.49129 6.13356 0.731394 0.479948
threshold=0.11240414864333462 0.43076008716898906 0.14469240727190852 0.46330233817820726
decision_type=2 2 2 2
left_child=2 -2 -1 -3
right_child=1 3 -4 -5
leaf_value=-0.022526285101330736 -0.0071607569860435184 0.068221782455628821 -0.054883083538561521 0.041982691516232594
leaf_weight=2.8745205625891712 9.7888211719691771 3.2391272298991671 4.4503707177937031 3.7724625524133444
leaf_count=48 95 51 76 69
internal_value=0 0.018408 -0.0421852 0.0541043
internal_weight=0 16.8004 7.32489 7.01159
internal_count=339 215 124 120
shrinkage=0.05


Tree=59
num_leaves=6
num_cat=0
split_feature=13 0 2 12 12
split_gain=7.13335 4.18236 2.26532 0.588785 0.026314
threshold=0.19122345654738493 0.39042948934731142 0.42394150040624717 0.38243936451018484 0.47357936152198821
decision_type=2 2 2 2 2
left_child=1 2 -1 -2 -5
right_child=3 -3 -4 4 -6
leaf_value=-0.05841383156561275 0.025397962599829679 0.015255180596649352 -0.012475932247557159 0.059970589123740016 0.051902434161655853
leaf_weight=5.5235791392624431 2.610036462545394 6.2852825261652461 5.2196643687784672 1.9838017448782919 2.0600336603820324
leaf_count=93 27 56 63 36 64
internal_value=0 -0.0171413 -0.0360946 0.0439113 0.0558605
internal_weight=0 17.0285 10.7432 6.65387 4.04384
internal_count=339 212 156 127 100
shrinkage=0.05


Tree=60
num_leaves=6
num_cat=0
split_feature=17 0 4 8 9
split_gain=6.72589 3.66618 1.58701 0.360695 0.229304
threshold=0.51185567010309285 0.39600946905647616 0.16751988071570573 0.095029591131673016 0.18634265773625255
decision_type=2 2 2 2 2
left_child=1 2 3 -1 -2
right_child=4 -3 -4 -5 -6
leaf_value=-0.036958525957569453 0.05353823431929642 0.017734981672513802 -0.011697314490234881 -0.060838094667432188 0.033077032116777032
leaf_weight=3.2664035707712227 3.7542414106428614 5.5692491624504319 5.4405993334949017 3.0653639137744904 2.1553978472948074
leaf_count=64 91 43 43 54 44
internal_value=0 -0.0156896 -0.031502 -0.0485192 0.0460755
internal_weight=0 17.3416 11.7724 6.33177 5.90964
internal_count=339 204 161 118 135
shrinkage=0.05


Tree=61
num_leaves=6
num_cat=0
split_feature=13 0 2 0 9
split_gain=6.60129 5.13706 3.29857 1.4195 0.762667
threshold=0.11240414864333462 0.24129184984781862 0.33695946555926698 0.37318227933716602 0.14469240727190852
decision_type=2 2 2 2 2
left_child=4 -2 -3 -4 -1
right_child=1 2 3 -5 -6
leaf_value=-0.02043167859329964 -0.032939542885927701 -0.0023311315528902112 0.029465623256778768 0.07187791915108846 -0.054545978013655766
leaf_weight=2.7112513910979059 3.8206174504011861 4.1956563219428045 3.6375371534377337 4.3108587767928839 4.1400397568941116
leaf_count=48 37 34 60 84 76
internal_value=0 0.0176269 0.0335355 0.0524682 -0.041046
internal_weight=0 15.9647 12.1441 7.9484 6.85129
internal_count=339 215 178 144 124
shrinkage=0.05


Tree=62
num_leaves=5
num_cat=0
split_feature=7 16 6 13
split_gain=6.37411 4.88345 1.96997 0.0296277
threshold=0.053582568481764951 0.16325878594249202 0.15985877240630089 0.10908621706645691
decision_type=2 2 2 2
left_child=1 3 -2 -1
right_child=2 -3 -4 -5
leaf_value=-0.052796090795482697 0.015719741989067556 0.0033146195680273886 0.067874000905897139 -0.060233918744280412
leaf_weight=3.368063353002074 4.2471193782985202 9.3545198552310449 3.1560451108962297 2.2223224546760321
leaf_count=86 52 88 82 31
internal_value=0 -0.0187805 0.0379536 -0.0557528
internal_weight=0 14.9449 7.40316 5.59039
internal_count=339 205 134 117
shrinkage=0.05


Tree=63
num_leaves=5
num_cat=0
split_feature=13 0 2 18
split_gain=5.97554 3.65239 5.50657 0.695204
threshold=0.19122345654738493 0.24129184984781862 0.34201498600704167 0.22087522176227084
decision_type=2 2 2 2
left_child=1 -1 -3 -2
right_child=3 2 -4 -5
leaf_value=-0.054631841566141953 0.020757129324405446 -0.042685323226003824 0.027616194898277949 0.055814686208708608
leaf_weight=4.4222897421568659 2.2786862086504689 4.7175343651324493 6.8010399714112282 3.7271673735231161
leaf_count=69 29 58 85 98
internal_value=0 -0.0160059 -0.00117642 0.0425135
internal_weight=0 15.9409 11.5186 6.00585
internal_count=339 212 143 127
shrinkage=0.05


Tree=64
num_leaves=5
num_cat=0
split_feature=7 17 3 10
split_gain=5.65965 4.10301 1.55334 1.31617
threshold=0.053582568481764951 0.42027491408934708 0.16101772897368263 0.10226911543191962
decision_type=2 2 2 2
left_child=1 2 -1 -2
right_child=3 -3 -4 -5
leaf_value=-0.016873962541817108 0.054955885053575695 0.014587890071923194 -0.059366859588240173 0.011200302572235105
leaf_weight=3.9972775410860795 4.1150120459496966 5.809393946081399 4.6554677933454514 2.951239924877882
leaf_count=78 72 54 73 62
internal_value=0 -0.0179146 -0.0397366 0.0366812
internal_weight=0 14.4621 8.65275 7.06625
internal_count=339 205 151 134
shrinkage=0.05


Tree=65
num_leaves=5
num_cat=0
split_feature=13 14 9 11
split_gain=5.49909 5.12505 0.772246 0.400027
threshold=0.11240414864333462 0.43076008716898906 0.14469240727190852 0.37033582089552247
decision_type=2 2 2 2
left_child=2 -2 -1 -3
right_child=1 3 -4 -5
leaf_value=-0.017968917027745598 -0.0073466705086112517 0.036587339518116206 -0.053810845034855087 0.063105295969769631
leaf_weight=2.5160002484917667 8.9693136010318977 2.3629212528467169 3.7320341840386391 3.5720698414370418
leaf_count=48 95 37 76 83
internal_value=0 0.0165036 -0.0393778 0.0525476
internal_weight=0 14.9043 6.24803 5.93499
internal_count=339 215 124 120
shrinkage=0.05


Tree=66
num_leaves=6
num_cat=0
split_feature=16 13 8 17 12
split_gain=5.27403 4.22369 1.5201 0.0941206 0.000156173
threshold=0.16325878594249202 0.19122345654738493 0.066377264397512514 0.48625429553264604 0.45241296877334536
decision_type=2 2 2 2 2
left_child=2 -2 -1 -3 -5
right_child=1 3 -4 4 -6
leaf_value=-0.0063722567191621341 -0.0015087005643100548 0.066695894875131112 -0.054981266385040396 0.052143300261586603 0.051402935763532047
leaf_weight=2.6221563797444132 9.453153442591427 1.6459132321178902 4.1598441898822784 1.2598685221746566 1.6388299707323311
leaf_count=52 87 12 78 41 69
internal_value=0 0.0175348 -0.0361873 0.0571468 0.0517247
internal_weight=0 13.9978 6.782 4.54461 2.8987
internal_count=339 209 130 122 110
shrinkage=0.05


Tree=67
num_leaves=5
num_cat=0
split_feature=7 16 6 13
split_gain=4.95886 4.26711 2.10527 0.0193379
threshold=0.053582568481764951 0.16325878594249202 0.15985877240630089 0.10908621706645691
decision_type=2 2 2 2
left_child=1 3 -2 -1
right_child=2 -3 -4 -5
leaf_value=-0.052384265984211753 0.012235408852425559 0.0033425631369572088 0.069474154338250285 -0.058821786896123933
leaf_weight=2.8596728760749128 3.9729353897273532 8.9162939861416799 2.6969675561413169 1.9703618902713058
leaf_count=86 52 88 82 31
internal_value=0 -0.0171609 0.0353798 -0.0550104
internal_weight=0 13.7463 6.6699 4.83003
internal_count=339 205 134 117
shrinkage=0.05


Tree=68
num_leaves=6
num_cat=0
split_feature=0 7 16 3 2
split_gain=4.82448 5.64276 3.27247 2.37086 1.52725
threshold=0.23233006425431171 0.053582568481764951 0.26393769968051123 0.16101772897368263 0.35212602690259093
decision_type=2 2 2 2 2
left_child=-1 2 3 -2 -3
right_child=1 4 -4 -5 -6
leaf_value=-0.046962564755063045 0.0014263454470548401 0.018899059984179355 0.028116598857193611 -0.058395256307655886 0.07513234409143911
leaf_weight=4.2980994731187847 3.1845113132148963 1.877275246195494 3.8803646247833967 3.4512622356414795 3.3839119747281075
leaf_count=70 55 26 43 49 96
internal_value=0 0.0127923 -0.00835787 -0.0296868 0.0550674
internal_weight=0 15.7773 10.5161 6.63577 5.26119
internal_count=339 269 147 104 122
shrinkage=0.05


Tree=69
num_leaves=5
num_cat=0
split_feature=13 14 4 2
split_gain=4.6144 4.63667 0.806871 0.506689
threshold=0.11240414864333462 0.43076008716898906 0.14209741550695823 0.47052451024645658
decision_type=2 2 2 2
left_child=2 -2 -1 -3
right_child=1 3 -4 -5
leaf_value=-0.053008013567136816 -0.0073525933888560603 0.067486842665634122 -0.014808873936694694 0.036801416368031574
leaf_weight=3.4418523386120823 8.5301055479794723 2.650850284844636 2.3103575650602579 2.731532659381628
leaf_count=93 95 53 31 67
internal_value=0 0.0155762 -0.0376654 0.0519141
internal_weight=0 13.9125 5.75221 5.38238
internal_count=339 215 124 120
shrinkage=0.05


Tree=70
num_leaves=6
num_cat=0
split_feature=0 4 8 11 12
split_gain=4.46149 5.14204 5.21467 0.175848 0.0360877
threshold=0.23233006425431171 0.25772862823061632 0.10554420644696121 0.38272921108742014 0.30972658000896464
decision_type=2 2 2 2 2
left_child=-1 2 -2 -3 -5
right_child=1 3 -4 4 -6
leaf_value=-0.04577984536160086 0.026581558809183826 0.038028058979854444 -0.047644118217733594 0.061575476570618716 0.051740654046978286
leaf_weight=4.1727436557412174 4.8047902975231391 1.9570286739617575 4.6623002104461193 1.818785794079304 1.9146813862025736
leaf_count=70 67 41 58 18 85
internal_value=0 0.0126055 -0.00997269 0.0501681 0.0565318
internal_weight=0 15.1576 9.46709 5.6905 3.73347
internal_count=339 269 125 144 103
shrinkage=0.05


Tree=71
num_leaves=5
num_cat=0
split_feature=13 0 14 4
split_gain=4.22746 4.31628 3.56142 0.802998
threshold=0.11240414864333462 0.39448765640852218 0.40830746879746427 0.14209741550695823
decision_type=2 2 2 2
left_child=3 2 -2 -1
right_child=1 -3 -4 -5
leaf_value=-0.052860297611753142 -0.033386110359270749 0.051981308311863608 0.03246960146381659 -0.013978344440360908
leaf_weight=3.2488428810611394 5.0467122681438905 4.9887363212183109 3.4607193060219288 2.2457822030410171
leaf_count=93 55 90 70 31
internal_value=0 0.0150561 -0.00659681 -0.0369683
internal_weight=0 13.4962 8.50743 5.49463
internal_count=339 215 125 124
shrinkage=0.05


Tree=72
num_leaves=6
num_cat=0
split_feature=13 0 2 19 13
split_gain=4.0898 2.98262 1.84121 0.929416 0.024836
threshold=0.19122345654738493 0.39042948934731142 0.42394150040624717 0.092876820149547415 0.25285096342902086
decision_type=2 2 2 2 2
left_child=1 2 -1 -2 -5
right_child=3 -3 -4 4 -6
leaf_value=-0.056589445421311814 0.010144692947318746 0.015329842388473703 -0.0098586152240978456 0.060499111944414041 0.051562059470463655
leaf_weight=4.0722090592607874 1.7353387037292112 5.345426043495535 4.3695889282971621 1.4775923583656552 1.6404243679717181
leaf_count=93 19 56 63 27 81
internal_value=0 -0.0138953 -0.0324009 0.039474 0.0557972
internal_weight=0 13.7872 8.4418 4.85336 3.11802
internal_count=339 212 156 127 108
shrinkage=0.05


Tree=73
num_leaves=5
num_cat=0
split_feature=6 16 11 17
split_gain=3.94962 5.44013 3.74232 0.20902
threshold=0.14660510592069523 0.16325878594249202 0.36500533049040523 0.28420962199312716
decision_type=2 2 2 2
left_child=1 3 -3 -1
right_child=-2 2 -4 -5
leaf_value=-0.043514498056052169 0.054937255542406499 -0.026965849588874765 0.034906798916296243 -0.064082990822570046
leaf_weight=3.2087909188121584 2.7759531997144213 3.9623083993792516 6.3773809624835849 2.0081581836566329
leaf_count=92 91 46 79 31
internal_value=0 -0.00980615 0.0111964 -0.0514319
internal_weight=0 15.5566 10.3397 5.21695
internal_count=339 248 125 123
shrinkage=0.05


Tree=74
num_leaves=6
num_cat=0
split_feature=13 0 14 14 4
split_gain=3.82564 2.71374 2.70964 0.33553 0.0546476
threshold=0.15401346834447502 0.28390260399053097 0.34260054150432545 0.43076008716898906 0.38553677932405578
decision_type=2 2 2 2 2
left_child=1 -1 -2 -4 -5
right_child=2 -3 3 4 -6
leaf_value=-0.059323485450087698 -0.013283061933552102 -0.0031687369675728453 0.03168230146063674 0.06514892348154934 0.051918900776887392
leaf_weight=3.0857781125232595 2.7739461241289964 7.1057625347748399 1.8918136944994328 1.5218717101961377 1.6023203544318674
leaf_count=89 31 90 28 28 73
internal_value=0 -0.0201712 0.0263711 0.0483006 0.0583636
internal_weight=0 10.1915 7.78995 5.01601 3.12419
internal_count=339 179 160 129 101
shrinkage=0.05


Tree=75
num_leaves=5
num_cat=0
split_feature=6 16 11 8
split_gain=3.64311 4.99553 3.40209 0.152068
threshold=0.14660510592069523 0.16325878594249202 0.36500533049040523 0.066377264397512514
decision_type=2 2 2 2
left_child=1 3 -3 -1
right_child=-2 2 -4 -5
leaf_value=-0.039850364848686613 0.054113951253410598 -0.026266896866101459 0.033400911803202531 -0.057812629321975145
leaf_weight=1.942761199548843 2.6449386896565548 3.8659254536032659 6.2529390882700682 2.9944508010521531
leaf_count=50 91 46 79 73
internal_value=0 -0.00951302 0.0106047 -0.0507446
internal_weight=0 15.0561 10.1189 4.93721
internal_count=339 248 125 123
shrinkage=0.05


Tree=76
num_leaves=5
num_cat=0
split_feature=13 0 16 9
split_gain=3.52381 3.47932 2.55306 0.83402
threshold=0.11240414864333462 0.39448765640852218 0.21485623003194887 0.14469240727190852
decision_type=2 2 2 2
left_child=3 2 -2 -1
right_child=1 -3 -4 -5
leaf_value=-0.010771224962534727 -0.033283789023684646 0.048824243480666558 0.024121999183012586 -0.052296814072729139
leaf_weight=2.039687565527859 4.0859981160610896 4.5926746977493167 3.6822577007114887 2.9695875672623515
leaf_count=48 50 90 75 76
internal_value=0 0.0143241 -0.00607267 -0.0353883
internal_weight=0 12.3609 7.76826 5.00928
internal_count=339 215 125 124
shrinkage=0.05


Tree=77
num_leaves=6
num_cat=0
split_feature=17 0 6 8 12
split_gain=3.42973 3.26612 3.5721 1.79756 0.00444931
threshold=0.58762886597938147 0.23554277984443683 0.097428933550606514 0.11793643163997956 0.36102395537626381
decision_type=2 2 2 2 2
left_child=1 -1 3 -3 -2
right_child=4 2 -4 -5 -6
leaf_value=-0.052804175282531562 0.055257310354305048 0.0073597396275501522 0.041590365096389317 -0.042604792622959992 0.051100968092493149
leaf_weight=3.3435560269281295 1.2729426175355905 3.6219072779640538 3.9720129007473588 3.5788173442706466 1.3029569848440585
leaf_count=64 23 66 63 44 79
internal_value=0 -0.00944971 0.00352456 -0.017473 0.0531549
internal_weight=0 14.5163 11.1727 7.20072 2.5759
internal_count=339 237 173 110 102
shrinkage=0.05


Tree=78
num_leaves=6
num_cat=0
split_feature=13 2 0 18 2
split_gain=3.30474 2.5244 3.79541 1.15597 0.0411673
threshold=0.19122345654738493 0.34201498600704167 0.33006425431180247 0.19258821210329205 0.34345942042069155
decision_type=2 2 2 2 2
left_child=1 -1 -3 -2 -5
right_child=3 2 -4 4 -6
leaf_value=-0.042295044002471714 0.0015119321771208602 -0.02462271540131843 0.045537827114909613 0.063409802224452819 0.05125595646708471
leaf_weight=4.6131458617746848 1.4200658574700344 4.6945839151740074 3.2703936565667391 1.2983169620856645 1.5036553032696245
leaf_count=85 19 77 50 15 93
internal_value=0 -0.012862 0.00418497 0.0382622 0.0568875
internal_weight=0 12.5781 7.96498 4.22204 2.80197
internal_count=339 212 127 127 108
shrinkage=0.05


Tree=79
num_leaves=5
num_cat=0
split_feature=6 16 11 8
split_gain=3.14303 4.42326 2.83934 0.152791
threshold=0.14660510592069523 0.16325878594249202 0.36500533049040523 0.066377264397512514
decision_type=2 2 2 2
left_child=1 3 -3 -1
right_child=-2 2 -4 -5
leaf_value=-0.038463350157322218 0.052685203811533944 -0.024255852710228693 0.03174698503970947 -0.057281955152348477
leaf_weight=1.782768322154882 2.415272580459713 3.6780919348821026 5.8838394489139318 2.7307775830850005
leaf_count=50 91 46 79 73
internal_value=0 -0.00905238 0.0102049 -0.0498489
internal_weight=0 14.0755 9.56193 4.51355
internal_count=339 248 125 123
shrinkage=0.05


Tree=80
num_leaves=6
num_cat=0
split_feature=17 10 0 10 12
split_gain=3.03345 2.89296 2.02649 1.06617 0.00325744
threshold=0.58762886597938147 0.084027748987742304 0.39600946905647616 0.051103464477702656 0.36550625031127049
decision_type=2 2 2 2 2
left_child=1 2 3 -1 -2
right_child=4 -3 -4 -5 -6
leaf_value=-0.027574161946745824 0.05474695152268514 -0.039074075759024551 0.041967518256733574 0.01540347510993054 0.050996119781975838
leaf_weight=3.2836074437946099 1.1967088459059589 5.0434560021385542 2.9783224575221539 2.574425732716918 1.121128645725548
leaf_count=72 25 86 32 47 77
internal_value=0 -0.00885914 0.0083864 -0.00868681 0.0529327
internal_weight=0 13.8798 8.83636 5.85803 2.31784
internal_count=339 237 151 119 102
shrinkage=0.05


Tree=81
num_leaves=6
num_cat=0
split_feature=13 9 14 11 9
split_gain=3.04694 2.63727 2.29018 0.891195 0.362605
threshold=0.15401346834447502 0.13596836832329603 0.34260054150432545 0.38486140724946705 0.12710361906906056
decision_type=2 2 2 2 2
left_child=1 -1 -2 -3 -4
right_child=2 3 4 -5 -6
leaf_value=0.01124269490949009 -0.012455443382617372 -0.063629335610825052 0.060051352203591896 -0.021961824174528272 0.030586118711984057
leaf_weight=4.0835267007350939 2.5189033215865484 2.5425268085673451 2.4766441779211164 2.5910056009888649 1.8051738874055443
leaf_count=72 31 66 68 41 61
internal_value=0 -0.0187449 0.0253745 -0.0425988 0.0476291
internal_weight=0 9.21706 6.80072 5.13353 4.28182
internal_count=339 179 160 107 129
shrinkage=0.05


Tree=82
num_leaves=5
num_cat=0
split_feature=7 16 10 13
split_gain=2.91173 2.86249 1.3089 0.00677869
threshold=0.053582568481764951 0.16325878594249202 0.10226911543191962 0.11240414864333462
decision_type=2 2 2 2
left_child=1 3 -2 -1
right_child=2 -3 -4 -5
leaf_value=-0.051810205982769419 0.05186724920178433 0.0023690073289339298 -0.0002564897689431246 -0.056446627200902433
leaf_weight=1.9578346679918452 3.056327961385251 7.4714721413329244 1.9877261687070129 1.3197811273857949
leaf_count=89 72 88 62 28
internal_value=0 -0.0147206 0.0313267 -0.0536771
internal_weight=0 10.7491 5.04405 3.27762
internal_count=339 205 134 117
shrinkage=0.05


Tree=83
num_leaves=5
num_cat=0
split_feature=6 16 10 14
split_gain=2.84176 3.95004 2.51795 0.144779
threshold=0.14660510592069523 0.16325878594249202 0.084027748987742304 0.33731757247573141
decision_type=2 2 2 2
left_child=1 3 -3 -1
right_child=-2 2 -4 -5
leaf_value=-0.057754542966689519 0.051713683254045011 0.034603450204648882 -0.017761629730989752 -0.038873193475809309
leaf_weight=2.3183304751291862 2.2681083949282774 4.770502564031629 4.4250182462856174 1.8062900262884793
leaf_count=64 91 58 67 59
internal_value=0 -0.00883099 0.00940461 -0.0494859
internal_weight=0 13.3201 9.19552 4.12462
internal_count=339 248 125 123
shrinkage=0.05


Tree=84
num_leaves=6
num_cat=0
split_feature=0 7 17 2 14
split_gain=2.78054 3.63032 3.16004 1.5204 0.844333
threshold=0.23233006425431171 0.053582568481764951 0.29398625429553266 0.34345942042069155 0.38354355147592956
decision_type=2 2 2 2 2
left_child=-1 2 -2 -3 -5
right_child=1 3 -4 4 -6
leaf_value=-0.040892375257749282 -0.054871625826260831 0.011064039992782229 0.012622136877117933 0.11021933867359807 0.049984186127837518
leaf_weight=3.2754129795357594 2.4759077094495279 1.4540867228060954 5.789217384532094 1.0241821892559531 1.3468141066841779
leaf_count=70 75 19 72 22 81
internal_value=0 0.0110426 -0.00759635 0.0513171 0.0760035
internal_weight=0 12.0902 8.26513 3.82508 2.371
internal_count=339 269 147 122 103
shrinkage=0.05


Tree=85
num_leaves=6
num_cat=0
split_feature=17 0 7 11 12
split_gain=2.68017 2.53956 3.50419 1.84583 0.00303322
threshold=0.58762886597938147 0.23554277984443683 0.052545956466030809 0.45802238805970158 0.35305543104736298
decision_type=2 2 2 2 2
left_child=1 -1 3 -3 -2
right_child=4 2 -4 -5 -6
leaf_value=-0.049329160356066382 0.054831295665897978 -0.038169871732137706 0.047781414809205912 0.013760969295074296 0.050998819099776771
leaf_weight=2.9378495207056394 1.017962308600546 4.0258103162050229 3.0963182165287435 2.9760744068771601 1.0475823334418235
leaf_count=64 21 88 55 30 81
internal_value=0 -0.00841406 0.00348928 -0.0160972 0.0528876
internal_weight=0 13.0361 10.0982 7.00188 2.06554
internal_count=339 237 173 118 102
shrinkage=0.05


Tree=86
num_leaves=5
num_cat=0
split_feature=7 14 19 13
split_gain=2.49066 2.6113 2.46501 0.598953
threshold=0.021746439097643202 0.4542032622333752 0.14515282697100887 0.14122099882029099
decision_type=2 2 2 2
left_child=-1 2 -2 -3
right_child=1 3 -4 -5
leaf_value=-0.045104168056513433 0.017431984624737048 0.018368801112076411 -0.037057212272447147 0.059123765106027217
leaf_weight=2.5391528671607384 4.7829384692013246 1.4566522235982113 3.6667902981862426 2.3655155007727444
leaf_count=75 77 28 63 96
internal_value=0 0.0092985 -0.0062138 0.0435918
internal_weight=0 12.2719 8.44973 3.82217
internal_count=339 264 140 124
shrinkage=0.05


Tree=87
num_leaves=6
num_cat=0
split_feature=0 7 17 2 14
split_gain=2.35026 3.00793 2.03626 1.64141 0.735763
threshold=0.23233006425431171 0.053582568481764951 0.2996735395189003 0.33695946555926698 0.38354355147592956
decision_type=2 2 2 2 2
left_child=-1 2 -2 -3 -5
right_child=1 3 -4 4 -6
leaf_value=-0.038669301793788614 -0.04329309634357343 0.0045953374296121103 0.010781196377005172 0.10678591857774383 0.049188293882536899
leaf_weight=3.1002140957862148 2.5829186313785595 1.3464783206582072 5.340962908230722 0.98521439172327552 1.2681427155621348
leaf_count=70 78 17 69 23 82
internal_value=0 0.0103727 -0.0068452 0.0482723 0.0743712
internal_weight=0 11.5237 7.92388 3.59984 2.25336
internal_count=339 269 147 122 105
shrinkage=0.05


Tree=88
num_leaves=6
num_cat=0
split_feature=17 10 0 4 12
split_gain=2.42293 2.45245 1.58955 2.17466 0.00247023
threshold=0.58762886597938147 0.084027748987742304 0.39600946905647616 0.16751988071570573 0.35305543104736298
decision_type=2 2 2 2 2
left_child=1 2 3 -1 -2
right_child=4 -3 -4 -5 -6
leaf_value=-0.03911863461782987 0.05456943358338693 -0.037140534164489848 0.03979853909990419 0.025448578598188595 0.05095329890950339
leaf_weight=2.649669233709572 0.94420736189931698 4.5764418188482523 2.7209492800757289 2.5679691741243005 0.94486141530796885
leaf_count=85 21 86 32 34 81
internal_value=0 -0.00798895 0.00881637 -0.00734054 0.0527607
internal_weight=0 12.515 7.93859 5.21764 1.88907
internal_count=339 237 151 119 102
shrinkage=0.05


Tree=89
num_leaves=5
num_cat=0
split_feature=7 14 8 9
split_gain=2.18721 2.40631 3.00822 0.77292
threshold=0.021746439097643202 0.44033546853331579 0.11440652506984707 0.14279281814600098
decision_type=2 2 2 2
left_child=-1 2 -2 -3
right_child=1 3 -4 -5
leaf_value=-0.043741045083540459 0.024966713896676786 0.060619017264855891 -0.037080901052585817 0.016552446900884605
leaf_weight=2.3813206981867561 3.7506321966648084 2.1583793326281011 4.076695769559592 1.8462524013593791
leaf_count=75 57 71 75 61
internal_value=0 0.00877895 -0.00734945 0.040303
internal_weight=0 11.832 7.82733 4.00463
internal_count=339 264 132 132
shrinkage=0.05


Tree=90
num_leaves=6
num_cat=0
split_feature=0 13 2 18 2
split_gain=2.13278 2.28521 3.00268 0.483978 0.0295765
threshold=0.23233006425431171 0.16572453794730632 0.34201498600704167 0.21437019515079844 0.34201498600704167
decision_type=2 2 2 2 2
left_child=-1 2 -2 -3 -5
right_child=1 3 -4 4 -6
leaf_value=-0.037467545168167436 -0.042061361250764248 0.018255477567078151 0.021778094072887888 0.06315662946685012 0.051736020058630754
leaf_weight=2.9929895843379208 3.2142190719023329 1.2539577609859409 4.3141758525744081 1.0353411426767709 1.2529684328474102
leaf_count=70 61 25 75 13 95
internal_value=0 0.0101045 -0.00547791 0.043222 0.0569033
internal_weight=0 11.0707 7.52839 3.54227 2.28831
internal_count=339 269 136 133 108
shrinkage=0.05


Tree=91
num_leaves=5
num_cat=0
split_feature=6 16 8 17
split_gain=2.08798 3.3393 1.97374 0.162195
threshold=0.14660510592069523 0.16325878594249202 0.14711448913990446 0.28529209621993129
decision_type=2 2 2 2
left_child=1 3 -3 -1
right_child=-2 2 -4 -5
leaf_value=-0.039791134510420087 0.0470729088120663 0.038012616735424387 -0.011412739951273738 -0.061567082334518512
leaf_weight=2.0861100777983661 2.0118025988340387 3.4789297762326878 4.8163000796921551 1.4491231888532636
leaf_count=94 91 46 79 29
internal_value=0 -0.00802597 0.00931572 -0.0487173
internal_weight=0 11.8305 8.29523 3.53523
internal_count=339 248 125 123
shrinkage=0.05


Tree=92
num_leaves=6
num_cat=0
split_feature=7 16 10 9 3
split_gain=2.00475 2.92637 1.96939 0.601075 0.162604
threshold=0.07484712307479667 0.16325878594249202 0.084027748987742304 0.15510496988799452 0.13609594503404696
decision_type=2 2 2 2 2
left_child=1 4 -3 -2 -1
right_child=3 2 -4 -5 -6
leaf_value=-0.03507415662614656 0.072436011264337602 0.031616722862941232 -0.017670227366095945 0.019469584322795684 -0.057050731144100857
leaf_weight=1.5240399907343083 1.0078599015250813 4.2326283738948387 3.8890332388691604 1.1431854693219063 1.8799194954335687
leaf_count=64 46 51 62 55 61
internal_value=0 -0.00829486 0.00801581 0.0442867 -0.0472113
internal_weight=0 11.5256 8.12166 2.15105 3.40396
internal_count=339 238 113 101 125
shrinkage=0.05


Tree=93
num_leaves=6
num_cat=0
split_feature=0 4 8 11 13
split_gain=1.9735 2.8539 4.26314 0.163482 0.012448
threshold=0.23233006425431171 0.25772862823061632 0.095029591131673016 0.38272921108742014 0.14506734172237512
decision_type=2 2 2 2 2
left_child=-1 2 -2 -3 -5
right_child=1 3 -4 4 -6
leaf_value=-0.036518059523609252 0.033957998140185401 0.032599072410575955 -0.043243717641806678 0.059413510814206254 0.051941350250369549
leaf_weight=2.9082208722829828 3.3028426081873459 1.1676933285780253 3.8993586911819875 1.1193864364176991 1.1101456545293329
leaf_count=70 61 41 64 12 91
internal_value=0 0.00997884 -0.00783994 0.0477551 0.0556929
internal_weight=0 10.5994 7.2022 3.39723 2.22953
internal_count=339 269 125 144 103
shrinkage=0.05


Tree=94
num_leaves=6
num_cat=0
split_feature=13 0 4 4 0
split_gain=1.90183 2.22217 1.82896 1.12549 0.00173177
threshold=0.11240414864333462 0.39448765640852218 0.24212226640159043 0.16414015904572563 0.38129861345958743
decision_type=2 2 2 2 2
left_child=3 2 -2 4 -1
right_child=1 -3 -4 -5 -6
leaf_value=-0.051107999066629356 -0.032690233665625651 0.042979437677446886 0.023032235966323911 0.0031087128927208352 -0.053879893255873904
leaf_weight=1.1493885209783927 3.1818723645992559 3.5837086732499301 2.7412774506956339 1.5285781626589594 1.1053877826780079
leaf_count=82 44 90 81 20 22
internal_value=0 0.0119017 -0.00690146 -0.0300128 -0.0524669
internal_weight=0 9.50686 5.92315 3.78335 2.25478
internal_count=339 215 125 124 104
shrinkage=0.05


Tree=95
num_leaves=7
num_cat=0
split_feature=13 2 9 19 17 12
split_gain=1.86546 1.78662 2.60527 1.14437 0.0281153 0.000165365
threshold=0.19122345654738493 0.34201498600704167 0.13596836832329603 0.071920503738685568 0.43573883161512023 0.44295034613277556
decision_type=2 2 2 2 2 2
left_child=1 -1 -3 -2 -5 -6
right_child=3 2 -4 4 5 -7
leaf_value=-0.039251974834814185 -0.0075516586428369644 0.039105236951229527 -0.024369463445390729 0.063071320905395342 0.051691283389253086 0.050451051773320432
leaf_weight=3.5060697486624104 1.0708158109337103 3.0113524519838393 3.4901411323808134 0.90353938378393639 0.59767099516466238 0.48839735332876444
leaf_count=85 15 48 79 8 35 69
internal_value=0 -0.0104834 0.00503066 0.0341245 0.0565548 0.0511336
internal_weight=0 10.0076 6.50149 3.06042 1.98961 1.08607
internal_count=339 212 127 127 112 104
shrinkage=0.05


Tree=96
num_leaves=7
num_cat=0
split_feature=11 7 4 2 6 18
split_gain=1.89714 2.42934 1.62027 1.53531 1.4902 0.660075
threshold=0.21868336886993608 0.053582568481764951 0.24212226640159043 0.32486232734494908 0.050063371356147003 0.20057165385373552
decision_type=2 2 2 2 2 2
left_child=-1 2 4 -3 -2 -5
right_child=1 3 -4 5 -6 -7
leaf_value=-0.047049323053129116 0.0059319777956277023 -0.0019648054988729404 0.025285631189460797 0.109144719631875 -0.047250214529703974 0.049591963152567808
leaf_weight=1.8393566575832672 2.4356043417938036 1.1170695861801507 2.6110189943574369 0.72849120665341649 2.86852893140167 1.2878800397738812
leaf_count=49 58 14 43 16 66 93
internal_value=0 0.00779423 -0.00695746 0.0450574 -0.0228295 0.0711077
internal_weight=0 11.0486 7.91515 3.13344 5.30413 2.01637
internal_count=339 290 167 123 124 109
shrinkage=0.05


Tree=97
num_leaves=6
num_cat=0
split_feature=7 14 8 13 10
split_gain=1.88423 1.93699 2.45136 0.650081 0.0269134
threshold=0.021746439097643202 0.44033546853331579 0.11440652506984707 0.14208120330318522 0.079605599546729661
decision_type=2 2 2 2 2
left_child=-1 2 -2 -3 -5
right_child=1 3 -4 4 -6
leaf_value=-0.043321145796925968 0.023579835557392181 0.015398947842139866 -0.035420391150915422 0.064376060976283137 0.05253444583621019
leaf_weight=2.0979996663518259 3.4403384202159923 1.6198292910121384 3.6055910876020789 0.95252657262608387 0.96689807553775609
leaf_count=75 57 32 75 38 62
internal_value=0 0.00854687 -0.00661216 0.0387254 0.0584109
internal_weight=0 10.5852 7.04593 3.53925 1.91942
internal_count=339 264 132 132 100
shrinkage=0.05


Tree=98
num_leaves=6
num_cat=0
split_feature=11 13 4 13 9
split_gain=1.74789 2.24509 1.84457 0.0724766 0.045519
threshold=0.21868336886993608 0.11240414864333462 0.24212226640159043 0.15847424302005503 0.12977711487589352
decision_type=2 2 2 2 2
left_child=-1 -2 -3 -4 -5
right_child=1 2 3 4 -6
leaf_value=-0.045721723116593296 -0.026872489176251197 0.0022895494521453699 0.061388560742140941 0.035380545958393871 0.052503816866098334
leaf_weight=1.7934497715905315 3.2800186565145832 4.4447438372299075 1.3819004409015181 0.63620448345318414 0.99528343928977847
leaf_count=49 99 46 19 62 64
internal_value=0 0.0076021 0.0227637 0.0529631 0.0458265
internal_weight=0 10.7382 7.45813 3.01339 1.63149
internal_count=339 290 191 145 126
shrinkage=0.05


Tree=99
num_leaves=6
num_cat=0
split_feature=7 14 8 12 4
split_gain=1.67077 1.74856 2.36282 0.685114 0.0785573
threshold=0.021746439097643202 0.43637324176187015 0.11440652506984707 0.25892723741222173 0.30566600397614313
decision_type=2 2 2 2 2
left_child=-1 2 -2 -3 -5
right_child=1 3 -4 4 -6
leaf_value=-0.041615754571614073 0.023105210845715124 0.0066612337732529286 -0.035623952254085843 0.062952011767283753 0.044263338376293759
leaf_weight=2.0187432169914254 3.398387430701403 1.2011708426289263 3.4525652462616563 1.1034172242507341 1.1466190374922005
leaf_count=75 57 25 72 17 93
internal_value=0 0.00812871 -0.00649159 0.0371513 0.0534283
internal_weight=0 10.3022 6.85095 3.45121 2.25004
internal_count=339 264 129 135 110
shrinkage=0.05


Tree=100
num_leaves=6
num_cat=0
split_feature=0 4 8 0 12
split_gain=1.64686 2.19045 3.74726 0.184296 0.00869419
threshold=0.23233006425431171 0.25772862823061632 0.076741670922582411 0.3234697328373351 0.30972658000896464
decision_type=2 2 2 2 2
left_child=-1 2 -2 -3 -5
right_child=1 3 -4 4 -6
leaf_value=-0.034835111179444614 0.044372159983412707 0.028191766151703691 -0.034273744187415946 0.058113865561580304 0.051402442551899019
leaf_weight=2.6554674669168898 2.3535425178706628 0.98393453797325525 4.249102511908859 0.97153825685381867 0.95873616356402636
leaf_count=70 45 31 80 16 97
internal_value=0 0.0096964 -0.00624006 0.0458032 0.0547804
internal_weight=0 9.51685 6.60265 2.91421 1.93027
internal_count=339 269 125 144 113
shrinkage=0.05


Tree=101
num_leaves=6
num_cat=0
split_feature=7 16 11 9 8
split_gain=1.54983 2.38163 1.65174 0.407764 0.167889
threshold=0.07484712307479667 0.16325878594249202 0.40764925373134342 0.15341644622052122 0.076741670922582411
decision_type=2 2 2 2 2
left_child=1 4 -3 -2 -1
right_child=3 2 -4 -5 -6
leaf_value=-0.031426237080263875 0.066638583710541321 -0.016344168978382919 0.031591794204154276 0.020000341166004562 -0.055776384130349382
leaf_weight=1.1994987726211532 0.87335021700710136 3.5814869645982981 3.6067881195340306 1.0114332928787915 1.7271472259890286
leaf_count=54 43 53 60 58 71
internal_value=0 -0.0077728 0.00770817 0.0416111 -0.0457964
internal_weight=0 10.1149 7.18828 1.88478 2.92665
internal_count=339 238 113 101 125
shrinkage=0.05


Tree=102
num_leaves=7
num_cat=0
split_feature=13 9 15 4 4 11
split_gain=1.54674 1.47815 1.08466 1.03893 0.0198156 0.000179382
threshold=0.19122345654738493 0.13596836832329603 0.14597704494959787 0.22589463220675945 0.28342445328031812 0.34688166311300644
decision_type=2 2 2 2 2 2
left_child=1 -1 -2 -3 -4 -6
right_child=2 3 4 -5 5 -7
leaf_value=0.0096147425957370108 -0.01035684460317708 -0.055943098639995907 0.061752850509588168 -0.007388350259218743 0.051907323346783808 0.050551755196670593
leaf_weight=4.6938334372825903 0.94413954392075661 2.1182923722080886 0.79964619199745335 2.2956452621147037 0.44340084283612669 0.54281618678942323
leaf_count=94 10 86 9 32 22 86
internal_value=0 -0.00991844 0.0329883 -0.0306903 0.0559038 0.0511612
internal_weight=0 9.10777 2.73 4.41394 1.78586 0.986217
internal_count=339 212 127 118 117 108
shrinkage=0.05


Tree=103
num_leaves=5
num_cat=0
split_feature=6 16 11 14
split_gain=1.4768 2.35974 1.6905 0.146471
threshold=0.14660510592069523 0.16325878594249202 0.36500533049040523 0.331374232318563
decision_type=2 2 2 2
left_child=1 3 -3 -1
right_child=-2 2 -4 -5
leaf_value=-0.056843183200534657 0.043378023035399817 -0.022440492214514995 0.027321802590811635 -0.034032053273660316
leaf_weight=1.4857363365590557 1.6781734445830814 2.7968631680123508 4.3785703203175217 1.3369721653871236
leaf_count=59 91 46 79 64
internal_value=0 -0.00731 0.0079253 -0.0460387
internal_weight=0 9.99814 7.17543 2.82271
internal_count=339 248 125 123
shrinkage=0.05


Tree=104
num_leaves=6
num_cat=0
split_feature=7 14 8 13 4
split_gain=1.472 1.57216 2.09806 0.772155 0.0738296
threshold=0.021746439097643202 0.43637324176187015 0.11440652506984707 0.12834250884781753 0.30566600397614313
decision_type=2 2 2 2 2
left_child=-1 2 -2 -3 -5
right_child=1 3 -4 4 -6
leaf_value=-0.04072235363441664 0.021908093590625344 0.0012559190883874383 -0.035066120193769708 0.062400407870540991 0.043791758389947998
leaf_weight=1.8628532323054976 3.2591336225159449 1.0408168938010933 3.204736415296793 1.1466084816493096 0.99603889102581877
leaf_count=75 57 25 72 18 92
internal_value=0 0.00782579 -0.00633928 0.0365873 0.0537499
internal_weight=0 9.64733 6.46387 3.18346 2.14265
internal_count=339 264 129 135 110
shrinkage=0.05


Tree=105
num_leaves=6
num_cat=0
split_feature=0 7 17 2 18
split_gain=1.43772 2.00933 1.33194 1.13163 0.421159
threshold=0.23233006425431171 0.053582568481764951 0.2996735395189003 0.3152929493545184 0.20057165385373552
decision_type=2 2 2 2 2
left_child=-1 2 -2 -3 -5
right_child=1 3 -4 4 -6
leaf_value=-0.033406015962395008 -0.04134415893058592 -0.00032556394792995742 0.0091194874392942667 0.098432156556464534 0.048844930474175867
leaf_weight=2.512883906951175 1.8810180325526724 0.8955475804395977 4.2891224441118538 0.70999744813889254 1.0788632390322161
leaf_count=70 78 12 69 17 93
internal_value=0 0.00944571 -0.00626477 0.0455564 0.0685261
internal_weight=0 8.85455 6.17014 2.68441 1.78886
internal_count=339 269 147 122 110
shrinkage=0.05


Tree=106
num_leaves=8
num_cat=0
split_feature=13 8 17 15 15 17 14
split_gain=1.3731 1.41591 2.26449 0.975176 0.321608 0.0144167 0.000114024
threshold=0.19122345654738493 0.073549734130441316 0.46666666666666662 0.14597704494959787 0.18512481687380541 0.43573883161512023 0.390147262761672
decision_type=2 2 2 2 2 2 2
left_child=1 -1 4 -2 -3 -5 -7
right_child=3 2 -4 5 -6 6 -8
leaf_value=0.027449106786969536 -0.0092437749921605861 -0.031180301757922843 0.010942958704674259 0.060582049188861536 -0.061169278028322019 0.051807509445746941 0.050653203942179682
leaf_weight=1.9988320036791245 0.90482216607779387 1.6490639362018558 3.0825781584717333 0.75191775709390618 1.952554154442623 0.37178510753437877 0.50392192346043885
leaf_count=59 10 70 47 8 36 25 84
internal_value=0 -0.00947319 -0.0205144 0.03237 -0.0474383 0.0555037 0.0511433
internal_weight=0 8.68303 6.6842 2.53245 3.60162 1.62762 0.875707
internal_count=339 212 153 127 106 117 109
shrinkage=0.05


Tree=107
num_leaves=6
num_cat=0
split_feature=7 14 19 13 17
split_gain=1.30681 1.46419 1.57923 0.651276 0.0241593
threshold=0.021746439097643202 0.4542032622333752 0.14515282697100887 0.12834250884781753 0.52852233676975946
decision_type=2 2 2 2 2
left_child=-1 2 -2 -3 -5
right_child=1 3 -4 4 -6
leaf_value=-0.039390438580368684 0.015244580626657928 0.0057429390654617314 -0.034349812681428733 0.063760121356044031 0.051808876993277013
leaf_weight=1.7708364056888974 3.9238766778726113 0.94623191468417678 2.7163818324916065 0.81069207820110001 0.88392015511635691
leaf_count=75 77 23 63 15 86
internal_value=0 0.00748074 -0.00504338 0.038972 0.0575263
internal_weight=0 9.2811 6.64026 2.64084 1.69461
internal_count=339 264 140 124 101
shrinkage=0.05


Tree=108
num_leaves=6
num_cat=0
split_feature=11 8 4 17 0
split_gain=1.31318 1.83358 3.53578 1.2154 0.100488
threshold=0.30197228144989346 0.077793132454111222 0.25772862823061632 0.42027491408934708 0.35711870138654045
decision_type=2 2 2 2 2
left_child=3 -2 -3 -1 -4
right_child=1 2 4 -5 -6
leaf_value=-0.05622110162787447 0.0512107829047104 -0.035588974843558788 0.032106527901581958 0.0038915874684269623 0.055109814543079644
leaf_weight=1.6732810181565585 2.102617972297594 3.3552160321269184 0.72571920859627459 1.6902761578094212 1.372897910303436
leaf_count=86 37 61 38 27 90
internal_value=0 0.0115436 -0.00374933 -0.0260129 0.0471551
internal_weight=0 7.55645 5.45383 3.36356 2.09862
internal_count=339 226 189 113 128
shrinkage=0.05


Tree=109
num_leaves=7
num_cat=0
split_feature=0 7 11 8 16 16
split_gain=1.23656 1.74329 1.21452 1.06852 0.892316 0.32698
threshold=0.23554277984443683 0.053582568481764951 0.46268656716417916 0.096419022441193214 0.21158146964856231 0.20882587859424917
decision_type=2 2 2 2 2 2
left_child=-1 2 5 -3 -5 -2
right_child=1 3 -4 4 -6 -7
leaf_value=-0.031753722791680303 -0.043373542021158444 0.086306992111044312 0.019283915217121642 -0.022433740171886832 0.053084874132244823 -0.011396043784579868
leaf_weight=2.3878526531625548 1.5236830704379811 0.93286392337176982 2.6225478814449161 0.71628780779428758 0.86174682609271258 1.6817754064686594
leaf_count=73 70 16 45 14 91 30
internal_value=0 0.00905506 -0.0059506 0.0438844 0.0188061 -0.0265962
internal_weight=0 8.3389 5.82801 2.5109 1.57803 3.20546
internal_count=339 266 145 121 105 100
shrinkage=0.05


Tree=110
num_leaves=7
num_cat=0
split_feature=17 5 17 7 13 11
split_gain=1.20553 1.3673 1.12106 0.478952 0.00154349 0.000177679
threshold=0.495360824742268 0.27801179443976415 0.29398625429553266 0.036931404301099362 0.18268285489579236 0.29424307036247349
decision_type=2 2 2 2 2 2
left_child=1 2 -1 -2 -5 -6
right_child=3 -3 -4 4 5 -7
leaf_value=-0.018138431956140504 0.0025667053572849393 -0.036447268435507572 0.026608678249443171 0.054573039135878534 0.051911277314727881 0.05040532209077199
leaf_weight=2.5997068334836495 0.75966147403232875 2.8702140206005424 3.0323870019055903 0.51741471420973517 0.34849035972729325 0.44721089152153581
leaf_count=83 16 67 47 16 14 96
internal_value=0 -0.00835988 0.00595395 0.0341663 0.0524472 0.0510649
internal_weight=0 8.50231 5.63209 2.07278 1.31312 0.795701
internal_count=339 197 130 142 126 110
shrinkage=0.05


Tree=111
num_leaves=7
num_cat=0
split_feature=13 9 15 4 4 11
split_gain=1.13106 1.27882 0.933824 0.866066 0.0105517 0.000148649
threshold=0.19122345654738493 0.13596836832329603 0.14597704494959787 0.22589463220675945 0.28342445328031812 0.34048507462686578
decision_type=2 2 2 2 2 2
left_child=1 -1 -2 -3 -4 -6
right_child=2 3 4 -5 5 -7
leaf_value=0.0099423985610542411 -0.010881781737252421 -0.055248240946390505 0.059590015535575129 -0.0075568692293498914 0.05183056058966639 0.050431985741708707
leaf_weight=4.2887417278252524 0.84686769358813885 1.7856915232259782 0.69396834098733939 2.0388386165723205 0.351802091114223 0.41306493687443435
leaf_count=94 10 86 9 32 19 89
internal_value=0 -0.00880325 0.0308817 -0.0298242 0.0551257 0.0510753
internal_weight=0 8.11327 2.3057 3.82453 1.45884 0.764867
internal_count=339 212 127 118 117 108
shrinkage=0.05


Tree=112
num_leaves=7
num_cat=0
split_feature=0 7 11 8 15 18
split_gain=1.13815 1.61838 1.12359 0.997205 0.956496 0.819121
threshold=0.23554277984443683 0.053582568481764951 0.46268656716417916 0.096419022441193214 0.16329520427666364 0.25547013601419283
decision_type=2 2 2 2 2 2
left_child=-1 2 5 -3 -5 -2
right_child=1 3 -4 4 -6 -7
leaf_value=-0.030925381438707281 -0.052273954054141175 0.085049453346227474 0.018856595446773157 -0.029258039150096667 0.052827558593396086 -0.00057991284408655025
leaf_weight=2.3101518396288157 1.5108931625727566 0.90115845180116627 2.5516338187735528 0.61500005493871845 0.83907523343805224 1.5549992900341747
leaf_count=73 54 16 45 11 94 46
internal_value=0 0.00893149 -0.00565498 0.043722 0.0181095 -0.0260551
internal_weight=0 7.97276 5.61753 2.35523 1.45408 3.06589
internal_count=339 266 145 121 105 100
shrinkage=0.05


Tree=113
num_leaves=7
num_cat=0
split_feature=17 8 0 6 1 11
split_gain=1.07811 1.71692 1.12155 0.457725 0.00159647 0.000148982
threshold=0.495360824742268 0.13915342325832913 0.32617517754480879 0.065073329712112923 0.32813903669407785 0.29424307036247349
decision_type=2 2 2 2 2 2
left_child=1 2 -1 -2 -5 -6
right_child=3 -3 -4 4 5 -7
leaf_value=-0.014553774789102289 0.0027474963696166527 -0.037825126073561977 0.03224668798012386 0.054741289279002542 0.051792684910340184 0.050370411719375924
leaf_weight=2.4775932636111957 0.75467146257869977 3.0346689347643405 2.6486697951331735 0.4553888398222623 0.32532864436507225 0.42420951102394611
leaf_count=98 17 61 38 12 14 99
internal_value=0 -0.00801799 0.00962738 0.033282 0.0524063 0.0509877
internal_weight=0 8.16093 5.12626 1.9596 1.20493 0.749538
internal_count=339 197 136 142 125 113
shrinkage=0.05


Tree=114
num_leaves=6
num_cat=0
split_feature=7 14 19 12 6
split_gain=1.11382 1.30201 1.43797 0.62613 0.0599193
threshold=0.021746439097643202 0.43637324176187015 0.1131444313262495 0.25344887693610246 0.062846279196089067
decision_type=2 2 2 2 2
left_child=-1 2 -2 -3 -5
right_child=1 3 -4 4 -6
leaf_value=-0.038033194655975461 0.01751615101562919 0.0024180092898988558 -0.032724696085493631 0.064574766894056335 0.045832449792513996
leaf_weight=1.6152282785624272 3.0263468532357347 0.90360150556080077 2.6902888920158148 0.73163705924525846 1.0222987938905133
leaf_count=75 58 24 71 12 99
internal_value=0 0.00731484 -0.00612754 0.0362308 0.0536506
internal_weight=0 8.37417 5.71664 2.65754 1.75394
internal_count=339 264 129 135 111
shrinkage=0.05


Tree=115
num_leaves=6
num_cat=0
split_feature=11 8 4 13 11
split_gain=1.00954 1.3842 2.98415 1.09751 0.0885346
threshold=0.30197228144989346 0.077793132454111222 0.25772862823061632 0.15401346834447502 0.41564498933901922
decision_type=2 2 2 2 2
left_child=3 -2 -3 -1 -4
right_child=1 2 4 -5 -6
leaf_value=-0.057951696903332121 0.045568050643986086 -0.034234518833111689 0.032146866672285196 0.0028981154438096446 0.054982930590671358
leaf_weight=1.3364154889713975 2.0006491156527773 3.0356841229368001 0.66970599070191372 1.6632805643603203 1.1589048792375249
leaf_count=83 37 61 40 30 88
internal_value=0 0.0105594 -0.00383946 -0.0242115 0.0466195
internal_weight=0 6.86494 4.86429 2.9997 1.82861
internal_count=339 226 189 113 128
shrinkage=0.05


Tree=116
num_leaves=7
num_cat=0
split_feature=7 14 8 12 4 1
split_gain=1.00773 1.18798 1.34127 0.600521 0.05642 0.0233165
threshold=0.021746439097643202 0.43637324176187015 0.11440652506984707 0.25344887693610246 0.26120775347912523 0.34921567272476001
decision_type=2 2 2 2 2 2
left_child=-1 2 -2 -3 -5 -6
right_child=1 3 -4 4 5 -7
leaf_value=-0.037020902952970579 0.0174145453236942 0.0021513350517317897 -0.031519625078763415 0.064057201566553229 0.053535993134846353 0.037948009550684718
leaf_weight=1.5466385389445356 2.9473728411830944 0.88574751070700619 2.6678586627822369 0.69186334405094363 0.45606599457096308 0.50612097355769947
leaf_count=75 57 24 72 9 17 85
internal_value=0 0.00699983 -0.00583462 0.0353755 0.0531671 0.0453365
internal_weight=0 8.15503 5.61523 2.5398 1.65405 0.962187
internal_count=339 264 129 135 111 102
shrinkage=0.05


Tree=117
num_leaves=8
num_cat=0
split_feature=0 7 17 4 4 17 13
split_gain=0.983664 1.44166 1.03111 0.867438 0.156396 0.00122723 1.21603e-05
threshold=0.23233006425431171 0.053582568481764951 0.31620274914089347 0.16751988071570573 0.25772862823061632 0.47302405498281785 0.28332677939441603
decision_type=2 2 2 2 2 2 2
left_child=-1 2 -2 -3 -5 -6 -7
right_child=1 3 -4 4 5 6 -8
leaf_value=-0.029855919344413218 -0.034861481681072483 0.0015870769962974163 0.011167492155230389 0.086472460941893203 0.054447627481200717 0.050834663984849586 0.050298132437744336
leaf_weight=2.1440119213657454 1.9191791033372281 0.81513900309801135 3.3240134119987488 0.57691661082208134 0.38700334820896387 0.20086953218560666 0.22268348309444264
leaf_count=70 83 8 64 6 8 32 68
internal_value=0 0.00857928 -0.00568061 0.0425241 0.0665746 0.0524123 0.0505526
internal_weight=0 7.4458 5.24319 2.20261 1.38747 0.810556 0.423553
internal_count=339 269 147 122 114 108 100
shrinkage=0.05


Tree=118
num_leaves=8
num_cat=0
split_feature=11 4 3 13 4 13 11
split_gain=0.953408 1.31944 2.2398 1.097 0.0212164 0.000763246 4.73066e-05
threshold=0.23334221748400857 0.24212226640159043 0.13609594503404696 0.12447158867479351 0.27343439363817101 0.15847424302005503 0.34928038379530929
decision_type=2 2 2 2 2 2 2
left_child=-1 2 -2 -3 -5 -6 -7
right_child=1 3 -4 4 5 6 -8
leaf_value=-0.034949726152703385 0.031719295609338463 -0.011080074363960211 -0.035949645193181771 0.062568989131307637 0.053362538047300512 0.051214762077738729 0.05036534663906958
leaf_weight=1.6184492217143995 2.0800009856466204 0.8899943903088573 2.9673633279744536 0.76877057168167073 0.46883592614904024 0.28790904732886702 0.3806096546468325
leaf_count=58 50 8 79 11 14 23 96
internal_value=0 0.00720005 -0.00806351 0.0347528 0.0561528 0.0518159 0.0507312
internal_weight=0 7.84348 5.04736 2.79612 1.90613 1.13735 0.668519
internal_count=339 281 129 152 144 133 119
shrinkage=0.05


Tree=119
num_leaves=5
num_cat=0
split_feature=7 17 8 5
split_gain=1.14298 1.33939 1.63117 0.0528393
threshold=0.018524536886577802 0.48917525773195875 0.14189473367981495 0.30591828138163435
decision_type=2 2 2 2
left_child=-1 2 -2 -3
right_child=1 3 -4 -5
leaf_value=-0.046837136493824823 0.016029602412671613 0.035134831273706986 -0.035273176543288681 0.054420700382632636
leaf_weight=1.1429488235153265 4.0965449910145235 0.53833453846164037 2.4918234152719378 1.0437476483639327
leaf_count=55 91 85 51 57
internal_value=0 0.00654642 -0.00337391 0.0478583
internal_weight=0 8.17045 6.58837 1.58208
internal_count=339 284 142 142
shrinkage=0.05


Tree=120
num_leaves=8
num_cat=0
split_feature=11 4 3 13 4 13 11
split_gain=0.891882 1.21809 1.99531 1.02163 0.0178877 0.000637931 4.01511e-05
threshold=0.23334221748400857 0.24212226640159043 0.13609594503404696 0.12447158867479351 0.27343439363817101 0.15847424302005503 0.34928038379530929
decision_type=2 2 2 2 2 2 2
left_child=-1 2 -2 -3 -5 -6 -7
right_child=1 3 -4 4 5 6 -8
leaf_value=-0.034200972279890877 0.029673609956853794 -0.010101072912048757 -0.03461863442996254 0.061865023411275769 0.053196661812227708 0.051154301670220031 0.050340919661208489
leaf_weight=1.5792237075511364 2.0827629030682147 0.87020193040370974 2.8693492279853672 0.74235337669961143 0.43352401629090287 0.26830658677499741 0.34917161503108218
leaf_count=58 50 8 79 11 14 23 96
internal_value=0 0.00708678 -0.00757856 0.0343527 0.0559233 0.0517265 0.0506944
internal_weight=0 7.61567 4.95211 2.66356 1.79336 1.051 0.617478
internal_count=339 281 129 152 144 133 119
shrinkage=0.05


Tree=121
num_leaves=7
num_cat=0
split_feature=16 7 11 8 17 13
split_gain=0.888722 1.56746 1.12185 1.05231 0.975177 0.000677717
threshold=0.16325878594249202 0.069813484547943713 0.36074093816631142 0.13487247273710459 0.45601374570446734 0.10793108533228471
decision_type=2 2 2 2 2 2
left_child=1 5 -2 -4 -5 -1
right_child=2 -3 3 4 -6 -7
leaf_value=-0.051124594428522553 -0.014410078599519019 0.022941981742965006 0.061219008650384321 -0.031557306752419856 0.036985096237055808 -0.053092439994047204
leaf_weight=0.79102479934226744 2.5704934805398807 1.1409764699637888 1.4774912905995736 0.9439189359545711 1.1525421483675016 0.97906628646887839
leaf_count=85 69 8 32 15 93 37
internal_value=0 -0.0227565 0.0107819 0.0289007 0.00612429 -0.052213
internal_weight=0 2.91107 6.14445 3.57395 2.09646 1.77009
internal_count=339 130 209 140 108 122
shrinkage=0.05


Tree=122
num_leaves=7
num_cat=0
split_feature=13 2 9 15 7 16
split_gain=0.841709 1.05741 1.48407 0.866212 0.00727298 0.000254802
threshold=0.19122345654738493 0.34201498600704167 0.13596836832329603 0.14597704494959787 0.039396859906088509 0.25654952076677323
decision_type=2 2 2 2 2 2
left_child=1 -1 -3 -2 -5 -6
right_child=3 2 -4 4 5 -7
leaf_value=-0.034884074747580686 -0.014191714871499915 0.034238463776513517 -0.023046821965602798 0.059360061760873974 0.052579741284790898 0.050678969930789658
leaf_weight=2.4130126578966156 0.72603218210861076 2.301896057324484 2.2219078635098413 0.50687358225695767 0.31837665237253532 0.39513107476523146
leaf_count=85 10 48 79 6 19 92
internal_value=0 -0.00815507 0.00610227 0.0290531 0.0547805 0.0515271
internal_weight=0 6.93682 4.5238 1.94641 1.22038 0.713508
internal_count=339 212 127 127 117 111
shrinkage=0.05


Tree=123
num_leaves=6
num_cat=0
split_feature=0 7 18 14 8
split_gain=0.810513 1.18525 0.942818 0.857231 0.156946
threshold=0.23554277984443683 0.053582568481764951 0.24472698600433668 0.26929934623258273 0.09994892901132571
decision_type=2 2 2 2 2
left_child=-1 2 -2 -3 -5
right_child=1 3 -4 4 -6
leaf_value=-0.02812048796471487 -0.03309921970872582 -0.0061254434018368038 0.012439631865209784 0.083918503416562762 0.049160085187958245
leaf_weight=1.9824607330374417 1.8611173378303645 0.658623452996835 2.9195920487400144 0.5542339918320065 0.78440277191111818
leaf_count=73 64 11 81 13 97
internal_value=0 0.00822585 -0.00528852 0.0405743 0.0635511
internal_weight=0 6.77797 4.78071 1.99726 1.33864
internal_count=339 266 145 121 110
shrinkage=0.05


Tree=124
num_leaves=7
num_cat=0
split_feature=4 8 10 8 17 9
split_gain=0.80217 1.63272 0.801731 0.320034 0.238944 0.0480989
threshold=0.24212226640159043 0.073549734130441316 0.12788648895153595 0.12758734641151201 0.47302405498281785 0.087564023189058315
decision_type=2 2 2 2 2 2
left_child=1 -1 4 -3 -2 -6
right_child=2 3 -4 -5 5 -7
leaf_value=0.020108390618859596 0.017819745133177838 -0.018654397115126273 -0.012305533697938832 -0.05075101888516869 0.064526136571251905 0.04442925902612007
leaf_weight=2.3080625117290765 0.79999074339866716 1.4895205193897711 1.2195205098832955 1.6227206129115073 0.51896265638060846 0.69839208689518273
leaf_count=64 11 54 53 54 28 75
internal_value=0 -0.0117575 0.0196994 -0.0353896 0.039047 0.0529966
internal_weight=0 5.4203 3.23687 3.11224 2.01735 1.21735
internal_count=339 172 167 108 114 103
shrinkage=0.05


Tree=125
num_leaves=8
num_cat=0
split_feature=16 7 11 15 4 14 12
split_gain=0.807718 1.40224 1.02377 0.633606 1.16539 0.0426477 0.000560561
threshold=0.16325878594249202 0.069813484547943713 0.36074093816631142 0.18512481687380541 0.22589463220675945 0.60575843624116754 0.23053936949051243
decision_type=2 2 2 2 2 2 2
left_child=1 6 -2 -4 -5 -6 -1
right_child=2 -3 3 4 5 -7 -8
leaf_value=-0.051208104204006434 -0.013890779606284421 0.020713801562690679 0.058107835212358586 -0.026581743626694472 0.036340494120426524 0.055632624967865911 -0.053080178590732011
leaf_weight=0.91282354167196922 2.4655903158709407 1.1188200190663335 1.1769650950445796 1.0137771312147381 0.52487132267560788 0.63068679568823427 0.71158082596957684
leaf_count=99 69 8 20 14 74 32 23
internal_value=0 -0.0223605 0.0105568 0.02857 0.0125443 0.0468699 -0.0520282
internal_weight=0 2.74322 5.81189 3.3463 2.16934 1.15556 1.6244
internal_count=339 130 209 140 120 106 122
shrinkage=0.05


Tree=126
num_leaves=6
num_cat=0
split_feature=7 11 4 10 7
split_gain=0.798959 0.978427 1.02596 0.154249 0.0110238
threshold=0.021746439097643202 0.23334221748400857 0.24212226640159043 0.13925279493663886 0.039396859906088509
decision_type=2 2 2 2 2
left_child=-1 -2 -3 4 -4
right_child=1 2 3 -5 -6
leaf_value=-0.035792084232087885 -0.031069569997829196 0.0011702774560326107 0.062709363799026474 0.026282160107665375 0.053006370081433288
leaf_weight=1.3148606516188008 1.3832867129240183 3.8584933952661231 0.49075375474058069 0.62026688252808515 0.72542400454403833
leaf_count=75 38 79 12 40 95
internal_value=0 0.00664945 0.0158113 0.0465731 0.0569217
internal_weight=0 7.07822 5.69494 1.83644 1.21618
internal_count=339 264 226 147 107
shrinkage=0.05


Tree=127
num_leaves=7
num_cat=0
split_feature=13 2 11 15 4 16
split_gain=0.731485 0.903841 1.16571 0.836937 0.00602659 0.000215898
threshold=0.19122345654738493 0.34201498600704167 0.30197228144989346 0.14597704494959787 0.21394135188866797 0.25183706070287543
decision_type=2 2 2 2 2 2
left_child=1 -1 -3 -2 -5 -6
right_child=3 2 -4 4 5 -7
leaf_value=-0.033791964673484769 -0.015310531898210317 -0.027480960051158711 0.026240422212901428 0.058829216932294093 0.052487598696039563 0.050622600101996942
leaf_weight=2.211251234752126 0.68857646780088533 1.6401035701856015 2.6276000937214121 0.49466186203062512 0.27931515406817198 0.34915971400914714
leaf_count=85 10 55 72 5 16 96
internal_value=0 -0.00784769 0.00559498 0.0280917 0.0547008 0.0514515
internal_weight=0 6.47895 4.2677 1.81171 1.12314 0.628475
internal_count=339 212 127 127 117 112
shrinkage=0.05


Tree=128
num_leaves=5
num_cat=0
split_feature=7 3 17 19
split_gain=0.733294 0.75153 1.37508 0.629474
threshold=0.021746439097643202 0.12911784553094902 0.42027491408934708 0.25180375180375192
decision_type=2 2 2 2
left_child=-1 -2 -3 -4
right_child=1 2 3 -5
leaf_value=-0.034840492712240136 0.037306659448056882 -0.028568500214939448 0.0013278951479623567 0.049446693575224042
leaf_weight=1.2740834954893214 1.5340525252977384 2.5906076561659575 1.573925606091507 1.1961994146695358
leaf_count=75 31 71 96 66
internal_value=0 0.00644817 -0.00238245 0.0221066
internal_weight=0 6.89479 5.36073 2.77013
internal_count=339 264 233 162
shrinkage=0.05


Tree=129
num_leaves=7
num_cat=0
split_feature=13 19 2 11 10 4
split_gain=0.688216 1.17024 0.827135 1.04465 0.00710257 0.000767652
threshold=0.19122345654738493 0.06545979273252002 0.34201498600704167 0.30197228144989346 0.027921727954894057 0.3250497017892644
decision_type=2 2 2 2 2 2
left_child=2 -2 -1 -4 -3 -6
right_child=1 4 3 -5 5 -7
leaf_value=-0.032779372443958038 -0.032648544294210068 0.060475719780372764 -0.026522763741489638 0.024954715368493217 0.054272705563784163 0.051042592412636881
leaf_weight=2.1585067255655304 0.54841976356692601 0.45582785597071029 1.5923905698582528 2.5861193581949919 0.34306703036418185 0.39654770371271297
leaf_count=85 13 6 55 72 14 94
internal_value=0 0.0278241 -0.00764606 0.00533714 0.0555665 0.0525409
internal_weight=0 1.74386 6.33702 4.17851 1.19544 0.739615
internal_count=339 127 212 127 114 108
shrinkage=0.05


Tree=130
num_leaves=4
num_cat=0
split_feature=17 11 7
split_gain=0.694554 1.14966 0.686506
threshold=0.24307560137457043 0.46268656716417916 0.051994964493703708
decision_type=2 2 2
left_child=-1 2 -2
right_child=1 -3 -4
leaf_value=-0.034381387539663855 -0.022095651554498545 0.038541958834356349 0.016869141218210277
leaf_weight=1.2393398532876743 2.905212672543712 1.963579733885126 1.850416113680694
leaf_count=83 93 88 75
internal_value=0 0.0063553 -0.00693444
internal_weight=0 6.71921 4.75563
internal_count=339 256 168
shrinkage=0.05


Tree=131
num_leaves=6
num_cat=0
split_feature=7 11 8 4 8
split_gain=0.662544 0.850544 0.952626 2.77967 0.150981
threshold=0.021746439097643202 0.23334221748400857 0.096419022441193214 0.24212226640159043 0.22375852434884494
decision_type=2 2 2 2 2
left_child=-1 -2 -3 -4 -5
right_child=1 2 3 4 -6
leaf_value=-0.034019322309722669 -0.030569137503279505 0.041139554019019656 -0.04696062445389329 0.058281547616810182 0.027254023181437898
leaf_weight=1.2103489042492581 1.2725231829099355 2.1045201779925264 1.6774124309886249 0.92250887793488778 0.68187899037729949
leaf_count=75 38 47 45 72 62
internal_value=0 0.00619566 0.0148814 -0.0019572 0.0450946
internal_weight=0 6.65884 5.38632 3.2818 1.60439
internal_count=339 264 226 179 134
shrinkage=0.05


Tree=132
num_leaves=7
num_cat=0
split_feature=17 10 10 7 12 11
split_gain=0.641231 1.51828 0.97131 0.387667 0.000456477 8.05383e-05
threshold=0.495360824742268 0.083181321946298514 0.05794397689426916 0.034167105592475107 0.34284575925095878 0.26625799573560777
decision_type=2 2 2 2 2 2
left_child=1 2 -1 -2 -5 -6
right_child=3 -3 -4 4 5 -7
leaf_value=-0.010227727890839727 -0.0040369261511040587 -0.045245620112514116 0.036703903746276724 0.053422892718964513 0.05178934522421489 0.050494993295180868
leaf_weight=2.7202506028115749 0.48462626244872786 1.8158526618499307 1.8537693882826713 0.35762442054692656 0.21628599055111408 0.27047191286692396
leaf_count=92 14 66 39 19 11 98
internal_value=0 -0.00656363 0.00879283 0.0316083 0.0520666 0.0510701
internal_weight=0 6.38987 4.57402 1.32901 0.844382 0.486758
internal_count=339 197 131 142 128 109
shrinkage=0.05


Tree=133
num_leaves=6
num_cat=0
split_feature=16 7 11 5 12
split_gain=0.626038 1.2451 0.821792 0.661386 0.000274674
threshold=0.16325878594249202 0.069813484547943713 0.36074093816631142 0.21103622577927536 0.23053936949051243
decision_type=2 2 2 2 2
left_child=1 4 -2 -4 -1
right_child=2 -3 3 -5 -6
