tree
version=v3
num_class=1
num_tree_per_iteration=1
label_index=0
max_feature_idx=19
objective=binary sigmoid:1
feature_names=Column_0 Column_1 Column_2 Column_3 Column_4 Column_5 Column_6 Column_7 Column_8 Column_9 Column_10 Column_11 Column_12 Column_13 Column_14 Column_15 Column_16 Column_17 Column_18 Column_19
feature_infos=[0.022658099425092899:1] [0:1] [0:1] [0:0.89571191951414031] [0:1] [0:1] [0:1] [0.0007956697634283:1.0000000000000002] [0:0.78219725418331476] [0:0.72814768953678166] [0.0025392811243314002:0.7588546632947778] [0.055437100213219598:0.93656716417910457] [0:1] [0:1] [0:1] [0:1] [0:1] [0:1] [0:1] [0:1]
tree_sizes=750 749 748 751 646 749 750 644 644 742 645 645 644 648 747 646 751 643 643 646 642 747 642 750 747 750 648 645 747 747 750 750 852 644 747 645 747 641 749 643 747 755 751 745 751 751 646 745 859 748 751 645 854 645 852 746 648 750 642 749 747 744 750 747 856 853 647 749 646 747 752 747 753 749 749 863 857 747 645 756 540 861 752 646 855 861 641 753 642 644 855 853 647 865 857 645 754 857 858 744 540 746 759 647 756 756 860 748 751 646 649 854 748 863 854 647 643 973 964 857 654 651 962 1074 1078 643 964 647 646 757 753 758 758 654 1078 654 862 1088 866 863 757 870 972 865 757 654 1086 863 757 754 975 651 757 863 755 976 1076 867 964 864 870 652 860 761 980 652 868 863 756 759 762 763 757 870 1193 650 868 759 865 870 764 866 983 762 762 978 872 760

Tree=0
num_leaves=6
num_cat=0
split_feature=12 12 11 0 0
split_gain=226.963 19.9726 5.01141 0.0489927 0.0436367
threshold=0.26266248319139401 0.34807510334179997 0.37539978678038383 0.35593506932702063 0.24129184984781862
decision_type=2 2 2 2 2
left_child=2 -2 4 -3 -1
right_child=1 3 -4 -5 -6
leaf_value=-0.094396134062241857 0.029604945029637696 0.10160557159911617 -0.054395785968087175 0.10560560640853163 -0.09039609925282642
leaf_weight=14.999869465827944 12.499891221523283 12.499891221523283 12.499891221523283 19.74982813000679 12.499891221523283
leaf_count=60 50 50 50 79 50
internal_value=0.00589972 0.083259 -0.080646 0.104055 -0.0925779
internal_weight=0 44.7496 39.9997 32.2497 27.4998
internal_count=339 179 160 129 110
shrinkage=1


Tree=1
num_leaves=6
num_cat=0
split_feature=12 12 17 9 9
split_gain=205.226 18.1374 4.99957 0.0504089 0.0496149
threshold=0.26266248319139401 0.34807510334179997 0.31536082474226801 0.15693420386109072 0.11584679461923791
decision_type=2 2 2 2 2
left_child=2 -2 3 -1 -3
right_child=1 4 -4 -5 -6
leaf_value=-0.091941379341240276 0.022524797031515113 0.091035781341070765 -0.05611978899336767 -0.096244348178071357 0.095066582915057582
leaf_weight=12.476832360029222 12.497261166572569 12.466039121150969 12.479244083166121 14.975815862417219 19.696791917085648
leaf_count=50 50 50 50 60 79
internal_value=0 0.073642 -0.0823604 -0.0942887 0.0935043
internal_weight=0 44.6601 39.9319 27.4526 32.1628
internal_count=339 179 160 110 129
shrinkage=0.05


Tree=2
num_leaves=6
num_cat=0
split_feature=4 11 13 12 11
split_gain=188.686 11.5311 11.4691 0.0551008 0.00290544
threshold=0.25556660039761431 0.35967484008528788 0.11215837593393627 0.45689526370835204 0.31383262260127937
decision_type=2 2 2 2 2
left_child=2 -2 4 -3 -1
right_child=1 3 -4 -5 -6
leaf_value=-0.091864178125333915 0.035765617437037288 0.095386532176067365 -0.036970207334821918 0.091002941255015776 -0.092881614622831524
leaf_weight=16.121184259653095 12.658623963594435 12.928207129240038 13.934217274188994 16.09113934636116 12.424570143222807
leaf_count=65 51 52 56 65 50
internal_value=0 0.0755858 -0.0741555 0.0929558 -0.092307
internal_weight=0 41.678 42.48 29.0193 28.5458
internal_count=339 168 171 117 115
shrinkage=0.05


Tree=3
num_leaves=6
num_cat=0
split_feature=12 12 11 17 9
split_gain=171.926 15.8475 4.48797 0.0898316 0.0446157
threshold=0.26266248319139401 0.34807510334179997 0.37539978678038383 0.23965635738831612 0.11584679461923791
decision_type=2 2 2 2 2
left_child=2 -2 3 -1 -3
right_child=1 4 -4 -5 -6
leaf_value=-0.084102068295809532 0.020055061835071507 0.084245407692914595 -0.050907569811635134 -0.089887883854489023 0.088097780445323737
leaf_weight=12.273481592535974 12.46912834048271 12.275208055973055 12.365506008267401 14.796572297811506 19.383843883872032
leaf_count=50 50 50 50 60 79
internal_value=0 0.0677996 -0.0758644 -0.0872646 0.0866041
internal_weight=0 44.1282 39.4356 27.0701 31.6591
internal_count=339 179 160 110 129
shrinkage=0.05


Tree=4
num_leaves=5
num_cat=0
split_feature=13 17 11 15
split_gain=153.559 21.4298 2.32703 0.511062
threshold=0.13213969720802199 0.49003436426116831 0.34954690831556517 0.28292148130900058
decision_type=2 2 2 2
left_child=2 -2 -1 -3
right_child=1 3 -4 -5
leaf_value=-0.085777788165456184 0.0054876959870805977 0.073848637462804984 -0.059788273803029847 0.086716498509409143
leaf_weight=23.068091660737991 12.608995363116263 12.146422415971754 13.744618251919745 21.155329912900925
leaf_count=95 51 50 56 87
internal_value=0 0.0610033 -0.0760742 0.0820231
internal_weight=0 45.9107 36.8127 33.3018
internal_count=339 188 151 137
shrinkage=0.05


Tree=5
num_leaves=6
num_cat=0
split_feature=4 11 13 7 11
split_gain=147.543 10.0647 9.21776 0.106448 0.014636
threshold=0.25556660039761431 0.35967484008528788 0.11215837593393627 0.093599527827896212 0.31383262260127937
decision_type=2 2 2 2 2
left_child=2 -2 4 -3 -1
right_child=1 3 -4 -5 -6
leaf_value=-0.082131602142608909 0.030390068102309032 0.088014156322073531 -0.033045131086731544 0.081795376417462928 -0.084454510637034685
leaf_weight=15.479508802294733 12.402566462755201 12.122768297791483 13.767169609665869 15.915144190192221 12.067449688911436
leaf_count=65 51 50 56 67 50
internal_value=0 0.0678942 -0.0664529 0.0844842 -0.0831492
internal_weight=0 40.4405 41.3141 28.0379 27.547
internal_count=339 168 171 117 115
shrinkage=0.05


Tree=6
num_leaves=6
num_cat=0
split_feature=4 11 13 12 11
split_gain=135.036 9.48936 8.75909 0.0852423 0.011396
threshold=0.25556660039761431 0.35967484008528788 0.11215837593393627 0.45689526370835204 0.31383262260127937
decision_type=2 2 2 2 2
left_child=2 -2 4 -3 -1
right_child=1 3 -4 -5 -6
leaf_value=-0.079598322470857449 0.028980743984396568 0.084784683130419841 -0.031472194579234052 0.079195307449730079 -0.081666839227637955
leaf_weight=15.181062385439875 12.356596827507017 12.423568397760393 13.733329355716704 15.127005219459532 11.860587447881697
leaf_count=65 51 52 56 65 50
internal_value=0 0.0653872 -0.0639908 0.0817158 -0.0805056
internal_weight=0 39.9072 40.775 27.5506 27.0416
internal_count=339 168 171 117 115
shrinkage=0.05


Tree=7
num_leaves=5
num_cat=0
split_feature=12 4 0 19
split_gain=126.938 20.387 1.05548 0.315521
threshold=0.32392051396981919 0.21784294234592441 0.31095705106526877 0.15836940836940838
decision_type=2 2 2 2
left_child=1 2 -1 -2
right_child=3 -3 -4 -5
leaf_value=-0.079824098641750385 0.068927998398281717 0.00057762699219723835 -0.061372558592966801 0.07917341217383006
leaf_weight=21.815190836787224 11.688137561082838 12.912965744733809 12.021247059106825 21.045332029461861
leaf_count=94 50 53 51 91
internal_value=0 -0.0528711 -0.0732687 0.0755151
internal_weight=0 46.7494 33.8364 32.7335
internal_count=339 198 145 141
shrinkage=0.05


Tree=8
num_leaves=5
num_cat=0
split_feature=12 4 0 14
split_gain=116.747 19.0358 1.02953 0.318599
threshold=0.32392051396981919 0.21784294234592441 0.31095705106526877 0.43208082942613757
decision_type=2 2 2 2
left_child=1 2 -1 -2
right_child=3 -3 -4 -5
leaf_value=-0.077562537025147038 0.066704794621191929 0.00054875182170822804 -0.059181681301199933 0.077052777243239945
leaf_weight=21.340697273612022 11.726510301232336 12.912856727838514 11.84738305211067 20.340712666511536
leaf_count=94 51 53 51 90
internal_value=0 -0.0509599 -0.071001 0.0732687
internal_weight=0 46.1009 33.1881 32.0672
internal_count=339 198 145 141
shrinkage=0.05


Tree=9
num_leaves=6
num_cat=0
split_feature=4 11 13 7 0
split_gain=106.485 9.19687 7.88299 0.116304 0.0108324
threshold=0.25556660039761431 0.35967484008528788 0.11215837593393627 0.093599527827896212 0.28254988163679401
decision_type=2 2 2 2 2
left_child=2 -2 4 -3 -1
right_child=1 3 -4 -5 -6
leaf_value=-0.073715736096860787 0.023367344675642113 0.08006133569701715 -0.027262053811904781 0.073318375655702164 -0.075796087288958078
leaf_weight=14.170222297310831 12.009638473391531 11.4247934371233 13.429135650396345 14.52522937953472 11.205656066536902
leaf_count=65 51 50 56 67 50
internal_value=0 0.0595444 -0.0582404 0.076287 -0.0746344
internal_weight=0 37.9597 38.805 25.95 25.3759
internal_count=339 168 171 117 115
shrinkage=0.05


Tree=10
num_leaves=5
num_cat=0
split_feature=12 17 11 18
split_gain=101.656 18.0886 0.698048 0.315652
threshold=0.32392051396981919 0.38144329896907214 0.3386194029850747 0.2526118667455155
decision_type=2 2 2 2
left_child=1 2 -1 -2
right_child=3 -3 -4 -5
leaf_value=-0.075072371064006577 0.063438476063122903 -0.00026384549456533776 -0.059507260566179471 0.073909722851595513
leaf_weight=19.5553142875433 11.50452494621277 13.659224376082419 11.403592273592947 19.221777379512787
leaf_count=90 52 57 51 89
internal_value=0 -0.0481926 -0.069339 0.0699891
internal_weight=0 44.6181 30.9589 30.7263
internal_count=339 198 141 141
shrinkage=0.05


Tree=11
num_leaves=5
num_cat=0
split_feature=13 17 11 3
split_gain=93.1443 17.7985 1.82429 0.296629
threshold=0.16724832874557607 0.38144329896907214 0.37779850746268667 0.13128028955278817
decision_type=2 2 2 2
left_child=1 3 -2 -1
right_child=2 -3 -4 -5
leaf_value=-0.063562057947590997 0.048001774880798841 0.0012571304424103425 0.073006078022333332 -0.073996493959192208
leaf_weight=10.678860828280451 11.248504459857939 12.362065970897673 20.752779275178909 18.805157050490379
leaf_count=50 50 52 99 88
internal_value=0 -0.0491025 0.064217 -0.0702172
internal_weight=0 41.8461 32.0013 29.484
internal_count=339 190 149 138
shrinkage=0.05


Tree=12
num_leaves=5
num_cat=0
split_feature=12 17 0 14
split_gain=87.4137 15.8249 0.67789 0.334585
threshold=0.32392051396981919 0.38144329896907214 0.31028068988840035 0.43208082942613757
decision_type=2 2 2 2
left_child=1 2 -1 -2
right_child=3 -3 -4 -5
leaf_value=-0.0716397234134412 0.059767502298440557 -0.0007528027082308648 -0.055878402980345354 0.070846342532556575
leaf_weight=18.71378114819527 10.820234268903734 13.642260909080504 10.735688537359236 18.410004019737244
leaf_count=91 51 57 50 90
internal_value=0 -0.0452712 -0.065894 0.0667453
internal_weight=0 43.0917 29.4495 29.2302
internal_count=339 198 141 141
shrinkage=0.05


Tree=13
num_leaves=5
num_cat=0
split_feature=12 12 11 10
split_gain=80.9267 12.9012 2.21351 0.0334923
threshold=0.25593904078888402 0.3373673987748394 0.34954690831556517 0.085824247198153722
decision_type=2 2 2 2
left_child=2 -2 -1 -3
right_child=1 3 -4 -5
leaf_value=-0.070108258578314528 0.0065263771469365271 0.065513392979677496 -0.042719783987157901 0.069135803950880564
leaf_weight=19.607387349009517 12.774186402559279 10.667820125818254 11.826823115348814 15.879332423210142
leaf_count=98 53 53 55 80
internal_value=0 0.0478133 -0.0598036 0.0676802
internal_weight=0 39.3213 31.4342 26.5472
internal_count=339 186 153 133
shrinkage=0.05


Tree=14
num_leaves=6
num_cat=0
split_feature=4 11 11 6 6
split_gain=75.7603 8.69865 6.47363 0.232336 0.1813
threshold=0.25556660039761431 0.35967484008528788 0.38486140724946705 0.057287705956907409 0.15171102661596952
decision_type=2 2 2 2 2
left_child=2 -2 3 -1 -3
right_child=1 4 -4 -5 -6
leaf_value=-0.070744825540293987 0.016940494061505735 0.075367681873752174 -0.019761574445192904 -0.060889839005078154 0.066453789278815678
leaf_weight=13.003797054290773 11.265666380524634 10.649125948548319 10.894667491316794 11.073328107595442 12.28478781878948
leaf_count=66 51 51 50 55 66
internal_value=0 0.0529193 -0.0517417 -0.0662124 0.0705929
internal_weight=0 34.1996 34.9718 24.0771 22.9339
internal_count=339 168 171 121 117
shrinkage=0.05


Tree=15
num_leaves=5
num_cat=0
split_feature=12 11 11 18
split_gain=71.5225 15.2168 2.22074 0.352898
threshold=0.32392051396981919 0.4167110874200427 0.30636993603411528 0.2526118667455155
decision_type=2 2 2 2
left_child=1 2 -1 -2
right_child=3 -3 -4 -5
leaf_value=-0.070850385197088681 0.055862483548552583 0.0075286692367766547 -0.042085873028350346 0.067644933487294542
leaf_weight=19.091406017541889 10.253361344337465 11.293773517012594 10.346451699733732 16.714952498674393
leaf_count=97 52 51 50 89
internal_value=0 -0.0418114 -0.0607406 0.0631652
internal_weight=0 40.7316 29.4379 26.9683
internal_count=339 198 147 141
shrinkage=0.05


Tree=16
num_leaves=6
num_cat=0
split_feature=4 17 13 16 18
split_gain=66.4577 6.70116 6.61305 0.0619513 0.00656363
threshold=0.25556660039761431 0.55085910652920977 0.11215837593393627 0.39488817891373806 0.24788093830080829
decision_type=2 2 2 2 2
left_child=2 -2 4 -3 -1
right_child=1 3 -4 -5 -6
leaf_value=-0.065641777247557542 0.018853175109992366 0.064010783297160131 -0.020511627298828702 0.069358560161297753 -0.067409931304954859
leaf_weight=11.322652056813242 10.939661204814909 10.25294901430607 12.448421165347098 11.478440716862677 9.783936142921446
leaf_count=63 52 55 56 61 52
internal_value=0 0.0507689 -0.0494147 0.0668355 -0.0664614
internal_weight=0 32.6711 33.555 21.7314 21.1066
internal_count=339 168 171 116 115
shrinkage=0.05


Tree=17
num_leaves=5
num_cat=0
split_feature=12 11 11 18
split_gain=62.889 16.0448 2.26744 0.168718
threshold=0.32865182529010406 0.4167110874200427 0.30636993603411528 0.2526118667455155
decision_type=2 2 2 2
left_child=1 2 -1 -2
right_child=3 -3 -4 -5
leaf_value=-0.069515147963044047 0.057216913685829429 0.010811402366617363 -0.039927166892976755 0.065733357197881828
leaf_weight=18.35715247690678 9.3106020539999026 11.558773517608641 10.003612965345381 15.491589799523352
leaf_count=98 50 53 50 88
internal_value=0 -0.0388419 -0.0590787 0.0625363
internal_weight=0 39.9195 28.3608 24.8022
internal_count=339 201 148 138
shrinkage=0.05


Tree=18
num_leaves=5
num_cat=0
split_feature=12 12 4 18
split_gain=59.3327 10.7626 1.44486 0.175116
threshold=0.254444942477215 0.32865182529010406 0.13310139165009938 0.2526118667455155
decision_type=2 2 2 2
left_child=2 -2 -1 -3
right_child=1 3 -4 -5
leaf_value=-0.065074724359784009 0.0035053005503333486 0.055948847664971907 -0.041532163207092375 0.064760387672653782
leaf_weight=16.398289591073993 12.037618890404699 9.0521362870931643 10.815589323639868 14.951804354786871
leaf_count=94 51 50 56 88
internal_value=0 0.0420885 -0.0557182 0.0614375
internal_weight=0 36.0416 27.2139 24.0039
internal_count=339 189 150 138
shrinkage=0.05


Tree=19
num_leaves=5
num_cat=0
split_feature=17 12 11 8
split_gain=55.2581 14.3711 2.75446 0.401657
threshold=0.48814432989690726 0.25593904078888402 0.38352878464818768 0.078281311022321012
decision_type=2 2 2 2
left_child=1 3 -2 -1
right_child=2 -3 -4 -5
leaf_value=-0.052696343783355817 0.033962652031250692 0.0090030603733393753 0.067095898930957493 -0.06607593116515928
leaf_weight=8.5051880478858966 10.153334483504297 10.162593796849249 16.411309257149696 16.474618196487427
leaf_count=50 53 45 97 94
internal_value=0 -0.0411262 0.054432 -0.0615204
internal_weight=0 35.1424 26.5646 24.9798
internal_count=339 189 150 144
shrinkage=0.05


Tree=20
num_leaves=5
num_cat=0
split_feature=17 13 9 2
split_gain=51.6786 17.34 1.19177 0.297877
threshold=0.51804123711340211 0.14326091230829727 0.13561659255923905 0.50392705606211086
decision_type=2 2 2 2
left_child=1 2 -1 -2
right_child=3 -3 -4 -5
leaf_value=-0.044290531654171211 0.056170762012997047 0.014635384752958234 -0.066352658053863228 0.068065163728025083
leaf_weight=9.7817918509244937 13.456369891762735 11.937379106879233 16.356990203261375 8.6456054747104627
leaf_count=56 82 55 96 50
internal_value=0 -0.0352941 -0.0580965 0.0608235
internal_weight=0 38.0762 26.1388 22.102
internal_count=339 207 152 132
shrinkage=0.05


Tree=21
num_leaves=6
num_cat=0
split_feature=12 11 11 11 18
split_gain=48.6064 14.6533 2.4769 0.323248 0.190141
threshold=0.32865182529010406 0.4167110874200427 0.30890191897654595 0.22441364605543715 0.25418884289375127
decision_type=2 2 2 2 2
left_child=1 2 3 -1 -2
right_child=4 -3 -4 -5 -6
leaf_value=-0.073785241515039623 0.053151173693288881 0.013077059003744593 -0.034389105787009398 -0.05993732356828825 0.062710827681187478
leaf_weight=8.635088995099073 8.5089024305343646 11.041903197765349 8.8701264560222608 8.2310897856950742 13.382096543908117
leaf_count=50 51 53 48 50 87
internal_value=0 -0.0351059 -0.0557783 -0.0670271 0.058995
internal_weight=0 36.7782 25.7363 16.8662 21.891
internal_count=339 201 148 100 138
shrinkage=0.05


Tree=22
num_leaves=5
num_cat=0
split_feature=17 13 9 2
split_gain=45.7671 15.7076 1.2122 0.294335
threshold=0.51804123711340211 0.14326091230829727 0.13561659255923905 0.50392705606211086
decision_type=2 2 2 2
left_child=1 2 -1 -2
right_child=3 -3 -4 -5
leaf_value=-0.042072503117984203 0.054504466696631337 0.013899255594850926 -0.064895653351086088 0.066702926572739726
leaf_weight=9.3421864509582537 12.64477923512459 11.756496474146841 15.421929031610487 8.1209758073091489
leaf_count=56 82 55 96 50
internal_value=0 -0.0336922 -0.0562857 0.059275
internal_weight=0 36.5206 24.7641 20.7658
internal_count=339 207 152 132
shrinkage=0.05


Tree=23
num_leaves=6
num_cat=0
split_feature=4 12 0 10 0
split_gain=43.8753 6.78492 6.36388 0.216401 0.0108738
threshold=0.24058151093439364 0.32392051396981919 0.32651335813324306 0.05804762102179286 0.35914778491714572
decision_type=2 2 2 2 2
left_child=2 -2 3 -1 -3
right_child=1 4 -4 -5 -6
leaf_value=-0.069633764006462137 0.009851488042950227 0.062341724696039297 -0.014238505270644429 -0.058342856910928734 0.059906735766326602
leaf_weight=8.8360645473003441 9.9536307901144045 8.0725938379764575 10.188982427120207 8.1651262044906598 10.612005099654196
leaf_count=55 44 52 54 56 78
internal_value=0 0.0431957 -0.0454849 -0.0642111 0.0609588
internal_weight=0 28.6382 27.1902 17.0012 18.6846
internal_count=339 174 165 111 130
shrinkage=0.05


Tree=24
num_leaves=6
num_cat=0
split_feature=4 11 0 19 13
split_gain=40.6657 8.41998 6.18544 0.140977 0.131777
threshold=0.24058151093439364 0.35967484008528788 0.32651335813324306 0.13905286632559352 0.27361875737318131
decision_type=2 2 2 2 2
left_child=2 -2 3 -1 -3
right_child=1 4 -4 -5 -6
leaf_value=-0.067961619424561595 0.0062263902671544653 0.0676251658519431 -0.013592152238420491 -0.058691479721908649 0.058970212375367009
leaf_weight=8.0932420790195518 10.293463572859766 8.5030018314719218 10.141080677509306 8.3147665783762914 9.1096536517143232
leaf_count=54 55 48 54 57 71
internal_value=0 0.0421523 -0.0442906 -0.063264 0.0631486
internal_weight=0 27.9061 26.5491 16.408 17.6127
internal_count=339 174 165 111 119
shrinkage=0.05


Tree=25
num_leaves=6
num_cat=0
split_feature=13 17 0 8 4
split_gain=38.9539 12.2366 2.15797 0.848276 0.0888605
threshold=0.16724832874557607 0.41907216494845362 0.33581332431518424 0.080834860456033872 0.43802186878727639
decision_type=2 2 2 2 2
left_child=1 3 -2 -1 -4
right_child=2 -3 4 -5 -6
leaf_value=-0.043591139047058997 0.030683224902697228 0.011631100765386442 0.066678381417579799 -0.064069473214910119 0.058606551789482653
leaf_weight=7.9933774545788827 8.2222843840718287 9.4351982995867711 7.5866945981979352 13.765701733529566 6.1927585899829865
leaf_count=55 49 43 50 92 50
internal_value=0 -0.0359252 0.0509547 -0.0565466 0.0630507
internal_weight=0 31.1943 22.0017 21.7591 13.7795
internal_count=339 190 149 147 100
shrinkage=0.05


Tree=26
num_leaves=5
num_cat=0
split_feature=12 11 11 18
split_gain=36.3474 13.1662 0.481717 0.211913
threshold=0.32865182529010406 0.34954690831556517 0.23094349680170576 0.25951113739404702
decision_type=2 2 2 2
left_child=1 2 -1 -2
right_child=3 -3 -4 -5
leaf_value=-0.071426394839763971 0.049539168633913694 0.00049924484951663773 -0.054465322870836434 0.060356847424655927
leaf_weight=7.9555682465434101 7.7422180548310306 16.385751530528069 8.8355625346302968 10.90216615796089
leaf_count=53 54 86 62 84
internal_value=0 -0.031386 -0.0625014 0.0558647
internal_weight=0 33.1769 16.7911 18.6444
internal_count=339 201 115 138
shrinkage=0.05


Tree=27
num_leaves=5
num_cat=0
split_feature=17 13 9 17
split_gain=34.7525 12.8373 1.32664 0.350029
threshold=0.51804123711340211 0.14326091230829727 0.13561659255923905 0.62663230240549839
decision_type=2 2 2 2
left_child=1 2 -1 -2
right_child=3 -3 -4 -5
leaf_value=-0.03723638415866181 0.047464223222436888 0.012934483858601796 -0.062758939676894346 0.061830127906483692
leaf_weight=8.2175862938165682 6.9564712792634991 11.189212553203104 13.384012274444101 10.858772695064543
leaf_count=56 49 55 96 83
internal_value=0 -0.0305339 -0.0530498 0.0562205
internal_weight=0 32.7908 21.6016 17.8152
internal_count=339 207 152 132
shrinkage=0.05


Tree=28
num_leaves=6
num_cat=0
split_feature=17 0 16 17 9
split_gain=32.3849 12.0339 2.9445 0.362848 0.198682
threshold=0.51804123711340211 0.39144403111261405 0.17172523961661343 0.62663230240549839 0.15376822198457812
decision_type=2 2 2 2 2
left_child=1 2 4 -2 -1
right_child=3 -3 -4 -5 -6
leaf_value=-0.068976965656870351 0.046335730666806199 0.01885456904844255 -0.027038314175074758 0.06119677904012949 -0.056896061001404763
leaf_weight=7.6494234129786509 6.7742711529135731 9.1376530155539495 9.1702868640422803 10.433370679616926 6.1310270801186562
leaf_count=54 49 49 54 83 50
internal_value=0 -0.029672 -0.0489925 0.0553463 -0.0636021
internal_weight=0 32.0884 22.9507 17.2076 13.7805
internal_count=339 207 158 132 104
shrinkage=0.05


Tree=29
num_leaves=6
num_cat=0
split_feature=13 11 7 11 13
split_gain=30.8964 12.1882 1.62824 1.35288 0.182502
threshold=0.12903067243413294 0.30890191897654595 0.050986369018935405 0.34954690831556517 0.30323436885568233
decision_type=2 2 2 2 2
left_child=3 -2 -3 -1 -4
right_child=1 2 4 -5 -6
leaf_value=-0.05982377323187478 -0.022554676631315565 0.033400741433631892 0.068649597715321531 -0.033528481750720422 0.057170554588443334
leaf_weight=10.879150629043581 7.2495679110288647 7.2753397971391705 6.5691944882273656 8.8875654488801938 7.3217620849609375
leaf_count=94 40 38 45 54 68
internal_value=0 0.0333987 0.052563 -0.0480008 0.0625991
internal_weight=0 28.4159 21.1663 19.7667 13.891
internal_count=339 191 151 148 113
shrinkage=0.05


Tree=30
num_leaves=6
num_cat=0
split_feature=4 11 11 2 11
split_gain=29.2614 7.90551 5.19103 0.240022 0.190379
threshold=0.24058151093439364 0.33208955223880604 0.42470682302771862 0.37455989888959113 0.45802238805970158
decision_type=2 2 2 2 2
left_child=2 -2 3 -1 -3
right_child=1 4 -4 -5 -6
leaf_value=-0.050646562608169035 -0.0046899400809773473 0.051816787261241948 -0.0049558903035587755 -0.0630001562198335 0.062514319027453011
leaf_weight=8.5052915737032908 7.3501288369298008 7.7868319824337986 7.1239712387323371 7.3123267516493788 8.9270665124058706
leaf_count=67 42 58 38 60 74
internal_value=0 0.0385258 -0.0403959 -0.0563575 0.0575304
internal_weight=0 24.064 22.9416 15.8176 16.7139
internal_count=339 174 165 127 132
shrinkage=0.05


Tree=31
num_leaves=6
num_cat=0
split_feature=12 0 19 4 18
split_gain=27.9957 9.97756 4.45615 0.59591 0.243512
threshold=0.32865182529010406 0.39144403111261405 0.21913944641217367 0.14242047713717693 0.25951113739404702
decision_type=2 2 2 2 2
left_child=1 2 3 -1 -2
right_child=4 -3 -4 -5 -6
leaf_value=-0.053732301885390278 0.046329127721639177 0.016560623201350728 -0.013562524212104868 -0.074207816942529439 0.058834861465490156
leaf_weight=8.1403096467256599 6.7539950087666503 8.7176778316497785 6.7910823300480834 6.3063353970646849 9.1881620734930021
leaf_count=74 54 46 43 38 84
internal_value=0 -0.0284794 -0.0469674 -0.0626704 0.0535367
internal_weight=0 29.9554 21.2377 14.4466 15.9422
internal_count=339 201 155 112 138
shrinkage=0.05


Tree=32
num_leaves=7
num_cat=0
split_feature=13 11 6 12 13 10
split_gain=26.4226 10.9176 2.16857 1.46094 0.2077 0.0902449
threshold=0.12903067243413294 0.29504264392324103 0.096740901683867467 0.20197719009910847 0.28197502949272518 0.085824247198153722
decision_type=2 2 2 2 2 2
left_child=3 -2 -3 5 -4 -1
right_child=1 2 4 -5 -6 -7
leaf_value=-0.05225317021149694 -0.024298703528556238 0.027002100069216068 0.068837540336974007 -0.02631647706221282 0.056264584631869556 -0.060883949624176738
leaf_weight=6.4627212658524531 6.5290441960096386 6.7193897590041187 5.9095349609851819 6.1015036255121222 7.3953508511185646 5.7000750303268433
leaf_count=59 36 37 41 43 77 46
internal_value=0 0.0318485 0.0501557 -0.0462821 0.061849 -0.056298
internal_weight=0 26.5533 20.0243 18.2643 13.3049 12.1628
internal_count=339 191 155 148 118 105
shrinkage=0.05


Tree=33
num_leaves=5
num_cat=0
split_feature=17 0 8 17
split_gain=25.3888 9.91856 1.38361 0.399879
threshold=0.51804123711340211 0.32651335813324306 0.12533421455823593 0.61838487972508605
decision_type=2 2 2 2
left_child=1 2 -1 -2
right_child=3 -3 -4 -5
leaf_value=-0.066552906993817842 0.04282200261612934 0.0043994510150859459 -0.036161517411611874 0.059736286445171032
leaf_weight=9.3194624558091181 5.6551496759057036 13.339739494025705 6.2609490454196921 9.144961364567278
leaf_count=78 46 79 50 86
internal_value=0 -0.0272459 -0.0543402 0.0532733
internal_weight=0 28.9202 15.5804 14.8001
internal_count=339 207 128 132
shrinkage=0.05


Tree=34
num_leaves=6
num_cat=0
split_feature=13 17 0 3 4
split_gain=24.0554 9.19489 3.17666 1.07028 0.118445
threshold=0.16724832874557607 0.41907216494845362 0.30825160635779497 0.12715477578062692 0.40410039761431421
decision_type=2 2 2 2 2
left_child=1 3 -2 -1 -4
right_child=2 -3 4 -5 -6
leaf_value=-0.034540377440471212 0.013621637177820615 0.011060918667417477 0.065470003818756548 -0.061052734690960231 0.055458013786692406
leaf_weight=5.7728338688612046 5.2277612313628223 8.7626988068222982 5.8704133704304677 11.176356285810469 5.9462644830346107
leaf_count=49 36 43 44 98 69
internal_value=0 -0.0305236 0.0460745 -0.0520227 0.0604319
internal_weight=0 25.7119 17.0444 16.9492 11.8167
internal_count=339 190 149 147 113
shrinkage=0.05


Tree=35
num_leaves=5
num_cat=0
split_feature=17 13 9 17
split_gain=22.6077 9.47196 1.48569 0.451488
threshold=0.51804123711340211 0.14326091230829727 0.13561659255923905 0.61185567010309283
decision_type=2 2 2 2
left_child=1 2 -1 -2
right_child=3 -3 -4 -5
leaf_value=-0.030193677445060282 0.040296862088277416 0.011658309316590593 -0.06024785836511537 0.058981247675735995
leaf_weight=6.6930058524012628 5.1219153702259055 10.414288781583307 10.663556754589079 8.7677426487207395
leaf_count=56 43 55 96 89
internal_value=0 -0.0260392 -0.0486584 0.0520912
internal_weight=0 27.7709 17.3566 13.8897
internal_count=339 207 152 132
shrinkage=0.05


Tree=36
num_leaves=6
num_cat=0
split_feature=16 7 12 0 17
split_gain=21.3154 9.66717 1.68825 1.04005 0.0271079
threshold=0.16182108626198083 0.032542146216459504 0.32392051396981919 0.31095705106526877 0.5792096219931272
decision_type=2 2 2 2 2
left_child=3 -2 -3 -1 -4
right_child=1 2 4 -5 -6
leaf_value=-0.063462058821529096 -0.015630787002614454 0.024117039136690391 0.060210962215093672 -0.035259974927516716 0.055437247317484811
leaf_weight=7.7615539357066137 9.3830224201083201 5.5237025842070606 5.0428980961441976 5.6480742916464806 7.2483545392751694
leaf_count=80 60 28 43 41 87
internal_value=0 0.0254437 0.0470774 -0.0515835 0.0573958
internal_weight=0 27.198 17.815 13.4096 12.2913
internal_count=339 218 158 121 130
shrinkage=0.05


Tree=37
num_leaves=5
num_cat=0
split_feature=17 0 8 17
split_gain=20.0215 9.14457 1.37021 0.48075
threshold=0.51804123711340211 0.32651335813324306 0.12533421455823593 0.61185567010309283
decision_type=2 2 2 2
left_child=1 2 -1 -2
right_child=3 -3 -4 -5
leaf_value=-0.065679179222846273 0.038491867395153069 0.0060310555005701596 -0.033874503987769596 0.058383728075031609
leaf_weight=8.2570721730589884 4.851686365902423 12.640775412321089 5.7410189807415 8.1227884441614133
leaf_count=78 43 79 50 89
internal_value=0 -0.0247967 -0.0526352 0.0509453
internal_weight=0 26.6389 13.9981 12.9745
internal_count=339 207 128 132
shrinkage=0.05


Tree=38
num_leaves=6
num_cat=0
split_feature=13 17 11 3 4
split_gain=19.3608 7.79779 2.09167 1.18128 0.0982147
threshold=0.16724832874557607 0.41907216494845362 0.35967484008528788 0.12715477578062692 0.38501491053677939
decision_type=2 2 2 2 2
left_child=1 3 -2 -1 -4
right_child=2 -3 4 -5 -6
leaf_value=-0.030548081606933987 0.021127540638372501 0.0099382343916949653 0.064447811800783655 -0.060047169843351601 0.05409118538303298
leaf_weight=5.1603317856788662 6.0176151394844046 8.5013345256447774 4.4033181183040124 9.9132017828524095 4.7678958661854267
leaf_count=49 43 43 37 98 69
internal_value=0 -0.0283526 0.0440339 -0.0499483 0.0590636
internal_weight=0 23.5749 15.1888 15.0735 9.17121
internal_count=339 190 149 147 106
shrinkage=0.05


Tree=39
num_leaves=5
num_cat=0
split_feature=16 7 0 3
split_gain=18.2421 8.61928 1.02702 0.358032
threshold=0.16182108626198083 0.047680417184972658 0.31095705106526877 0.39574259247898907
decision_type=2 2 2 2
left_child=2 -2 -1 -3
right_child=1 3 -4 -5
leaf_value=-0.062652352964390479 -0.003647612126035506 0.061244090052920586 -0.033555825194816764 0.043547937634886118
leaf_weight=6.9360563419759256 13.306628674268724 7.5838166028261167 5.3891256079077721 4.5871250405907631
leaf_count=80 85 76 41 57
internal_value=0 0.0241658 -0.04993 0.0545746
internal_weight=0 25.4776 12.3252 12.1709
internal_count=339 218 121 133
shrinkage=0.05


Tree=40
num_leaves=6
num_cat=0
split_feature=13 0 8 11 19
split_gain=17.364 8.91823 1.40564 1.17729 0.041601
threshold=0.12375884781753826 0.32448427460263779 0.17937182683930666 0.38219616204690837 0.1807687262232717
decision_type=2 2 2 2 2
left_child=3 -2 -3 4 -1
right_child=1 2 -4 -5 -6
leaf_value=-0.054069690124712924 -0.011826313758470271 0.067903539993109038 0.036286211389769667 -0.027337067120802368 -0.061282004778229017
leaf_weight=4.2041545435786229 9.4003255181014556 6.5844343751668912 7.5417023412883282 5.4238631501793853 3.8124858029186726
leaf_count=62 66 55 79 39 38
internal_value=0 0.025911 0.0510236 -0.0453277 -0.0574997
internal_weight=0 23.5265 14.1261 13.4405 8.01664
internal_count=339 200 134 139 100
shrinkage=0.05


Tree=41
num_leaves=6
num_cat=0
split_feature=17 7 16 17 13
split_gain=16.7097 8.59027 3.07712 0.521176 0.0803869
threshold=0.51804123711340211 0.050986369018935405 0.16182108626198083 0.61185567010309283 0.097067931576877667
decision_type=2 2 2 2 2
left_child=1 2 4 -2 -1
right_child=3 -3 -4 -5 -6
leaf_value=-0.055608763624718033 0.035986025859279472 0.029880722136987455 -0.019425321148516635 0.057798180528607856 -0.064865196441377532
leaf_weight=5.0726041086018139 4.4302879311144334 5.7974710240960112 9.3587890863418561 7.1719273999333382 4.3628416024148464
leaf_count=66 43 40 61 89 40
internal_value=0 -0.0233267 -0.0397396 0.0494692 -0.0598888
internal_weight=0 24.5917 18.7942 11.6022 9.43545
internal_count=339 207 167 132 106
shrinkage=0.05


Tree=42
num_leaves=6
num_cat=0
split_feature=13 16 13 19 19
split_gain=15.7924 7.37986 1.76216 0.355793 0.0065839
threshold=0.18887632717263073 0.26729233226837062 0.11215837593393627 0.14931785386330845 0.1720123311032403
decision_type=2 2 2 2 2
left_child=1 2 4 -2 -1
right_child=3 -3 -4 -5 -6
leaf_value=-0.05522289432763608 0.038429099693531109 0.018931166754035535 -0.024051646403640738 0.056972515299685583 -0.058012574189051674
leaf_weight=5.0935133099556023 4.1898841671645624 7.4781365990638724 8.1665702797472459 6.7607732452452183 3.6168943792581558
leaf_count=69 42 47 52 89 40
internal_value=0 -0.0224164 -0.0407374 0.0498775 -0.0563813
internal_weight=0 24.3551 16.877 10.9507 8.71041
internal_count=339 208 161 131 109
shrinkage=0.05


Tree=43
num_leaves=6
num_cat=0
split_feature=16 13 11 0 5
split_gain=14.81 7.89439 2.95652 1.30071 0.475288
threshold=0.16182108626198083 0.12903067243413294 0.33208955223880604 0.31772066283395334 0.20829823083403534
decision_type=2 2 2 2 2
left_child=3 -2 -3 -1 -4
right_child=1 2 4 -5 -6
leaf_value=-0.062755225823156582 -0.02853304721896574 0.0076088691656116857 0.063822540615221995 -0.027741218622388288 0.043974393931144856
leaf_weight=6.358578395098446 5.7611318975687054 5.3174505606293705 5.1268817707896215 4.5506105162203312 7.3262663222849369
leaf_count=83 45 37 57 38 79
internal_value=0 0.0223297 0.0388191 -0.0481496 0.0521457
internal_weight=0 23.5317 17.7706 10.9092 12.4531
internal_count=339 218 173 121 136
shrinkage=0.05


Tree=44
num_leaves=6
num_cat=0
split_feature=12 0 19 4 18
split_gain=14.1442 7.83135 4.13929 0.498035 0.431729
threshold=0.32865182529010406 0.39144403111261405 0.24278499278499283 0.15126739562624253 0.24640252316183722
decision_type=2 2 2 2 2
left_child=1 2 3 -1 -2
right_child=4 -3 -4 -5 -6
leaf_value=-0.049642314287628074 0.034851519887175345 0.020044500698563308 -0.0042443425697431493 -0.071335248719201494 0.055935476258961073
leaf_weight=5.7975622862577456 3.825971841812132 7.5428878962993613 4.9571691006422034 4.8669900484383106 6.6449009440839291
leaf_count=85 42 46 35 35 96
internal_value=0 -0.0217935 -0.0419949 -0.0595423 0.0482316
internal_weight=0 23.1646 15.6217 10.6646 10.4709
internal_count=339 201 155 120 138
shrinkage=0.05


Tree=45
num_leaves=6
num_cat=0
split_feature=17 0 12 17 17
split_gain=13.635 7.50915 3.27522 0.65893 0.0950953
threshold=0.51804123711340211 0.39144403111261405 0.29553264604811008 0.6051546391752578 0.33864261168384879
decision_type=2 2 2 2 2
left_child=1 2 4 -2 -1
right_child=3 -3 -4 -5 -6
leaf_value=-0.054490774843709622 0.030909653651472538 0.018797047781623021 -0.0083344614227573235 0.057297111983552577 -0.064437436826592448
leaf_weight=6.2840594910085219 3.6976756267249566 7.6039937213063231 4.8414477631449691 6.5683980584144592 3.8907082639634609
leaf_count=99 40 49 28 92 31
internal_value=0 -0.0216863 -0.0421865 0.0477928 -0.0582943
internal_weight=0 22.6202 15.0162 10.2661 10.1748
internal_count=339 207 158 132 130
shrinkage=0.05


Tree=46
num_leaves=5
num_cat=0
split_feature=16 13 0 16
split_gain=12.7933 7.13598 1.41902 0.0453135
threshold=0.16182108626198083 0.18887632717263073 0.34206966520121745 0.26729233226837062
decision_type=2 2 2 2
left_child=2 -2 -1 -3
right_child=1 3 -4 -5
leaf_value=-0.061786059287717077 -0.0016207657303130029 0.06111159736667568 -0.023327243981027049 0.053700722768213131
leaf_weight=6.1213414296507818 13.372352011501791 3.3654702492058259 3.9437462612986565 5.3283792249858379
leaf_count=89 92 33 32 93
internal_value=0 0.0213056 -0.046717 0.0565695
internal_weight=0 22.0662 10.0651 8.69385
internal_count=339 218 121 126
shrinkage=0.05


Tree=47
num_leaves=6
num_cat=0
split_feature=13 11 6 14 17
split_gain=12.1751 7.6528 3.0674 1.37681 0.268662
threshold=0.12375884781753826 0.2933102345415779 0.096740901683867467 0.44429769530476132 0.50240549828178704
decision_type=2 2 2 2 2
left_child=3 -2 -3 -1 -4
right_child=1 2 4 -5 -6
leaf_value=-0.05627171126716627 -0.028922431113105836 0.015161062806710019 0.071469630835053907 -0.020276960386052669 0.053448247759672142
leaf_weight=6.7302477471530455 5.258361708372834 6.4790863320231429 3.4698077291250211 4.3892214074730873 5.1193803325295448
leaf_count=94 36 43 24 45 97
internal_value=0 0.0230118 0.0411353 -0.0420634 0.0607284
internal_weight=0 20.3266 15.0683 11.1195 8.58919
internal_count=339 200 164 139 121
shrinkage=0.05


Tree=48
num_leaves=7
num_cat=0
split_feature=4 0 12 16 13 0
split_gain=11.7091 4.44232 3.44963 0.54901 0.0919876 0.00407421
threshold=0.24058151093439364 0.39989854582346968 0.32392051396981919 0.18007188498402557 0.097780672434132909 0.35914778491714572
decision_type=2 2 2 2 2 2
left_child=1 3 -2 4 -1 -4
right_child=2 -3 5 -5 -6 -7
leaf_value=-0.053417426576511051 0.0072337191242125426 0.0072129788066343167 0.055325014478079415 -0.034814252261887765 -0.065320513848044021 0.053022395327764815
leaf_weight=3.3795684352517146 7.9535778909921628 4.9864329025149337 3.9367750287055969 3.6082581393420696 3.1230226829648018 3.7518725022673607
leaf_count=65 44 31 52 31 38 78
internal_value=0 -0.0314081 0.0303198 -0.0504551 -0.0591342 0.0542014
internal_weight=0 15.0973 15.6422 10.1108 6.50259 7.68865
internal_count=339 165 174 134 103 130
shrinkage=0.05


Tree=49
num_leaves=6
num_cat=0
split_feature=17 7 16 17 1
split_gain=11.2335 6.08413 2.77419 0.707213 0.0502275
threshold=0.51804123711340211 0.050986369018935405 0.16182108626198083 0.6051546391752578 0.25900076014097168
decision_type=2 2 2 2 2
left_child=1 2 4 -2 -1
right_child=3 -3 -4 -5 -6
leaf_value=-0.054473645708969315 0.028166911424855268 0.027356374451537283 -0.016354834250989107 0.05696716263887746 -0.062842337764097117
leaf_weight=3.8469514697790208 3.3899083659052831 5.0931091941893092 8.6367746815085393 5.7422961704432964 3.3580048531293869
leaf_count=67 40 40 61 92 39
internal_value=0 -0.020182 -0.0354655 0.0462764 -0.058374
internal_weight=0 20.9348 15.8417 9.1322 7.20496
internal_count=339 207 167 132 106
shrinkage=0.05


Tree=50
num_leaves=6
num_cat=0
split_feature=17 11 0 14 13
split_gain=10.4949 4.8957 3.92651 0.254837 0.172162
threshold=0.41597938144329899 0.37779850746268667 0.32651335813324306 0.48292940632635539 0.11030279197797871
decision_type=2 2 2 2 2
left_child=2 -2 4 -3 -1
right_child=1 3 -4 -5 -6
leaf_value=-0.052802601546186836 -0.00067933975935209254 0.045322988723851647 -0.0069849096154015432 0.063334122616591451 -0.06926126719700397
leaf_weight=3.4491609223186988 7.5372741073369962 3.4770578257739544 7.4562433883547783 4.5128430724143982 2.9459009170532227
leaf_count=77 63 53 58 59 29
internal_value=0 0.0282271 -0.0316391 0.055496 -0.0603843
internal_weight=0 15.5272 13.8513 7.9899 6.39506
internal_count=339 175 164 112 106
shrinkage=0.05


Tree=51
num_leaves=5
num_cat=0
split_feature=13 11 7 18
split_gain=10.2437 6.96762 2.30077 0.366644
threshold=0.18887632717263073 0.45802238805970158 0.029637764803006304 0.23536369012418693
decision_type=2 2 2 2
left_child=1 2 -1 -2
right_child=3 -3 -4 -5
leaf_value=-0.05872294794411325 0.033877690523464385 0.024511047827262208 -0.018432483330906194 0.055438175479976572
leaf_weight=7.0373586267232948 3.2440624646842462 6.372497495263814 7.1365630961954594 5.0279130879789591
leaf_count=98 39 44 66 92
internal_value=0 -0.0189134 -0.0384367 0.0469827
internal_weight=0 20.5464 14.1739 8.27198
internal_count=339 208 164 131
shrinkage=0.05


Tree=52
num_leaves=7
num_cat=0
split_feature=12 11 4 10 12 12
split_gain=9.67499 9.02725 2.5716 0.133594 0.106661 0.00174456
threshold=0.20558792768564174 0.31383262260127937 0.25556660039761431 0.085824247198153722 0.32392051396981919 0.45689526370835204
decision_type=2 2 2 2 2 2
left_child=3 -2 -3 -1 -4 -6
right_child=1 2 4 -5 5 -7
leaf_value=-0.043679246952891958 -0.028459936916184127 0.013760611961271867 0.06460521048105132 -0.057485194113166688 0.054113414251134972 0.05225955348688837
leaf_weight=3.3642124943435219 7.2385263890028027 5.5062340050935736 3.3497686237096769 3.6569925360381603 2.3717389814555645 2.7294745910912752
leaf_count=61 65 33 21 47 42 70
internal_value=0 0.0168504 0.0403494 -0.0508701 0.0576734 0.0531215
internal_weight=0 21.1957 13.9572 7.02121 8.45098 5.10121
internal_count=339 231 166 108 133 112
shrinkage=0.05


Tree=53
num_leaves=5
num_cat=0
split_feature=16 13 6 17
split_gain=9.32672 5.79965 1.01926 0.0376323
threshold=0.16182108626198083 0.18887632717263073 0.083432916892992856 0.53573883161512037
decision_type=2 2 2 2
left_child=2 -2 -1 -3
right_child=1 3 -4 -5
leaf_value=-0.05831283801440458 -0.0013519658034088508 0.060465305685942841 -0.02271292862762227 0.052922746959586819
leaf_weight=5.0142529904842394 12.308853160589935 2.7571828775107852 3.3565108384937048 4.1321210563182831
leaf_count=81 92 30 40 96
internal_value=0 0.0192079 -0.044038 0.0559414
internal_weight=0 19.1982 8.37076 6.8893
internal_count=339 218 121 126
shrinkage=0.05


Tree=54
num_leaves=7
num_cat=0
split_feature=17 0 13 11 4 11
split_gain=8.79934 5.9746 2.54374 0.727592 0.0953543 0.00179763
threshold=0.51804123711340211 0.39144403111261405 0.15401346834447502 0.37779850746268667 0.1856113320079523 0.2933102345415779
decision_type=2 2 2 2 2 2
left_child=1 2 4 -2 5 -1
right_child=3 -3 -4 -5 -6 -7
leaf_value=-0.052111266331387331 0.02525312280103828 0.018463081159477032 -0.010302605084344748 0.056378153477490325 -0.064696489343209998 -0.054076857542919347
leaf_weight=2.3128969427198225 3.0626418460160485 6.9856990538537493 4.5975191965699196 4.8526593130081892 2.8634921479970217 2.340065598487854
leaf_count=63 36 49 30 96 23 42
internal_value=0 -0.0183625 -0.0395985 0.044335 -0.0575177 -0.0530998
internal_weight=0 19.0997 12.114 7.9153 7.51645 4.65296
internal_count=339 207 158 132 128 105
shrinkage=0.05


Tree=55
num_leaves=6
num_cat=0
split_feature=13 11 2 0 2
split_gain=8.51795 6.75234 2.90071 1.36118 0.696014
threshold=0.11215837593393627 0.2933102345415779 0.33745598988895914 0.37402773080825163 0.4298997923625531
decision_type=2 2 2 2 2
left_child=4 -2 -3 -4 -1
right_child=1 2 3 -5 -6
leaf_value=-0.055814023864497381 -0.029094540069015136 0.0057005718974068847 0.031722246937152317 0.072022324919378905 -0.026067148110018493
leaf_weight=4.5680509116500634 5.2721070908010033 4.5721074901521197 3.6274475250393134 4.9607134275138378 3.4527053255587816
leaf_count=76 46 37 51 81 48
internal_value=0 0.0187185 0.0378728 0.0550005 -0.0430088
internal_weight=0 18.4324 13.1603 8.58816 8.02076
internal_count=339 215 169 132 124
shrinkage=0.05


Tree=56
num_leaves=5
num_cat=0
split_feature=13 11 11 5
split_gain=8.10859 5.90382 0.614299 0.529996
threshold=0.18887632717263073 0.34954690831556517 0.23520788912579957 0.12900168491996614
decision_type=2 2 2 2
left_child=1 2 -1 -2
right_child=3 -3 -4 -5
leaf_value=-0.064859995637528103 0.026999151055920934 0.0063808555125072376 -0.036774946612254396 0.055358278528709504
leaf_weight=3.8262159787118497 2.5645530130714169 10.943658845499156 3.9643003288656473 4.6072942856699228
leaf_count=56 35 91 61 96
internal_value=0 -0.0173013 -0.0505686 0.0452174
internal_weight=0 18.7342 7.79052 7.17185
internal_count=339 208 117 131
shrinkage=0.05


Tree=57
num_leaves=6
num_cat=0
split_feature=16 12 0 17 11
split_gain=7.91749 4.86766 1.45214 0.0133227 0.00133951
threshold=0.16182108626198083 0.32865182529010406 0.35593506932702063 0.55085910652920977 0.41871002132196172
decision_type=2 2 2 2 2
left_child=2 -2 -1 -3 -5
right_child=1 3 -4 4 -6
leaf_value=-0.060610789061697895 -0.00062371433677537119 0.057391989661727316 -0.016280519205917228 0.05347227135730568 0.051574111855825978
leaf_weight=4.5296040158718851 11.673828922212126 2.368340026587247 3.1196465268731117 2.0224796347320084 1.7197710052132604
leaf_count=93 85 33 28 39 61
internal_value=0 0.0183017 -0.0425313 0.0544573 0.0526
internal_weight=0 17.7844 7.64925 6.11059 3.74225
internal_count=339 218 121 133 100
shrinkage=0.05


Tree=58
num_leaves=5
num_cat=0
split_feature=13 14 2 2
split_gain=7.50803 6.0801 0.963844 0.786777
threshold=0.11215837593393627 0.42481674701182059 0.46510788119526952 0.43305949264241234
decision_type=2 2 2 2
left_child=3 -2 -3 -1
right_child=1 2 -4 -5
leaf_value=-0.055469728442551838 -0.0081481356942469055 0.068675293348280805 0.03319870384583775 -0.022701572388533528
leaf_weight=4.3690939210355308 9.7515751291066426 3.9248880930244914 3.7378157805651426 3.1543868575245142
leaf_count=79 95 54 66 45
internal_value=0 0.0180413 0.05137 -0.0417309
internal_weight=0 17.4143 7.6627 7.52348
internal_count=339 215 120 124
shrinkage=0.05


Tree=59
num_leaves=6
num_cat=0
split_feature=12 11 6 10 10
split_gain=7.2103 7.0186 2.51623 0.234782 0.160765
threshold=0.20558792768564174 0.31383262260127937 0.096740901683867467 0.074285201000511267 0.074285201000511267
decision_type=2 2 2 2 2
left_child=4 -2 -3 -4 -1
right_child=1 2 3 -5 -6
leaf_value=-0.039400661444095438 -0.026736904313980316 0.015172137141481974 0.071913403940065027 0.051937601306936726 -0.056195840753065489
leaf_weight=2.5460351966321495 6.5333973728120354 6.2034935764968377 2.5996137578040361 3.3879583720117807 3.235509866848588
leaf_count=56 65 48 43 75 52
internal_value=0 0.015079 0.0374889 0.0606105 -0.0487997
internal_weight=0 18.7245 12.1911 5.98757 5.78155
internal_count=339 231 166 118 108
shrinkage=0.05


Tree=60
num_leaves=6
num_cat=0
split_feature=16 11 17 0 12
split_gain=6.96139 4.49018 2.20966 1.43891 0.124611
threshold=0.16182108626198083 0.35967484008528788 0.46666666666666662 0.35593506932702063 0.30101100652422935
decision_type=2 2 2 2 2
left_child=3 -2 -3 -1 -4
right_child=1 2 4 -5 -6
leaf_value=-0.060386099103334125 -0.012013524332558397 0.010139105122474151 0.067406766411564831 -0.014843672074525799 0.052702607568037657
leaf_weight=4.1593763604760197 7.3019678890705135 3.7543774917721731 2.6267825737595558 2.974791131913662 3.1913830693811178
leaf_count=93 76 27 16 28 99
internal_value=0 0.0175176 0.040044 -0.0413959 0.0593412
internal_weight=0 16.8745 9.57254 7.13417 5.81817
internal_count=339 218 142 121 115
shrinkage=0.05


Tree=61
num_leaves=6
num_cat=0
split_feature=12 0 2 5 6
split_gain=6.59823 5.3203 3.08143 0.602543 0.130626
threshold=0.20558792768564174 0.32651335813324306 0.33542475399476396 0.24347093513058113 0.050606554408835706
decision_type=2 2 2 2 2
left_child=4 -2 -3 -4 -1
right_child=1 2 3 -5 -6
leaf_value=-0.039614103009570745 -0.014710292920311625 0.0049829536984136689 0.079643155819631384 0.047542147701340798 -0.055191625822806435
leaf_weight=2.4294486250728395 8.374588346108796 3.8698073942214233 2.7278104554861784 3.1497161332517862 3.01705402135849
leaf_count=51 92 29 51 59 57
internal_value=0 0.0145176 0.0396292 0.0624405 -0.0482432
internal_weight=0 18.1219 9.74733 5.87753 5.4465
internal_count=339 231 139 110 108
shrinkage=0.05


Tree=62
num_leaves=6
num_cat=0
split_feature=13 14 19 10 16
split_gain=6.41897 4.84539 3.29179 0.680342 0.0101289
threshold=0.18887632717263073 0.43571287063329595 0.10773317591499407 0.05122438262648036 0.30311501597444096
decision_type=2 2 2 2 2
left_child=1 2 -1 -2 -5
right_child=3 -3 -4 4 -6
leaf_value=-7.0362084822351022e-06 0.018971363446730366 0.016296466420435345 -0.059594731676629681 0.05726847469613694 0.052388168279594319
leaf_weight=3.6297076232731396 1.919185297563671 6.93034629151225 6.4120507072657347 2.1319668814539909 2.1207768395543098
leaf_count=49 28 77 82 34 69
internal_value=0 -0.0158619 -0.0380561 0.0436829 0.0548347
internal_weight=0 16.9721 10.0418 6.17193 4.25274
internal_count=339 208 131 131 103
shrinkage=0.05


Tree=63
num_leaves=6
num_cat=0
split_feature=4 11 11 4 10
split_gain=6.00893 4.4123 3.55391 0.34075 0.22343
threshold=0.24058151093439364 0.31383262260127937 0.46815031982942445 0.14679423459244528 0.11318629686441965
decision_type=2 2 2 2 2
left_child=2 -2 3 -1 -3
right_child=1 4 -4 -5 -6
leaf_value=-0.036411063432717661 -0.013581418897413811 0.058514352148906691 0.011251419453552338 -0.058116499781058761 0.040452892628215067
leaf_weight=3.8062369134277123 4.3616620041429979 3.8952814694494009 4.1603301241993904 3.4444917757064104 3.0553422924131155
leaf_count=98 36 79 30 37 59
internal_value=0 0.0258383 -0.0255858 -0.0467223 0.0505749
internal_weight=0 11.3123 11.4111 7.25073 6.95062
internal_count=339 174 165 135 138
shrinkage=0.05


Tree=64
num_leaves=7
num_cat=0
split_feature=12 11 4 10 12 12
split_gain=5.96891 5.40456 2.16574 0.159707 0.0428985 0.00112188
threshold=0.20558792768564174 0.31383262260127937 0.25556660039761431 0.074285201000511267 0.31669903879675282 0.44544050998555712
decision_type=2 2 2 2 2 2
left_child=3 -2 -3 -1 -4 -6
right_child=1 2 4 -5 5 -7
leaf_value=-0.037685766277047533 -0.023093495537231362 0.011502459696626671 0.06084111120355306 -0.055531539056383354 0.053198568080628499 0.051338768626969948
leaf_weight=2.254212154075506 6.2347853947430876 5.1296304538845998 2.5837731659412384 2.8246532063931227 1.5294527988880875 1.7259058337658642
leaf_count=56 65 33 20 52 37 76
internal_value=0 0.0140779 0.0352067 -0.0476108 0.0560306 0.0522126
internal_weight=0 17.2035 10.9688 5.07887 5.83913 3.25536
internal_count=339 231 166 108 133 113
shrinkage=0.05


Tree=65
num_leaves=7
num_cat=0
split_feature=13 14 0 19 3 11
split_gain=5.72429 4.00514 2.4414 2.17786 0.0488474 0.00243239
threshold=0.16724832874557607 0.44033546853331579 0.29184984781873519 0.13387117932572476 0.21331513404085636 0.42763859275053312
decision_type=2 2 2 2 2 2
left_child=1 3 -2 -1 -4 -6
right_child=2 -3 4 -5 5 -7
leaf_value=-0.011200814279332597 -0.0018100105717174251 0.012053794607615909 0.063264775237443033 -0.063571813636192798 0.05427021479535156 0.051399583907982729
leaf_weight=3.4201640654355305 2.8237465042620888 6.0678912773728362 1.8248088229447601 4.7311867401003838 1.501024264842272 1.4515481330454347
leaf_count=58 29 67 17 65 36 67
internal_value=0 -0.0187027 0.0350481 -0.0415979 0.0568336 0.052859
internal_weight=0 14.2192 7.60113 8.15135 4.77738 2.95257
internal_count=339 190 149 123 120 103
shrinkage=0.05


Tree=66
num_leaves=5
num_cat=0
split_feature=16 13 5 17
split_gain=5.62481 4.09199 1.14555 0.0208795
threshold=0.16182108626198083 0.18887632717263073 0.14922072451558541 0.5266323024054983
decision_type=2 2 2 2
left_child=2 -2 -1 -3
right_child=1 3 -4 -5
leaf_value=-0.011799927324819688 -0.00092402461659892824 0.059208373170636375 -0.055833085701264121 0.052453692340091757
leaf_weight=2.3458890616893795 10.381306391209362 1.9558162987232197 3.9880310008302331 2.756491363979876
leaf_count=27 92 28 94 98
internal_value=0 0.0166161 -0.0395246 0.0552572
internal_weight=0 15.0936 6.33392 4.71231
internal_count=339 218 121 126
shrinkage=0.05


Tree=67
num_leaves=6
num_cat=0
split_feature=17 7 11 7 2
split_gain=5.28188 4.76301 3.20777 0.874802 0.0738269
threshold=0.58762886597938147 0.050986369018935405 0.46815031982942445 0.029637764803006304 0.5075381420962356
decision_type=2 2 2 2 2
left_child=1 2 3 -1 -2
right_child=4 -3 -4 -5 -6
leaf_value=-0.059969745728825866 0.04489000513989333 0.030599383215443695 0.010685746764359277 -0.028121922506894714 0.058567005450539479
leaf_weight=4.5943509470671469 1.8784568225964897 4.7336715059354892 3.6834328621625891 4.0630778428167105 2.0783278457820415
leaf_count=96 58 65 28 49 43
internal_value=0 -0.0120399 -0.0283954 -0.045023 0.0520739
internal_weight=0 17.0745 12.3409 8.65743 3.95678
internal_count=339 238 173 145 101
shrinkage=0.05


Tree=68
num_leaves=5
num_cat=0
split_feature=16 13 0 13
split_gain=5.12097 3.78702 1.37482 0.0183237
threshold=0.16182108626198083 0.18887632717263073 0.35593506932702063 0.26427939441604409
decision_type=2 2 2 2
left_child=2 -2 -1 -3
right_child=1 3 -4 -5
leaf_value=-0.059967464966352239 -0.00061662758313802205 0.058933997135505102 -0.01194917212603828 0.052344102390744919
leaf_weight=3.3633663086220649 10.192127272486685 1.7823078120127309 2.6771338731050491 2.5845317933708429
leaf_count=93 92 29 28 97
internal_value=0 0.0160752 -0.0386859 0.0550337
internal_weight=0 14.559 6.0405 4.36684
internal_count=339 218 121 126
shrinkage=0.05


Tree=69
num_leaves=6
num_cat=0
split_feature=12 11 6 8 10
split_gain=4.98722 4.68959 2.18737 0.320429 0.173613
threshold=0.20558792768564174 0.31383262260127937 0.096740901683867467 0.13066662661098935 0.074285201000511267
decision_type=2 2 2 2 2
left_child=4 -2 -3 -4 -1
right_child=1 2 3 -5 -6
leaf_value=-0.035339439207611373 -0.022400159121330844 0.012949339027442296 0.076775738597188975 0.049354113610080713 -0.055098654274689664
leaf_weight=1.9937359662726546 5.8051908127963534 5.4632218852639181 1.7538432804867623 2.71371790766716 2.5127867255359888
leaf_count=56 65 48 31 87 52
internal_value=0 0.0133003 0.0341696 0.0601191 -0.046357
internal_weight=0 15.736 9.93078 4.46756 4.50652
internal_count=339 231 166 118 108
shrinkage=0.05


Tree=70
num_leaves=6
num_cat=0
split_feature=17 0 13 0 14
split_gain=4.7411 3.91016 3.09549 0.0598119 0.0571952
threshold=0.58762886597938147 0.39144403111261405 0.15401346834447502 0.22607372336827858 0.55623060159809812
decision_type=2 2 2 2 2
left_child=1 2 3 -1 -2
right_child=4 -3 -4 -5 -6
leaf_value=-0.062275395632592226 0.045283716192129217 0.019550501892106081 0.00010243618456525737 -0.051654760296682103 0.057814753623213248
leaf_weight=2.1934173675254041 1.8140843259170645 6.2291608722880474 4.4588656257838011 3.3507457645609975 1.8283541537821291
leaf_count=56 65 63 44 75 36
internal_value=0 -0.0115473 -0.0309128 -0.0558566 0.0515738
internal_weight=0 16.2322 10.003 5.54416 3.64244
internal_count=339 238 175 131 101
shrinkage=0.05


Tree=71
num_leaves=6
num_cat=0
split_feature=12 14 0 2 6
split_gain=4.5437 4.53128 2.65605 1.46649 0.177356
threshold=0.20558792768564174 0.42481674701182059 0.33581332431518424 0.46510788119526952 0.050063371356147003
decision_type=2 2 2 2 2
left_child=4 2 -2 -3 -1
right_child=1 3 -4 -5 -6
leaf_value=-0.033745447551395226 -0.040685618427273543 0.069213513573375032 0.015000652867733114 0.022160820912765278 -0.054409047841650952
leaf_weight=1.7986839525401617 4.0517518585547787 3.0492321467027059 4.5414026686921716 3.6241217851638794 2.4567670812830329
leaf_count=48 50 54 53 74 60
internal_value=0 0.0127493 -0.0112559 0.0436604 -0.045675
internal_weight=0 15.2665 8.59315 6.67335 4.25545
internal_count=339 231 103 128 108
shrinkage=0.05


Tree=72
num_leaves=6
num_cat=0
split_feature=16 13 0 13 0
split_gain=4.38845 3.4438 1.25397 0.0165962 0.00093918
threshold=0.16182108626198083 0.18887632717263073 0.35593506932702063 0.25788930397168702 0.34274602637808588
decision_type=2 2 2 2 2
left_child=2 -2 -1 -3 -5
right_child=1 3 -4 4 -6
leaf_value=-0.059598862909082777 -0.00069572086315427802 0.058944518673786084 -0.011895384688634082 0.053226289942768769 0.051248123553133407
leaf_weight=2.9749299930408624 9.7111701685935241 1.5148397767916315 2.5657254047691822 1.2298983139917257 1.1715844878926871
leaf_count=93 92 26 28 30 70
internal_value=0 0.0152662 -0.0375087 0.0548463 0.0522612
internal_weight=0 13.6275 5.54066 3.91632 2.40148
internal_count=339 218 121 126 100
shrinkage=0.05


Tree=73
num_leaves=6
num_cat=0
split_feature=17 7 14 5 14
split_gain=4.21209 3.80901 2.75637 0.966422 0.056226
threshold=0.58762886597938147 0.050986369018935405 0.44033546853331579 0.18039174389216503 0.55623060159809812
decision_type=2 2 2 2 2
left_child=1 2 3 -1 -2
right_child=4 -3 -4 -5 -6
leaf_value=-0.020832471224873833 0.044371439523163914 0.02909162971752155 0.0064853505786390212 -0.059029513298113227 0.057345294415302908
leaf_weight=2.6131771700456756 1.6501368619501584 4.2933588242158285 4.0806769765913486 4.5206507258117199 1.690760515630245
leaf_count=40 65 65 54 79 36
internal_value=0 -0.0109574 -0.0262897 -0.0450376 0.0509372
internal_weight=0 15.5079 11.2145 7.13383 3.3409
internal_count=339 238 173 119 101
shrinkage=0.05


Tree=74
num_leaves=6
num_cat=0
split_feature=13 14 0 2 14
split_gain=4.05196 4.14217 3.44087 0.854526 0.560688
threshold=0.11215837593393627 0.45255233441193959 0.32448427460263779 0.46510788119526952 0.52486297299082096
decision_type=2 2 2 2 2
left_child=3 2 -2 -1 -3
right_child=1 4 -4 -5 -6
leaf_value=-0.053912335866140186 -0.040883279807842419 0.071185650394747571 0.022367590176000429 -0.012402955881855538 0.036286293032040021
leaf_weight=3.1339931618422296 3.8637416427955014 2.1975061092525712 4.8482422605156898 2.0514468690380454 2.4163570189848542
leaf_count=89 49 45 64 35 57
internal_value=0 0.0146026 -0.005684 -0.0374905 0.0529083
internal_weight=0 13.3258 8.71198 5.18544 4.61386
internal_count=339 215 113 124 102
shrinkage=0.05


Tree=75
num_leaves=7
num_cat=0
split_feature=7 11 15 13 13 11
split_gain=3.92388 4.46975 2.66568 0.627859 0.0733258 0.00146097
threshold=0.087744070766046914 0.45802238805970158 0.31702418721075765 0.15822847031065668 0.12660981124655918 0.3386194029850747
decision_type=2 2 2 2 2 2
left_child=1 2 3 4 5 -1
right_child=-2 -3 -4 -5 -6 -7
leaf_value=-0.051396096152385821 0.056960468725735874 0.026682751137899148 0.010405674531254358 -0.026956035761547377 -0.065686236503301396 -0.053744148015373285
leaf_weight=1.4697938431054374 2.5926790796220294 5.5196961965411893 2.9751802599057555 2.6880469135940075 1.7200574129819868 1.2060804245993493
leaf_count=80 97 59 34 23 16 30
internal_value=0 -0.00947215 -0.0293112 -0.0459918 -0.0576318 -0.0524544
internal_weight=0 15.5789 10.0592 7.08398 4.39593 2.67587
internal_count=339 242 183 149 126 110
shrinkage=0.05


Tree=76
num_leaves=7
num_cat=0
split_feature=17 7 11 13 11 8
split_gain=3.72909 3.2796 2.45214 0.945394 0.043413 0.0420153
threshold=0.58762886597938147 0.050986369018935405 0.46815031982942445 0.15401346834447502 0.35167910447761203 0.26108540871811831
decision_type=2 2 2 2 2 2
left_child=1 2 3 4 -1 -2
right_child=5 -3 -4 -5 -6 -7
leaf_value=-0.05873575969864997 0.055815860326973755 0.027489320538244863 0.0094890523624548643 -0.016865538400437766 -0.048858155519771893 0.044120975147754815
leaf_weight=2.8843744695186633 1.5735130589455359 4.1157367043197146 3.4666571505367756 2.5004328116774559 1.8107061507180331 1.5001932336017487
leaf_count=98 54 65 28 16 31 47
internal_value=0 -0.0104224 -0.0250568 -0.0417003 -0.0549264 0.0501079
internal_weight=0 14.7779 10.6622 7.19551 4.69508 3.07371
internal_count=339 238 173 145 129 101
shrinkage=0.05


Tree=77
num_leaves=6
num_cat=0
split_feature=12 11 14 2 10
split_gain=3.60801 3.78241 2.3403 0.738223 0.201637
threshold=0.20558792768564174 0.23520788912579957 0.42481674701182059 0.46510788119526952 0.074285201000511267
decision_type=2 2 2 2 2
left_child=4 -2 -3 -4 -1
right_child=1 2 3 -5 -6
leaf_value=-0.030887522040179846 -0.039843318427458481 0.0039774109823575935 0.070330830606902248 0.031810378652603895 -0.054466915640827389
leaf_weight=1.625617361627522 2.8317127907648674 6.0213653603568655 2.3918642443604767 2.5912505527958274 2.0500305332243443
leaf_count=56 31 81 51 68 52
internal_value=0 0.0116922 0.0249535 0.0503 -0.0440385
internal_weight=0 13.8362 11.0045 4.98311 3.67565
internal_count=339 231 200 119 108
shrinkage=0.05


Tree=78
num_leaves=5
num_cat=0
split_feature=7 16 8 0
split_gain=3.50599 3.71856 2.13262 0.418221
threshold=0.087744070766046914 0.16182108626198083 0.15364857151440503 0.38214406493067293
decision_type=2 2 2 2
left_child=1 3 -3 -1
right_child=-2 2 -4 -5
leaf_value=-0.058618715127020188 0.056198629597483243 0.035588644055912937 -0.011014240029573498 -0.02807223098259852
leaf_weight=2.7482988480478552 2.3896877858787766 4.1216303044930083 6.0704791303724051 1.891884474083781
leaf_count=98 97 47 76 21
internal_value=0 -0.00906061 0.0078317 -0.0461644
internal_weight=0 14.8323 10.1921 4.64018
internal_count=339 242 123 119
shrinkage=0.05


Tree=79
num_leaves=6
num_cat=0
split_feature=17 13 11 10 15
split_gain=3.34696 2.95648 2.65011 0.248552 0.0490647
threshold=0.58762886597938147 0.11215837593393627 0.34208422174840097 0.079605599546729661 0.40351796334565493
decision_type=2 2 2 2 2
left_child=1 3 -3 -1 -2
right_child=4 2 -4 -5 -6
leaf_value=-0.031432692922680708 0.042993853984272634 -0.026953873226924829 0.025352410873202138 -0.056592575969891257 0.056140506774274929
leaf_weight=1.6824841452762509 1.4262594422325485 4.0267543531954271 6.0746877370402217 2.3564272122457623 1.4126313854940233
leaf_count=64 60 47 71 56 41
internal_value=0 -0.00995519 0.00450147 -0.0461118 0.0495356
internal_weight=0 14.1404 10.1014 4.03891 2.83889
internal_count=339 238 118 120 101
shrinkage=0.05


Tree=80
num_leaves=4
num_cat=0
split_feature=17 8 11
split_gain=3.19672 3.4839 2.44093
threshold=0.41597938144329899 0.098071319133595666 0.40644989339019205
decision_type=2 2 2
left_child=1 -1 -2
right_child=2 -3 -4
leaf_value=0.011539174757020832 0.0018615054504751644 -0.054548682013763429 0.057739443801806602
leaf_weight=3.8342630239203599 5.7069721063598973 4.1553278677165508 2.972286184784025
leaf_count=78 78 86 97
internal_value=0 -0.0228326 0.0209974
internal_weight=0 7.98959 8.67926
internal_count=339 164 175
shrinkage=0.05


Tree=81
num_leaves=7
num_cat=0
split_feature=7 11 15 1 13 11
split_gain=3.2284 3.57997 2.18148 0.792384 0.0485209 0.00281336
threshold=0.087744070766046914 0.45802238805970158 0.31702418721075765 0.37519867320848604 0.12903067243413294 0.35167910447761203
decision_type=2 2 2 2 2 2
left_child=1 2 3 4 5 -1
right_child=-2 -3 -4 -5 -6 -7
leaf_value=-0.05115267605517735 0.055947500994973393 0.024726011109742357 0.009523432197824663 -0.020290494516256918 -0.063996459885627785 -0.054523816727136604
leaf_weight=1.3142498368397375 2.2278136098757377 5.1026657233014694 2.7572133750654757 2.2948141600936651 1.5577534735202787 1.1697106417268512
leaf_count=87 97 59 34 20 15 27
internal_value=0 -0.00879317 -0.0276014 -0.0437555 -0.0570786 -0.0527402
internal_weight=0 14.1964 9.09374 6.33653 4.04171 2.48396
internal_count=339 242 183 149 129 114
shrinkage=0.05


Tree=82
num_leaves=6
num_cat=0
split_feature=7 14 5 13 7
split_gain=3.02411 3.41207 2.24967 1.79246 0.245808
threshold=0.087744070766046914 0.42844878821897908 0.14774641954507162 0.13213969720802199 0.03224330311282441
decision_type=2 2 2 2 2
left_child=1 2 -1 -3 -4
right_child=-2 3 4 -5 -6
leaf_value=0.0049783632772683597 0.055277874529822725 -0.0071268480592816767 -0.060863327793585532 0.047900966450487317 -0.038929086619821279
leaf_weight=2.9725531414151209 2.1441945545375338 2.9631669418886295 2.5155582395382226 2.9563459786586463 2.5948435915634036
leaf_count=36 97 52 67 52 35
internal_value=0 -0.00848621 -0.0296082 0.0203554 -0.0497261
internal_weight=0 14.0025 8.08295 5.91951 5.1104
internal_count=339 242 138 104 102
shrinkage=0.05


Tree=83
num_leaves=5
num_cat=0
split_feature=4 11 7 18
split_gain=2.84571 3.48838 1.46514 0.291577
threshold=0.34801192842942347 0.45802238805970158 0.029637764803006304 0.26049674748669432
decision_type=2 2 2 2
left_child=1 2 -1 -2
right_child=3 -3 -4 -5
leaf_value=-0.056539804929897186 0.024497320863552115 0.022813847382078808 -0.012746146950224782 0.054880148049598565
leaf_weight=3.3181572598405165 1.3795738411135983 4.8011544398032129 4.4997696205973625 1.8466692771762607
leaf_count=98 42 54 70 75
internal_value=0 -0.0107322 -0.0313335 0.0418881
internal_weight=0 12.6191 7.81793 3.22624
internal_count=339 222 168 117
shrinkage=0.05


Tree=84
num_leaves=7
num_cat=0
split_feature=13 14 5 17 14 0
split_gain=2.72528 3.11186 2.77462 0.813379 0.55685 0.00296003
threshold=0.11215837593393627 0.45255233441193959 0.14922072451558541 0.40206185567010316 0.51627814831935559 0.3951640175853906
decision_type=2 2 2 2 2 2
left_child=3 2 -2 5 -3 -1
right_child=1 4 -4 -5 -6 -7
leaf_value=-0.051152941480119243 0.027893018755106677 0.07100368835163734 -0.032444415235981849 -0.0075211291876901695 0.03222084622741677 -0.054609949433996323
leaf_weight=1.3653308213688444 3.4376302184537035 1.7175987265072765 4.2745063602924347 1.6544019058346746 2.0070964656770229 1.1330868266522882
leaf_count=93 53 38 60 14 64 17
internal_value=0 0.0125759 -0.00554943 -0.0347141 0.0501051 -0.0527208
internal_weight=0 11.4368 7.71214 4.15282 3.7247 2.49842
internal_count=339 215 113 124 102 110
shrinkage=0.05


Tree=85
num_leaves=7
num_cat=0
split_feature=16 12 0 18 11 16
split_gain=2.70783 2.37848 1.21299 0.0566076 0.00605464 0.0008623
threshold=0.16182108626198083 0.32865182529010406 0.40158944876564079 0.17504435245416919 0.29504264392324103 0.25706869009584671
decision_type=2 2 2 2 2 2
left_child=2 -2 3 -1 -3 -6
right_child=1 4 -4 -5 5 -7
leaf_value=-0.064034967598052189 -0.00022271462989824944 0.056630396616955826 -0.0017579205057854999 -0.049028900527604467 0.053055099837673536 0.050799788058184692
leaf_weight=1.1130177113227557 8.2724579237401468 1.0000834688544267 1.7746996283531187 1.4435863313265143 0.73127598920837034 1.0080652208998797
leaf_count=33 85 16 17 71 25 92
internal_value=0 0.0131494 -0.0335163 -0.0555618 0.0535304 0.051748
internal_weight=0 11.0119 4.3313 2.5566 2.73942 1.73934
internal_count=339 218 121 104 133 117
shrinkage=0.05


Tree=86
num_leaves=5
num_cat=0
split_feature=11 13 14 14
split_gain=2.66186 3.55031 2.32 0.217534
threshold=0.21868336886993608 0.11215837593393627 0.41524136564749387 0.50174998349072197
decision_type=2 2 2 2
left_child=-1 -2 -3 -4
right_child=1 2 3 -5
leaf_value=-0.047405907231158423 -0.032240341275869062 0.0053194763145064366 0.070000773520496676 0.0454445990151576
leaf_weight=2.4779454516246924 3.6595161110162726 5.3627557535655779 1.7224857266992333 1.8930602348409591
leaf_count=55 94 76 48 66
internal_value=0 0.00926961 0.0261889 0.0571434
internal_weight=0 12.6378 8.9783 3.61555
internal_count=339 284 190 114
shrinkage=0.05


Tree=87
num_leaves=6
num_cat=0
split_feature=17 5 14 7 14
split_gain=2.53065 2.74805 2.80521 0.900503 0.0508488
threshold=0.58762886597938147 0.12499999999999996 0.43571287063329595 0.042189175155678556 0.56910783860529623
decision_type=2 2 2 2 2
left_child=1 -1 3 -3 -2
right_child=4 2 -4 -5 -6
leaf_value=0.037994812200485624 0.041129002879430582 -0.059251429537598099 0.011195031559056991 -0.019926451422578682 0.056009197332076044
leaf_weight=2.5079845357686272 1.2134584444575023 3.4098602952435595 4.1240848773159087 2.5402524746023118 1.0896772304549811
leaf_count=36 70 94 76 32 31
internal_value=0 -0.00883771 -0.0204967 -0.0424626 0.0481692
internal_weight=0 12.5822 10.0742 5.95011 2.30314
internal_count=339 238 202 126 101
shrinkage=0.05


Tree=88
num_leaves=5
num_cat=0
split_feature=4 0 19 18
split_gain=2.36862 2.70222 0.930784 0.292702
threshold=0.34801192842942347 0.32651335813324306 0.21664698937426208 0.2495564754583087
decision_type=2 2 2 2
left_child=1 2 -1 -2
right_child=3 -3 -4 -5
leaf_value=-0.053974798029083892 0.021887632572340249 0.011168993388948723 -0.010305038067240608 0.054331460394285158
leaf_weight=3.1601968449540419 1.1926760906353604 6.6303850421682 1.9876402006484566 1.6666307901032267
leaf_count=99 34 89 34 83
internal_value=0 -0.0099335 -0.0371134 0.0407985
internal_weight=0 11.7782 5.14784 2.85931
internal_count=339 222 133 117
shrinkage=0.05


Tree=89
num_leaves=5
num_cat=0
split_feature=11 13 14 14
split_gain=2.3155 3.22174 2.11399 0.205721
threshold=0.21868336886993608 0.11215837593393627 0.41524136564749387 0.50174998349072197
decision_type=2 2 2 2
left_child=-1 -2 -3 -4
right_child=1 2 3 -5
leaf_value=-0.045663982259798376 -0.03164976558510537 0.0053448819627073671 0.068874955320432626 0.044150396832443678
leaf_weight=2.3307456979528078 3.5060185762122265 5.241396399214862 1.6295554018579426 1.7393088289536534
leaf_count=55 94 76 48 66
internal_value=0 0.00875489 0.0252073 0.0561099
internal_weight=0 12.1163 8.61026 3.36886
internal_count=339 284 190 114
shrinkage=0.05


Tree=90
num_leaves=7
num_cat=0
split_feature=13 2 0 0 8 16
split_gain=2.25628 2.16913 3.00964 1.60006 0.0171211 0.000807529
threshold=0.16724832874557607 0.34084138304595107 0.33784240784578962 0.29184984781873519 0.095405113107219011 0.29420926517571894
decision_type=2 2 2 2 2 2
left_child=1 -1 -3 -2 -5 -6
right_child=3 2 -4 4 5 -7
leaf_value=-0.045658862716626933 -0.0051694801066246507 -0.027232651452567119 0.04153313990870959 0.060234671101603812 0.053170721079989075 0.050750631760049569
leaf_weight=3.3989524538628739 1.8842575796879835 3.5340728466399014 2.8941907407715917 1.1459451992996039 0.69159800000488736 0.68719640653580427
leaf_count=73 29 79 38 19 25 76
internal_value=0 -0.0133537 0.0037277 0.0296969 0.0557182 0.0519645
internal_weight=0 9.82722 6.42826 4.409 2.52474 1.37879
internal_count=339 190 117 149 120 101
shrinkage=0.05


Tree=91
num_leaves=7
num_cat=0
split_feature=16 11 8 17 1 0
split_gain=2.19086 1.95164 1.68344 3.50311 1.09766 0.00605347
threshold=0.16182108626198083 0.35967484008528788 0.14733980232523208 0.46666666666666662 0.35484762628705691 0.39854582346973283
decision_type=2 2 2 2 2 2
left_child=4 -2 -3 -4 5 -1
right_child=1 2 3 -5 -6 -7
leaf_value=-0.051462016163244917 -0.011735051883272091 0.069333796533651543 -0.045380668534647783 0.05552507288810863 -0.00027156956489803697 -0.056596731891494306
leaf_weight=1.1982439430430547 4.5819454481825215 1.9795778528787193 1.522098243236542 1.977723238058388 1.6283428147435186 1.1017991863191126
leaf_count=94 76 39 15 88 13 14
internal_value=0 0.0123464 0.0324837 0.0116404 -0.0316834 -0.0539217
internal_weight=0 10.0613 5.4794 3.49982 3.92839 2.30004
internal_count=339 218 142 103 121 108
shrinkage=0.05


Tree=92
num_leaves=5
num_cat=0
split_feature=7 14 19 0
split_gain=2.18241 2.93306 0.953778 0.895647
threshold=0.050986369018935405 0.42844878821897908 0.13905286632559352 0.34206966520121745
decision_type=2 2 2 2
left_child=1 2 -1 -2
right_child=3 -3 -4 -5
leaf_value=-0.017903844476773765 0.0049971326465900702 0.016472586366577665 -0.061091003283725243 0.05181253220459571
leaf_weight=2.6246327506378275 1.8801034861244268 4.4777215230278671 2.4925133716315031 2.2374909005593508
leaf_count=65 45 79 53 97
internal_value=0 -0.0130801 -0.0389399 0.0304365
internal_weight=0 9.59487 5.11715 4.11759
internal_count=339 197 118 142
shrinkage=0.05


Tree=93
num_leaves=7
num_cat=0
split_feature=16 12 0 19 10 11
split_gain=2.07216 1.81523 1.17104 0.0571331 0.0403437 0.00490443
threshold=0.16182108626198083 0.32392051396981919 0.42188028407169414 0.14108618654073199 0.049686994734878261 0.30636993603411528
decision_type=2 2 2 2 2 2
left_child=2 -2 4 -3 -1 -5
right_child=1 3 -4 5 -6 -7
leaf_value=-0.061620565556040022 -0.00077304091494799184 0.038227394478720804 0.0016758890591477154 0.056501840776715023 -0.048143776154422509 0.051048110125261205
leaf_weight=1.0862327744252995 7.1662828391417843 0.93336691940203342 1.5702636800706384 0.80420832894742467 1.1361681888811288 0.84576552570797503
leaf_count=47 82 36 16 14 58 86
internal_value=0 0.0121804 -0.0313769 0.0481137 -0.0547308 0.0537063
internal_weight=0 9.74962 3.79266 2.58334 2.2224 1.64997
internal_count=339 218 121 136 105 100
shrinkage=0.05


Tree=94
num_leaves=7
num_cat=0
split_feature=11 13 18 4 12 17
split_gain=2.00461 2.75696 1.71758 1.05014 0.0810085 0.000811388
threshold=0.21868336886993608 0.11215837593393627 0.19485511531638089 0.24058151093439364 0.30101100652422935 0.53573883161512037
decision_type=2 2 2 2 2 2
left_child=-1 -2 -3 -4 -5 -6
right_child=1 2 3 4 5 -7
leaf_value=-0.043908780758460449 -0.030333876981324927 -0.014794848803938474 0.016904734762115039 0.068806063366008072 0.053286568934630275 0.051086662422275657
leaf_weight=2.1773742625955501 3.2405302971601468 2.0678440756164491 2.9158873679116368 1.2589413709938528 0.75566448690369703 0.94118146481923759
leaf_count=55 94 36 28 13 22 91
internal_value=0 0.00853059 0.0243932 0.0381942 0.0591962 0.0520664
internal_weight=0 11.18 7.93952 5.87167 2.95579 1.69685
internal_count=339 284 190 154 126 113
shrinkage=0.05


Tree=95
num_leaves=5
num_cat=0
split_feature=7 14 19 7
split_gain=1.9239 2.64507 0.967442 0.695992
threshold=0.050986369018935405 0.42844878821897908 0.11399711399711397 0.087744070766046914
decision_type=2 2 2 2
left_child=1 2 -1 -2
right_child=3 -3 -4 -5
leaf_value=-0.010371449143446376 0.011685770772450024 0.015866136126667842 -0.055874563269497406 0.054588661633828084
leaf_weight=1.9413923667743782 2.2824857337400331 4.3562496788799763 2.9326224797405303 1.6135731150861827
leaf_count=48 45 79 70 97
internal_value=0 -0.0124457 -0.03775 0.0294542
internal_weight=0 9.23026 4.87401 3.89606
internal_count=339 197 118 142
shrinkage=0.05


Tree=96
num_leaves=6
num_cat=0
split_feature=12 11 6 10 10
split_gain=1.87413 2.13321 1.46931 0.272006 0.235898
threshold=0.20558792768564174 0.31383262260127937 0.096740901683867467 0.063938062269391763 0.074285201000511267
decision_type=2 2 2 2 2
left_child=4 -2 -3 -4 -1
right_child=1 2 3 -5 -6
leaf_value=-0.022341920781597694 -0.019513279601727402 0.0077990248380021068 0.077903717754670324 0.044025873217637457 -0.053396889845614741
leaf_weight=1.1235468487720948 4.0020623751915974 3.9483954515308142 0.9384916776325557 1.6071226720232514 1.341805550502613
leaf_count=56 65 48 33 85 52
internal_value=0 0.00920032 0.0268956 0.0565156 -0.0392441
internal_weight=0 10.4961 6.49401 2.54561 2.46535
internal_count=339 231 166 118 108
shrinkage=0.05


Tree=97
num_leaves=7
num_cat=0
split_feature=16 11 8 17 1 5
split_gain=1.87185 1.75128 1.51976 3.01684 0.998012 0.00409877
threshold=0.16182108626198083 0.35967484008528788 0.14733980232523208 0.46666666666666662 0.35484762628705691 0.18544650379106972
decision_type=2 2 2 2 2 2
left_child=4 -2 -3 -4 5 -1
right_child=1 2 3 -5 -6 -7
leaf_value=-0.056352210256868686 -0.011551628651626096 0.068122521959776805 -0.043997701441959865 0.055204801959284837 -0.00039387613769182738 -0.051823609498379608
leaf_weight=0.89311711769551205 4.2729974873363954 1.8423615382052956 1.3879171945154669 1.7113780798390505 1.536851482465863 1.1341371634043751
leaf_count=32 76 39 15 88 13 76
internal_value=0 0.0118895 0.0321587 0.0107802 -0.0307818 -0.0538187
internal_weight=0 9.21465 4.94166 3.0993 3.56411 2.02725
internal_count=339 218 142 103 121 108
shrinkage=0.05


Tree=98
num_leaves=7
num_cat=0
split_feature=4 11 1 10 11 17
split_gain=1.77909 2.39017 0.858581 0.252306 0.0578123 0.0158358
threshold=0.34801192842942347 0.45802238805970158 0.31960472669476891 0.14099747108328842 0.35727611940298509 0.45309278350515464
decision_type=2 2 2 2 2 2
left_child=1 2 4 -2 5 -1
right_child=3 -3 -4 -5 -6 -7
leaf_value=-0.050746905495131306 0.05411728643834976 0.021475484212097183 -0.012251188097252071 0.021085842827760298 -0.040633390302973402 -0.060660645582303052
leaf_weight=0.8111668608617022 1.2912924410775315 3.93927793786861 3.5825887443497777 1.0467386564705519 1.0595957804471252 0.80016951262950897
leaf_count=92 79 54 37 38 31 8
internal_value=0 -0.00903099 -0.0282479 0.0393291 -0.0497047 -0.0556699
internal_weight=0 10.1928 6.25352 2.33803 2.67093 1.61134
internal_count=339 222 168 117 131 100
shrinkage=0.05


Tree=99
num_leaves=6
num_cat=0
split_feature=7 14 5 9 7
split_gain=1.85446 2.40428 3.1598 1.46582 0.776791
threshold=0.018524536886577802 0.42844878821897908 0.12499999999999996 0.13561659255923905 0.042189175155678556
decision_type=2 2 2 2 2
left_child=-1 2 -2 -3 -4
right_child=1 3 4 -5 -6
leaf_value=-0.048073339521345945 0.038994261457661002 0.07054488620784953 -0.057276135315847701 0.010232765643629967 -0.015301456130921782
leaf_weight=1.7263255724683411 2.1396688185632211 1.8716649850830434 2.078088499372825 2.1817365118768066 2.3471653473097831
leaf_count=56 33 64 63 78 45
internal_value=0 0.00780316 -0.010892 0.038082 -0.0350127
internal_weight=0 10.6183 6.56492 4.0534 4.42525
internal_count=339 283 141 142 108
shrinkage=0.05


Tree=100
num_leaves=4
num_cat=0
split_feature=4 8 0
split_gain=1.67765 2.46288 1.17081
threshold=0.24058151093439364 0.095405113107219011 0.35593506932702063
decision_type=2 2 2
left_child=1 -1 -2
right_child=2 -3 -4
leaf_value=0.013467125809375478 0.0033253897516790643 -0.04844166965246649 0.051036464824286087
leaf_weight=3.2086717893835157 3.7382540616672486 3.2173117690254003 1.9600394698791204
leaf_count=79 75 86 99
internal_value=0 -0.0175289 0.0197365
internal_weight=0 6.42598 5.69829
internal_count=339 165 174
shrinkage=0.05


Tree=101
num_leaves=6
num_cat=0
split_feature=11 12 8 14 9
split_gain=1.7096 2.0497 1.27598 2.84963 0.270425
threshold=0.21868336886993608 0.20558792768564174 0.11816174482530721 0.42481674701182059 0.13857150897731754
decision_type=2 2 2 2 2
left_child=-1 -2 -3 -4 -5
right_child=1 2 3 4 -6
leaf_value=-0.042277953916660699 -0.037159371972417671 0.04784190540847047 -0.030810847418786869 0.059570109733585633 0.027501548067472931
leaf_weight=1.9943928455468274 1.9769881877582509 2.6784884359221888 2.6791555241215974 1.2248011291958394 1.4190668652299789
leaf_count=55 79 53 51 51 50
internal_value=0 0.00843026 0.0196944 0.00553088 0.0423577
internal_weight=0 9.9785 8.00151 5.32302 2.64387
internal_count=339 284 205 152 101
shrinkage=0.05


Tree=102
num_leaves=6
num_cat=0
split_feature=16 12 6 10 11
split_gain=1.60355 1.48257 1.13674 0.0658549 0.00425695
threshold=0.16182108626198083 0.32392051396981919 0.096740901683867467 0.054713734919779405 0.26252665245202567
decision_type=2 2 2 2 2
left_child=2 -2 -1 -3 -5
right_child=1 3 -4 4 -6
leaf_value=-0.05490358630385872 -0.00068437754730907405 0.034439116302602019 0.0047588954128602824 0.056406787486124516 0.050977516657048798
leaf_weight=1.8936383803375076 6.362182872835545 0.67233627708628807 1.3802963420748708 0.63693982921540715 0.83349638478830457
leaf_count=98 82 29 23 11 96
internal_value=0 0.0114307 -0.0297498 0.0474021 0.0533293
internal_weight=0 8.50496 3.27393 2.14277 1.47044
internal_count=339 218 121 136 107
shrinkage=0.05


Tree=103
num_leaves=5
num_cat=0
split_feature=11 13 14 14
split_gain=1.60992 1.98903 1.46507 0.175673
threshold=0.21868336886993608 0.11215837593393627 0.41524136564749387 0.50174998349072197
decision_type=2 2 2 2
left_child=-1 -2 -3 -4
right_child=1 2 3 -5
leaf_value=-0.041681588931881335 -0.027826536485688908 0.0050060010357526521 0.065850427765220473 0.039628113413321286
leaf_weight=1.9326261668466038 2.7339220975991321 4.3923442931845784 1.2662073532119396 1.2888289939146487
leaf_count=55 94 76 48 66
internal_value=0 0.00830122 0.0225182 0.0526232
internal_weight=0 9.6813 6.94738 2.55504
internal_count=339 284 190 114
shrinkage=0.05


Tree=104
num_leaves=6
num_cat=0
split_feature=4 11 7 1 14
split_gain=1.49741 2.02671 1.12929 0.268181 0.00181788
threshold=0.34801192842942347 0.45802238805970158 0.029637764803006304 0.38912307373367433 0.37561909793303838
decision_type=2 2 2 2 2
left_child=1 2 -1 -2 -5
right_child=3 -3 -4 4 -6
leaf_value=-0.055035251568910239 0.016563400800203628 0.020560750964476706 -0.0094519078471713251 0.055104815184555213 0.051255528568183065
leaf_weight=2.2193771312013251 0.85374991456046823 3.647877104813233 3.5037928656674922 0.54579478502273537 0.70023360464256257
leaf_count=98 14 54 70 24 79
internal_value=0 -0.00856451 -0.0271286 0.0381506 0.0529416
internal_weight=0 9.37105 5.72317 2.09978 1.24603
internal_count=339 222 168 117 103
shrinkage=0.05


Tree=105
num_leaves=6
num_cat=0
split_feature=11 13 2 18 17
split_gain=1.45348 1.76848 2.31903 0.192182 0.00772513
threshold=0.21868336886993608 0.16724832874557607 0.34084138304595107 0.22146658781785922 0.43573883161512023
decision_type=2 2 2 2 2
left_child=-1 2 -2 -3 -5
right_child=1 3 -4 4 -6
leaf_value=-0.040546092618878926 -0.041899543922123146 0.024477523518371996 0.017396472407095524 0.058332584040066887 0.051434873781096138
leaf_weight=1.8500035700853921 2.6278932641725969 0.77246271749027107 4.4261444141156971 0.78563828580081441 0.83983045525383204
leaf_count=55 55 30 92 11 96
internal_value=0 0.0079163 -0.00469351 0.0450108 0.0547687
internal_weight=0 9.45197 7.05404 2.39793 1.62547
internal_count=339 284 147 137 107
shrinkage=0.05


Tree=106
num_leaves=7
num_cat=0
split_feature=16 11 8 17 7 12
split_gain=1.40048 1.36955 1.25871 2.42379 1.21492 0.00701593
threshold=0.16182108626198083 0.35967484008528788 0.14733980232523208 0.46666666666666662 0.052312485291315956 0.22535982867672691
decision_type=2 2 2 2 2 2
left_child=4 -2 -3 -4 5 -1
right_child=1 2 3 -5 -6 -7
leaf_value=-0.05156463407575556 -0.010900734379069483 0.065328702409181191 -0.040999159772400984 0.054655826182356218 0.0095355019581095206 -0.057750387434536782
leaf_weight=0.95957984728738777 3.7958807940594834 1.6065753342118112 1.2603699136525395 1.3954878444783387 1.2397897373884914 0.87765481881797314
leaf_count=88 76 39 15 88 13 20
internal_value=0 0.0109421 0.0303941 0.00926158 -0.0287106 -0.0545196
internal_weight=0 8.05831 4.26243 2.65586 3.07702 1.83723
internal_count=339 218 142 103 121 108
shrinkage=0.05


Tree=107
num_leaves=6
num_cat=0
split_feature=4 3 3 17 13
split_gain=1.36784 1.99762 1.1104 2.00397 0.507371
threshold=0.24058151093439364 0.12715477578062692 0.33884424268449792 0.55085910652920977 0.15332530475815961
decision_type=2 2 2 2 2
left_child=1 -1 -2 -4 -3
right_child=2 4 3 -5 -6
leaf_value=0.02744588430298868 0.045255614115655131 -0.052049076695018327 -0.045217286350152937 0.038016754140480086 -0.016223261272717691
leaf_weight=1.7769232676364479 2.2351229538908228 2.2400691127404571 1.3813635222613814 1.5176447689300401 1.768474008888006
leaf_count=51 71 95 20 83 19
internal_value=0 -0.0166823 0.0187736 -0.00164387 -0.0362436
internal_weight=0 5.78547 5.13413 2.89901 4.00854
internal_count=339 165 174 103 114
shrinkage=0.05


Tree=108
num_leaves=6
num_cat=0
split_feature=7 14 5 9 7
split_gain=1.52341 1.80445 2.52522 1.18003 0.675479
threshold=0.018524536886577802 0.42844878821897908 0.12499999999999996 0.13561659255923905 0.042189175155678556
decision_type=2 2 2 2 2
left_child=-1 2 -2 -3 -4
right_child=1 3 4 -5 -6
leaf_value=-0.047096274704299335 0.036929200591755869 0.067898534455413939 -0.056006300510455534 0.0093375754700871141 -0.013921190244115825
leaf_weight=1.4812258707825101 1.940365391317753 1.5811473908834162 1.7467607706785204 1.8867240289691833 2.0993326958268881
leaf_count=56 33 64 63 78 45
internal_value=0 0.00751825 -0.00957385 0.036038 -0.0330348
internal_weight=0 9.25433 5.78646 3.46787 3.84609
internal_count=339 283 141 142 108
shrinkage=0.05


Tree=109
num_leaves=5
num_cat=0
split_feature=7 14 7 9
split_gain=1.41375 1.6582 1.74685 1.13265
threshold=0.018524536886577802 0.42844878821897908 0.052312485291315956 0.13561659255923905
decision_type=2 2 2 2
left_child=-1 2 -2 -3
right_child=1 3 -4 -5
leaf_value=-0.046057847006410857 -0.032620978849043601 0.066813307971443386 0.023560925542645945 0.008882087674078892
leaf_weight=1.4399515436962254 3.3267701629083586 1.5278461150592195 2.3686880862805992 1.8843666263855992
leaf_count=56 86 64 55 78
internal_value=0 0.00725801 -0.00925545 0.0348213
internal_weight=0 9.10767 5.69546 3.41221
internal_count=339 283 141 142
shrinkage=0.05


Tree=110
num_leaves=5
num_cat=0
split_feature=4 11 7 18
split_gain=1.26447 1.70253 0.974542 0.327273
threshold=0.34801192842942347 0.45802238805970158 0.029637764803006304 0.23289966489256847
decision_type=2 2 2 2
left_child=1 2 -1 -2
right_child=3 -3 -4 -5
leaf_value=-0.054288939856147356 0.010500484393312593 0.019685180420892307 -0.009443226832149279 0.053705085852224471
leaf_weight=1.9260290114907528 0.70623354241252023 3.3390413639135659 3.2651251413626596 1.1554303363664074
leaf_count=98 26 54 70 91
internal_value=0 -0.00816696 -0.0260819 0.0373152
internal_weight=0 8.5302 5.19115 1.86166
internal_count=339 222 168 117
shrinkage=0.05


Tree=111
num_leaves=7
num_cat=0
split_feature=16 11 5 8 2 8
split_gain=1.23714 1.15155 1.11347 1.04006 1.33878 0.0272904
threshold=0.16182108626198083 0.35967484008528788 0.11320556023588867 0.14733980232523208 0.37216755439198351 0.098071319133595666
decision_type=2 2 2 2 2 2
left_child=2 -2 -1 -3 -5 -4
right_child=1 3 5 4 -6 -7
leaf_value=0.01555156966154555 -0.0099630778037810303 0.062564499701765544 -0.043328229347006066 -0.03039213648709517 0.044505702389453353 -0.055468181193570533
leaf_weight=0.97295499779284034 3.5040898167062551 1.4787984309950846 0.80910492432303716 1.1277012247592213 1.2669427023502065 1.0819960916414855
leaf_count=10 76 39 61 27 76 50
internal_value=0 0.010806 -0.0279123 0.0295947 0.00923433 -0.0502741
internal_weight=0 7.37753 2.86406 3.87344 2.39464 1.8911
internal_count=339 218 121 142 103 111
shrinkage=0.05


Tree=112
num_leaves=6
num_cat=0
split_feature=11 5 17 14 12
split_gain=1.18436 1.51297 2.38522 1.34396 0.757626
threshold=0.21868336886993608 0.12499999999999996 0.31951890034364266 0.42481674701182059 0.26017231933861251
decision_type=2 2 2 2 2
left_child=-1 -2 -3 -4 -5
right_child=1 2 3 4 -6
leaf_value=-0.03846402694728205 0.051156427531520048 -0.05538835935870165 -0.017445342402776579 0.011054044972749101 0.060493232029775301
leaf_weight=1.6710270886542282 1.6129348225658739 1.632488776464015 2.0515218586660922 1.6198286863509568 1.4856183988740665
leaf_count=55 42 80 47 19 96
internal_value=0 0.00762606 -0.00271522 0.013959 0.0347053
internal_weight=0 8.40239 6.78946 5.15697 3.10545
internal_count=339 284 242 162 115
shrinkage=0.05


Tree=113
num_leaves=7
num_cat=0
split_feature=4 11 1 18 11 2
split_gain=1.1727 1.47794 0.782145 0.296088 0.0341247 0.00509603
threshold=0.34801192842942347 0.45802238805970158 0.31960472669476891 0.23289966489256847 0.35727611940298509 0.49128825494267409
decision_type=2 2 2 2 2 2
left_child=1 2 4 -2 5 -1
right_child=3 -3 -4 -5 -6 -7
leaf_value=-0.051708401903863582 0.011550793634992035 0.018616196646213938 -0.0090435363779817462 0.053446931526025858 -0.041551584423715628 -0.058275458583399255
leaf_weight=0.57993669842835316 0.69660916889552105 3.1663970914669335 2.988430761732161 1.0686335553182287 0.77462688251398493 0.60213533299975097
leaf_count=79 26 54 37 91 31 21
internal_value=0 -0.0080557 -0.0251339 0.0369137 -0.0497084 -0.0550536
internal_weight=0 8.11153 4.94513 1.76524 1.9567 1.18207
internal_count=339 222 168 117 131 100
shrinkage=0.05


Tree=114
num_leaves=7
num_cat=0
split_feature=7 14 5 13 7 6
split_gain=1.1873 1.3795 1.9985 0.683687 0.649846 0.0559932
threshold=0.018524536886577802 0.42844878821897908 0.12499999999999996 0.14326091230829727 0.042189175155678556 0.063733478182147363
decision_type=2 2 2 2 2 2
left_child=-1 2 -2 -3 -4 -5
right_child=1 3 4 5 -6 -7
leaf_value=-0.044617645323310695 0.033548383847055635 0.013017212137400706 -0.05536663299395931 0.07275657633170883 -0.011916786345922361 0.051899980946852123
leaf_weight=1.2940635632257915 1.8470673568081091 1.7636608264874669 1.5169358631828802 0.5489700245670972 1.9887452586553989 0.77765845961403102
leaf_count=56 33 39 63 9 45 94
internal_value=0 0.00681492 -0.00854159 0.0334142 -0.0307179 0.0605306
internal_weight=0 8.44304 5.35275 3.09029 3.50568 1.32663
internal_count=339 283 141 142 108 103
shrinkage=0.05


Tree=115
num_leaves=5
num_cat=0
split_feature=4 8 11 15
split_gain=1.10003 1.82056 1.36548 0.0342587
threshold=0.24058151093439364 0.095405113107219011 0.35967484008528788 0.24013544061860267
decision_type=2 2 2 2
left_child=1 -1 -2 -4
right_child=2 -3 3 -5
leaf_value=0.013320704653397485 -0.0042340301966542378 -0.046477873680480904 0.0598925185329581 0.045907847939851379
leaf_weight=2.6035132582765073 2.709688289090991 2.4902503045741469 0.80350802256725706 0.96253715245984495
leaf_count=79 55 86 31 88
internal_value=0 -0.0159138 0.0180617 0.0522705
internal_weight=0 5.09376 4.47573 1.76605
internal_count=339 165 174 119
shrinkage=0.05


Tree=116
num_leaves=5
num_cat=0
split_feature=7 14 7 9
split_gain=1.113 1.26629 1.1966 0.854622
threshold=0.018524536886577802 0.45948623126196925 0.052312485291315956 0.13561659255923905
decision_type=2 2 2 2
left_child=-1 2 -2 -3
right_child=1 3 -4 -5
leaf_value=-0.04399157835240862 -0.026356149078782698 0.066216633934746624 0.019750563201967095 0.0073452115886014011
leaf_weight=1.2487512205261744 3.2230527149513346 1.226914130675141 2.4977728260564618 1.2389849364990366
leaf_count=56 94 50 74 65
internal_value=0 0.00668496 -0.00622547 0.0366368
internal_weight=0 8.18672 5.72083 2.4659
internal_count=339 283 168 115
shrinkage=0.05


Tree=117
num_leaves=8
num_cat=0
split_feature=16 13 7 3 12 0 15
split_gain=1.0361 1.03736 0.996977 0.189858 0.00294621 0.00170486 0.00024905
threshold=0.16182108626198083 0.16724832874557607 0.059400670155659856 0.20362247714864118 0.23016584491259523 0.24636455867433196 0.19662174617496678
decision_type=2 2 2 2 2 2 2
left_child=2 -2 4 -3 -1 -5 -7
right_child=1 3 -4 5 -6 6 -8
leaf_value=-0.051330033031580818 -0.0020461424588945495 0.01984143562418153 0.0090613791462891159 0.055113713341920195 -0.055775396263968761 0.052411269313233491 0.050545670524013202
leaf_weight=0.75881126476451777 4.8014958235435188 0.66217746504116792 1.1105284895747898 0.52681451570242621 0.73255396704189479 0.32221727014984936 0.40217430872144178
leaf_count=91 77 17 11 10 19 16 98
internal_value=0 0.0103598 -0.0268056 0.0414915 -0.0535136 0.0529495 0.0513755
internal_weight=0 6.71488 2.60189 1.91338 1.49137 1.25121 0.724392
internal_count=339 218 121 141 110 124 114
shrinkage=0.05


Tree=118
num_leaves=8
num_cat=0
split_feature=11 13 3 4 5 12 0
split_gain=1.11062 1.34805 0.959822 1.85846 0.623905 0.0335175 9.75653e-05
threshold=0.21868336886993608 0.11215837593393627 0.14804306484264768 0.24058151093439364 0.36952401010951985 0.31470690771452769 0.31028068988840035
decision_type=2 2 2 2 2 2 2
left_child=-1 -2 -3 -4 5 -5 -7
right_child=1 2 3 4 -6 6 -8
leaf_value=-0.038656176962070861 -0.026195215572987575 0.055909614699309766 -0.027988776916386182 0.066488791703265215 0.0024514779273533097 0.051948337356958987 0.050801856969694241
leaf_weight=1.5468318562489001 2.1102446047589183 1.4384412257932124 1.88731337711215 0.70563295762985967 0.74661101156380016 0.33479683403857052 0.41632170166121796
leaf_count=55 94 20 25 9 34 21 81
internal_value=0 0.00780299 0.0207787 0.00842537 0.0396163 0.0586639 0.0513129
internal_weight=0 7.63936 5.52912 4.09068 2.20336 1.45675 0.751119
internal_count=339 284 190 170 145 111 102
shrinkage=0.05


Tree=119
num_leaves=7
num_cat=0
split_feature=11 13 2 0 3 19
split_gain=1.01982 1.23783 0.908433 0.863363 0.113886 0.00274138
threshold=0.21868336886993608 0.11215837593393627 0.33745598988895914 0.32008792695299276 0.21331513404085636 0.19391971664698943
decision_type=2 2 2 2 2 2
left_child=-1 -2 -3 -4 -5 -6
right_child=1 2 3 4 5 -7
leaf_value=-0.037329817909715922 -0.025227693835159933 -0.0017379240134510693 0.0086361050753124835 0.079086464297963455 0.055233930350553899 0.049769709129708656
leaf_weight=1.5223403365816919 2.082344684866257 2.5358543349429965 1.2829522829269993 0.68360125599428989 0.4135351461591199 0.51588322990573943
leaf_count=55 94 45 37 7 39 62
internal_value=0 0.0075484 0.0201134 0.0392476 0.0635951 0.052201
internal_weight=0 7.51417 5.43183 2.89597 1.61302 0.929418
internal_count=339 284 190 145 108 101
shrinkage=0.05


Tree=120
num_leaves=5
num_cat=0
split_feature=4 11 7 18
split_gain=0.965349 1.26169 0.798503 0.322178
threshold=0.34801192842942347 0.45802238805970158 0.029637764803006304 0.23053420067021488
decision_type=2 2 2 2
left_child=1 2 -1 -2
right_child=3 -3 -4 -5
leaf_value=-0.053226526014606472 0.0068867050933628972 0.018107973754585737 -0.0088258632980465664 0.053394685727964887
leaf_weight=1.5536615630844606 0.60459545988123842 2.8926182705909014 2.9076822540955618 0.96949458512244746
leaf_count=98 25 54 70 92
internal_value=0 -0.00761214 -0.0242884 0.0355313
internal_weight=0 7.35396 4.46134 1.57409
internal_count=339 222 168 117
shrinkage=0.05


Tree=121
num_leaves=5
num_cat=0
split_feature=17 8 11 14
split_gain=0.959818 1.93517 0.857157 0.228914
threshold=0.41597938144329899 0.098071319133595666 0.36780383795309174 0.44429769530476132
decision_type=2 2 2 2
left_child=1 -1 -2 -4
right_child=2 -3 3 -5
leaf_value=0.015516938093761173 -0.0019932753600718253 -0.050976222264561291 0.020204281399429425 0.056683482554564471
leaf_weight=2.2659535158891231 2.6010037951637059 2.1160635957494378 0.69628849113360036 1.1247215759358367
leaf_count=78 56 86 38 81
internal_value=0 -0.0165924 0.0164261 0.0427352
internal_weight=0 4.38202 4.42201 1.82101
internal_count=339 164 175 119
shrinkage=0.05


Tree=122
num_leaves=8
num_cat=0
split_feature=2 7 4 8 11 19 6
split_gain=0.929185 1.1274 1.06848 0.840463 0.666546 0.124153 0.0219334
threshold=0.2612169359935001 0.050986369018935405 0.24868290258449302 0.12830083816504942 0.32329424307036264 0.064115177751541366 0.12491399601665762
decision_type=2 2 2 2 2 2 2
left_child=-1 2 3 -2 -3 -6 -7
right_child=1 4 -4 -5 5 6 -8
leaf_value=-0.039824886981350588 -0.0025458978877726289 0.0038459529751479747 0.01886959897327628 -0.057649882371779128 0.076696373847195631 0.054557058106656398 0.038289427230809026
leaf_weight=1.2537198009667916 1.5444848467595877 0.9774690251797441 2.28124984446913 1.2536564010661093 0.53524333680979885 0.38646299683023244 0.44670935475733131
leaf_count=39 68 26 45 49 9 18 85
internal_value=0 0.00671222 -0.00652814 -0.0272342 0.0353807 0.0579062 0.0458351
internal_weight=0 7.42528 5.07939 2.79814 2.34588 1.36842 0.833172
internal_count=339 300 162 117 138 112 103
shrinkage=0.05


Tree=123
num_leaves=9
num_cat=0
split_feature=16 13 7 3 12 11 7 16
split_gain=0.9447 0.932229 0.847634 0.1788 0.002154 0.00170093 0.000233344 2.91669e-05
threshold=0.16182108626198083 0.16724832874557607 0.059400670155659856 0.20320839212318256 0.23016584491259523 0.24493603411513862 0.061791414984740257 0.27931309904153362
decision_type=2 2 2 2 2 2 2 2
left_child=2 -2 4 -3 -1 -5 -7 -8
right_child=1 3 -4 5 -6 6 7 -9
leaf_value=-0.051197012877740415 -0.001828053277973374 0.018990631439990337 0.006883889989252049 0.055420161919955885 -0.055217630790376337 0.052569300369906459 0.051129856111956598 0.050309412245096913
leaf_weight=0.65997630532365315 4.4372546772938222 0.5865617477102204 1.0474689784459768 0.43148729577660538 0.67262033256702125 0.2793764581438154 0.21480979677289724 0.21852560847764835
leaf_count=91 77 16 11 7 19 15 23 80
internal_value=0 0.010312 -0.0267718 0.0414361 -0.0532264 0.0529425 0.0514425 0.0507161
internal_weight=0 6.16802 2.38007 1.73076 1.3326 1.1442 0.712712 0.433335
internal_count=339 218 121 141 110 125 118 103
shrinkage=0.05


Tree=124
num_leaves=9
num_cat=0
split_feature=16 7 10 7 4 1 2 12
split_gain=0.873233 1.00419 0.904431 0.495119 0.801391 0.0452637 0.00998475 0.00227603
threshold=0.16182108626198083 0.061791414984740257 0.14607603333195143 0.028535780858352053 0.24868290258449302 0.34738442402045483 0.40164304414552682 0.23016584491259523
decision_type=2 2 2 2 2 2 2 2
left_child=1 7 3 -2 -5 -6 -7 -1
right_child=2 -3 -4 4 5 6 -8 -9
leaf_value=-0.051138881572494882 0.00095362192485517301 0.013628546520009211 -0.02594539352143245 -0.00038095409319031226 0.064523326703112158 0.053489820917977229 0.043531772198544469 -0.055220294260517583
leaf_weight=0.62848451652098469 1.9580598028842358 0.94250776804983605 1.3663151385844683 1.063029306009412 0.70806313108187158 0.46111303096404277 0.55435349879553542 0.74827444448601454
leaf_count=91 36 10 52 15 13 38 64 20
internal_value=0 -0.0261354 0.00989965 0.020222 0.0337615 0.0548197 0.0480536 -0.0533571
internal_weight=0 2.31927 6.11093 4.74462 2.78656 1.72353 1.01547 1.37676
internal_count=339 121 218 166 130 115 102 111
shrinkage=0.05


Tree=125
num_leaves=5
num_cat=0
split_feature=11 9 4 11
split_gain=0.949299 1.14052 1.01683 0.538758
threshold=0.21868336886993608 0.10402712894692406 0.25556660039761431 0.3475479744136461
decision_type=2 2 2 2
left_child=-1 -2 -3 -4
right_child=1 2 3 -5
leaf_value=-0.03730648430258552 0.035695268499636362 -0.027812587800628726 -0.010030845556256524 0.043156695998321337
leaf_weight=1.4151694228057747 2.3750294726924039 2.5612268842523918 0.8383953091688453 1.1018445349182
leaf_count=55 81 94 21 88
internal_value=0 0.00766162 -0.00712927 0.0201739
internal_weight=0 6.8765 4.50147 1.94024
internal_count=339 284 203 109
shrinkage=0.05


Tree=126
num_leaves=8
num_cat=0
split_feature=11 5 14 4 13 0 2
split_gain=0.870214 1.11033 1.66541 1.26024 0.555403 0.0236678 0.00111309
threshold=0.21868336886993608 0.12499999999999996 0.30727068612560254 0.24058151093439364 0.12660981124655918 0.26158268515387217 0.40854924618579042
decision_type=2 2 2 2 2 2 2
left_child=-1 -2 -3 -4 -5 -6 -7
right_child=1 2 3 4 5 6 -8
leaf_value=-0.036003080375355032 0.047509209091544664 -0.055890522440473725 -0.016748328939331075 0.0064044918321138735 0.06605179605120505 0.054583729295011124 0.050897417897185951
leaf_weight=1.3936432528425937 1.3743838382652027 1.1610768702812491 2.0367716462351382 0.86565422546118531 0.51900362502783515 0.35617795592406765 0.48176120733842254
leaf_count=55 42 35 82 10 8 24 83
internal_value=0 0.00736991 -0.00280763 0.0116624 0.0376978 0.0576613 0.0524643
internal_weight=0 6.79483 5.42045 4.25937 2.2226 1.35694 0.837939
internal_count=339 284 242 207 125 115 107
shrinkage=0.05


Tree=127
num_leaves=5
num_cat=0
split_feature=2 5 14 19
split_gain=0.803863 1.08805 1.23347 0.683743
threshold=0.2612169359935001 0.14774641954507162 0.42844878821897908 0.25157418339236531
decision_type=2 2 2 2
left_child=-1 -2 -3 -4
right_child=1 2 3 -5
leaf_value=-0.038617960238606294 0.044996199600581856 -0.032395103036283998 -0.011024851992923919 0.035787295972468824
leaf_weight=1.1542867835378272 1.4471670546918174 2.2246505471412092 1.347217697883025 1.8528207766939884
leaf_count=39 57 98 76 69
internal_value=0 0.00647624 -0.00379989 0.0160794
internal_weight=0 6.87186 5.42469 3.20004
internal_count=339 300 243 145
shrinkage=0.05


Tree=128
num_leaves=5
num_cat=0
split_feature=7 16 8 4
split_gain=0.860471 0.820072 1.1001 1.46758
threshold=0.018524536886577802 0.16182108626198083 0.15364857151440503 0.32910039761431414
decision_type=2 2 2 2
left_child=-1 -2 -3 -4
right_child=1 2 3 -5
leaf_value=-0.042404744512566955 -0.021712021229529796 0.045812747697743711 -0.030547862952049032 0.040822256165044729
leaf_weight=1.039676218642853 1.884135110187344 1.9918907332466913 1.8073021349264311 1.1975833789329042
leaf_count=56 87 59 44 93
internal_value=0 0.00639805 0.0169975 -0.00210363
internal_weight=0 6.88091 4.99678 3.00489
internal_count=339 283 196 137
shrinkage=0.05


Tree=129
num_leaves=6
num_cat=0
split_feature=0 2 16 13 11
split_gain=0.795007 1.09059 1.00648 0.758695 0.0298407
threshold=0.39144403111261405 0.33542475399476396 0.18007188498402557 0.15401346834447502 0.26972281449893393
decision_type=2 2 2 2 2
left_child=2 -2 4 -4 -1
right_child=1 -3 3 -5 -6
leaf_value=-0.058477315725522595 -0.010427475506827242 0.048195945499016297 -0.024266813208479527 0.023391952462092757 -0.043040743353928053
leaf_weight=0.67881008092081152 1.5668001081794503 1.6070742797455748 1.5714648501016202 1.7820270222146062 0.58106765756383538
leaf_count=57 32 83 39 76 52
internal_value=0 0.0192562 -0.0132558 0.00105879 -0.0513578
internal_weight=0 3.17387 4.61337 3.35349 1.25988
internal_count=339 115 224 115 109
shrinkage=0.05


Tree=130
num_leaves=6
num_cat=0
split_feature=11 5 17 14 11
split_gain=0.765797 0.989763 1.52149 0.876455 0.63241
threshold=0.21868336886993608 0.12499999999999996 0.31951890034364266 0.42481674701182059 0.37246801705756932
decision_type=2 2 2 2 2
left_child=-1 -2 -3 -4 -5
right_child=1 2 3 4 -6
leaf_value=-0.034728597574125997 0.04587450896778978 -0.053965830940805752 -0.017206544602053255 0.0045336937208720349 0.056290357865470431
leaf_weight=1.316057172254659 1.3114638155675491 1.1310480753891168 1.5618621897883715 1.1512411625590178 1.2111141797504386
leaf_count=55 42 80 47 33 82
internal_value=0 0.00716914 -0.00287201 0.0118544 0.0310679
internal_weight=0 6.36673 5.05527 3.92422 2.36236
internal_count=339 284 242 162 115
shrinkage=0.05


Tree=131
num_leaves=6
num_cat=0
split_feature=4 11 7 1 16
split_gain=0.721565 1.04131 0.697546 0.236159 0.00063292
threshold=0.34801192842942347 0.45802238805970158 0.029637764803006304 0.38912307373367433 0.27140575079872215
decision_type=2 2 2 2 2
left_child=1 2 -1 -2 -5
right_child=3 -3 -4 4 -6
leaf_value=-0.05299476135698962 0.0091191404565930546 0.018323412907528099 -0.0078899106126813362 0.054049477842765918 0.051121838199058356
leaf_weight=1.3083812842960472 0.5438604367082005 2.459600381727796 2.4855367672862485 0.35241043259156868 0.38771043997257948
leaf_count=98 14 54 70 18 85
internal_value=0 -0.00701681 -0.0234449 0.0341341 0.0525158
internal_weight=0 6.25352 3.79392 1.28398 0.740121
internal_count=339 222 168 117 103
shrinkage=0.05


Tree=132
num_leaves=6
num_cat=0
split_feature=2 5 17 11 15
split_gain=0.724902 0.969161 1.0638 0.367413 0.354326
threshold=0.2612169359935001 0.14774641954507162 0.41597938144329899 0.35727611940298509 0.17901252534660578
decision_type=2 2 2 2 2
left_child=-1 -2 4 -4 -3
right_child=1 2 3 -5 -6
leaf_value=-0.037937780946798942 0.043751062171070963 -0.012538922045020745 -0.00056323256662777345 0.033911664384459764 -0.057024032794398133
leaf_weight=1.0772709019947795 1.3650491578737272 0.90034865163033806 1.8989308218006047 1.3032378270581828 0.89020719600375742
leaf_count=39 57 80 41 92 30
internal_value=0 0.00641658 -0.00379095 0.0134676 -0.0346555
