tree
version=v3
num_class=1
num_tree_per_iteration=1
label_index=0
max_feature_idx=19
objective=binary sigmoid:1
feature_names=Column_0 Column_1 Column_2 Column_3 Column_4 Column_5 Column_6 Column_7 Column_8 Column_9 Column_10 Column_11 Column_12 Column_13 Column_14 Column_15 Column_16 Column_17 Column_18 Column_19
feature_infos=[0.022658099425092899:1] [0:1] [0:1] [0:0.89571191951414031] [0:1] [0:1] [0:1] [0.0007956697634283:1.0000000000000002] [0:0.78219725418331476] [0:0.72814768953678166] [0.0025392811243314002:0.7588546632947778] [0.055437100213219598:0.93656716417910457] [0:1] [0:1] [0:1] [0:1] [0:1] [0:1] [0:1] [0:1]
tree_sizes=747 743 741 637 633 741 638 739 635 741 639 636 639 740 739 640 740 746 739 739 640 643 745 743 742 844 848 849 536 745 644 744 644 741 748 742 742 641 849 641 848 845 745 945 954 637 852 741 745 741 640 846 745 642 641 748 743 644 747 960 855 845 747 641 749 747 642 1178 748 859 965 752 750 1073 963 752 755

Tree=0
num_leaves=6
num_cat=0
split_feature=12 12 11 0 0
split_gain=226.963 19.9726 5.01141 0.0489927 0.0436367
threshold=0.26266248319139401 0.34807510334179997 0.37539978678038383 0.35593506932702063 0.24129184984781862
decision_type=2 2 2 2 2
left_child=2 -2 4 -3 -1
right_child=1 3 -4 -5 -6
leaf_value=-0.19469199025167183 0.053310167932087295 0.19731142107104421 -0.11469129406336245 0.20531149068987514 -0.18669192063284096
leaf_weight=14.999869465827944 12.499891221523283 12.499891221523283 12.499891221523283 19.74982813000679 12.499891221523283
leaf_count=60 50 50 50 79 50
internal_value=0.00589972 0.160618 -0.167192 0.202211 -0.191056
internal_weight=0 44.7496 39.9997 32.2497 27.4998
internal_count=339 179 160 129 110
shrinkage=1


Tree=1
num_leaves=6
num_cat=0
split_feature=4 13 11 12 11
split_gain=188.409 11.5352 11.3453 0.0587474 0.0159672
threshold=0.25556660039761431 0.11215837593393627 0.35967484008528788 0.45689526370835204 0.31383262260127937
decision_type=2 2 2 2 2
left_child=1 4 -2 -4 -1
right_child=2 -3 3 -5 -6
leaf_value=-0.18254286921429991 0.072084224578833983 -0.073605748069536944 0.19059459394695208 0.18154006594313468 -0.18731291602871164
leaf_weight=16.101311728358272 12.649770364165304 13.926740899682043 12.924453496932985 16.081936284899712 12.438801452517508
leaf_count=65 51 56 52 65 50
internal_value=0 -0.148215 0.151111 0.185575 -0.184622
internal_weight=0 42.4669 41.6562 29.0064 28.5401
internal_count=339 171 168 117 115
shrinkage=0.1


Tree=2
num_leaves=6
num_cat=0
split_feature=12 12 11 19 9
split_gain=157.963 15.0874 4.04549 0.0710401 0.0467334
threshold=0.26266248319139401 0.34807510334179997 0.37539978678038383 0.14348025711662069 0.11584679461923791
decision_type=2 2 2 2 2
left_child=2 -2 3 -1 -3
right_child=1 4 -4 -5 -6
leaf_value=-0.16247154213414136 0.037365084753436549 0.16278958110003466 -0.098789497449292385 -0.17282969001316259 0.17072567149671125
leaf_weight=12.123279914259912 12.419708311557768 12.115847036242487 12.283337965607641 14.589337915182112 19.145619943737984
leaf_count=50 50 50 50 60 79
internal_value=0 0.130607 -0.146288 -0.168129 0.16765
internal_weight=0 43.6812 38.996 26.7126 31.2615
internal_count=339 179 160 110 129
shrinkage=0.1


Tree=3
num_leaves=5
num_cat=0
split_feature=12 17 0 14
split_gain=132.553 23.6305 0.587282 0.395539
threshold=0.32392051396981919 0.38144329896907214 0.31028068988840035 0.43208082942613757
decision_type=2 2 2 2
left_child=1 2 -1 -2
right_child=3 -3 -4 -5
leaf_value=-0.16299100513180872 0.13891643797973094 0.0018654716337706554 -0.13534001466002954 0.16163324775941706
leaf_weight=21.393911451101303 12.033603116869925 13.963412716984747 11.98366044461727 21.111345633864403
leaf_count=91 51 57 50 90
internal_value=0 -0.107366 -0.153063 0.153386
internal_weight=0 47.341 33.3776 33.1449
internal_count=339 198 141 141
shrinkage=0.1


Tree=4
num_leaves=5
num_cat=0
split_feature=13 17 11 15
split_gain=111.63 17.113 1.91938 0.541552
threshold=0.13213969720802199 0.49003436426116831 0.34954690831556517 0.28292148130900058
decision_type=2 2 2 2
left_child=2 -2 -1 -3
right_child=1 3 -4 -5
leaf_value=-0.1527362721658847 0.0069950541381662403 0.12893752622771806 -0.10419382507966271 0.15637229191392071
leaf_weight=21.327161774039268 12.297654852271078 11.323247238993646 13.178927347064016 19.735780447721481
leaf_count=95 51 50 56 87
internal_value=0 0.106838 -0.134196 0.14637
internal_weight=0 43.3567 34.5061 31.059
internal_count=339 188 151 137
shrinkage=0.1


Tree=5
num_leaves=6
num_cat=0
split_feature=4 11 13 7 11
split_gain=101.517 8.90046 7.18776 0.211034 0.0353503
threshold=0.25556660039761431 0.35967484008528788 0.11215837593393627 0.093599527827896212 0.31383262260127937
decision_type=2 2 2 2 2
left_child=2 -2 4 -3 -1
right_child=1 3 -4 -5 -6
leaf_value=-0.14314147962669785 0.045590427266928184 0.16137367797693902 -0.055223574300704195 0.14301200399935218 -0.1507357484068402
leaf_weight=13.672539338469507 11.654183015227316 11.271222904324533 13.214074492454527 14.076516002416609 11.110172882676123
leaf_count=65 51 50 56 67 50
internal_value=0 0.117921 -0.114787 0.151177 -0.146546
internal_weight=0 37.0019 37.9968 25.3477 24.7827
internal_count=339 168 171 117 115
shrinkage=0.1


Tree=6
num_leaves=5
num_cat=0
split_feature=12 4 0 18
split_gain=87.1408 15.9728 0.953261 0.327449
threshold=0.32392051396981919 0.21784294234592441 0.31095705106526877 0.2526118667455155
decision_type=2 2 2 2
left_child=1 2 -1 -2
right_child=3 -3 -4 -5
leaf_value=-0.14317255441621757 0.11993987903505331 0.0044275311048281437 -0.10639000896113729 0.14182872451361359
leaf_weight=19.286549538373951 10.964362144470217 12.534301593899725 11.101303115487097 18.143920421600342
leaf_count=94 52 53 51 89
internal_value=0 -0.0905564 -0.129735 0.133584
internal_weight=0 42.9222 30.3879 29.1083
internal_count=339 198 145 141
shrinkage=0.1


Tree=7
num_leaves=6
num_cat=0
split_feature=4 0 13 10 0
split_gain=74.835 7.03624 5.70195 0.419893 0.0152332
threshold=0.25556660039761431 0.32651335813324306 0.19486089264648052 0.066701905670024722 0.36726411903956696
decision_type=2 2 2 2 2
left_child=1 3 -2 -1 -4
right_child=2 -3 4 -5 -6
leaf_value=-0.14751767126059517 0.048390272840094561 -0.041528961825068968 0.13791762548995842 -0.12002813878157764 0.13267191649382645
leaf_weight=12.994049310684206 11.49597644805908 12.172238975763319 9.8796536326408404 9.7078013867139799 12.590756610035895
leaf_count=65 50 56 50 50 68
internal_value=0 -0.102872 0.105672 -0.135763 0.134978
internal_weight=0 34.8741 33.9664 22.7019 22.4704
internal_count=339 171 168 115 118
shrinkage=0.1


Tree=8
num_leaves=5
num_cat=0
split_feature=12 11 11 11
split_gain=66.1566 14.8272 2.18875 0.355207
threshold=0.32392051396981919 0.4167110874200427 0.30636993603411528 0.38352878464818768
decision_type=2 2 2 2
left_child=1 2 -1 -2
right_child=3 -3 -4 -5
leaf_value=-0.13981213859172906 0.10904905228408751 0.016200596111073818 -0.081973122565017209 0.13321382833662829
leaf_weight=18.412944316864017 9.7168672382831591 11.268238246440886 10.14884105324745 16.265622794628143
leaf_count=97 50 51 50 91
internal_value=0 -0.0809373 -0.11926 0.124177
internal_weight=0 39.83 28.5618 25.9825
internal_count=339 198 147 141
shrinkage=0.1


Tree=9
num_leaves=6
num_cat=0
split_feature=4 11 13 7 11
split_gain=57.8106 8.53686 6.89743 0.240331 0.0512225
threshold=0.25556660039761431 0.35967484008528788 0.11215837593393627 0.093599527827896212 0.31383262260127937
decision_type=2 2 2 2 2
left_child=2 -2 4 -3 -1
right_child=1 3 -4 -5 -6
leaf_value=-0.12535071130504191 0.024226536959282296 0.14690696583684013 -0.034495035769469558 0.12516561140707225 -0.13550284794482023
leaf_weight=10.434880524873735 10.427210599184038 9.6568965315818804 12.111490994691847 10.73783704638481 9.4894923567771894
leaf_count=65 51 50 56 67 50
internal_value=0 0.0978293 -0.094009 0.13546 -0.130186
internal_weight=0 30.8219 32.0359 20.3947 19.9244
internal_count=339 168 171 117 115
shrinkage=0.1


Tree=10
num_leaves=5
num_cat=0
split_feature=13 17 0 8
split_gain=52.3301 14.982 1.85011 0.814002
threshold=0.16724832874557607 0.41907216494845362 0.33784240784578962 0.076741670922582411
decision_type=2 2 2 2
left_child=1 3 -2 -1
right_child=2 -3 -4 -5
leaf_value=-0.095317533823044476 0.075065268100457522 0.026283287817149583 0.13097287963714885 -0.13327863339641691
leaf_weight=8.5939590483903903 9.5163874775171298 9.6640048176050168 15.658616945147513 16.482246980071068
leaf_count=51 51 43 98 96
internal_value=0 -0.0795011 0.109839 -0.120269
internal_weight=0 34.7402 25.175 25.0762
internal_count=339 190 149 147
shrinkage=0.1


Tree=11
num_leaves=5
num_cat=0
split_feature=17 13 9 2
split_gain=46.229 15.6608 1.22564 0.317249
threshold=0.51804123711340211 0.14326091230829727 0.13561659255923905 0.50392705606211086
decision_type=2 2 2 2
left_child=1 2 -1 -2
right_child=3 -3 -4 -5
leaf_value=-0.084455212982577077 0.10911883370022518 0.027823861041235548 -0.13057414505953055 0.13442290435978174
leaf_weight=9.20984795689583 12.516481071710588 11.554518029093741 15.394265025854109 8.2012345194816572
leaf_count=56 82 55 96 50
internal_value=0 -0.0682111 -0.113311 0.119136
internal_weight=0 36.1586 24.6041 20.7177
internal_count=339 207 152 132
shrinkage=0.1


Tree=12
num_leaves=5
num_cat=0
split_feature=12 0 14 14
split_gain=40.8201 12.3762 2.29097 0.174398
threshold=0.32865182529010406 0.35593506932702063 0.43208082942613757 0.44033546853331579
decision_type=2 2 2 2
left_child=1 2 -1 -2
right_child=3 -3 -4 -5
leaf_value=-0.13238581966774904 0.10314599106775585 0.017175947959752354 -0.064928707324133347 0.12224046136281758
leaf_weight=14.86689978092909 8.1110265478491801 11.728953972458838 7.6125051528215399 11.658688269555567
leaf_count=95 53 60 46 85
internal_value=0 -0.0660944 -0.109542 0.114406
internal_weight=0 34.2084 22.4794 19.7697
internal_count=339 201 141 138
shrinkage=0.1


Tree=13
num_leaves=6
num_cat=0
split_feature=17 7 16 2 12
split_gain=36.425 12.7003 2.68982 0.320886 0.0450586
threshold=0.51804123711340211 0.048698351506729506 0.16182108626198083 0.50392705606211086 0.18066138751929878
decision_type=2 2 2 2 2
left_child=1 2 4 -2 -1
right_child=3 -3 -4 -5 -6
leaf_value=-0.11973412224414169 0.10293002190275249 0.048411730183011668 -0.05919208314477651 0.1300717973270826 -0.13091161221389278
leaf_weight=7.619123078882696 11.019051194190981 7.9036947116255751 10.86916935443878 7.2033836394548407 6.8480640426278114
leaf_count=58 82 43 60 50 46
internal_value=0 -0.0622592 -0.096783 0.113659 -0.125025
internal_weight=0 33.2401 25.3364 18.2224 14.4672
internal_count=339 207 164 132 104
shrinkage=0.1


Tree=14
num_leaves=6
num_cat=0
split_feature=13 11 6 11 12
split_gain=31.7118 12.9151 1.5626 1.46715 0.1948
threshold=0.12903067243413294 0.30890191897654595 0.10090530508781456 0.34954690831556517 0.4636187061108622
decision_type=2 2 2 2 2
left_child=3 -2 -3 -1 -4
right_child=1 2 4 -5 -6
leaf_value=-0.11999524322425725 -0.047045629778755371 0.068771895486018739 0.13788801111612534 -0.065677571267673152 0.11446493925872898
leaf_weight=11.282687507569792 7.3248187005519894 7.1737787798047092 7.0123784467577917 8.8915227651596052 7.1922915205359459
leaf_count=94 40 38 47 54 66
internal_value=0 0.0675513 0.106815 -0.0960554 0.126028
internal_weight=0 28.7033 21.3784 20.1742 14.2047
internal_count=339 191 151 148 113
shrinkage=0.1


Tree=15
num_leaves=5
num_cat=0
split_feature=17 0 8 17
split_gain=29.2801 10.9163 1.40899 0.412386
threshold=0.51804123711340211 0.32651335813324306 0.12533421455823593 0.62663230240549839
decision_type=2 2 2 2
left_child=1 2 -1 -2
right_child=3 -3 -4 -5
leaf_value=-0.13576192688903019 0.089164222297506243 0.008269581077550844 -0.076355662068015293 0.12194831588591803
leaf_weight=10.028556361794477 6.3109013214707401 13.748484782874582 6.6332799941301337 9.7873553782701475
leaf_count=78 49 79 50 83
internal_value=0 -0.0576873 -0.112112 0.109096
internal_weight=0 30.4103 16.6618 16.0983
internal_count=339 207 128 132
shrinkage=0.1


Tree=16
num_leaves=6
num_cat=0
split_feature=13 17 16 3 7
split_gain=26.1671 9.67199 2.10422 1.10538 0.0339702
threshold=0.16724832874557607 0.41907216494845362 0.25183706070287543 0.12715477578062692 0.10349870563580736
decision_type=2 2 2 2 2
left_child=1 3 -2 -1 -4
right_child=2 -3 4 -5 -6
leaf_value=-0.069887802543779812 0.044663110168434821 0.022872665403382647 0.12372871354412246 -0.12283052431101871 0.11299909334051404
leaf_weight=5.9020136147737565 5.8786133155226734 8.807759650051592 5.2590579837560636 11.885116048157213 6.722635418176651
leaf_count=49 35 43 45 98 69
internal_value=0 -0.062827 0.0936661 -0.105263 0.117709
internal_weight=0 26.5949 17.8603 17.7871 11.9817
internal_count=339 190 149 147 114
shrinkage=0.1


Tree=17
num_leaves=6
num_cat=0
split_feature=12 11 11 11 18
split_gain=23.0897 12.0448 2.59455 0.538007 0.315134
threshold=0.32865182529010406 0.45802238805970158 0.34954690831556517 0.22441364605543715 0.25418884289375127
decision_type=2 2 2 2 2
left_child=1 2 3 -1 -2
right_child=4 -3 -4 -5 -6
leaf_value=-0.14056350021080619 0.085716862061307006 0.055320784478033826 -0.044024364891672468 -0.10017325888158002 0.11605251921122006
leaf_weight=6.1180220693349892 5.7507413178682318 7.531486064195632 7.1371552571654311 7.1544397547841072 8.4653775095939618
leaf_count=50 51 41 45 65 87
internal_value=0 -0.0527615 -0.0926457 -0.118791 0.103781
internal_weight=0 27.9411 20.4096 13.2725 14.2161
internal_count=339 201 160 115 138
shrinkage=0.1


Tree=18
num_leaves=6
num_cat=0
split_feature=4 0 12 2 0
split_gain=21.3757 4.8738 4.26885 0.399182 0.00601795
threshold=0.24058151093439364 0.3951640175853906 0.32392051396981919 0.34246637176130729 0.35914778491714572
decision_type=2 2 2 2 2
left_child=1 3 -2 -1 -4
right_child=2 -3 4 -5 -6
leaf_value=-0.0886131442007803 0.019725751092740544 0.00020375865834287773 0.1146060537486837 -0.12286206433744112 0.11002353756151591
leaf_weight=6.3225315287709254 8.8254944235086459 6.135638862848281 5.3771506920456869 7.3700757920742035 6.1359165385365486
leaf_count=58 44 35 52 72 78
internal_value=0 -0.0738599 0.0720522 -0.107048 0.112164
internal_weight=0 19.8282 20.3386 13.6926 11.5131
internal_count=339 165 174 130 130
shrinkage=0.1


Tree=19
num_leaves=6
num_cat=0
split_feature=16 11 4 0 2
split_gain=19.908 8.29896 2.86807 1.02743 0.134752
threshold=0.16182108626198083 0.31383262260127937 0.27733598409542742 0.31602975989178222 0.44660106527038018
decision_type=2 2 2 2 2
left_child=3 -2 -3 -1 -4
right_child=1 2 4 -5 -6
leaf_value=-0.12697543678277695 -0.039425602227754243 0.032734772591370045 0.10338526700614348 -0.069714765150549404 0.12493813316789425
leaf_weight=7.1947286166250688 7.2653715685009983 6.3651400208473232 5.0010471120476705 5.5514459833502769 6.907630167901516
leaf_count=82 54 37 58 39 69
internal_value=0 0.0509797 0.0869234 -0.102036 0.115887
internal_weight=0 25.5392 18.2738 12.7462 11.9087
internal_count=339 218 164 121 127
shrinkage=0.1


Tree=20
num_leaves=5
num_cat=0
split_feature=13 0 14 2
split_gain=17.4728 8.66658 1.24805 1.23885
threshold=0.12375884781753826 0.32448427460263779 0.44429769530476132 0.36160512774216852
decision_type=2 2 2 2
left_child=2 -2 -1 -3
right_child=1 3 -4 -5
leaf_value=-0.11483127514661443 -0.022962584035208015 0.067789886469186239 -0.052239228268180352 0.12791190716721754
leaf_weight=8.2464254647493345 9.1531371809542197 5.9925854168832293 5.1908438429236403 8.0061865188181383
leaf_count=94 66 42 45 92
internal_value=0 0.0527016 -0.0906518 0.102175
internal_weight=0 23.1519 13.4373 13.9988
internal_count=339 200 139 134
shrinkage=0.1


Tree=21
num_leaves=5
num_cat=0
split_feature=16 13 0 17
split_gain=15.8899 7.87075 1.08419 0.0712467
threshold=0.16182108626198083 0.18887632717263073 0.31602975989178222 0.53917525773195885
decision_type=2 2 2 2
left_child=2 -2 -1 -3
right_child=1 3 -4 -5
leaf_value=-0.12523978518385256 -0.0018278001684240098 0.12639530949924935 -0.063121898633363802 0.10873996128293309
leaf_weight=6.2276844382286054 13.840015318244697 3.6264232695102674 5.1196476370096207 6.1821546070277691
leaf_count=82 92 32 39 94
internal_value=0 0.0467391 -0.0972137 0.115267
internal_weight=0 23.6486 11.3473 9.80858
internal_count=339 218 121 126
shrinkage=0.1


Tree=22
num_leaves=6
num_cat=0
split_feature=17 0 12 17 3
split_gain=14.4927 7.61054 3.47827 0.535476 0.103263
threshold=0.51804123711340211 0.39144403111261405 0.29553264604811008 0.61185567010309283 0.24003128642414573
decision_type=2 2 2 2 2
left_child=1 2 4 -2 -1
right_child=3 -3 -4 -5 -6
leaf_value=-0.1094295219344687 0.069307542064547076 0.036245047840824815 -0.014718436312199455 0.11596436406033986 -0.12974212853717815
leaf_weight=6.3288983292877692 3.9896975792944414 7.8066846728324881 4.8084151446819297 6.4150987453758717 4.1397916413843632
leaf_count=96 43 49 28 89 34
internal_value=0 -0.0440782 -0.0851239 0.0980739 -0.117462
internal_weight=0 23.0838 15.2771 10.4048 10.4687
internal_count=339 207 158 132 130
shrinkage=0.1


Tree=23
num_leaves=6
num_cat=0
split_feature=16 12 0 17 17
split_gain=12.6157 6.74345 1.53339 0.0281189 0.000222154
threshold=0.16182108626198083 0.32865182529010406 0.35001690902942167 0.55085910652920977 0.6886597938144331
decision_type=2 2 2 2 2
left_child=2 -2 -1 -3 -5
right_child=1 3 -4 4 -6
leaf_value=-0.1228461193518286 -0.0021774314365185475 0.11910444249421732 -0.043035216161414369 0.10783317767460128 0.10656754039930741
leaf_weight=6.2339801266789454 13.1619547046721 3.1011477522551996 3.9216711595654488 2.8453694023191929 2.705636203289032
leaf_count=92 85 33 29 48 52
internal_value=0 0.0429016 -0.0920266 0.111477 0.107216
internal_weight=0 21.8141 10.1557 8.65215 5.55101
internal_count=339 218 121 133 100
shrinkage=0.1


Tree=24
num_leaves=6
num_cat=0
split_feature=13 11 7 14 13
split_gain=11.8371 7.57104 2.48326 1.29851 0.221506
threshold=0.12375884781753826 0.2933102345415779 0.050986369018935405 0.44429769530476132 0.25788930397168702
decision_type=2 2 2 2 2
left_child=3 -2 -3 -1 -4
right_child=1 2 4 -5 -6
leaf_value=-0.11248460583683476 -0.05853420034651291 0.038220615768054404 0.14073691835686114 -0.042557017664294476 0.10679605778747409
leaf_weight=6.3817546591162699 5.0965527668595341 6.6916362605988962 3.3089141361415386 4.5479538254439831 4.590234786272049
leaf_count=94 36 45 27 45 92
internal_value=0 0.0463923 0.0830431 -0.0833871 0.121014
internal_weight=0 19.6873 14.5908 10.9297 7.89915
internal_count=339 200 164 139 119
shrinkage=0.1


Tree=25
num_leaves=7
num_cat=0
split_feature=17 0 12 17 4 0
split_gain=10.7969 6.16821 2.91683 0.610998 0.0753497 0.00419747
threshold=0.51804123711340211 0.39144403111261405 0.29553264604811008 0.61185567010309283 0.17877733598409543 0.26344267839026042
decision_type=2 2 2 2 2 2
left_child=1 2 4 -2 5 -1
right_child=3 -3 -4 -5 -6 -7
leaf_value=-0.1052746824699862 0.060968399364173566 0.033312269950519204 -0.01593438376726531 0.11500697930093931 -0.12745824901089833 -0.11080191772618907
leaf_weight=2.85969589836896 3.4901014417409879 7.4416080340743056 4.5537940151989451 5.2244062889367342 3.082444753497839 2.644520990550518
leaf_count=65 43 49 28 89 26 39
internal_value=0 -0.0394333 -0.0806301 0.0933649 -0.11494 -0.10793
internal_weight=0 20.5821 13.1405 8.71451 8.58666 5.50422
internal_count=339 207 158 132 130 104
shrinkage=0.1


Tree=26
num_leaves=7
num_cat=0
split_feature=12 11 4 10 12 12
split_gain=9.94527 8.35802 2.51578 0.12235 0.110205 0.00192523
threshold=0.20558792768564174 0.31383262260127937 0.25556660039761431 0.076081699210922657 0.31669903879675282 0.45689526370835204
decision_type=2 2 2 2 2 2
left_child=3 -2 -3 -1 -4 -6
right_child=1 2 4 -5 5 -7
leaf_value=-0.088401473945410633 -0.053392913703825089 0.028865989025094331 0.12991486207591665 -0.11475511395999208 0.10820558776547391 0.10425134663058327
leaf_weight=3.3012076355516937 7.1233243420720127 5.6872919127345076 3.2182357311248762 3.7774815633893013 2.3471723962575197 2.5898776091635227
leaf_count=58 65 33 20 50 43 70
internal_value=0 0.0346232 0.0799158 -0.102465 0.115517 0.106131
internal_weight=0 20.9659 13.8426 7.07869 8.15529 4.93705
internal_count=339 231 166 108 133 113
shrinkage=0.1


Tree=27
num_leaves=7
num_cat=0
split_feature=13 11 15 0 5 17
split_gain=8.92995 5.82187 2.45517 0.693581 0.464654 0.19247
threshold=0.18887632717263073 0.45802238805970158 0.29863880237894275 0.31602975989178222 0.13763689974726187 0.34879725085910651
decision_type=2 2 2 2 2 2
left_child=1 2 3 5 -2 -1
right_child=4 -3 -4 -5 -6 -7
leaf_value=-0.1048709247927008 0.061289193035346391 0.044076071298664518 -0.0071049512441310235 -0.065278128676701117 0.11239263806884968 -0.14103778185870233
leaf_weight=3.0349534880369955 2.9011192433536044 6.1789702102541915 3.8955572918057433 3.3245466239750385 4.600885845720768 2.8562273439019918
leaf_count=81 41 44 28 33 90 22
internal_value=0 -0.0359491 -0.0736627 -0.101797 0.0926303 -0.122406
internal_weight=0 19.2903 13.1113 9.21573 7.50201 5.89118
internal_count=339 208 164 136 131 103
shrinkage=0.1


Tree=28
num_leaves=4
num_cat=0
split_feature=17 8 0
split_gain=8.3596 3.60368 3.33052
threshold=0.41597938144329899 0.098071319133595666 0.36726411903956696
decision_type=2 2 2
left_child=1 -1 -2
right_child=2 -3 -4
leaf_value=-0.0020251220971888111 0.017553357279804404 -0.10968323141992693 0.12194474628783679
leaf_weight=5.9060261733829993 8.4227365180850011 6.565795075148344 4.7966982312500468
leaf_count=78 85 86 90
internal_value=0 -0.0587018 0.055432
internal_weight=0 12.4718 13.2194
internal_count=339 164 175
shrinkage=0.1


Tree=29
num_leaves=6
num_cat=0
split_feature=12 11 14 11 10
split_gain=7.82187 6.38833 2.17644 0.185727 0.118645
threshold=0.20558792768564174 0.31383262260127937 0.42481674701182059 0.47974413646055442 0.074285201000511267
decision_type=2 2 2 2 2
left_child=4 -2 -3 -4 -1
right_child=1 2 3 -5 -6
leaf_value=-0.084144448331893662 -0.047509319744949964 0.033444949425292296 0.099578181848838779 0.13493055202081358 -0.11236589941261961
leaf_weight=2.7528111357241896 6.6120396107435253 6.2842088192701322 2.8783641438931227 3.0722129307687283 3.2465328685939312
leaf_count=56 65 62 47 57 52
internal_value=0 0.031687 0.074487 0.11783 -0.0994164
internal_weight=0 18.8468 12.2348 5.95058 5.99934
internal_count=339 231 166 104 108
shrinkage=0.1


Tree=30
num_leaves=5
num_cat=0
split_feature=16 13 6 17
split_gain=7.34581 4.75181 1.20276 0.0351634
threshold=0.16182108626198083 0.18887632717263073 0.087669744703965172 0.53573883161512037
decision_type=2 2 2 2
left_child=2 -2 -1 -3
right_child=1 3 -4 -5
leaf_value=-0.11664011733845313 -0.0012510834242142345 0.12125372307795529 -0.034449902765669102 0.10522898735117017
leaf_weight=4.3517882134765413 10.933838538825514 2.4079775288701049 3.0133930593729019 3.1746326759457588
leaf_count=84 92 30 37 96
internal_value=0 0.0370758 -0.0830128 0.112141
internal_weight=0 16.5164 7.36518 5.58261
internal_count=339 218 121 126
shrinkage=0.1


Tree=31
num_leaves=6
num_cat=0
split_feature=12 14 5 2 10
split_gain=6.38816 5.28778 4.85394 1.37573 0.138616
threshold=0.20558792768564174 0.42481674701182059 0.14922072451558541 0.46510788119526952 0.074285201000511267
decision_type=2 2 2 2 2
left_child=4 2 -2 -3 -1
right_child=1 3 -4 -5 -6
leaf_value=-0.078545567292632151 0.054915019233348128 0.13617985400204777 -0.085709385577079911 0.051999190630090744 -0.11103701133206792
leaf_weight=2.4053917732089785 4.6182749792933482 3.5583413112908593 5.239050529897213 4.27219323720783 2.8913324419409037
leaf_count=56 49 54 54 74 52
internal_value=0 0.0289069 -0.0198252 0.0902525 -0.0962817
internal_weight=0 17.6879 9.85733 7.83053 5.29672
internal_count=339 231 103 128 108
shrinkage=0.1


Tree=32
num_leaves=5
num_cat=0
split_feature=16 13 0 17
split_gain=5.98411 4.12696 1.58279 0.0221418
threshold=0.16182108626198083 0.18887632717263073 0.35593506932702063 0.53573883161512037
decision_type=2 2 2 2
left_child=2 -2 -1 -3
right_child=1 3 -4 -5
leaf_value=-0.12173644342520398 -0.00084877894870016759 0.11802281731197238 -0.023451803720160168 0.10443860760681789
leaf_weight=3.7776078749448088 10.571042874827979 2.1463688965886822 2.8936276361346245 2.7210923880338669
leaf_count=93 92 30 28 96
internal_value=0 0.0342349 -0.0791058 0.110429
internal_weight=0 15.4385 6.67124 4.86746
internal_count=339 218 121 126
shrinkage=0.1


Tree=33
num_leaves=6
num_cat=0
split_feature=7 14 11 3 10
split_gain=5.54103 5.7862 1.84411 1.08676 0.490464
threshold=0.050986369018935405 0.42844878821897908 0.33208955223880604 0.17301085822955645 0.074285201000511267
decision_type=2 2 2 2 2
left_child=1 3 -2 -1 -4
right_child=2 -3 4 -5 -6
leaf_value=-0.048516343372551618 0.0038249233668886267 0.03503684815453674 0.1476977859479138 -0.12315758343711897 0.080909343506796363
leaf_weight=3.365611341781916 2.3861313033848992 6.535361945629119 2.1152223981916904 4.6396712651476264 2.2897885944694281
leaf_count=67 31 79 41 51 70
internal_value=0 -0.0347797 0.0746275 -0.0917766 0.11298
internal_weight=0 14.5406 6.79114 8.00528 4.40501
internal_count=339 197 142 118 111
shrinkage=0.1


Tree=34
num_leaves=6
num_cat=0
split_feature=17 7 11 7 14
split_gain=5.17935 4.42042 3.00102 0.991383 0.0574117
threshold=0.58762886597938147 0.050986369018935405 0.46815031982942445 0.029637764803006304 0.55623060159809812
decision_type=2 2 2 2 2
left_child=1 2 3 -1 -2
right_child=4 -3 -4 -5 -6
leaf_value=-0.12068028696907765 0.092553409463067532 0.057999109964539643 0.019677477167310952 -0.05198508781687964 0.11699303200955664
leaf_weight=4.5134679386392289 1.9229867551475757 4.7405590480193487 3.6630423590540877 3.9301090203225613 1.9217955898493526
leaf_count=96 65 65 28 49 36
internal_value=0 -0.0238595 -0.0559127 -0.0887057 0.104769
internal_weight=0 16.8472 12.1066 8.44358 3.84478
internal_count=339 238 173 145 101
shrinkage=0.1


Tree=35
num_leaves=6
num_cat=0
split_feature=13 14 0 2 2
split_gain=4.64907 4.13979 4.32575 0.798075 0.482478
threshold=0.11215837593393627 0.45255233441193959 0.32448427460263779 0.45427462309289529 0.45156630856730168
decision_type=2 2 2 2 2
left_child=3 2 -2 -1 -3
right_child=1 4 -4 -5 -6
leaf_value=-0.10830242675377083 -0.085621788664161591 0.14068479935636563 0.051768687370339919 -0.032353761434027822 0.077371040768562174
leaf_weight=3.298130193725231 4.0850693043321353 2.1412815498188129 5.2199342017993331 2.383440506644547 2.7485242821276188
leaf_count=85 49 36 64 39 66
internal_value=0 0.0305999 -0.00854828 -0.0764417 0.105097
internal_weight=0 14.1948 9.305 5.68157 4.88981
internal_count=339 215 113 124 102
shrinkage=0.1


Tree=36
num_leaves=6
num_cat=0
split_feature=16 11 2 0 5
split_gain=4.54824 3.16566 2.00389 1.24753 0.215361
threshold=0.16182108626198083 0.35967484008528788 0.33185880653606586 0.35593506932702063 0.24347093513058113
decision_type=2 2 2 2 2
left_child=3 -2 -3 -1 -4
right_child=1 2 4 -5 -6
leaf_value=-0.11924244421258884 -0.023060339525293239 -0.00065260679353515828 0.13490538365068991 -0.025420804823877974 0.093131737641436771
leaf_weight=3.0057696700096157 5.922121871262787 2.4064675280824304 2.0655415942892432 2.6816738806664944 3.06605473626405
leaf_count=93 76 24 55 28 63
internal_value=0 0.0316536 0.0746384 -0.0750048 0.109946
internal_weight=0 13.4602 7.53806 5.68744 5.1316
internal_count=339 218 142 121 118
shrinkage=0.1


Tree=37
num_leaves=5
num_cat=0
split_feature=4 11 7 18
split_gain=4.18718 4.34685 1.59079 0.27981
threshold=0.34801192842942347 0.45802238805970158 0.029637764803006304 0.2684801892371379
decision_type=2 2 2 2
left_child=1 2 -1 -2
right_child=3 -3 -4 -5
leaf_value=-0.11490449460958829 0.059003517538932931 0.046020338025759583 -0.030542623612232856 0.11194567920845551
leaf_weight=3.9734195703640598 1.7383846966549743 5.3736345134675494 5.1095685670152307 2.3448957577347755
leaf_count=98 46 54 70 71
internal_value=0 -0.0252706 -0.0674473 0.0894065
internal_weight=0 14.4566 9.08299 4.08328
internal_count=339 222 168 117
shrinkage=0.1


Tree=38
num_leaves=7
num_cat=0
split_feature=12 11 4 10 12 12
split_gain=4.01294 3.48569 1.82216 0.163758 0.0216327 0.00124229
threshold=0.20558792768564174 0.31383262260127937 0.25556660039761431 0.074285201000511267 0.31246576024702427 0.42427411723691422
decision_type=2 2 2 2 2 2
left_child=3 -2 -3 -1 -4 -6
right_child=1 2 4 -5 5 -7
leaf_value=-0.067395409482659013 -0.040680686614979929 0.019938363981107678 0.11853002357886633 -0.10892400103912157 0.10629473030057573 0.10165251230942457
leaf_weight=1.7046815725043445 5.1596461702138177 4.710834722965954 1.8814347237348554 2.1434582863003016 1.2127801524475219 1.0987084219232199
leaf_count=56 65 33 17 52 34 82
internal_value=0 0.024719 0.0626175 -0.0905273 0.110568 0.104088
internal_weight=0 14.0634 8.90376 3.84814 4.19292 2.31149
internal_count=339 231 166 108 133 116
shrinkage=0.1


Tree=39
num_leaves=5
num_cat=0
split_feature=7 16 14 0
split_gain=3.70616 3.66252 2.41593 0.450126
threshold=0.087744070766046914 0.16182108626198083 0.42844878821897908 0.38096043287115317
decision_type=2 2 2 2
left_child=1 3 -3 -1
right_child=-2 2 -4 -5
leaf_value=-0.11726659171541745 0.11315421367242305 -0.035928836227648718 0.06259567612645732 -0.055273553779967836
leaf_weight=2.7502377456985441 2.4784336513839653 4.7662980407476407 5.2086455076932907 2.0400406681001186
leaf_count=97 97 48 75 22
internal_value=0 -0.018996 0.015518 -0.0908656
internal_weight=0 14.7652 9.97494 4.79028
internal_count=339 242 123 119
shrinkage=0.1


Tree=40
num_leaves=7
num_cat=0
split_feature=13 2 0 0 17 0
split_gain=3.60854 2.15009 3.3683 1.83013 0.0387058 0.000717519
threshold=0.16724832874557607 0.34084138304595107 0.35914778491714572 0.29184984781873519 0.41597938144329899 0.35914778491714572
decision_type=2 2 2 2 2 2
left_child=1 -1 -3 -2 -5 -6
right_child=3 2 -4 4 5 -7
leaf_value=-0.092403539444338142 -0.0036982383686062596 -0.057739644058022822 0.080563489401374644 0.1254362007639134 0.10563651373313621 0.1015846589504935
leaf_weight=3.9142472790554184 2.2260693917050949 4.251026981510222 3.0062657240778208 1.527520500123501 0.89059332897886612 0.85818573459982872
leaf_count=73 29 84 33 13 31 76
internal_value=0 -0.0326676 -0.000448863 0.0662681 0.113806 0.103648
internal_weight=0 11.1715 7.25729 5.50237 3.2763 1.74878
internal_count=339 190 117 149 120 107
shrinkage=0.1


Tree=41
num_leaves=7
num_cat=0
split_feature=12 11 6 2 6 13
split_gain=3.24175 3.23095 1.8524 0.321307 0.170737 0.153862
threshold=0.20558792768564174 0.23520788912579957 0.10353068984247686 0.32441094159068345 0.052906029331884812 0.19756439244986237
decision_type=2 2 2 2 2 2
left_child=4 -2 -3 -4 -1 -5
right_child=1 2 3 5 -6 -7
leaf_value=-0.062761807925988761 -0.075641670612318662 0.015939218188858059 0.066571608337161095 0.15393658142958258 -0.10826952043188559 0.10261980827834927
leaf_weight=1.4975459966808586 2.6350696794688693 6.3744998411275429 1.3895160285755994 1.1246335729956629 1.8342283018864689 1.2160018035210667
leaf_count=55 31 77 19 12 53 92
internal_value=0 0.0229749 0.0486919 0.104663 -0.087815 0.127277
internal_weight=0 12.7397 10.1047 3.73015 3.33177 2.34064
internal_count=339 231 200 123 108 104
shrinkage=0.1


Tree=42
num_leaves=6
num_cat=0
split_feature=17 5 14 7 14
split_gain=2.92425 2.96907 2.58359 0.886113 0.0380384
threshold=0.58762886597938147 0.12499999999999996 0.43571287063329595 0.042189175155678556 0.55127781813379129
decision_type=2 2 2 2 2
left_child=1 -1 3 -3 -2
right_child=4 2 -4 -5 -6
leaf_value=0.076330176601168143 0.087285319713041945 -0.1175075885957676 0.016107137088179745 -0.040455530267206857 0.11218479522186604
leaf_weight=2.6246028533205381 1.1897389218211185 3.499299622140823 4.3667109203524888 2.6025692163966596 1.2668379601091144
leaf_count=36 63 94 76 32 38
internal_value=0 -0.018774 -0.0426178 -0.0846433 0.100126
internal_weight=0 13.0932 10.4686 6.10187 2.45658
internal_count=339 238 202 126 101
shrinkage=0.1


Tree=43
num_leaves=8
num_cat=0
split_feature=13 11 2 0 4 2 11
split_gain=2.72178 2.86997 1.8953 0.886658 0.698596 0.278542 0.00269625
threshold=0.11215837593393627 0.23520788912579957 0.33745598988895914 0.32008792695299276 0.21100894632206765 0.37911889500767365 0.44976012793176984
decision_type=2 2 2 2 2 2 2
left_child=4 -2 -3 -4 6 -5 -1
right_child=1 2 3 5 -6 -7 -8
leaf_value=-0.10221226039547336 -0.069145690366476609 -0.0013294616373817182 0.041545517564150793 0.16485569307796433 -0.02037954858095254 0.10240167252411703 -0.108969236936012
leaf_weight=1.1842767451889828 2.4826160017400971 3.6723019792698306 1.955071553122252 1.2254141368903222 1.6238780738785861 1.71150621259585 1.1779334824532268
leaf_count=87 29 43 35 23 19 85 18
internal_value=0 0.0255237 0.0529664 0.093725 -0.0708715 0.12846 -0.105582
internal_weight=0 11.0469 8.56429 4.89199 3.98609 2.93692 2.36221
internal_count=339 215 186 143 124 108 105
shrinkage=0.1


Tree=44
num_leaves=8
num_cat=0
split_feature=13 9 14 0 15 4 16
split_gain=2.6762 1.80778 1.58836 1.40731 0.403638 0.0192223 0.000456998
threshold=0.16724832874557607 0.083694489784431766 0.44033546853331579 0.29184984781873519 0.16751559604544439 0.27733598409542742 0.29420926517571894
decision_type=2 2 2 2 2 2 2
left_child=1 -1 4 -2 -3 -5 -7
right_child=3 2 -4 5 -6 6 -8
leaf_value=0.04743884976904883 0.0013368197771334211 -0.062716873460037167 -0.0008502316627479157 0.12054215505068869 -0.12419813599720278 0.10521021627961931 0.10149380735206191
leaf_weight=2.3291243314743024 2.092208863236011 2.1329047423787415 3.2649583728052676 1.2568919439800086 2.1384611148387194 0.63729237439110853 0.68817052105441689
leaf_count=31 29 73 56 14 30 27 79
internal_value=0 -0.0295625 -0.05336 0.0622946 -0.0934975 0.111682 0.103281
internal_weight=0 9.86545 7.53632 4.67456 4.27137 2.58235 1.32546
internal_count=339 190 159 149 103 120 106
shrinkage=0.1


Tree=45
num_leaves=5
num_cat=0
split_feature=4 8 13 15
split_gain=2.53 2.68338 1.19902 0.426694
threshold=0.24058151093439364 0.095405113107219011 0.15401346834447502 0.26870797799575058
decision_type=2 2 2 2
left_child=1 -1 -2 -4
right_child=2 -3 3 -5
leaf_value=0.020871204215213521 0.0035173835103932518 -0.098371433767194483 0.058173463071657064 0.13203633819223295
leaf_weight=3.726104848086834 3.3580094054341316 3.823989903088659 1.8778685228899124 1.3403317630290983
leaf_count=79 34 86 54 86
internal_value=0 -0.0395231 0.0453188 0.0889362
internal_weight=0 7.55009 6.57621 3.2182
internal_count=339 165 174 140
shrinkage=0.1


Tree=46
num_leaves=7
num_cat=0
split_feature=16 12 0 14 18 11
split_gain=2.37705 1.88449 1.10627 0.0739535 0.0479168 0.0101503
threshold=0.16182108626198083 0.32392051396981919 0.40158944876564079 0.35118536617579083 0.17504435245416919 0.30636993603411528
decision_type=2 2 2 2 2 2
left_child=2 -2 4 -3 -1 -5
right_child=1 3 -4 5 -6 -7
leaf_value=-0.12641825458111761 -0.00051177484346568835 0.074313025228499377 -0.0030227987383726336 0.1173482823688741 -0.097380977976538968 0.10228286132843308
leaf_weight=1.0206251014024035 7.1102024093270284 0.88630052842199836 1.6526571847498415 0.87339047715067841 1.2823010976426301 0.91651446069590747
leaf_count=33 82 26 17 14 71 96
internal_value=0 0.02641 -0.06545 0.0979365 -0.11025 0.109634
internal_weight=0 9.78641 3.95558 2.67621 2.30293 1.7899
internal_count=339 218 121 136 104 110
shrinkage=0.1


Tree=47
num_leaves=6
num_cat=0
split_feature=11 13 9 14 0
split_gain=2.11322 2.83602 1.68673 1.61093 0.122942
threshold=0.21868336886993608 0.13213969720802199 0.14166713570101869 0.41524136564749387 0.27460263780858979
decision_type=2 2 2 2 2
left_child=-1 2 -2 -3 -5
right_child=1 3 -4 4 -6
leaf_value=-0.088164510522931325 0.029633174066231095 0.022149866245961998 -0.091203219793703938 0.15372033890859466 0.10759907413718993
leaf_weight=2.260291825281457 1.9879070818424205 3.9408523999154568 2.7576882704161108 0.95604166481643948 1.4614819590933619
leaf_count=55 40 62 74 13 95
internal_value=0 0.0179129 -0.0405854 0.0615733 0.125838
internal_weight=0 11.104 4.7456 6.35838 2.41752
internal_count=339 284 114 170 108
shrinkage=0.1


Tree=48
num_leaves=6
num_cat=0
split_feature=4 0 19 5 8
split_gain=2.0022 2.19102 1.02632 0.469199 0.216531
threshold=0.34801192842942347 0.39144403111261405 0.23061786698150338 0.16680707666385844 0.25511460930693675
decision_type=2 2 2 2 2
left_child=1 2 3 -1 -2
right_child=4 -3 -4 -5 -6
leaf_value=-0.043238940214128885 0.10961895743006007 0.033831981703319199 0.0017518406220558037 -0.11312668602763637 0.049202205103758181
leaf_weight=1.5446328264661113 1.3200082876719545 4.5197667928878218 1.9320427449420092 2.5407590018585324 1.0773747644852845
leaf_count=37 69 59 36 90 48
internal_value=0 -0.0187828 -0.0583025 -0.0867031 0.0824679
internal_weight=0 10.5372 6.01743 4.08539 2.39738
internal_count=339 222 163 127 117
shrinkage=0.1


Tree=49
num_leaves=6
num_cat=0
split_feature=16 11 8 4 6
split_gain=1.81179 1.5541 1.59 2.44278 1.20384
threshold=0.16182108626198083 0.35967484008528788 0.14733980232523208 0.24868290258449302 0.096740901683867467
decision_type=2 2 2 2 2
left_child=4 -2 -3 -4 -1
right_child=1 2 3 -5 -6
leaf_value=-0.10999834472036825 -0.020992208235619311 0.13582846391676096 -0.083397144015898608 0.097620588448789694 0.0074038937602271503
leaf_weight=2.0619585302192731 4.1629189429804665 1.8308651745319364 1.3341857120394709 1.6895434700418261 1.5152330456767229
leaf_count=98 76 39 13 90 23
internal_value=0 0.0238382 0.0622813 0.0177486 -0.0602689
internal_weight=0 9.01751 4.85459 3.02373 3.57719
internal_count=339 218 142 103 121
shrinkage=0.1


Tree=50
num_leaves=5
num_cat=0
split_feature=7 14 7 9
split_gain=1.70262 1.98139 1.65671 0.603196
threshold=0.024006440068883302 0.45948623126196925 0.052312485291315956 0.13857150897731754
decision_type=2 2 2 2
left_child=-1 2 -2 -3
right_child=1 3 -4 -5
leaf_value=-0.069109628982327184 -0.052791881159129972 0.14147847529986968 0.0473256002718987 0.046481575291499475
leaf_weight=2.7578100105747589 3.7571163126267475 1.3109759727958592 2.9510275544598699 1.3636815017089245
leaf_count=93 70 48 74 54
internal_value=0 0.0202685 -0.00874848 0.093044
internal_weight=0 9.3828 6.70814 2.67466
internal_count=339 246 144 102
shrinkage=0.1


Tree=51
num_leaves=7
num_cat=0
split_feature=11 13 18 9 9 13
split_gain=1.6241 2.18235 2.1712 1.45819 0.479689 0.543128
threshold=0.21868336886993608 0.13213969720802199 0.19653065247388127 0.13378735858614285 0.095303089998311413 0.16724832874557607
decision_type=2 2 2 2 2 2
left_child=-1 3 -3 -2 -4 -6
right_child=1 2 4 -5 5 -7
leaf_value=-0.082122178065750437 0.034154057768083397 -0.042400827642105073 0.14287895328898398 -0.08531515207423955 0.018974749709881805 0.11133897689582117
leaf_weight=2.0016824302729228 1.7081855400465409 1.5589087652042506 1.4391038599424062 2.5419809354934841 1.1335650212131443 1.4522852508816866
leaf_count=55 37 31 32 77 16 91
internal_value=0 0.0166967 0.0577958 -0.0372993 0.096603 0.0708491
internal_weight=0 9.83403 5.58386 4.25017 4.02495 2.58585
internal_count=339 284 170 114 139 107
shrinkage=0.1


Tree=52
num_leaves=6
num_cat=0
split_feature=4 11 1 18 9
split_gain=1.5986 2.17823 0.839174 0.249309 0.03056
threshold=0.34801192842942347 0.45802238805970158 0.31960472669476891 0.23536369012418693 0.13378735858614285
decision_type=2 2 2 2 2
left_child=1 2 4 -2 -1
right_child=3 -3 -4 -5 -6
leaf_value=-0.086290354640587125 0.039148937071541261 0.042851824346504537 -0.023403736018518174 0.10912697959819169 -0.10967734963693009
leaf_weight=0.8819191711954758 0.88773928978480521 3.6341970572248101 3.2897821217775345 1.1936884702881796 1.5246936834882943
leaf_count=48 29 54 37 88 83
internal_value=0 -0.0176395 -0.0562318 0.079281 -0.101107
internal_weight=0 9.33059 5.69639 2.08143 2.40661
internal_count=339 222 168 117 131
shrinkage=0.1


Tree=53
num_leaves=5
num_cat=0
split_feature=4 8 3 17
split_gain=1.49577 2.04485 1.01392 2.02606
threshold=0.24058151093439364 0.095405113107219011 0.33884424268449792 0.55085910652920977
decision_type=2 2 2 2
left_child=1 -1 -2 -4
right_child=2 -3 3 -5
leaf_value=0.02371340508840664 0.08927498015261108 -0.093307632218952094 -0.091552340612237978 0.078549249751858882
leaf_weight=3.0303683804813772 2.2848610748769715 2.9439084518235177 1.3064789299387487 1.5089679294032974
leaf_count=79 71 86 20 83
internal_value=0 -0.0339503 0.0397815 -0.00038463
internal_weight=0 5.97428 5.10031 2.81545
internal_count=339 165 174 103
shrinkage=0.1


Tree=54
num_leaves=5
num_cat=0
split_feature=11 13 14 19
split_gain=1.38452 1.73067 1.22573 0.17437
threshold=0.21868336886993608 0.11215837593393627 0.41524136564749387 0.24127640036730955
decision_type=2 2 2 2
left_child=-1 -2 -3 -4
right_child=1 2 3 -5
leaf_value=-0.078775876527694175 -0.054355125089153536 0.011705835501222062 0.069765773211990581 0.12660403526346822
leaf_weight=1.8470839462243027 2.4856969122774881 4.1259189464617521 0.90697955293580923 1.3330445304745806
leaf_count=55 94 76 57 57
internal_value=0 0.0164073 0.0440378 0.10359
internal_weight=0 8.85164 6.36594 2.24002
internal_count=339 284 190 114
shrinkage=0.1


Tree=55
num_leaves=6
num_cat=0
split_feature=7 14 11 19 9
split_gain=1.30088 1.60732 0.888547 0.883012 0.300763
threshold=0.050986369018935405 0.42844878821897908 0.28811300639658854 0.11399711399711397 0.17698542241233742
decision_type=2 2 2 2 2
left_child=1 3 -2 -1 -4
right_child=2 -3 4 -5 -6
leaf_value=-0.0094026031745534332 -0.01709909944667122 0.026608614760751555 0.13068209952681595 -0.10660736792479769 0.052696064519862279
leaf_weight=1.572374764364213 1.1168723306618633 3.4575929618440568 1.0621974947862325 2.3037208756431937 0.92533824662677933
leaf_count=48 17 79 77 70 48
internal_value=0 -0.0229593 0.0542694 -0.0671753 0.0943741
internal_weight=0 7.33369 3.10441 3.8761 1.98754
internal_count=339 197 142 118 125
shrinkage=0.1


Tree=56
num_leaves=6
num_cat=0
split_feature=16 11 8 4 6
split_gain=1.3042 1.10642 1.14225 1.73049 0.900676
threshold=0.16182108626198083 0.35967484008528788 0.14733980232523208 0.24868290258449302 0.096740901683867467
decision_type=2 2 2 2 2
left_child=4 -2 -3 -4 -1
right_child=1 2 3 -5 -6
leaf_value=-0.10801448568100097 -0.018706260150953394 0.12715021569271115 -0.075219010347031684 0.09741749674134452 0.0035240654262890508
leaf_weight=1.5686243615346032 3.4196284746285528 1.5128205707296731 1.104374345391989 1.2243428304791448 1.3444876472931353
leaf_count=98 76 39 13 90 23
internal_value=0 0.0226671 0.0594965 0.0155461 -0.0565361
internal_weight=0 7.26117 3.84154 2.32872 2.91311
internal_count=339 218 142 103 121
shrinkage=0.1


Tree=57
num_leaves=5
num_cat=0
split_feature=4 11 7 17
split_gain=1.20418 1.57713 1.01795 0.220871
threshold=0.34801192842942347 0.45802238805970158 0.029637764803006304 0.5618556701030929
decision_type=2 2 2 2
left_child=1 2 -1 -2
right_child=3 -3 -4 -5
leaf_value=-0.10935148102578172 0.034743557909564092 0.038865287535412428 -0.015796105021533821 0.10710835018428258
leaf_weight=1.8825440442888046 0.74021703319158472 3.1710001728497446 3.0428927829489112 0.98042782198172063
leaf_count=98 21 54 70 96
internal_value=0 -0.0161408 -0.0515538 0.0759772
internal_weight=0 8.09644 4.92544 1.72064
internal_count=339 222 168 117
shrinkage=0.1


Tree=58
num_leaves=6
num_cat=0
split_feature=4 3 11 13 3
split_gain=1.10252 1.59096 1.24193 0.494934 0.0314363
threshold=0.24058151093439364 0.12715477578062692 0.35967484008528788 0.15401346834447502 0.31706643764186254
decision_type=2 2 2 2 2
left_child=1 -1 -2 -3 -4
right_child=2 3 4 -5 -6
leaf_value=0.050271377805458761 -0.0052636622207940208 -0.10070853676731931 0.11799531996942454 -0.025478604749705369 0.09055310456279092
leaf_weight=1.6494763508671892 2.6487919276114553 2.0409354715375234 0.86851864506024845 1.5301683340221641 0.80374611174920574
leaf_count=51 55 96 41 18 78
internal_value=0 -0.0309553 0.0373336 -0.0684736 0.104806
internal_weight=0 5.22058 4.32106 3.5711 1.67226
internal_count=339 165 174 114 119
shrinkage=0.1


Tree=59
num_leaves=8
num_cat=0
split_feature=13 0 19 19 18 6 11
split_gain=1.10038 1.20103 1.74515 0.801068 0.00646094 0.00361628 0.000847927
threshold=0.18887632717263073 0.39144403111261405 0.25157418339236531 0.069756001574183366 0.22294500295683017 0.098877421691109815 0.25039978678038383
decision_type=2 2 2 2 2 2 2
left_child=1 2 4 -2 -1 -5 -7
right_child=3 -3 -4 5 -6 6 -8
leaf_value=-0.11336055202188045 -0.024637858657337752 0.025115371368225239 0.030023735509832061 0.1149279765651765 -0.10294542984612394 0.10853550466133828 0.10171776858812505
leaf_weight=1.3220052927499644 0.66671235812827978 3.4019335659686476 1.4564530439674852 0.60775711981113978 1.0840062487404791 0.31223842594772577 0.43876931688282639
leaf_count=58 14 51 33 11 66 7 99
internal_value=0 -0.0182104 -0.0563704 0.065141 -0.108668 0.109193 0.104552
internal_weight=0 7.2644 3.86246 2.02548 2.40601 1.35876 0.751008
internal_count=339 208 157 131 124 117 106
shrinkage=0.1


Tree=60
num_leaves=7
num_cat=0
split_feature=12 11 8 4 6 4
split_gain=1.03704 0.881383 0.965005 2.34107 0.191158 0.0247614
threshold=0.20558792768564174 0.31383262260127937 0.11816174482530721 0.24058151093439364 0.050063371356147003 0.31478628230616307
decision_type=2 2 2 2 2 2
left_child=4 -2 -3 -4 -1 -5
right_child=1 2 3 5 -6 -7
leaf_value=-0.034057591350342128 -0.026530593955033124 0.096701943827335046 -0.099082888274810987 0.078704038805293974 -0.10448332483873624 0.10674105776320444
leaf_weight=0.68077217973768689 2.974139170255512 1.9407013356685636 1.1849010484293105 0.53495569666847564 0.88835477479733527 0.76611445553135127
leaf_count=48 65 38 12 19 60 97
internal_value=0 0.0155712 0.043858 0.00260487 -0.0739288 0.0952132
internal_weight=0 7.40081 4.42667 2.48597 1.56913 1.30107
internal_count=339 231 166 128 108 116
shrinkage=0.1


Tree=61
num_leaves=7
num_cat=0
split_feature=7 17 5 13 3 4
split_gain=1.32246 1.07861 1.51374 0.456489 0.382023 0.0484039
threshold=0.018524536886577802 0.41597938144329899 0.12499999999999996 0.14326091230829727 0.29084105269615362 0.32626739562624257
decision_type=2 2 2 2 2 2
left_child=-1 2 -2 -3 -5 -6
right_child=1 3 -4 4 5 -7
leaf_value=-0.095861022655852113 0.057907019239016269 0.011253268633959122 -0.072504909040968277 0.038806218406202804 0.14596573141373415 0.1048474289501862
leaf_weight=1.2352963935118166 1.4559935471042993 1.4630126133561137 2.289852247107774 1.0255354921100663 0.49984953610692151 0.67009334120666608
leaf_count=56 18 22 98 43 9 93
internal_value=0 0.015905 -0.0218144 0.054525 0.0833602 0.122415
internal_weight=0 7.40434 3.74585 3.65849 2.19548 1.16994
internal_count=339 283 116 167 145 102
shrinkage=0.1


Tree=62
num_leaves=6
num_cat=0
split_feature=7 14 5 4 9
split_gain=1.1413 1.25443 1.41368 0.707947 0.612094
threshold=0.018524536886577802 0.45948623126196925 0.12499999999999996 0.24058151093439364 0.13561659255923905
decision_type=2 2 2 2 2
left_child=-1 2 -2 -4 -3
right_child=1 4 3 -5 -6
leaf_value=-0.092043283108708684 0.061447947262924997 0.12945757756620901 -0.092233058313306679 0.00014142233713179995 0.022005542616923807
leaf_weight=1.1617540539009494 1.7172463924507608 1.1329031625646169 1.8219245567452165 1.5233411754597908 0.99639944836962957
leaf_count=56 36 50 79 53 65
internal_value=0 0.0147785 -0.0123071 -0.0501683 0.0791758
internal_weight=0 7.19181 5.06251 3.34527 2.1293
internal_count=339 283 168 132 115
shrinkage=0.1


Tree=63
num_leaves=5
num_cat=0
split_feature=7 14 7 9
split_gain=0.981767 1.07845 1.04094 0.685395
threshold=0.018524536886577802 0.42844878821897908 0.052312485291315956 0.13561659255923905
decision_type=2 2 2 2
left_child=-1 2 -2 -3
right_child=1 3 -4 -5
leaf_value=-0.088095818875409015 -0.05801066928162333 0.12291548679703904 0.039627169749286817 0.018394120165359865
leaf_weight=1.0959099280880762 2.532954091380816 1.1486964286305013 1.9192909552948547 1.3824025103822348
leaf_count=56 86 64 55 78
internal_value=0 0.0137095 -0.0159206 0.0658294
internal_weight=0 6.98334 4.45225 2.5311
internal_count=339 283 141 142
shrinkage=0.1


Tree=64
num_leaves=6
num_cat=0
split_feature=2 5 17 19 9
split_gain=0.885066 1.41134 1.29376 0.742069 0.459106
threshold=0.2612169359935001 0.12499999999999996 0.41597938144329899 0.25157418339236531 0.12654077784656945
decision_type=2 2 2 2 2
left_child=-1 -2 4 -4 -3
right_child=1 2 3 -5 -6
leaf_value=-0.078983492893602569 0.11916772160740763 -0.0077520165936444257 -0.015276400111138268 0.077091563908727068 -0.10438056380920513
leaf_weight=1.2038439157186074 1.0740115789812987 0.78760103043168816 1.7222890325938354 1.7571152402379082 1.3087723885546436
leaf_count=39 34 38 79 69 80
internal_value=0 0.0141989 -0.00602024 0.0313698 -0.0680775
internal_weight=0 6.64979 5.57578 3.4794 2.09637
internal_count=339 300 266 148 118
shrinkage=0.1


Tree=65
num_leaves=6
num_cat=0
split_feature=11 13 18 9 8
split_gain=0.804543 1.10531 1.11763 0.973833 0.237647
threshold=0.21868336886993608 0.13213969720802199 0.19653065247388127 0.13378735858614285 0.13990446720942112
decision_type=2 2 2 2 2
left_child=-1 3 -3 -2 -4
right_child=1 2 4 -5 -6
leaf_value=-0.069745817298462381 0.035554513272280763 -0.037703269374754579 0.1161476259839177 -0.084101544439038084 0.053828780945591105
leaf_weight=1.3608831831370478 1.2051452100276949 0.97796189028304104 1.3808630855055528 1.5613959876936858 1.0988741918699814
leaf_count=55 37 31 43 77 96
internal_value=0 0.0151336 0.0528278 -0.0319776 0.0885316
internal_weight=0 6.22424 3.4577 2.76654 2.47974
internal_count=339 284 170 114 139
shrinkage=0.1


Tree=66
num_leaves=5
num_cat=0
split_feature=7 14 5 9
split_gain=0.82171 0.840203 1.15343 0.513946
threshold=0.018524536886577802 0.42844878821897908 0.14774641954507162 0.13561659255923905
decision_type=2 2 2 2
left_child=-1 2 -2 -3
right_child=1 3 -4 -5
leaf_value=-0.085240021219434636 0.040705345770013571 0.11550527053265601 -0.065832536217049598 0.019869013241154813
leaf_weight=0.98115702398354177 1.9731722366996107 0.99729887355351854 2.095330267213285 1.2871448600199071
leaf_count=56 49 64 92 78
internal_value=0 0.0130877 -0.014163 0.0616201
internal_weight=0 6.35295 4.0685 2.28444
internal_count=339 283 141 142
shrinkage=0.1


Tree=67
num_leaves=10
num_cat=0
split_feature=16 7 13 0 4 12 11 17 4
split_gain=0.820999 0.747599 0.694463 0.172719 0.00131839 0.00117283 7.03166e-05 4.14823e-05 2.74184e-06
threshold=0.16182108626198083 0.061791414984740257 0.16724832874557607 0.19597565099763262 0.22676441351888674 0.23016584491259523 0.30210554371002141 0.47302405498281785 0.39498011928429427
decision_type=2 2 2 2 2 2 2 2 2
left_child=1 5 -2 -4 -5 -1 -6 -8 -9
right_child=2 -3 3 4 6 -7 7 8 -10
leaf_value=-0.10209622286898945 -0.0013581315497812275 0.016376009017159708 0.029802667301098436 0.110014674628267 0.10383192359561931 -0.10844287545731551 0.10264035863179033 0.10098583027939075 0.10026497866779707
leaf_weight=0.53164308157283835 3.6739431630121544 0.87841342855244864 0.4451021049171684 0.35364816430956125 0.20642195781692863 0.64372388937044889 0.18818101473152637 0.098743169772205874 0.1133211410488002
leaf_count=91 77 10 9 6 10 20 10 27 79
internal_value=0 -0.0534142 0.0215114 0.0812952 0.105162 -0.105572 0.102333 0.10156 0.100601
internal_weight=0 2.05378 5.07936 1.40542 0.960315 1.17537 0.606667 0.400245 0.212064
internal_count=339 121 218 141 132 111 126 116 106
shrinkage=0.1


Tree=68
num_leaves=6
num_cat=0
split_feature=2 7 4 8 10
split_gain=0.754657 0.897965 0.698459 0.591165 0.360524
threshold=0.2612169359935001 0.050986369018935405 0.24868290258449302 0.12830083816504942 0.10226911543191962
decision_type=2 2 2 2 2
left_child=-1 2 3 -2 -3
right_child=1 4 -4 -5 -6
leaf_value=-0.078413509177360508 -0.0054141686922320161 0.10992003431301089 0.031808984700970537 -0.11090918835599606 0.019675694387269634
leaf_weight=1.044403546140529 1.2239250561106021 1.0594616689777465 1.908183383697178 0.93848857964621846 0.76041514970711421
leaf_count=39 68 71 45 49 67
internal_value=0 0.0138192 -0.0122872 -0.0511991 0.0722124
internal_weight=0 5.89047 4.0706 2.16241 1.81988
internal_count=339 300 162 117 138
shrinkage=0.1


Tree=69
num_leaves=7
num_cat=0
split_feature=4 11 7 17 12 18
split_gain=0.711894 1.07989 0.556878 0.228401 0.000808019 5.49215e-05
threshold=0.34801192842942347 0.45802238805970158 0.029637764803006304 0.51804123711340211 0.32865182529010406 0.23536369012418693
decision_type=2 2 2 2 2 2
left_child=1 2 -1 -2 -5 -6
right_child=3 -3 -4 4 5 -7
leaf_value=-0.10584298085478894 0.015897481910601145 0.039376571721436229 -0.020606782575979726 0.10931491514216735 0.10387105685955743 0.10154265152349783
leaf_weight=1.1900754200760277 0.47138867178000488 2.1912658981163986 2.1535473437979817 0.30694417608901858 0.17752765154000372 0.23593883708235808
leaf_count=98 10 54 70 7 22 78
internal_value=0 -0.0151863 -0.0509444 0.0700162 0.105428 0.102542
internal_weight=0 5.53489 3.34362 1.1918 0.720411 0.413466
internal_count=339 222 168 117 107 100
shrinkage=0.1


Tree=70
num_leaves=8
num_cat=0
split_feature=16 15 17 0 11 11 11
split_gain=0.70633 0.665359 0.980603 0.57376 0.444243 0.108897 0.0162131
threshold=0.16182108626198083 0.18376652986776101 0.41597938144329899 0.45113290497125452 0.35967484008528788 0.42763859275053312 0.22441364605543715
decision_type=2 2 2 2 2 2 2
left_child=3 -2 -3 6 -4 -6 -1
right_child=1 2 4 -5 5 -7 -8
leaf_value=-0.12029558116109361 0.083308157057093699 -0.093739342057521047 -0.0035455084192103762 0.0053074029447435275 0.042556288342297029 0.11030196086053375 -0.094189426516307059
leaf_weight=0.43823646730743326 1.2417965104104949 0.87160612572915885 1.593280731874984 0.8920913664624095 0.4063779035641345 0.57021102585713379 0.52037248411215842
leaf_count=35 37 32 41 15 30 78 71
internal_value=0 0.0205601 -0.0020815 -0.0524109 0.0290055 0.0821117 -0.106124
internal_weight=0 4.68327 3.44148 1.8507 2.56987 0.976589 0.958609
internal_count=339 218 181 121 149 108 106
shrinkage=0.1


Tree=71
num_leaves=6
num_cat=0
split_feature=17 0 13 10 0
split_gain=0.596047 0.783267 0.628148 0.5304 0.186682
threshold=0.29142611683848796 0.37402773080825163 0.15401346834447502 0.030530105164241355 0.43287115319580644
decision_type=2 2 2 2 2
left_child=3 2 -2 -1 -3
right_child=1 4 -4 -5 -6
leaf_value=0.009849022223640598 -0.056523173921133207 0.11383769773792994 0.031862798105215147 -0.10680976212164167 0.043324478898660451
leaf_weight=0.71770119061693527 1.5341537354979666 0.72242935681424547 1.6896340565872376 0.85286814198479988 0.78174566477537155
leaf_count=18 58 41 77 86 59
internal_value=0 0.0176037 -0.0101988 -0.0535003 0.0771908
internal_weight=0 4.72796 3.22379 1.57057 1.50418
internal_count=339 235 135 104 100
shrinkage=0.1


Tree=72
num_leaves=6
num_cat=0
split_feature=4 0 8 10 18
split_gain=0.605834 0.741551 0.717967 0.360899 0.220987
threshold=0.34801192842942347 0.30605343253297257 0.10595728062006186 0.067876539115293719 0.23289966489256847
decision_type=2 2 2 2 2
left_child=1 3 -3 -1 -2
right_child=4 2 -4 -5 -6
leaf_value=-0.1036124805899697 0.013499650410331923 0.069186986302249107 -0.028160182020429178 -0.018507448724171184 0.10626503402451255
leaf_weight=1.0197563346591776 0.43353663632296935 1.3966799628396986 1.6558468540315514 0.97440221294527862 0.6299304479471175
leaf_count=67 26 39 66 50 91
internal_value=0 -0.0146017 0.0163809 -0.0620278 0.068448
internal_weight=0 5.04669 3.05253 1.99416 1.06347
internal_count=339 222 105 117 117
shrinkage=0.1


Tree=73
num_leaves=9
num_cat=0
split_feature=2 5 17 7 17 9 12 12
split_gain=0.584705 0.872727 0.876493 0.455947 0.410335 0.296783 0.00474965 0.00585922
threshold=0.2612169359935001 0.12499999999999996 0.41597938144329899 0.028535780858352053 0.49003436426116831 0.12654077784656945 0.29105035111310323 0.41730165844912598
decision_type=2 2 2 2 2 2 2 2
left_child=-1 -2 5 -4 -5 -3 -6 -8
right_child=1 2 3 4 6 -7 7 -9
leaf_value=-0.072935768112262059 0.10823251371021239 -0.010087766281495752 -0.030338083961593584 0.0063782437369140667 0.10844749383665844 -0.10208474044838467 0.083254373299398277 0.10483618397940558
leaf_weight=0.93035006872378279 0.81277151408721682 0.56888957807677776 0.87986502010608125 0.84976535424357258 0.47726883087307215 0.91414854791946709 0.24079276851261966 0.26340205196174793
leaf_count=39 34 38 19 16 10 80 32 71
internal_value=0 0.0133925 -0.00498628 0.0288246 0.057251 -0.0667949 0.101297 0.0945292
internal_weight=0 5.0069 4.19413 2.71109 1.83123 1.48304 0.981464 0.504195
internal_count=339 300 266 148 129 118 113 103
shrinkage=0.1


Tree=74
num_leaves=8
num_cat=0
split_feature=16 7 13 0 6 5 14
split_gain=0.531956 0.571439 0.488958 0.17382 0.00101755 0.000200796 4.59108e-05
threshold=0.16182108626198083 0.061791414984740257 0.16724832874557607 0.19597565099763262 0.063280825638240071 0.16217354675652892 0.37099650003301859
decision_type=2 2 2 2 2 2 2
left_child=1 5 -2 -4 -5 -1 -6
right_child=2 -3 3 4 6 -7 -8
leaf_value=-0.10636016726850478 -0.0015665614782190513 0.01585154578551258 0.01867258929832806 0.11001303562207108 0.10308238474491543 -0.10324444576362445 0.10111075257703864
leaf_weight=0.34698394063161664 3.03846201649867 0.72946737450547516 0.34550133161246754 0.25125576765276492 0.24687270744470879 0.51212509084143676 0.22642459254711866
leaf_count=25 77 10 9 6 28 86 98
internal_value=0 -0.0492366 0.0189059 0.0770381 0.10487 -0.104503 0.102139
internal_weight=0 1.58858 4.10852 1.07005 0.724553 0.859109 0.473297
internal_count=339 121 218 141 132 111 126
shrinkage=0.1


Tree=75
num_leaves=6
num_cat=0
split_feature=11 13 9 18 8
split_gain=0.55909 0.615792 0.730227 0.683798 0.192885
threshold=0.21868336886993608 0.13213969720802199 0.13378735858614285 0.19653065247388127 0.13990446720942112
decision_type=2 2 2 2 2
left_child=-1 2 -2 -3 -5
right_child=1 3 -4 4 -6
leaf_value=-0.067498881867179492 0.039257035166587129 -0.033757736962964927 -0.080367810265695852 0.11097404871268009 0.044358038954480074
leaf_weight=1.0073692876612765 0.94053902942687306 0.72079246726934831 1.1155008333735166 0.99321402980422113 0.77287901345698629
leaf_count=55 37 31 77 43 96
internal_value=0 0.014846 -0.0256452 0.0483223 0.0818215
internal_weight=0 4.54293 2.05604 2.48689 1.76609
internal_count=339 284 114 170 139
shrinkage=0.1


Tree=76
num_leaves=6
num_cat=0
split_feature=2 5 17 19 19
split_gain=0.500012 0.583261 0.686988 0.568541 0.167837
threshold=0.2612169359935001 0.14774641954507162 0.41597938144329899 0.25157418339236531 0.16912632821723733
decision_type=2 2 2 2 2
left_child=-1 -2 4 -4 -3
right_child=1 2 3 -5 -6
leaf_value=-0.071747915588497718 0.081577836358570868 -0.031452537725688894 -0.027018731534196719 0.070546272232309512 -0.10710802403632574
leaf_weight=0.8238903431338257 0.97260815619665653 0.59929346962599106 1.1223843812185808 1.2766282340744508 0.57416278673917986
leaf_count=39 57 60 64 69 50
internal_value=0 0.0129222 -0.00576934 0.0249002 -0.0684702
internal_weight=0 4.54508 3.57247 2.39901 1.17346
internal_count=339 300 243 133 110
shrinkage=0.1


end of trees

feature_importances:
Column_11=50
Column_0=39
Column_13=34
Column_17=33
Column_12=31
Column_4=30
Column_7=25
Column_14=23
Column_2=17
Column_9=16
Column_16=16
Column_8=13
Column_5=12
Column_18=11
Column_6=9
Column_10=9
Column_19=9
Column_3=7
Column_15=5
Column_1=1

parameters:
[boosting: gbdt]
[objective: binary]
[metric: binary_logloss]
[tree_learner: serial]
[device_type: cpu]
[data: ]
[valid: ]
[num_iterations: 10000]
[learning_rate: 0.1]
[num_leaves: 15]
[num_threads: 0]
[force_col_wise: 0]
[force_row_wise: 0]
[histogram_pool_size: -1]
[max_depth: -1]
[min_data_in_leaf: 50]
[min_sum_hessian_in_leaf: 0.001]
[bagging_fraction: 0.5]
[pos_bagging_fraction: 1]
[neg_bagging_fraction: 1]
[bagging_freq: 0]
[bagging_seed: 10961]
[feature_fraction: 0.8]
[feature_fraction_bynode: 1]
[feature_fraction_seed: 53]
[extra_trees: 0]
[extra_seed: 11644]
[early_stopping_round: 50]
[first_metric_only: 0]
[max_delta_step: 0]
[lambda_l1: 0]
[lambda_l2: 0]
[min_gain_to_split: 0]
[drop_rate: 0.1]
[max_drop: 50]
[skip_drop: 0.5]
[xgboost_dart_mode: 0]
[uniform_drop: 0]
[drop_seed: 30626]
[top_rate: 0.2]
[other_rate: 0.1]
[min_data_per_group: 100]
[max_cat_threshold: 32]
[cat_l2: 10]
[cat_smooth: 10]
[max_cat_to_onehot: 4]
[top_k: 20]
[monotone_constraints: ]
[monotone_constraints_method: basic]
[monotone_penalty: 0]
[feature_contri: ]
[forcedsplits_filename: ]
[refit_decay_rate: 0.9]
[cegb_tradeoff: 1]
[cegb_penalty_split: 0]
[cegb_penalty_feature_lazy: ]
[cegb_penalty_feature_coupled: ]
[path_smooth: 0]
[interaction_constraints: ]
[verbosity: -1]
[saved_feature_importance_type: 0]
[max_bin: 255]
[max_bin_by_feature: ]
[min_data_in_bin: 3]
[bin_construct_sample_cnt: 200000]
[data_random_seed: 4071]
[is_enable_sparse: 1]
[enable_bundle: 1]
[use_missing: 1]
[zero_as_missing: 0]
[feature_pre_filter: 1]
[pre_partition: 0]
[two_round: 0]
[header: 0]
[label_column: ]
[weight_column: ]
[group_column: ]
[ignore_column: ]
[categorical_feature: ]
[forcedbins_filename: ]
[objective_seed: 602]
[num_class: 1]
[is_unbalance: 0]
[scale_pos_weight: 1]
[sigmoid: 1]
[boost_from_average: 1]
[reg_sqrt: 0]
[alpha: 0.9]
[fair_c: 1]
[poisson_max_delta_step: 0.7]
[tweedie_variance_power: 1.5]
[lambdarank_truncation_level: 20]
[lambdarank_norm: 1]
[label_gain: ]
[eval_at: ]
[multi_error_top_k: 1]
[auc_mu_weights: ]
[num_machines: 1]
[local_listen_port: 12400]
[time_out: 120]
[machine_list_filename: ]
[machines: ]
[gpu_platform_id: -1]
[gpu_device_id: -1]
[gpu_use_dp: 0]

end of parameters

pandas_categorical:null
