tree
version=v3
num_class=1
num_tree_per_iteration=1
label_index=0
max_feature_idx=19
objective=binary sigmoid:1
feature_names=Column_0 Column_1 Column_2 Column_3 Column_4 Column_5 Column_6 Column_7 Column_8 Column_9 Column_10 Column_11 Column_12 Column_13 Column_14 Column_15 Column_16 Column_17 Column_18 Column_19
feature_infos=[0.022658099425092899:1] [0:1] [0:0.81132075471698095] [0.0124532237286055:1] [0:0.91699801192842945] [0:1] [0:1] [0.0007956697634283:1.0000000000000002] [0.010950220806921601:1] [0:1] [0.0037035501568480999:0.7588546632947778] [0.0125266524520256:1] [0:1] [0:1] [0:1] [0:0.88347837898147874] [0:1] [0:1] [0:1] [0:0.77371113734750119]
tree_sizes=748 633 740 636 637 740 630 634 737 640 645 641 636 637 634 638 745 738 738 745 747 745 846 638 640 744 640 745 639 745 743 636 847 743 743 641 641 744 642 743 638 746 641 744 745 643 849 740 743 846 848 644 747 643 747 952 851 748 957 857 851 749 643 854 749 855 542 856 961 854 1178 1067 854 645 648 755 966 646 756 855 650 648 647 855 865 753 1073 966 1078 756 970 759 1183 862 862 865 756 756 651 650 863 655 1188 760 653 1294 870 764 653 655

Tree=0
num_leaves=6
num_cat=0
split_feature=4 12 13 6 0
split_gain=239.608 11.0953 7.08766 0.0455176 1.42109e-14
threshold=0.25556660039761431 0.3637631356143235 0.11030279197797871 0.056291870360311358 0.37504227257355433
decision_type=2 2 2 2 2
left_child=2 -2 3 -1 -3
right_child=1 4 -4 -5 -6
leaf_value=-0.19469199025167183 0.093310516026241991 0.20531149068987509 -0.10238349464977639 -0.18669192063284096 0.20531149068987514
leaf_weight=16.49985641241074 12.499891221523283 12.749889045953752 12.999886870384215 12.499891221523283 17.499847710132599
leaf_count=66 50 51 52 50 70
internal_value=0.00589972 0.172563 -0.163739 -0.191244 0.205311
internal_weight=0 42.7496 41.9996 28.9997 30.2497
internal_count=339 171 168 116 121
shrinkage=1


Tree=1
num_leaves=5
num_cat=0
split_feature=12 17 4 19
split_gain=199.387 17.5148 1.50752 0.0853663
threshold=0.26241346680611582 0.52250859106529213 0.13312624254473157 0.20890725436179983
decision_type=2 2 2 2
left_child=2 -2 -1 -3
right_child=1 3 -4 -5
leaf_value=-0.1834792716782658 0.042846669477340886 0.17374664039355275 -0.14284504047245031 0.1842809485434467
leaf_weight=23.551649019122124 12.93799741566181 12.373337924480436 14.910396888852118 20.335221916437149
leaf_count=95 52 50 60 82
internal_value=0 0.141337 -0.167727 0.180296
internal_weight=0 45.6466 38.462 32.7086
internal_count=339 184 155 132
shrinkage=0.1


Tree=2
num_leaves=6
num_cat=0
split_feature=4 11 13 12 3
split_gain=165.323 9.89648 4.85118 0.0587682 0.0577905
threshold=0.25556660039761431 0.36780383795309174 0.11030279197797871 0.42776034663080836 0.15681553278939944
decision_type=2 2 2 2 2
left_child=2 -2 4 -3 -1
right_child=1 3 -4 -5 -6
leaf_value=-0.16084595422541403 0.065856598356468496 0.17760058610858234 -0.09183784375711497 0.16850113953893617 -0.16999055526810566
leaf_weight=12.319191604852678 12.466671720147131 12.245366647839548 12.876001358032225 16.883661419153214 15.741247832775114
leaf_count=51 51 50 52 70 65
internal_value=0 0.140416 -0.142657 0.172326 -0.165976
internal_weight=0 41.5957 40.9364 29.129 28.0604
internal_count=339 171 168 120 116
shrinkage=0.1


Tree=3
num_leaves=5
num_cat=0
split_feature=12 12 11 9
split_gain=142.177 13.1273 1.51875 0.112317
threshold=0.26241346680611582 0.34085362816873349 0.30197228144989346 0.11317329881240497
decision_type=2 2 2 2
left_child=2 -2 -1 -3
right_child=1 3 -4 -5
leaf_value=-0.16437840027592721 0.036001780055822608 0.14923715885458205 -0.12352590499400047 0.16158915243807115
leaf_weight=19.605597853660583 12.667264044284819 12.011617079377176 16.983045443892479 19.015983670949936
leaf_count=83 52 51 72 81
internal_value=0 0.121785 -0.145416 0.156807
internal_weight=0 43.6949 36.5886 31.0276
internal_count=339 184 155 132
shrinkage=0.1


Tree=4
num_leaves=5
num_cat=0
split_feature=17 13 9 17
split_gain=118.938 14.5995 0.749923 0.560045
threshold=0.50360824742268051 0.13213969720802199 0.13132492823774414 0.60979381443298974
decision_type=2 2 2 2
left_child=1 2 -1 -2
right_child=3 -3 -4 -5
leaf_value=-0.12110602467193575 0.12614484277613577 -0.013406394135152641 -0.15297484746375731 0.1533625769133394
leaf_weight=11.399338275194166 11.701899364590643 12.20654810965061 20.961792409420013 21.358495116233826
leaf_count=50 51 50 93 95
internal_value=0 -0.106597 -0.141749 0.143729
internal_weight=0 44.5677 32.3611 33.0604
internal_count=339 193 143 146
shrinkage=0.1


Tree=5
num_leaves=6
num_cat=0
split_feature=4 11 11 6 13
split_gain=102.969 8.35194 3.73687 0.361899 0.0924808
threshold=0.25556660039761431 0.36780383795309174 0.38486140724946705 0.056291870360311358 0.26673712151002754
decision_type=2 2 2 2 2
left_child=2 -2 3 -1 -3
right_child=1 4 -4 -5 -6
leaf_value=-0.14990777050159784 0.046437026807713611 0.15495662836608792 -0.070779765811142065 -0.12589394880812343 0.1429227380856089
leaf_weight=14.604897677898409 11.70116066932678 11.423927769064905 11.408493831753729 11.004273846745489 14.481607198715208
leaf_count=67 51 51 51 50 69
internal_value=0 0.116557 -0.118383 -0.139589 0.148229
internal_weight=0 37.6067 37.0177 25.6092 25.9055
internal_count=339 171 168 117 120
shrinkage=0.1


Tree=6
num_leaves=5
num_cat=0
split_feature=12 12 11 9
split_gain=91.3026 10.701 1.36328 0.0158009
threshold=0.26241346680611582 0.3637631356143235 0.30197228144989346 0.13519446164237073
decision_type=2 2 2 2
left_child=2 -2 -1 -3
right_child=1 3 -4 -5
leaf_value=-0.14386743202694352 0.030000253140952466 0.13755611737272772 -0.1027107769066129 0.14250312068987392
leaf_weight=17.093301638960838 13.405932217836378 12.548320397734644 15.20975601673126 13.29954558610916
leaf_count=83 58 61 72 65
internal_value=0 0.1025 -0.124489 0.140102
internal_weight=0 39.2538 32.3031 25.8479
internal_count=339 184 155 126
shrinkage=0.1


Tree=7
num_leaves=5
num_cat=0
split_feature=12 0 4 8
split_gain=77.9316 10.2345 1.29644 0.703259
threshold=0.26241346680611582 0.33632059519783558 0.13312624254473157 0.22601165620212096
decision_type=2 2 2 2
left_child=2 -2 -1 -3
right_child=1 3 -4 -5
leaf_value=-0.13525069272662613 0.022835102546351738 0.14800606541872105 -0.093393796845134366 0.11422933711059358
leaf_weight=18.23672737181187 12.593494176864622 14.177447825670244 12.452465802431105 10.906156808137892
leaf_count=95 58 70 60 56
internal_value=0 0.0963908 -0.118267 0.13332
internal_weight=0 37.6771 30.6892 25.0836
internal_count=339 184 155 126
shrinkage=0.1


Tree=8
num_leaves=6
num_cat=0
split_feature=4 11 0 12 0
split_gain=68.7587 7.51768 3.75257 0.300971 0.0835137
threshold=0.24793737574552685 0.36407249466950964 0.31518430842069661 0.18457094476816577 0.41122759553601612
decision_type=2 2 2 2 2
left_child=2 -2 3 -1 -3
right_child=1 4 -4 -5 -6
leaf_value=-0.12021721187920294 0.03174953721821739 0.13928969835991153 -0.061258920083377515 -0.14488893758502275 0.1270956155679355
leaf_weight=10.096972674131399 10.94908171892166 10.386003553867342 11.912270739674566 9.6895497888326627 12.230011418461798
leaf_count=57 51 55 59 49 68
internal_value=0 0.0997665 -0.105602 -0.132299 0.132696
internal_weight=0 33.5651 31.6988 19.7865 22.616
internal_count=339 174 165 106 123
shrinkage=0.1


Tree=9
num_leaves=5
num_cat=0
split_feature=13 14 0 19
split_gain=60.3935 11.1437 2.10858 0.883164
threshold=0.16813311049941013 0.44000528296902869 0.35204599256002694 0.11753902662993572
decision_type=2 2 2 2
left_child=1 3 -2 -1
right_child=2 -3 -4 -5
leaf_value=-0.10359204638296958 0.077043071286717127 -0.010120317776793007 0.13457114444990409 -0.14382426108822921
leaf_weight=9.0638262182474154 10.310933962464334 12.440589129924772 16.675449043512344 13.708433479070662
leaf_count=51 52 65 97 74
internal_value=0 -0.0862313 0.112591 -0.127811
internal_weight=0 35.2128 26.9864 22.7723
internal_count=339 190 149 125
shrinkage=0.1


Tree=10
num_leaves=5
num_cat=0
split_feature=17 12 17 11
split_gain=56.176 9.12819 0.626666 0.590712
threshold=0.50360824742268051 0.26241346680611582 0.60979381443298974 0.30197228144989346
decision_type=2 2 2 2
left_child=1 3 -2 -1
right_child=2 -3 -4 -5
leaf_value=-0.12793306567613735 0.095499019789979378 -6.5501910077195321e-05 0.12871203759603206 -0.097203026892329625
leaf_weight=13.123028114438059 8.9945648461580294 9.9452454596757871 15.420366078615187 11.952875465154646
leaf_count=81 51 43 95 69
internal_value=0 -0.0811332 0.116476 -0.113285
internal_weight=0 35.0211 24.4149 25.0759
internal_count=339 193 146 150
shrinkage=0.1


Tree=11
num_leaves=5
num_cat=0
split_feature=17 0 11 17
split_gain=48.5409 9.03598 1.28809 0.658258
threshold=0.50360824742268051 0.34714237402773068 0.23214285714285712 0.60979381443298974
decision_type=2 2 2 2
left_child=1 2 -1 -2
right_child=3 -3 -4 -5
leaf_value=-0.13987296064751839 0.090378831391815392 0.00098336175993264142 -0.091857016505200201 0.12542012294807114
leaf_weight=9.4622715115547198 8.5757981836795825 10.331012815237044 13.64155103266239 14.300154283642767
leaf_count=56 51 54 83 95
internal_value=0 -0.0767591 -0.111522 0.112284
internal_weight=0 33.4348 23.1038 22.876
internal_count=339 193 139 146
shrinkage=0.1


Tree=12
num_leaves=5
num_cat=0
split_feature=12 0 14 9
split_gain=43.2822 10.8036 1.81998 0.151076
threshold=0.33388116938094531 0.35593506932702063 0.42481674701182059 0.11542466370236952
decision_type=2 2 2 2
left_child=1 2 -1 -2
right_child=3 -3 -4 -5
leaf_value=-0.12667870379891991 0.10700758632736634 0.015479699697696796 -0.067823792152617246 0.12479882105312093
leaf_weight=15.345147140324118 8.0381931513547915 10.534092411398886 7.9898392707109442 11.749600812792776
leaf_count=98 54 58 48 81
internal_value=0 -0.06858 -0.106527 0.117572
internal_weight=0 33.8691 23.335 19.7878
internal_count=339 204 146 135
shrinkage=0.1


Tree=13
num_leaves=5
num_cat=0
split_feature=17 12 4 17
split_gain=37.7423 8.98792 1.0821 0.766012
threshold=0.50360824742268051 0.28258379401364619 0.13312624254473157 0.60687285223367704
decision_type=2 2 2 2
left_child=1 2 -1 -2
right_child=3 -3 -4 -5
leaf_value=-0.1213648911711795 0.080828104832236222 0.01586077135850877 -0.076156916360793983 0.12131352063643085
leaf_weight=13.304429911077028 7.3581313863396671 8.8552898615598661 8.7945608645677549 12.808992341160772
leaf_count=98 48 39 56 98
internal_value=0 -0.0692636 -0.103374 0.106542
internal_weight=0 30.9543 22.099 20.1671
internal_count=339 193 154 146
shrinkage=0.1


Tree=14
num_leaves=5
num_cat=0
split_feature=12 11 11 9
split_gain=33.7885 10.1641 2.1479 0.176536
threshold=0.33388116938094531 0.41337953091684437 0.23214285714285712 0.11542466370236952
decision_type=2 2 2 2
left_child=1 2 -1 -2
right_child=3 -3 -4 -5
leaf_value=-0.14176179013595483 0.10012727821841115 0.02472542555478666 -0.076226490012259604 0.12066608109276
leaf_weight=7.8143279626965585 7.1156733408570316 9.3860966414213163 13.891388967633246 10.160410158336161
leaf_count=55 54 55 94 81
internal_value=0 -0.0622218 -0.09982 0.112207
internal_weight=0 31.0918 21.7057 17.2761
internal_count=339 204 149 135
shrinkage=0.1


Tree=15
num_leaves=5
num_cat=0
split_feature=7 17 0 3
split_gain=30.1962 12.4019 1.07568 0.306073
threshold=0.053012898815460605 0.41907216494845362 0.39448765640852218 0.16101772897368263
decision_type=2 2 2 2
left_child=1 3 -2 -1
right_child=2 -3 -4 -5
leaf_value=-0.099045478517231514 0.07727801593136456 0.026940355520981618 0.12599791785897507 -0.12500901099060799
leaf_weight=8.2520640715956741 9.5248051732778567 9.6016849949955922 8.6449865624308568 10.094778276979921
leaf_count=67 68 54 74 76
internal_value=0 -0.065141 0.100458 -0.113331
internal_weight=0 27.9485 18.1698 18.3468
internal_count=339 197 142 143
shrinkage=0.1


Tree=16
num_leaves=6
num_cat=0
split_feature=17 13 9 17 6
split_gain=26.8873 7.36123 1.8498 0.853888 0.0811201
threshold=0.50360824742268051 0.15401346834447502 0.12851072212528844 0.60687285223367704 0.063262719536483769
decision_type=2 2 2 2 2
left_child=1 2 -1 -2 -4
right_child=3 -3 4 -5 -6
leaf_value=-0.051389946193995631 0.07084694081854051 0.019414838975546762 -0.10955809755997373 0.11727886627947895 -0.12553913864799138
leaf_weight=6.3923749774694505 6.4140265136957195 7.9150563776493064 6.5276749059557897 10.35465721786022 6.1865788698196411
leaf_count=51 48 37 57 98 48
internal_value=0 -0.0616783 -0.0952717 0.0995186 -0.117334
internal_weight=0 27.0217 19.1066 16.7687 12.7143
internal_count=339 193 156 146 105
shrinkage=0.1


Tree=17
num_leaves=6
num_cat=0
split_feature=12 0 14 8 6
split_gain=23.7099 8.75458 3.46135 0.75478 0.2053
threshold=0.33388116938094531 0.39127494081839692 0.44000528296902869 0.11579595637936731 0.14206047437986599
decision_type=2 2 2 2 2
left_child=1 2 3 -1 -2
right_child=4 -3 -4 -5 -6
leaf_value=-0.096860110591420065 0.089292294791710247 0.04146790405775002 -0.031388047707539189 -0.14508351704935749 0.1143864171959085
leaf_weight=7.4272219464182907 5.1083826124668112 7.0880030319094649 7.1128650754690161 5.7649195715785027 9.0112310796976072
leaf_count=67 42 44 50 43 93
internal_value=0 -0.0542157 -0.0876166 -0.117934 0.105308
internal_weight=0 27.393 20.305 13.1921 14.1196
internal_count=339 204 160 110 135
shrinkage=0.1


Tree=18
num_leaves=6
num_cat=0
split_feature=4 12 0 2 4
split_gain=21.8389 5.0213 4.14762 0.434953 0.012569
threshold=0.24793737574552685 0.32068330096120329 0.35441325667906659 0.35447323282477211 0.42266401590457253
decision_type=2 2 2 2 2
left_child=2 -2 3 -1 -3
right_child=1 4 -4 -5 -6
leaf_value=-0.12479055215307772 0.011140431602399678 0.11751874612369406 -0.0093717652171616244 -0.08832632987718346 0.11097229010743159
leaf_weight=6.8711200281977671 7.8729757666587856 4.92554112523794 6.4274352937936774 6.243744783103466 7.2493139654397964
leaf_count=68 42 46 39 58 86
internal_value=0 0.0733758 -0.0751792 -0.107431 0.113621
internal_weight=0 20.0478 19.5423 13.1149 12.1749
internal_count=339 174 165 126 132
shrinkage=0.1


Tree=19
num_leaves=6
num_cat=0
split_feature=7 16 16 0 12
split_gain=19.8704 9.45224 1.14357 1.07776 0.0387289
threshold=0.053012898815460605 0.28119009584664539 0.16825079872204471 0.39448765640852218 0.18457094476816577
decision_type=2 2 2 2 2
left_child=1 2 4 -2 -1
right_child=3 -3 -4 -5 -6
leaf_value=-0.11275763992152384 0.06741476232954019 0.038983170143836988 -0.062138979636435235 0.12247242131021717 -0.12484582711635553
leaf_weight=5.7668459191918426 7.705382473766802 7.1310191601514807 5.4875648356974116 6.6014034114778042 4.9044787511229515
leaf_count=64 68 46 43 74 44
internal_value=0 -0.0569157 -0.0992365 0.0928193 -0.118313
internal_weight=0 23.2899 16.1589 14.3068 10.6713
internal_count=339 197 151 142 108
shrinkage=0.1


Tree=20
num_leaves=6
num_cat=0
split_feature=17 0 13 17 5
split_gain=17.4128 7.13872 2.25948 0.627497 0.363267
threshold=0.51804123711340211 0.39127494081839692 0.15401346834447502 0.60687285223367704 0.27390480202190387
decision_type=2 2 2 2 2
left_child=1 2 4 -2 -1
right_child=3 -3 -4 -5 -6
leaf_value=-0.090301436308500974 0.067066700119624831 0.037562664970074496 -0.031245703020558444 0.11391074544220879 -0.12597876126218621
leaf_weight=5.2043493986129814 4.5385799407958967 6.6260322332382193 5.3537541329860678 7.7298990935087204 6.3191676698625088
leaf_count=69 42 41 28 98 61
internal_value=0 -0.0503943 -0.0849262 0.0965813 -0.109866
internal_weight=0 23.5033 16.8773 12.2685 11.5235
internal_count=339 199 158 140 130
shrinkage=0.1


Tree=21
num_leaves=6
num_cat=0
split_feature=7 14 12 11 17
split_gain=16.0495 7.90947 1.19058 0.660491 0.0199591
threshold=0.053012898815460605 0.42844878821897908 0.38517854474824448 0.35407782515991476 0.60979381443298974
decision_type=2 2 2 2 2
left_child=1 3 -2 -1 -4
right_child=2 -3 4 -5 -6
leaf_value=-0.12729289883797051 0.049160672475131284 0.016990533449629776 0.11716941250153086 -0.08027563548704221 0.10714920517879696
leaf_weight=6.7368545234203356 4.8908088803291303 9.0896320231258851 3.7118520848453045 5.3689415752887726 4.2799936160445213
leaf_count=80 32 76 38 41 72
internal_value=0 -0.0535074 0.0880214 -0.106441 0.111803
internal_weight=0 21.1954 12.8827 12.1058 7.99185
internal_count=339 197 142 121 110
shrinkage=0.1


Tree=22
num_leaves=7
num_cat=0
split_feature=17 11 0 13 1 17
split_gain=14.0583 7.08928 2.66848 1.71138 0.493688 0.205228
threshold=0.38264604810996561 0.31236673773987217 0.35441325667906659 0.15847424302005503 0.26936631884458578 0.55257731958762901
decision_type=2 2 2 2 2 2
left_child=2 -2 4 -3 -1 -5
right_child=1 3 -4 5 -6 -7
leaf_value=-0.088913407857923371 -0.042456511668300223 0.044430872721025388 -0.016327134584745519 0.13816909849775072 -0.13634091764207143 0.10729681473080435
leaf_weight=5.2017422281205636 5.2686937004327801 4.5853955000638953 4.757652483880519 3.554121717810629 3.7967647239565849 5.4631279595196247
leaf_count=81 36 29 34 29 36 94
internal_value=0 0.0560262 -0.0768992 0.0941713 -0.108925 0.119465
internal_weight=0 18.8713 13.7562 13.6026 8.99851 9.01725
internal_count=339 188 151 152 117 123
shrinkage=0.1


Tree=23
num_leaves=5
num_cat=0
split_feature=7 17 6 3
split_gain=12.9843 6.92615 1.15369 0.425754
threshold=0.053012898815460605 0.41907216494845362 0.18131450298750676 0.16101772897368263
decision_type=2 2 2 2
left_child=1 3 -2 -1
right_child=2 -3 -4 -5
leaf_value=-0.077699155176291446 0.05814977148669969 0.02082025251238526 0.12258411099485647 -0.11660769718975945
leaf_weight=4.9722772315144592 6.881719481199978 8.1717892996966821 4.6607302613556385 6.4741891324520111
leaf_count=67 69 54 73 76
internal_value=0 -0.049502 0.0841677 -0.0997061
internal_weight=0 19.6183 11.5424 11.4465
internal_count=339 197 142 143
shrinkage=0.1


Tree=24
num_leaves=5
num_cat=0
split_feature=13 11 14 11
split_gain=11.5337 4.13215 4.0474 0.548077
threshold=0.15401346834447502 0.30197228144989346 0.34061942811860269 0.37273454157782521
decision_type=2 2 2 2
left_child=1 -1 -2 -4
right_child=2 -3 3 -5
leaf_value=-0.12482784751540379 -0.01575760529033287 -0.019071084347674225 0.071939332497882397 0.12042719399587319
leaf_weight=5.9068142473697689 4.2247282825410357 9.8644303232431394 3.8393328338861448 5.9345207326114178
leaf_count=86 35 89 36 93
internal_value=0 -0.0586802 0.0660285 0.10138
internal_weight=0 15.7712 13.9986 9.77385
internal_count=339 175 164 129
shrinkage=0.1


Tree=25
num_leaves=6
num_cat=0
split_feature=17 7 0 17 6
split_gain=10.7319 5.72389 2.87544 0.715642 0.160331
threshold=0.51804123711340211 0.053012898815460605 0.35441325667906659 0.60687285223367704 0.060945138511678404
decision_type=2 2 2 2 2
left_child=1 2 4 -2 -1
right_child=3 -3 -4 -5 -6
leaf_value=-0.098967391499511573 0.05462858636518482 0.049393222693517397 -0.018056963242063833 0.11177986985535387 -0.12658182241088053
leaf_weight=5.3373817913234287 3.6240064948797208 5.0597218982875338 5.5725664198398581 5.5409897305071354 3.4691239073872566
leaf_count=82 42 32 40 98 45
internal_value=0 -0.042084 -0.0742731 0.0891812 -0.109845
internal_weight=0 19.4388 14.3791 9.165 8.80651
internal_count=339 199 167 140 127
shrinkage=0.1


Tree=26
num_leaves=5
num_cat=0
split_feature=4 11 8 16
split_gain=9.33499 6.59686 4.31578 0.150161
threshold=0.24793737574552685 0.31236673773987217 0.10554420644696121 0.30007987220447291
decision_type=2 2 2 2
left_child=2 -2 -1 -3
right_child=1 3 -4 -5
leaf_value=-0.009017085454370884 -0.039442703644357285 0.091028798074872463 -0.12248895540569543 0.11768327310214954
leaf_weight=7.6707977801561373 4.5775115713477126 3.354751277714966 5.9531090315431356 5.7126767821609974
leaf_count=92 33 44 73 97
internal_value=0 0.0584184 -0.0585998 0.107822
internal_weight=0 13.6449 13.6239 9.06743
internal_count=339 174 165 141
shrinkage=0.1


Tree=27
num_leaves=6
num_cat=0
split_feature=13 16 11 11 17
split_gain=8.70187 3.91312 3.70799 0.491908 0.112425
threshold=0.15401346834447502 0.20151757188498401 0.30197228144989346 0.35167910447761203 0.55446735395189006
decision_type=2 2 2 2 2
left_child=2 -2 -1 -3 -5
right_child=1 3 -4 4 -6
leaf_value=-0.12425127902436578 -0.022882420360652564 0.06657731365751185 -0.016058814841075925 0.13295680011843658 0.10419204244308354
leaf_weight=4.8876708913594511 3.7800545990467063 2.9360052421689016 9.0017054639756662 2.4973867908120155 2.9802193492650986
leaf_count=86 24 29 89 26 85
internal_value=0 0.0616332 -0.0541317 0.0996042 0.117307
internal_weight=0 12.1937 13.8894 8.41361 5.47761
internal_count=339 164 175 140 111
shrinkage=0.1


Tree=28
num_leaves=5
num_cat=0
split_feature=12 2 0 0
split_gain=7.9781 5.41262 5.30223 0.170155
threshold=0.3637631356143235 0.34115735307393708 0.28221170104835985 0.35441325667906659
decision_type=2 2 2 2
left_child=1 -1 -3 -2
right_child=3 2 -4 -5
leaf_value=-0.10809737639977962 0.080663721942707101 -0.068898939179115479 0.061762354042305789 0.11406499431594611
leaf_weight=6.2736873701214853 2.7905001975595942 5.4555319491773826 7.2106120716780424 3.3635565936565399
leaf_count=85 42 58 70 84
internal_value=0 -0.0321389 0.00548423 0.0989195
internal_weight=0 18.9398 12.6661 6.15406
internal_count=339 213 128 126
shrinkage=0.1


Tree=29
num_leaves=6
num_cat=0
split_feature=7 14 2 10 11
split_gain=7.37452 5.70356 1.83096 1.72424 0.675387
threshold=0.053012898815460605 0.44000528296902869 0.33100117360296116 0.11424001216091091 0.36780383795309174
decision_type=2 2 2 2 2
left_child=1 4 -2 -4 -1
right_child=2 -3 3 -5 -6
leaf_value=-0.11872605734851159 0.0084144115554604278 0.027444406642811166 0.15319192107188609 0.04280155629122534 -0.062272067594000981
leaf_weight=5.0333105865865964 2.8541778419166786 6.7726289667189112 3.3293816465884447 2.4606740362942219 3.6601963713765144
leaf_count=89 23 71 67 52 37
internal_value=0 -0.0413576 0.0739651 0.106278 -0.0949574
internal_weight=0 15.4661 8.64423 5.79006 8.69351
internal_count=339 197 142 119 126
shrinkage=0.1


Tree=30
num_leaves=6
num_cat=0
split_feature=13 11 2 4 19
split_gain=6.66605 6.96474 1.70606 1.43751 0.386692
threshold=0.11446863940228072 0.31236673773987217 0.34115735307393708 0.14647117296222664 0.19546110455201368
decision_type=2 2 2 2 2
left_child=3 -2 -3 -1 -4
right_child=1 2 4 -5 -6
leaf_value=-0.1090320499838605 -0.053076321387101735 0.025276570212275265 0.14474594007310329 -0.022280589590439298 0.096415557995505552
leaf_weight=4.7675397153943804 5.3768253382295361 3.0015080478042346 2.7400641217827797 3.1869528628885746 4.1823754794895649
leaf_count=96 51 28 46 34 84
internal_value=0 0.0385827 0.0882438 -0.0742752 0.115546
internal_weight=0 15.3008 9.92395 7.95449 6.92244
internal_count=339 209 158 130 130
shrinkage=0.1


Tree=31
num_leaves=5
num_cat=0
split_feature=12 2 0 0
split_gain=6.07757 4.2298 4.07821 0.2645
threshold=0.3637631356143235 0.34115735307393708 0.35593506932702063 0.33632059519783558
decision_type=2 2 2 2
left_child=1 -1 -3 -2
right_child=3 2 -4 -5
leaf_value=-0.10254824909472876 0.066779763124163102 -0.041670944755675704 0.078758979598660683 0.11353433040480419
leaf_weight=5.3240697607398095 1.9611566774547089 7.2991414219140989 4.5739809237420559 3.1589712966233492
leaf_count=85 33 86 42 93
internal_value=0 -0.0284869 0.00472327 0.095626
internal_weight=0 17.1972 11.8731 5.12013
internal_count=339 213 128 126
shrinkage=0.1


Tree=32
num_leaves=7
num_cat=0
split_feature=17 0 13 11 5 13
split_gain=5.54256 3.75409 1.28241 0.93433 0.417067 0.0244784
threshold=0.51804123711340211 0.39127494081839692 0.15401346834447502 0.35407782515991476 0.27853833192923344 0.16813311049941013
decision_type=2 2 2 2 2 2
left_child=1 2 4 -2 -1 -5
right_child=3 -3 -4 5 -6 -7
leaf_value=-0.064450722659882248 0.028784121151392946 0.037940940036440801 -0.024472393035684888 0.11870611002850098 -0.11802817420602518 0.10276463042049291
leaf_weight=2.4253278691321629 2.2358215153217307 5.0956618525087825 4.1707943677902222 1.7386380992829802 3.6237995531409979 2.15972332470119
leaf_count=72 28 41 28 17 58 95
internal_value=0 -0.0321737 -0.067133 0.0803182 -0.0965469 0.109874
internal_weight=0 15.3156 10.2199 6.13418 6.04913 3.89836
internal_count=339 199 158 140 130 112
shrinkage=0.1


Tree=33
num_leaves=6
num_cat=0
split_feature=7 14 2 19 11
split_gain=5.42966 4.38877 1.66892 1.6895 0.657278
threshold=0.053012898815460605 0.42844878821897908 0.32779633474767539 0.16200970746425294 0.36780383795309174
decision_type=2 2 2 2 2
left_child=1 4 -2 -4 -1
right_child=2 -3 3 -5 -6
leaf_value=-0.11945430917249725 0.0046354734068952182 0.022869138848863563 0.17435601715366994 0.053261582750937245 -0.058170587116300181
leaf_weight=3.8956951396539825 2.5712862201035014 6.2943013608455658 2.0056724231690168 2.7074364591389894 3.177549060434103
leaf_count=85 22 76 37 83 36
internal_value=0 -0.0378717 0.0694392 0.104794 -0.0919235
internal_weight=0 13.3675 7.2844 4.71311 7.07324
internal_count=339 197 142 120 121
shrinkage=0.1


Tree=34
num_leaves=6
num_cat=0
split_feature=13 0 4 8 0
split_gain=4.92849 5.70247 1.66098 1.35451 0.00810904
threshold=0.11446863940228072 0.33953331078796073 0.16287276341948306 0.19653318112175924 0.37893134934054779
decision_type=2 2 2 2 2
left_child=2 -2 4 -3 -1
right_child=1 3 -4 -5 -6
leaf_value=-0.10378752021510698 -0.026591509658914325 0.14701031120391633 -0.0060696031062219156 0.053314782939494099 -0.11257079268852258
leaf_weight=2.179213015362623 6.9769794791936857 3.4406800391152501 2.5754888951778412 2.7973591629415751 2.0305599942803383
leaf_count=81 82 55 27 72 22
internal_value=0 0.0355223 -0.0693251 0.104994 -0.108024
internal_weight=0 13.215 6.78526 6.23804 4.20977
internal_count=339 209 130 127 103
shrinkage=0.1


Tree=35
num_leaves=5
num_cat=0
split_feature=11 13 2 0
split_gain=4.64228 6.34087 2.63921 0.458736
threshold=0.23214285714285712 0.11446863940228072 0.33515392254220461 0.42610754142712198
decision_type=2 2 2 2
left_child=-1 -2 -3 -4
right_child=1 2 3 -5
leaf_value=-0.10412412956913342 -0.061595742007521041 -0.00028281479071079794 0.087116301446269612 0.14140421567926317
leaf_weight=3.5060048950836089 5.6657338561490169 3.4594377465546113 4.163519598543644 2.4858628232032061
leaf_count=63 96 34 86 60
internal_value=0 0.0230915 0.0705566 0.107412
internal_weight=0 15.7746 10.1088 6.64938
internal_count=339 276 180 146
shrinkage=0.1


Tree=36
num_leaves=5
num_cat=0
split_feature=6 16 11 11
split_gain=4.40307 4.48859 4.10656 0.408903
threshold=0.15926127104834323 0.16325878594249202 0.36780383795309174 0.38486140724946705
decision_type=2 2 2 2
left_child=1 3 -3 -1
right_child=-2 2 -4 -5
leaf_value=-0.11806891065576641 0.11238186447469119 -0.051747872775873574 0.076118814426584816 -0.063121116895053841
leaf_weight=3.0758704068139222 2.9353639837354413 4.581783873960374 5.5591051429510117 2.4197279512882233
leaf_count=84 91 57 77 30
internal_value=0 -0.0210946 0.018347 -0.0938752
internal_weight=0 15.6365 10.1409 5.4956
internal_count=339 248 134 114
shrinkage=0.1


Tree=37
num_leaves=6
num_cat=0
split_feature=12 4 11 11 8
split_gain=3.95884 3.10594 2.93946 0.303892 0.0254276
threshold=0.3637631356143235 0.13312624254473157 0.36780383795309174 0.33622068230277197 0.12916453870880523
decision_type=2 2 2 2 2
left_child=1 -1 -3 -2 -5
right_child=3 2 -4 4 -6
leaf_value=-0.10796650705236058 0.052392494373182011 -0.047945006435854094 0.057171790690537905 0.12353079063595628 0.10285874377442634
leaf_weight=3.3864013971760896 1.3543336410075419 5.6037224866449815 5.0645348001271486 1.0142760993912818 1.4395465571433304
leaf_count=98 21 65 50 20 85
internal_value=0 -0.0245285 0.00195702 0.0904168 0.111403
internal_weight=0 14.0547 10.6683 3.80816 2.45382
internal_count=339 213 115 126 105
shrinkage=0.1


Tree=38
num_leaves=5
num_cat=0
split_feature=17 11 13 2
split_gain=3.68277 2.95557 4.07744 0.115794
threshold=0.58762886597938147 0.23214285714285712 0.11446863940228072 0.49896181276518931
decision_type=2 2 2 2
left_child=1 -1 -3 -2
right_child=3 2 -4 -5
leaf_value=-0.11250315760741643 0.077091804276084364 -0.073995687783440608 0.049931762258717108 0.11596717793829221
leaf_weight=2.8628365010954466 1.3856208240613335 4.363341164775191 6.7807400077581406 1.7139186612330375
leaf_count=59 61 92 81 46
internal_value=0 -0.0218729 0.00140935 0.0985883
internal_weight=0 14.0069 11.1441 3.09954
internal_count=339 232 173 107
shrinkage=0.1


Tree=39
num_leaves=6
num_cat=0
split_feature=7 14 2 10 8
split_gain=3.40717 3.4248 1.71208 1.43531 0.421861
threshold=0.053012898815460605 0.42844878821897908 0.32346303150672578 0.10814228265826457 0.092551146093069317
decision_type=2 2 2 2 2
left_child=1 4 -2 -4 -1
right_child=2 -3 3 -5 -6
leaf_value=-0.053811398099808207 -0.010173418745894171 0.023994265804470907 0.15767817543705615 0.032039881617473995 -0.11138004770203097
leaf_weight=2.0514220250770467 2.1181681333109728 5.2265197085216641 2.0742771704681222 1.6189917856827376 3.3541751480661333
leaf_count=59 20 76 63 59 62
internal_value=0 -0.0337253 0.061498 0.102603 -0.0895328
internal_weight=0 10.6321 5.81144 3.69327 5.4056
internal_count=339 197 142 122 121
shrinkage=0.1


Tree=40
num_leaves=5
num_cat=0
split_feature=6 11 4 7
split_gain=3.3677 2.99663 2.25847 1.38831
threshold=0.15926127104834323 0.36780383795309174 0.15295725646123262 0.030870492605500902
decision_type=2 2 2 2
left_child=1 3 -3 -1
right_child=-2 2 -4 -5
leaf_value=-0.12016809266464486 0.10916485829109697 -0.04054241542581636 0.071849567346439339 -0.025755080760318412
leaf_weight=2.9437444815412146 2.3986998139880606 3.1099928226321936 4.205723742954433 3.3073154916055501
leaf_count=87 91 44 70 47
internal_value=0 -0.0193732 0.0240705 -0.070216
internal_weight=0 13.5668 7.31572 6.25106
internal_count=339 248 114 134
shrinkage=0.1


Tree=41
num_leaves=6
num_cat=0
split_feature=4 11 2 11 13
split_gain=2.99243 2.68893 1.61133 1.01915 0.00601585
threshold=0.39120278330019881 0.30197228144989346 0.33515392254220461 0.23214285714285712 0.22765926071569012
decision_type=2 2 2 2 2
left_child=1 3 -3 -1 -2
right_child=4 2 -4 -5 -6
leaf_value=-0.12793377831959996 0.11397536974766738 -0.034930878991635071 0.051582775436046974 -0.031908110083192297 0.10343327209137804
leaf_weight=2.2903906013816586 0.97628271020949009 3.8045533103868348 4.9589520804584026 2.1360232690349221 1.2149321371689437
leaf_count=56 20 55 78 45 85
internal_value=0 -0.0180649 0.0140241 -0.0815954 0.10813
internal_weight=0 13.1899 8.76351 4.42641 2.19121
internal_count=339 234 133 101 105
shrinkage=0.1


Tree=42
num_leaves=5
num_cat=0
split_feature=13 18 2 14
split_gain=2.87615 3.43193 1.88075 0.371187
threshold=0.15401346834447502 0.19653065247388127 0.34115735307393708 0.38552466486165232
decision_type=2 2 2 2
left_child=2 -2 -1 -3
right_child=1 3 -4 -5
leaf_value=-0.1141232022692583 -0.047077510723495933 0.071360201773750562 -0.0090548029087058699 0.13048149864026856
leaf_weight=2.3935120943933708 2.387440803926439 2.0049377135001123 5.9112228625454009 2.2578811319544911
leaf_count=77 33 37 98 94
internal_value=0 0.0489138 -0.0393366 0.102675
internal_weight=0 6.65026 8.30473 4.26282
internal_count=339 164 175 131
shrinkage=0.1


Tree=43
num_leaves=6
num_cat=0
split_feature=0 13 18 10 8
split_gain=2.66126 3.47576 2.11759 0.747165 0.213719
threshold=0.19496110923232998 0.11446863940228072 0.19465799329785141 0.08542694470931271 0.14827860726409714
decision_type=2 2 2 2 2
left_child=-1 4 -3 -4 -2
right_child=1 2 3 -5 -6
leaf_value=-0.10063610950809042 -0.02956912434956252 -0.020327833391331276 0.12654399435284183 0.052168382941101724 -0.073517307087827749
leaf_weight=2.2269326327368626 2.1169285401701909 2.3849178422242403 2.965269148349762 2.4806209760718048 2.3183069946244359
leaf_count=51 62 39 64 84 39
internal_value=0 0.0181913 0.0582528 0.0926657 -0.0525409
internal_weight=0 12.266 7.83081 5.44589 4.43524
internal_count=339 288 187 148 101
shrinkage=0.1


Tree=44
num_leaves=6
num_cat=0
split_feature=4 10 0 14 19
split_gain=2.49699 2.04497 1.84747 1.55724 0.537548
threshold=0.24793737574552685 0.077239058634937671 0.35441325667906659 0.42184507693323642 0.3067033976124886
decision_type=2 2 2 2 2
left_child=1 2 -1 -2 -5
right_child=3 -3 -4 4 -6
leaf_value=-0.062549135010703721 -0.014667058064231259 -0.11245932679422591 0.059410083902366843 0.048272175821566975 0.12226131323088672
leaf_weight=2.5064368518069386 2.6163632916286588 2.5368874873965979 2.4622677247971296 1.9827929432503881 1.9452916914597151
leaf_count=80 54 61 24 70 50
internal_value=0 -0.0394091 -0.0021116 0.0451029 0.0849136
internal_weight=0 7.50559 4.9687 6.54445 3.92808
internal_count=339 165 104 174 120
shrinkage=0.1


Tree=45
num_leaves=5
num_cat=0
split_feature=6 16 14 8
split_gain=2.78035 2.54846 1.62943 0.342201
threshold=0.15926127104834323 0.16325878594249202 0.42844878821897908 0.090861297203112312
decision_type=2 2 2 2
left_child=1 3 -3 -1
right_child=-2 2 -4 -5
leaf_value=-0.056653665941583567 0.11036528746713717 -0.03468313596830281 0.057232703131512699 -0.11629539393968578
leaf_weight=2.0186635330319391 1.9512038810644305 3.6114671730902046 4.1390941082499921 1.8378660648595539
leaf_count=65 91 55 79 49
internal_value=0 -0.0186494 0.0144034 -0.0850765
internal_weight=0 11.6071 7.75056 3.85653
internal_count=339 248 134 114
shrinkage=0.1


Tree=46
num_leaves=7
num_cat=0
split_feature=7 14 14 10 13 15
split_gain=2.29135 2.11694 1.81569 1.17836 0.466378 0.0119831
threshold=0.053012898815460605 0.42844878821897908 0.2778841709040481 0.097950610118430662 0.14431773495871017 0.18682267563136093
decision_type=2 2 2 2 2 2
left_child=1 4 -2 -4 5 -1
right_child=2 -3 3 -5 -6 -7
leaf_value=-0.10353726132425543 -0.032595027495680051 0.01771156921295566 0.15384116448809726 0.029812780131552325 -0.042170309044412102 -0.11758887486763059
leaf_weight=1.289913384476675 1.5393167082220323 4.365040528587997 1.7687494594138118 1.3511906974017618 1.7231337167322633 1.1461642095819113
leaf_count=79 15 76 59 68 18 24
internal_value=0 -0.0309333 0.0562783 0.100127 -0.0819856 -0.110148
internal_weight=0 8.52425 4.65926 3.11994 4.15921 2.43608
internal_count=339 197 142 127 121 103
shrinkage=0.1


Tree=47
num_leaves=6
num_cat=0
split_feature=12 2 9 11 3
split_gain=2.07302 2.00127 2.1364 0.276166 0.0164309
threshold=0.3637631356143235 0.34115735307393708 0.12112343108009226 0.33622068230277197 0.19777927734494818
decision_type=2 2 2 2 2
left_child=1 -1 -3 -2 -5
right_child=3 2 -4 4 -6
leaf_value=-0.090301576678636919 0.041771064862819909 0.069743392722905681 -0.038052234649009004 0.12302302774785481 0.1016227474454809
leaf_weight=2.8783082501031441 0.93953887745738152 3.1965651814825833 4.3277721793856472 0.66122402437031247 0.7843709927983582
leaf_count=85 21 37 91 7 98
internal_value=0 -0.0193852 0.0077426 0.083979 0.111411
internal_weight=0 10.4026 7.52434 2.38513 1.4456
internal_count=339 213 128 126 105
shrinkage=0.1


Tree=48
num_leaves=6
num_cat=0
split_feature=7 4 8 14 9
split_gain=2.03687 1.94537 3.33618 1.73556 0.111032
threshold=0.018916768460098803 0.24793737574552685 0.097846005948268061 0.40104338638314735 0.12562616086002135
decision_type=2 2 2 2 2
left_child=-1 2 -2 -3 -5
right_child=1 3 -4 4 -6
leaf_value=-0.098738602153835217 0.052225566135236205 -0.0048572936470495254 -0.10086520560594162 0.13773689636472719 0.09735439015007509
leaf_weight=1.7924722712486989 2.8798791319131833 2.1755386053118855 2.8147834958508611 1.168412186438218 1.6317122715990988
leaf_count=60 50 48 62 52 67
internal_value=0 0.0164672 -0.0234448 0.0621466 0.114205
internal_weight=0 10.6703 5.69466 4.97566 2.80012
internal_count=339 279 112 167 119
shrinkage=0.1


Tree=49
num_leaves=7
num_cat=0
split_feature=11 4 8 4 11 7
split_gain=2.10545 2.39221 2.4125 3.57419 0.972555 0.002693
threshold=0.23214285714285712 0.13312624254473157 0.14309640400156218 0.25556660039761431 0.35967484008528788 0.042011737062895259
decision_type=2 2 2 2 2 2
left_child=-1 -2 -3 -4 -5 -6
right_child=1 2 3 4 5 -7
leaf_value=-0.091318562253879729 -0.080499597858653571 0.11139929461332798 -0.11998539120311058 -0.00397501830487042 0.11231698689282266 0.10465412133029338
leaf_weight=2.0906856367364535 1.9393887002952377 3.1502414946444333 1.6593690887093542 1.3282932792790236 0.88557141274213769 0.95126165705733001
leaf_count=63 71 59 23 23 15 85
internal_value=0 0.0191094 0.0433334 -0.00111139 0.0612103 0.108349
internal_weight=0 9.91413 7.97474 4.8245 3.16513 1.83683
internal_count=339 276 205 146 123 100
shrinkage=0.1


Tree=50
num_leaves=7
num_cat=0
split_feature=0 7 14 14 19 10
split_gain=1.89867 2.12025 1.5782 0.956168 0.432394 0.0677019
threshold=0.19496110923232998 0.053012898815460605 0.42844878821897908 0.2778841709040481 0.10120687393414661 0.089520887746500258
decision_type=2 2 2 2 2 2
left_child=-1 2 -2 -3 -5 -6
right_child=1 3 -4 4 5 -7
leaf_value=-0.093113198373707573 -0.06924612679155355 0.0078630293157609735 0.030178507087735604 0.17957182849425546 0.1113914434051384 0.064891053817183908
leaf_weight=1.8430573509540416 2.9410298063885403 1.0720125837251546 3.4922747071832418 0.83890597335994277 0.59340573847293832 0.6628449228592217
leaf_count=51 92 13 63 14 41 65
internal_value=0 0.0176994 -0.0152742 0.0846769 0.12398 0.0868561
internal_weight=0 9.60047 6.4333 3.16717 2.09516 1.25625
internal_count=339 288 155 133 120 106
shrinkage=0.1


Tree=51
num_leaves=5
num_cat=0
split_feature=7 14 11 12
split_gain=1.76167 1.26725 1.60744 0.508847
threshold=0.023670241577293853 0.45948623126196925 0.29024520255863545 0.26913690920862604
decision_type=2 2 2 2
left_child=-1 2 -2 -3
right_child=1 3 -4 -5
leaf_value=-0.070356596531102947 -0.079410161223322465 0.028714218334805169 0.032676523516622827 0.12026326254225005
leaf_weight=2.7031188867986211 1.8715274950955043 1.0401043551974001 4.0444046988850459 1.4584481142228467
leaf_count=94 44 17 97 87
internal_value=0 0.0224378 -0.00278252 0.082153
internal_weight=0 8.41448 5.91593 2.49855
internal_count=339 245 141 104
shrinkage=0.1


Tree=52
num_leaves=6
num_cat=0
split_feature=6 16 11 11 15
split_gain=1.58195 1.9107 1.66999 0.256494 0.242327
threshold=0.14711207676987142 0.16325878594249202 0.36780383795309174 0.39992004264392339 0.16373179652860648
decision_type=2 2 2 2 2
left_child=1 3 -3 -1 -2
right_child=4 2 -4 -5 -6
leaf_value=-0.11109440792440772 0.12487917179276707 -0.043093207714269985 0.062051632851391751 -0.051325573714420661 0.051816170529729692
leaf_weight=1.5940673972945645 0.82110024802386838 2.7613279183860868 3.3348665137309581 1.3064701403491197 1.0152132296934722
leaf_count=86 12 55 71 27 88
internal_value=0 -0.0173627 0.0144253 -0.0841731 0.084486
internal_weight=0 8.99673 6.09619 2.90054 1.83631
internal_count=339 239 126 113 100
shrinkage=0.1


Tree=53
num_leaves=5
num_cat=0
split_feature=4 10 10 2
split_gain=1.51007 1.40724 2.09852 0.120364
threshold=0.36727137176938368 0.08069386288572887 0.056527507151444757 0.43260810688814666
decision_type=2 2 2 2
left_child=1 2 -1 -2
right_child=3 -3 -4 -5
leaf_value=-0.033816671980416303 0.053396898721501253 -0.066808550092113145 0.094727722590421948 0.10753958006664542
leaf_weight=3.3388712663436291 0.68489726167172271 3.4374641543254256 2.0496328892186284 1.0252238940447567
leaf_count=90 38 95 40 76
internal_value=0 -0.0168145 0.0150779 0.0858556
internal_weight=0 8.82597 5.3885 1.71012
internal_count=339 225 130 114
shrinkage=0.1


Tree=54
num_leaves=6
num_cat=0
split_feature=13 2 9 19 17
split_gain=1.39782 1.43352 1.357 0.30232 0.00931527
threshold=0.20848898938261898 0.34115735307393708 0.12112343108009226 0.070739866194411666 0.52852233676975946
decision_type=2 2 2 2 2
left_child=1 -1 -3 -2 -5
right_child=3 2 -4 4 -6
leaf_value=-0.084776170458541675 0.024208571949378335 0.059232142084309727 -0.034476074032384403 0.12009176929653204 0.10212746534027113
leaf_weight=2.2808140530250949 0.6185997975990184 2.8192482141312212 3.4199807306285948 0.55976843275129773 0.59597354172728956
leaf_count=85 14 38 94 13 95
internal_value=0 -0.0169337 0.00786677 0.0806295 0.110828
internal_weight=0 8.52004 6.23923 1.77434 1.15574
internal_count=339 217 132 122 108
shrinkage=0.1


Tree=55
num_leaves=8
num_cat=0
split_feature=12 0 7 14 14 3 10
split_gain=1.37948 1.72769 1.00301 1.16964 1.08588 0.238007 0.0299767
threshold=0.17264305991334222 0.19496110923232998 0.053012898815460605 0.45948623126196925 0.2541108102753748 0.14816575670204282 0.08542694470931271
decision_type=2 2 2 2 2 2 2
left_child=-1 -2 3 -3 -4 -6 -7
right_child=1 2 4 -5 5 6 -8
leaf_value=-0.10446680406884956 -0.085491026176666332 -0.044695678569307888 -0.013795484870169773 0.054573415439543728 0.17377395578645763 0.11237645681846564 0.081019834976898297
leaf_weight=1.124763697152958 1.4833290053065846 2.3680921329651028 0.82808078732341561 2.3796349966432899 0.63108843937516201 0.67671590356621869 0.55485115386545658
leaf_count=70 33 62 10 42 5 47 70
internal_value=0 0.0130527 0.0327037 0.00505954 0.081481 0.123838 0.0982495
internal_weight=0 8.92179 7.43846 4.74773 2.69074 1.86266 1.23157
internal_count=339 269 236 104 132 122 117
shrinkage=0.1


Tree=56
num_leaves=7
num_cat=0
split_feature=13 2 9 0 3 15
split_gain=1.18392 1.22531 1.04203 0.31671 0.00942049 0.000170129
threshold=0.20848898938261898 0.34115735307393708 0.12112343108009226 0.24737910043963468 0.16101772897368263 0.19730088967798898
decision_type=2 2 2 2 2 2
left_child=1 -1 -3 -2 -5 -6
right_child=3 2 -4 4 5 -7
leaf_value=-0.082105166898915061 0.016483003816097769 0.052279736404922089 -0.031162093136716335 0.1214388232219285 0.10417834369924517 0.10083470376220881
leaf_weight=2.0664533794624713 0.54553737817332226 2.7657826994545758 3.2615045593120158 0.44100889377295949 0.27154755138326436 0.34616114955861121
leaf_count=85 11 38 94 6 15 90
internal_value=0 -0.015655 0.00712743 0.0783804 0.110275 0.102305
internal_weight=0 8.09374 6.02729 1.60425 1.05872 0.617709
internal_count=339 217 132 122 111 105
shrinkage=0.1


Tree=57
num_leaves=6
num_cat=0
split_feature=7 4 8 14 9
split_gain=1.27399 1.23619 2.30432 1.07005 0.0559389
threshold=0.018916768460098803 0.24793737574552685 0.097846005948268061 0.40104338638314735 0.10698204536500251
decision_type=2 2 2 2 2
left_child=-1 2 -2 -3 -5
right_child=1 3 -4 4 -6
leaf_value=-0.089511187366733566 0.047273572799687288 -0.00099190025140264955 -0.097271381453488792 0.12859181505821091 0.094110350672875556
leaf_weight=1.3638508934527642 2.3459418322890979 1.6865747103001925 2.0814618556760252 0.75540952844312448 1.2473517097532747
leaf_count=60 50 48 62 42 77
internal_value=0 0.0149431 -0.0206816 0.0576947 0.107116
internal_weight=0 8.11674 4.4274 3.68934 2.00276
internal_count=339 279 112 167 119
shrinkage=0.1


Tree=58
num_leaves=8
num_cat=0
split_feature=11 13 18 4 0 17 7
split_gain=1.23301 1.34221 1.10909 0.43763 0.0183339 0.000949431 8.69988e-05
threshold=0.23214285714285712 0.11446863940228072 0.19465799329785141 0.24793737574552685 0.25380453161988498 0.50773195876288668 0.046933309425885007
decision_type=2 2 2 2 2 2 2
left_child=-1 -2 -3 -4 -5 -6 -7
right_child=1 2 3 4 5 6 -8
leaf_value=-0.079997179164160298 -0.038190223829347995 -0.024761277526118706 0.038597990619218987 0.12471122784200071 0.10779541145978291 0.10321853389221794 0.10100580323516731
leaf_weight=1.5947342804865909 2.7966094475705177 1.423181665013544 1.4170792498625817 0.70704057510010887 0.49368270649574675 0.34754967712797225 0.36355972546152771
leaf_count=63 96 32 17 10 11 17 93
internal_value=0 0.0167766 0.0491245 0.0807123 0.111928 0.104426 0.102087
internal_weight=0 7.5487 4.75209 3.32891 1.91183 1.20479 0.711109
internal_count=339 276 180 148 131 121 110
shrinkage=0.1


Tree=59
num_leaves=7
num_cat=0
split_feature=6 11 18 15 18 11
split_gain=1.13865 1.48033 0.646055 0.630127 0.234704 0.0639539
threshold=0.14711207676987142 0.36780383795309174 0.26680465207963738 0.27714876153331197 0.15582495564754581 0.21455223880597024
decision_type=2 2 2 2 2 2
left_child=1 3 -3 5 -2 -1
right_child=4 2 -4 -5 -6 -7
leaf_value=-0.11772036739066474 0.12635535083595903 -0.016934420871395607 0.062886696351115698 -0.010952679684338273 0.046085747962640311 -0.082135769980140438
leaf_weight=1.0534577716607607 0.62204338086303301 1.9665953589137641 2.0933203294407576 1.2772126416675744 0.87901388161117211 0.97020775941200543
leaf_count=45 11 43 65 22 89 64
internal_value=0 -0.0162146 0.0242219 -0.0659494 0.0793498 -0.10066
internal_weight=0 7.36079 4.05992 3.30088 1.50106 2.02367
internal_count=339 239 108 131 100 109
shrinkage=0.1


Tree=60
num_leaves=7
num_cat=0
split_feature=6 11 8 15 4 11
split_gain=0.943995 1.25674 0.639938 0.620179 0.129243 0.0691308
threshold=0.14711207676987142 0.36780383795309174 0.13487247273710459 0.28825760883274637 0.29507952286282307 0.23214285714285712
decision_type=2 2 2 2 2 2
left_child=1 3 -3 5 -2 -1
right_child=4 2 -4 -5 -6 -7
leaf_value=-0.11496840454388844 0.10563609137356184 0.066586024878941816 -0.01379982600089113 -0.0070025786210627635 0.04609340005530288 -0.07687405300019276
leaf_weight=1.0537536022020506 0.66122954920865573 1.7905156326014546 2.2159715137677267 1.2379425468388943 0.81247124477522448 0.86942163947969664
leaf_count=54 8 43 65 21 92 56
internal_value=0 -0.0150692 0.0221249 -0.06221 0.0728094 -0.0977469
internal_weight=0 7.1676 4.00649 3.16112 1.4737 1.92318
internal_count=339 239 108 131 100 110
shrinkage=0.1


Tree=61
num_leaves=6
num_cat=0
split_feature=4 0 7 6 18
split_gain=1.06511 0.992728 0.979374 0.81196 0.107385
threshold=0.36727137176938368 0.24061548867095017 0.053012898815460605 0.05037117508600391 0.23644786122609904
decision_type=2 2 2 2 2
left_child=1 -1 3 -3 -2
right_child=4 2 -4 -5 -6
leaf_value=-0.082012076306778967 0.048495695575714814 0.020483231827661218 0.062095784104447084 -0.076024362496978373 0.10657570911379816
leaf_weight=1.7018855883507056 0.54176241467939668 1.7995367143303158 1.9576842369860967 1.6909948769025502 0.77190932031953707
leaf_count=72 29 51 42 60 85
internal_value=0 -0.0153435 0.00548206 -0.0262701 0.0826233
internal_weight=0 7.1501 5.44822 3.49053 1.31367
internal_count=339 225 153 111 114
shrinkage=0.1


Tree=62
num_leaves=5
num_cat=0
split_feature=7 2 19 7
split_gain=0.977329 0.787387 0.70496 0.793751
threshold=0.023670241577293853 0.33515392254220461 0.24386724386724382 0.052312485291315956
decision_type=2 2 2 2
left_child=-1 -2 3 -3
right_child=1 2 -4 -5
leaf_value=-0.061419666351429349 -0.028230691399547356 -0.034067706302004196 0.11037518267560811 0.072455794803952381
leaf_weight=1.9756044125533661 2.2332645810674876 1.4172861281549565 1.1906892230035735 1.381214876542799
leaf_count=94 59 39 76 71
internal_value=0 0.0193122 0.0459281 0.0185075
internal_weight=0 6.22245 3.98919 2.7985
internal_count=339 245 186 110
shrinkage=0.1


Tree=63
num_leaves=7
num_cat=0
split_feature=13 9 18 4 14 1
split_gain=0.852411 0.928477 0.74888 0.747386 0.0204889 0.00792918
threshold=0.16813311049941013 0.13519446164237073 0.22885866351271439 0.25556660039761431 0.30066697483985999 0.44544260935664443
decision_type=2 2 2 2 2 2
left_child=1 -1 -2 -3 -4 -6
right_child=2 3 4 -5 5 -7
leaf_value=0.021634461873063962 -0.010428264414277681 -0.10613380951404688 0.12010381605603621 -0.0062714630185211704 0.082262825763782021 0.10379642750517881
leaf_weight=2.734031306928955 1.0358634090516718 1.5841661184676925 0.52754744864068903 1.4223363110795615 0.31603955256287009 0.37260485789738595
leaf_count=74 40 94 9 22 33 67
internal_value=0 -0.0205389 0.0520554 -0.0588903 0.105274 0.093914
internal_weight=0 5.74053 2.25206 3.0065 1.21619 0.688644
internal_count=339 190 149 116 109 100
shrinkage=0.1


Tree=64
num_leaves=6
num_cat=0
split_feature=7 17 3 14 18
split_gain=0.799279 0.822701 1.07186 0.574437 0.0937357
threshold=0.018916768460098803 0.47010309278350515 0.16101772897368263 0.40104338638314735 0.32791247782377297
decision_type=2 2 2 2 2
left_child=-1 2 -2 -3 -5
right_child=1 3 -4 4 -6
leaf_value=-0.077948272951769051 0.041997480526803396 -0.0017024140130174313 -0.060201252739975078 0.12086125950049587 0.07122855346315729
leaf_weight=1.12770568189444 1.866856192180421 0.96829790016636286 2.2790476459194906 0.78495809511514358 0.73850945034064353
leaf_count=60 52 38 72 56 61
internal_value=0 0.0131111 -0.0141823 0.058523 0.0968015
internal_weight=0 6.63767 4.1459 2.49177 1.52347
internal_count=339 279 124 155 117
shrinkage=0.1


Tree=65
num_leaves=7
num_cat=0
split_feature=11 4 13 11 12 4
split_gain=0.79577 1.03041 0.830517 0.236873 0.00623311 0.00030661
threshold=0.30197228144989346 0.25556660039761431 0.15401346834447502 0.37273454157782521 0.26241346680611582 0.30519383697813124
decision_type=2 2 2 2 2 2
left_child=2 -2 -1 -3 -5 -6
right_child=1 3 -4 4 5 -7
leaf_value=-0.11144936032245041 -0.0098320823110469718 0.028961159046148273 0.0051566393283159796 0.11860774773467926 0.10568973184584468 0.10165449761292673
leaf_weight=1.0985578806139531 3.3582309839548543 0.52531240181997407 1.3757370754610745 0.45527952909469582 0.40155842120293528 0.35456090507796034
leaf_count=86 82 24 29 4 18 96
internal_value=0 0.0225083 -0.0466151 0.0850439 0.109364 0.103798
internal_weight=0 5.09494 2.47429 1.73671 1.2114 0.756119
internal_count=339 224 115 142 118 114
shrinkage=0.1


Tree=66
num_leaves=4
num_cat=0
split_feature=4 11 7
split_gain=0.749613 0.909221 0.847632
threshold=0.13312624254473157 0.47321428571428581 0.050145872789961805
decision_type=2 2 2
left_child=-1 2 -2
right_child=1 -3 -4
leaf_value=-0.073288368681223182 -0.045576051579959781 0.082452269757727431 0.039825536904599175
leaf_weight=1.1749853999353943 2.6137106159003451 1.4717216014396397 2.0927068794844672
leaf_count=99 75 83 82
internal_value=0 0.01385 -0.00760227
internal_weight=0 6.17814 4.70642
internal_count=339 240 157
shrinkage=0.1


Tree=67
num_leaves=7
num_cat=0
split_feature=7 2 11 12 0 5
split_gain=0.708718 0.715878 0.459079 0.525985 0.132627 0.0208285
threshold=0.023670241577293853 0.33515392254220461 0.26026119402985076 0.20665869814233775 0.30605343253297257 0.22525273799494527
decision_type=2 2 2 2 2 2
left_child=-1 -2 -3 -4 -5 -6
right_child=1 2 3 4 5 -7
leaf_value=-0.05749885824767928 -0.029553295132162996 -0.013979051254585043 -0.0057843823905211218 0.057772084103864176 0.12878480806700729 0.10241083290777375
leaf_weight=1.6540578780113717 2.0605258779833093 0.95826159685384515 0.70540805452037636 0.60132257267832745 0.58676447556354083 0.6114988804620225
leaf_count=94 59 29 19 23 39 76
internal_value=0 0.0171185 0.0448867 0.0674053 0.0960944 0.115326
internal_weight=0 5.52378 3.46326 2.50499 1.79959 1.19826
internal_count=339 245 186 157 138 115
shrinkage=0.1


Tree=68
num_leaves=8
num_cat=0
split_feature=12 2 7 15 14 0 3
split_gain=0.690644 0.91361 0.696377 0.302502 0.00394244 0.000176303 1.49236e-05
threshold=0.3637631356143235 0.34115735307393708 0.030870492605500902 0.13118141863375735 0.2778841709040481 0.24737910043963468 0.27029016624746954
decision_type=2 2 2 2 2 2 2
left_child=1 -1 -3 -2 -5 -6 -7
right_child=3 2 -4 4 5 6 -8
leaf_value=-0.078917241753439699 -0.0017625873446363892 -0.028164229877241168 0.052349908668600925 0.11790063494086585 0.10490220861595988 0.10190230888170096 0.10037391259381667
leaf_weight=1.5748916865559293 0.37398602813482262 2.2610549250384793 2.0465743530075997 0.27209161198697984 0.22173818107694387 0.11569929678807966 0.14265441146562807
leaf_count=85 7 74 54 6 9 17 87
internal_value=0 -0.0137405 0.0100884 0.071739 0.108284 0.102834 0.101058
internal_weight=0 5.88252 4.30763 1.12617 0.752184 0.480092 0.258354
internal_count=339 213 128 126 119 113 104
shrinkage=0.1


Tree=69
num_leaves=7
num_cat=0
split_feature=11 4 8 4 11 12
split_gain=0.718363 0.829959 1.15609 1.56996 0.692676 0.00104393
threshold=0.23214285714285712 0.13312624254473157 0.14309640400156218 0.25556660039761431 0.35967484008528788 0.27835051546391759
decision_type=2 2 2 2 2 2
left_child=-1 -2 -3 -4 -5 -6
right_child=1 2 3 4 5 -7
leaf_value=-0.073881674231860248 -0.068279023229544808 0.088095576294457176 -0.11129429731317682 -0.021594803884659355 0.11106898453410126 0.10421173899625449
leaf_weight=1.103353997110389 1.0053034407319499 2.0581012885377277 0.99291765841189805 0.77908551681321092 0.40379849076271057 0.49313929697382264
leaf_count=63 71 59 23 23 8 92
internal_value=0 0.0142313 0.0317788 -0.0116488 0.0473837 0.107299
internal_weight=0 5.73235 4.72704 2.66894 1.67602 0.896938
internal_count=339 276 205 146 123 100
shrinkage=0.1


Tree=70
num_leaves=10
num_cat=0
split_feature=12 0 4 0 12 4 0 15 15
split_gain=0.616975 0.636021 0.790588 0.300383 0.00393215 0.00377951 5.61186e-05 5.58474e-05 7.49182e-06
threshold=0.3637631356143235 0.39127494081839692 0.17030318091451288 0.20984105512343587 0.25469395886249319 0.25556660039761431 0.31095705106526877 0.17125088531206642 0.23698227435457106
decision_type=2 2 2 2 2 2 2 2 2
left_child=1 2 4 -2 6 -5 -1 -7 -9
right_child=3 -3 -4 5 -6 7 -8 8 -10
leaf_value=-0.10095122757480264 -0.007022521777951889 0.034777608306902706 -0.006730864410794752 0.11691916369188481 -0.11383199098427006 0.10316703461023316 -0.10294640705876841 0.10149473109742607 0.10034995943712594
leaf_weight=0.28492833112250104 0.33675748016685225 1.8277103520231319 2.545147331780754 0.27759678103029728 0.54815534106455743 0.19428278249688447 0.27903425390832126 0.10413800770766102 0.12674598835292272
leaf_count=79 6 48 53 4 11 10 22 21 85
internal_value=0 -0.013392 -0.0374646 0.070632 -0.107801 0.107843 -0.101938 0.101918 0.100866
internal_weight=0 5.48498 3.65727 1.03952 1.11212 0.702764 0.563963 0.425167 0.230884
internal_count=339 213 165 126 112 120 101 116 106
shrinkage=0.1


Tree=71
num_leaves=9
num_cat=0
split_feature=13 18 9 15 0 17 4 19
split_gain=0.548113 1.02957 0.912675 0.298015 0.0791203 0.00504268 0.000426538 9.59313e-06
threshold=0.15401346834447502 0.19653065247388127 0.13519446164237073 0.34535417333682605 0.2717281028068988 0.38264604810996561 0.27654075546719686 0.1729961957234685
decision_type=2 2 2 2 2 2 2 2
left_child=2 -2 -1 -4 -3 -6 -7 -8
right_child=1 4 3 -5 5 6 7 -9
leaf_value=0.030705273099612452 -0.036184636668003665 0.064327086083466795 -0.10355655504805315 -0.026886499667005744 0.12005292042647296 0.1071881685253938 0.10186156705499848 0.10065856580028024
leaf_weight=1.6368521330878141 1.1608174631255681 0.69026855198899262 1.1382618733623533 0.91411803243681777 0.32400050014257431 0.22229064541170374 0.13024579687044024 0.13498689859989099
leaf_count=63 33 20 94 18 3 7 28 73
internal_value=0 0.0345443 -0.0249895 -0.0694082 0.0892145 0.110383 0.103957 0.101249
internal_weight=0 2.66261 3.68923 2.05238 1.50179 0.811524 0.487523 0.265233
internal_count=339 164 175 112 131 111 108 101
shrinkage=0.1


Tree=72
num_leaves=7
num_cat=0
split_feature=0 10 4 4 13 18
split_gain=0.590986 0.691704 1.09715 0.775137 0.241411 0.126325
threshold=0.19496110923232998 0.077239058634937671 0.25556660039761431 0.17030318091451288 0.13213969720802199 0.23151981076286224
decision_type=2 2 2 2 2 2
left_child=-1 3 -3 -2 -4 -6
right_child=1 2 4 -5 5 -7
leaf_value=-0.073038184396106251 0.0016282614843501277 -0.10523739762580789 -0.015410417936748256 0.10752788845669746 0.021509178172654572 0.10357997445669431
leaf_weight=0.94012758528697293 1.6291861903737301 1.0171343378024178 0.60704703442752339 1.2004763986333271 0.32446024441742338 0.4444561509299092
leaf_count=51 73 49 9 53 20 84
internal_value=0 0.0130884 -0.0264844 0.0465559 0.0317311 0.0689485
internal_weight=0 5.22276 2.3931 2.82966 1.37596 0.768916
internal_count=339 288 162 126 113 104
shrinkage=0.1


Tree=73
num_leaves=5
num_cat=0
split_feature=6 11 7 8
split_gain=0.608992 0.866475 0.395071 0.374715
threshold=0.15926127104834323 0.36780383795309174 0.030870492605500902 0.13487247273710459
decision_type=2 2 2 2
left_child=1 2 -1 -3
right_child=-2 3 -4 -5
leaf_value=-0.10895901731880682 0.075843134058974526 0.06268648535415941 -0.023988374821229189 -0.010757094664331017
leaf_weight=0.9469459799001928 0.89723636937560503 1.305895541852806 1.296180636360077 1.4842841875506563
leaf_count=87 91 46 47 68
internal_value=0 -0.0135847 -0.0598591 0.0236169
internal_weight=0 5.03331 2.24313 2.79018
internal_count=339 248 134 114
shrinkage=0.1


Tree=74
num_leaves=5
num_cat=0
split_feature=6 16 13 0
split_gain=0.50858 0.880829 0.452329 0.188385
threshold=0.15926127104834323 0.16325878594249202 0.15401346834447502 0.34274602637808588
decision_type=2 2 2 2
left_child=1 3 -3 -1
right_child=-2 2 -4 -5
leaf_value=-0.10983200129141453 0.070205207549395077 -0.013805935661494746 0.060526154577879569 -0.038010484595782074
leaf_weight=0.80603022169088923 0.87365281526581373 2.1063112695992463 1.3391359988600013 0.66776608722284436
leaf_count=88 91 66 68 26
internal_value=0 -0.0125907 0.0150846 -0.0772902
internal_weight=0 4.91924 3.44545 1.4738
internal_count=339 248 134 114
shrinkage=0.1


Tree=75
num_leaves=6
num_cat=0
split_feature=11 7 17 14 0
split_gain=0.481674 1.06699 0.545475 0.392441 0.0593752
threshold=0.55250533049040529 0.028573136246306401 0.47010309278350515 0.39807171630456317 0.30216435576597894
decision_type=2 2 2 2 2
left_child=1 4 -3 -4 -1
right_child=-2 2 3 -5 -6
leaf_value=-0.10812325992434835 0.060798629602895032 -0.018021146920142263 0.0022025614884306354 0.11065853112169258 -0.06598462873776606
leaf_weight=0.73367811326170318 1.0550680128362726 1.8828670367074667 0.57669784460449569 0.79157309184665792 0.61440594156738371
leaf_count=77 52 62 29 84 35
internal_value=0 -0.0141189 0.0168966 0.0649466 -0.0889181
internal_weight=0 4.59922 3.25114 1.36827 1.34808
internal_count=339 287 175 113 112
shrinkage=0.1


Tree=76
num_leaves=8
num_cat=0
split_feature=3 16 13 0 10 12 19
split_gain=0.456982 1.08146 0.759976 0.0262313 0.00157631 0.000219131 1.29971e-05
threshold=0.12381142261210966 0.17931309904153353 0.16813311049941013 0.25735542779844428 0.031445628290701001 0.31645002241147469 0.10310901219992132
decision_type=2 2 2 2 2 2 2
left_child=-1 -2 -3 -4 -5 -6 -7
right_child=1 2 3 4 5 6 -8
leaf_value=0.062983149451656964 -0.092045705001924674 -0.012414735546558864 0.070004525285548624 0.11341945221218189 0.10610065085535923 0.101989768279415 0.10039352851884463
leaf_weight=0.94840028134058219 1.260142201936105 2.3777255497116134 0.26769448263803486 0.25955405834247358 0.14956220157910138 0.089683894504560158 0.11828791032894515
leaf_count=55 73 72 16 7 6 11 99
internal_value=0 -0.0133639 0.0170269 0.0961469 0.107488 0.103181 0.101082
internal_weight=0 4.52265 3.26251 0.884783 0.617088 0.357534 0.207972
internal_count=339 284 211 139 123 116 110
shrinkage=0.1


Tree=77
num_leaves=5
num_cat=0
split_feature=4 0 2 10
split_gain=0.455662 0.715164 0.482095 0.120514
threshold=0.13312624254473157 0.37504227257355433 0.40520899160422508 0.063126183270455868
decision_type=2 2 2 2
left_child=-1 2 -2 -3
right_child=1 3 -4 -5
leaf_value=-0.069867155037079562 -0.067252713348747925 0.10038133189748873 0.014812239303830807 0.041810044475570712
leaf_weight=0.79647786798886944 1.1146803984593137 0.70954696669650708 2.0006500080926344 0.69575423075002618
leaf_count=99 51 23 83 83
internal_value=0 0.0121628 -0.014551 0.0713831
internal_weight=0 4.52063 3.11533 1.4053
internal_count=339 240 134 106
shrinkage=0.1


Tree=78
num_leaves=6
num_cat=0
split_feature=0 10 17 10 7
split_gain=0.421735 0.514922 0.988654 0.498867 0.189407
threshold=0.19496110923232998 0.077239058634937671 0.51804123711340211 0.05794397689426916 0.030011318682550154
decision_type=2 2 2 2 2
left_child=-1 3 -3 -2 -4
right_child=1 2 4 -5 -6
leaf_value=-0.068663333540302879 0.0027782222605972941 -0.082500028078229815 0.0062723813019824812 0.094497568897341386 0.10386938770301052
leaf_weight=0.76530216948594887 1.3540217463742013 1.2140524388523775 0.35845441062701855 1.0551088251231702 0.44658793581766076
leaf_count=51 88 62 7 38 93
internal_value=0 0.0117299 -0.0255185 0.0429479 0.0604132
internal_weight=0 4.42823 2.01909 2.40913 0.805042
internal_count=339 288 162 126 100
shrinkage=0.1


Tree=79
num_leaves=7
num_cat=0
split_feature=12 3 16 15 13 11
split_gain=0.452456 0.476487 0.926777 0.178871 0.0011941 1.87428e-05
threshold=0.3637631356143235 0.12381142261210966 0.21888977635782747 0.13118141863375735 0.25616889500589857 0.26625799573560777
decision_type=2 2 2 2 2 2
left_child=1 -1 -3 -2 -5 -6
right_child=3 2 -4 4 5 -7
leaf_value=0.053534260983074788 0.003978521776746592 -0.097794104909769156 0.010375915929860632 0.11170881396935733 0.10289084771434341 0.10118288601662816
leaf_weight=0.86485538104898285 0.2597905946895479 1.2563475846254735 2.1433327485574409 0.2285559864831157 0.10716195800341666 0.16045340293203481
leaf_count=54 7 88 71 19 7 93
internal_value=0 -0.0127388 -0.0295982 0.0712026 0.1064 0.101867
internal_weight=0 4.26454 3.39968 0.755962 0.496171 0.267615
internal_count=339 213 159 126 119 100
shrinkage=0.1


Tree=80
num_leaves=5
num_cat=0
split_feature=11 12 9 8
split_gain=0.382007 0.481527 0.662011 0.424127
threshold=0.23214285714285712 0.28258379401364619 0.13519446164237073 0.18061104935860847
decision_type=2 2 2 2
left_child=-1 2 -2 -3
right_child=1 3 -4 -5
leaf_value=-0.065352958547425802 0.034753972106826153 0.10076100720750839 -0.067870149014470013 -0.0028228449919001147
leaf_weight=0.75847922054526851 1.2860043962718921 0.88984046754194401 1.2296137631055897 0.71122953562007751
leaf_count=63 41 64 82 89
internal_value=0 0.0118768 -0.0154079 0.0547468
internal_weight=0 4.11669 2.51562 1.60107
internal_count=339 276 123 153
shrinkage=0.1


Tree=81
num_leaves=5
num_cat=0
split_feature=4 8 11 16
split_gain=0.393267 0.913392 0.655711 0.0498083
threshold=0.24793737574552685 0.10554420644696121 0.31236673773987217 0.30007987220447291
decision_type=2 2 2 2
left_child=1 -1 -2 -4
right_child=2 -3 3 -5
leaf_value=0.018276389463713072 -0.018944290607750186 -0.10574151561137959 0.060522389015047098 0.10779467414772387
leaf_weight=1.643050271435641 1.1828823920805009 0.93001006201666303 0.34038271169993084 0.64571379829430953
leaf_count=92 33 73 44 97
internal_value=0 -0.0265488 0.0312573 0.0914771
internal_weight=0 2.57306 2.16898 0.986097
internal_count=339 165 174 141
shrinkage=0.1


Tree=82
num_leaves=5
num_cat=0
split_feature=4 0 2 5
split_gain=0.364943 0.489522 0.362706 0.103873
threshold=0.13312624254473157 0.37504227257355433 0.40520899160422508 0.22935973041280527
decision_type=2 2 2 2
left_child=-1 2 -2 -3
right_child=1 3 -4 -5
leaf_value=-0.068160602294875167 -0.061967584767845953 0.093182965009945593 0.014722649374513831 0.033856760751088608
leaf_weight=0.67276202562788956 0.94138900082907717 0.62687632059532894 1.7880428577627752 0.55767913954332471
leaf_count=99 51 43 83 63
internal_value=0 0.0115699 -0.011728 0.0652527
internal_weight=0 3.91399 2.72943 1.18456
internal_count=339 240 134 106
shrinkage=0.1


Tree=83
num_leaves=7
num_cat=0
split_feature=12 2 7 15 13 14
split_gain=0.388155 0.593492 0.40708 0.164103 0.000776598 8.72696e-06
threshold=0.3637631356143235 0.34115735307393708 0.030870492605500902 0.13118141863375735 0.25616889500589857 0.34458165489004816
decision_type=2 2 2 2 2 2
left_child=1 -1 -3 -2 -5 -6
right_child=3 2 -4 4 5 -7
leaf_value=-0.077820206858881469 0.0023055376203667192 -0.02541378483990438 0.051004067346988417 0.1101797785801268 0.10241525421790564 0.10119197584520755
leaf_weight=1.019126826853608 0.23544185701757658 1.4495289942424281 1.342911086278036 0.20671000108995941 0.11029934468388092 0.12375099313794635
leaf_count=85 7 74 54 19 19 81
internal_value=0 -0.0125021 0.0113363 0.0697085 0.105713 0.101768
internal_weight=0 3.81157 2.79244 0.676202 0.44076 0.23405
internal_count=339 213 128 126 119 100
shrinkage=0.1


Tree=84
num_leaves=7
num_cat=0
split_feature=18 7 0 2 13 8
split_gain=0.393332 0.544927 0.361654 0.224257 0.178967 0.00216495
threshold=0.39463828109599847 0.053012898815460605 0.39127494081839692 0.32346303150672578 0.15401346834447502 0.15473758524348849
decision_type=2 2 2 2 2 2
left_child=1 2 4 -3 5 -1
right_child=-2 3 -4 -5 -6 -7
leaf_value=-0.097838366159295656 0.07196392996899667 -0.010278466772213314 0.0089426925003008341 0.067878243498008348 -0.030843140087153442 -0.10802754439951852
leaf_weight=0.36918864797917261 0.64562716466753034 0.64646193420048781 0.81912598421331484 0.84962560798157938 0.56223642209079117 0.4791976748383604
leaf_count=88 58 18 30 92 18 35
internal_value=0 -0.0125816 -0.0439078 0.0341066 -0.0745972 -0.103594
internal_weight=0 3.72584 2.22975 1.49609 1.41062 0.848386
internal_count=339 281 171 110 141 123
shrinkage=0.1


Tree=85
num_leaves=6
num_cat=0
split_feature=0 12 18 9 10
split_gain=0.347911 0.377553 0.434553 0.42319 0.111328
threshold=0.19496110923232998 0.26241346680611582 0.19465799329785141 0.12851072212528844 0.08542694470931271
decision_type=2 2 2 2 2
left_child=-1 3 -3 -2 -4
right_child=1 2 4 -5 -6
leaf_value=-0.067351626580928192 0.032978396743322272 -0.026473767363456274 0.10350425316197093 -0.063517170492712258 0.040355753078021389
leaf_weight=0.6518887193960835 0.83251527597894925 0.57178848344483402 0.73864294550730825 1.0008950133051255 0.44880857287353138
leaf_count=51 32 28 59 87 82
internal_value=0 0.0120547 0.0451486 -0.0197004 0.0796367
internal_weight=0 3.59265 1.75924 1.83341 1.18745
internal_count=339 288 169 119 141
shrinkage=0.1


Tree=86
num_leaves=9
num_cat=0
split_feature=13 2 16 7 0 4 19 15
split_gain=0.309739 0.566773 0.338413 0.277575 0.00982022 0.000644262 6.18473e-06 8.1232e-07
threshold=0.18268285489579236 0.34115735307393708 0.16325878594249202 0.030870492605500902 0.24737910043963468 0.23128727634194832 0.070739866194411666 0.21762668451843872
decision_type=2 2 2 2 2 2 2 2
left_child=1 -1 -2 -3 -4 -6 -7 -8
right_child=2 3 4 -5 5 6 7 -9
leaf_value=-0.092137609403927886 -0.024576276769965388 -0.023632187386061279 0.078127397800076395 0.044455070394865709 0.10910748184443218 0.10163099999860598 0.10074717489966252 0.10017546867893004
leaf_weight=0.73667505373305209 0.38080905564129341 1.284388488988043 0.20150856213876978 1.1216363170533439 0.20687282830476761 0.088134171615820378 0.05354046422871761 0.046384539615246467
leaf_count=82 6 72 12 48 3 11 17 88
internal_value=0 -0.0153899 0.04907 0.00810861 0.0960909 0.105257 0.10102 0.100482
internal_weight=0 3.1427 0.97725 2.40602 0.596441 0.394932 0.188059 0.099925
internal_count=339 202 137 120 131 119 116 105
shrinkage=0.1


Tree=87
num_leaves=8
num_cat=0
split_feature=0 7 14 14 19 12 13
split_gain=0.313271 0.34987 0.555821 0.224007 0.0470464 0.0581594 0.000191923
threshold=0.19496110923232998 0.053012898815460605 0.44000528296902869 0.2778841709040481 0.093631116358389069 0.3052442850739579 0.19616348800629177
decision_type=2 2 2 2 2 2 2
left_child=-1 2 -2 -3 -5 -6 -7
right_child=1 3 -4 4 5 6 -8
leaf_value=-0.065359490717089186 -0.065405781141085195 -0.00065965755939918162 0.032849284858753013 0.12025530670003481 0.013647502224132028 0.10747710863619137 0.100768328496442
leaf_weight=0.62123722277465265 1.0104861368308782 0.37952916271751724 1.3381883165711768 0.35877130796143319 0.12243073468562216 0.079754292353754863 0.091638598874851596
leaf_count=51 95 13 60 13 7 6 94
internal_value=0 0.0119018 -0.00942366 0.0604295 0.095957 0.0662877 0.10389
internal_weight=0 3.3808 2.34867 1.03212 0.652595 0.293824 0.171393
internal_count=339 288 155 133 120 107 100
shrinkage=0.1


Tree=88
num_leaves=9
num_cat=0
split_feature=17 10 10 7 12 0 13 3
split_gain=0.286809 0.520217 0.573666 0.208061 0.000100964 1.67651e-05 3.85977e-06 8.81031e-08
threshold=0.55257731958762901 0.077239058634937671 0.056527507151444757 0.021877182955483503 0.26913690920862604 0.21643557659790322 0.14957727093983483 0.34344518741181523
decision_type=2 2 2 2 2 2 2 2
left_child=1 2 -1 -2 -5 -6 -7 -8
right_child=3 -3 -4 4 5 6 7 -9
leaf_value=-0.025913797893184033 -0.012134882836657429 -0.068489698604753166 0.080109715214581448 0.10478742106229709 0.10243429084945642 0.10138183243245276 0.10040452610539524 0.10017500544466734
leaf_weight=1.2798343295435199 0.25261300802230824 1.0937927718332501 0.84878917325113423 0.16521310433745384 0.12404610635712743 0.06050266744568944 0.031098519786610268 0.036182810188620351
leaf_count=89 3 89 39 4 6 6 33 70
internal_value=0 -0.0124387 0.0163631 0.0594847 0.102866 0.101606 0.100802 0.100281
internal_weight=0 3.22242 2.12862 0.669656 0.417043 0.25183 0.127784 0.0672813
internal_count=339 217 128 122 119 115 109 103
shrinkage=0.1


Tree=89
num_leaves=6
num_cat=0
split_feature=11 7 17 14 6
split_gain=0.27562 0.682396 0.31951 0.203462 0.0306875
threshold=0.55250533049040529 0.028573136246306401 0.47010309278350515 0.39807171630456317 0.039217816404128157
decision_type=2 2 2 2 2
left_child=1 4 -3 -4 -1
right_child=-2 2 3 -5 -6
leaf_value=-0.067253444758336944 0.054762515190692564 -0.015121316386161633 0.0099334182453834526 0.10646727188213601 -0.10481932586039511
leaf_weight=0.39888691090163853 0.73873285417721479 1.276157993663219 0.39617154511506658 0.48639021975395735 0.47809780573879834
leaf_count=56 52 62 29 84 56
internal_value=0 -0.013347 0.0168724 0.0631344 -0.0877329
internal_weight=0 3.0357 2.15872 0.882562 0.876985
internal_count=339 287 175 113 112
shrinkage=0.1


Tree=90
num_leaves=8
num_cat=0
split_feature=13 2 16 0 0 14 9
split_gain=0.268676 0.444596 0.306721 0.250503 0.00849264 0.000156457 0.000134917
threshold=0.18268285489579236 0.34115735307393708 0.16325878594249202 0.28221170104835985 0.25735542779844428 0.23363930528957269 0.052527157088985157
decision_type=2 2 2 2 2 2 2
left_child=1 -1 -2 -3 -4 -6 -7
right_child=2 3 4 -5 5 6 -8
leaf_value=-0.088888981024238742 -0.024845224739970539 -0.035255318192079756 0.078756912656602174 0.034488816749430315 0.10791505292291124 0.10687090681960545 0.10161864147284126
leaf_weight=0.63327611725253596 0.34778243303298939 0.86059741515782695 0.18639377770887222 1.2823635369422843 0.13442026209668256 0.077297258310863981 0.13315844949465827
leaf_count=82 6 56 15 64 5 11 100
internal_value=0 -0.0152742 0.0481624 0.00648008 0.095955 0.10525 0.103548
internal_weight=0 2.77624 0.879052 2.14296 0.53127 0.344876 0.210456
internal_count=339 202 137 120 131 116 111
shrinkage=0.1


Tree=91
num_leaves=6
num_cat=0
split_feature=11 2 16 12 2
split_gain=0.255163 0.230367 0.310896 0.160538 0.00536196
threshold=0.30197228144989346 0.33515392254220461 0.25283546325878598 0.29553264604811008 0.48812855466281491
decision_type=2 2 2 2 2
left_child=3 -2 -3 -1 -4
right_child=1 2 4 -5 -6
leaf_value=-0.079698599701646805 -0.022588815848118126 0.0066275160338634016 0.088209669989781844 -0.0046992378328397401 0.10763537484174253
leaf_weight=0.52231851316173583 0.86934125347761471 0.95131914041485266 0.24637326873198617 0.62923156551551074 0.33570557352868491
leaf_count=90 56 52 66 25 50
internal_value=0 0.0185346 0.041849 -0.0387173 0.0994132
internal_weight=0 2.40274 1.5334 1.15155 0.582079
internal_count=339 224 168 115 116
shrinkage=0.1


Tree=92
num_leaves=10
num_cat=0
split_feature=13 16 9 17 0 4 14 19 16
split_gain=0.242795 0.352019 0.342142 0.307384 0.0135103 0.000307458 4.86974e-05 1.07716e-06 1.44335e-07
threshold=0.16813311049941013 0.16325878594249202 0.13519446164237073 0.47010309278350515 0.25735542779844428 0.21866302186878728 0.2778841709040481 0.11281647645284006 0.28119009584664539
decision_type=2 2 2 2 2 2 2 2 2
left_child=2 -2 -1 -4 -3 -6 -7 -8 -9
right_child=1 4 3 -5 5 6 7 8 -10
leaf_value=0.018304451507597273 -0.029760116053355063 0.071527138924280295 -0.10332332288476131 -0.001110529358376812 0.10782124645032187 0.10368591066188955 0.10095511471277195 0.10046721230791755 0.10015323872229812
leaf_weight=1.3456472841062357 0.39010895416140545 0.18079160562774632 0.62804463641077724 0.55353199224919081 0.17570275068283081 0.0993258849484846 0.04458051870460622 0.028006527816614835 0.030681267839099746
leaf_count=74 8 16 96 20 3 7 13 18 84
internal_value=0 0.043144 -0.0161739 -0.0554398 0.0940135 0.10476 0.102105 0.100585 0.100303
internal_weight=0 0.949198 2.52722 1.18158 0.559089 0.378297 0.202594 0.103268 0.0586878
internal_count=339 149 190 116 141 125 122 115 102
shrinkage=0.1


Tree=93
num_leaves=7
num_cat=0
split_feature=11 4 8 10 13 19
split_gain=0.247733 0.32403 0.602535 0.25402 0.0251131 0.000259079
threshold=0.23214285714285712 0.24793737574552685 0.090861297203112312 0.12778284482401228 0.14431773495871017 0.17735799553981366
decision_type=2 2 2 2 2 2
left_child=-1 2 -2 4 -3 -6
right_child=1 3 -4 -5 5 -7
leaf_value=-0.061143486282743811 0.046929056733371423 0.068333150975059723 -0.07206153257106522 -0.0092698695501832688 0.10367733808652049 0.10874652914284524
leaf_weight=0.55396124997059848 0.81270486558787547 0.30379605107009389 0.89333213337522466 0.40429487438086653 0.18972367089736508 0.21516292524756864
leaf_count=63 50 9 68 49 38 62
internal_value=0 0.0120058 -0.015378 0.0539812 0.0900651 0.106371
internal_weight=0 2.81901 1.70604 1.11298 0.708683 0.404887
internal_count=339 276 118 158 109 100
shrinkage=0.1


Tree=94
num_leaves=7
num_cat=0
split_feature=13 10 11 2 0 18
split_gain=0.22629 0.34916 0.20607 0.119601 0.0156363 0.000262974
threshold=0.18268285489579236 0.027576247529814902 0.30197228144989346 0.41085131353254495 0.29912073047007098 0.32791247782377297
decision_type=2 2 2 2 2 2
left_child=2 -2 -1 -4 -3 -6
right_child=1 4 3 -5 5 -7
leaf_value=-0.057682921120176138 -0.049629833008775201 0.071096424796893085 -0.022501788597944536 0.030450096528664056 0.1034962192123202 0.10916436652885653
leaf_weight=0.77160621080111091 0.25358205947122758 0.2010482803962077 0.83374649749021024 0.87338357756379992 0.15434978172561387 0.17426655753297382
leaf_count=97 9 24 57 48 61 43
internal_value=0 0.0468651 -0.0147957 0.00458889 0.0930629 0.106502
internal_weight=0 0.783247 2.47874 1.70713 0.529665 0.328616
internal_count=339 137 202 105 128 104
shrinkage=0.1


Tree=95
num_leaves=7
num_cat=0
split_feature=7 14 19 17 17 9
split_gain=0.2367 0.231395 0.337063 0.235069 0.00062336 1.73721e-05
threshold=0.021877182955483503 0.43373175724757318 0.095238095238095219 0.46374570446735397 0.50360824742268051 0.19344852817020317
decision_type=2 2 2 2 2 2
left_child=-1 2 -2 -3 -5 -6
right_child=1 3 -4 4 5 -7
leaf_value=-0.052832474053474479 0.039072229086255884 -0.0048644613243493491 -0.049313523635854138 0.10960852266201618 0.10133530293641811 0.10298993691455892
leaf_weight=0.66890411473286837 0.83816657800343841 0.33424122778524168 0.88920762905763695 0.20317891240119934 0.12479593529133126 0.12908654456623481
leaf_count=78 44 21 92 4 75 25
internal_value=0 0.0140884 -0.00642647 0.0588714 0.10548 0.102177
internal_weight=0 2.51868 1.72737 0.791303 0.457061 0.253882
internal_count=339 261 136 125 104 100
shrinkage=0.1


Tree=96
num_leaves=6
num_cat=0
split_feature=11 7 17 1 19
split_gain=0.203915 0.541418 0.221813 0.110192 0.0243914
threshold=0.55250533049040529 0.028573136246306401 0.47010309278350515 0.34489668993158734 0.21490882854519222
decision_type=2 2 2 2 2
left_child=1 4 -3 -4 -1
right_child=-2 2 3 -5 -6
leaf_value=-0.10357339728458166 0.051121588342377317 -0.011666859906180022 0.10637570354518629 0.025913753763972171 -0.066063077492143088
leaf_weight=0.39328012240002941 0.62521120394740126 1.0810175947262903 0.30054048309102643 0.39246998774251551 0.31000009257695638
leaf_count=77 52 62 14 99 35
internal_value=0 -0.0127899 0.0166449 0.060808 -0.0870392
internal_weight=0 2.47731 1.77403 0.69301 0.70328
internal_count=339 287 175 113 112
shrinkage=0.1


Tree=97
num_leaves=6
num_cat=0
split_feature=6 11 13 4 5
split_gain=0.27879 0.377845 0.28141 0.149849 7.05391e-05
threshold=0.15926127104834323 0.36780383795309174 0.11446863940228072 0.24793737574552685 0.18218197135636038
decision_type=2 2 2 2 2
left_child=1 3 -3 4 -1
right_child=-2 2 -4 -5 -6
leaf_value=-0.10580173352592204 0.071984938947983898 -0.032935808388045183 0.055385707189742811 -0.027605692620247053 -0.1031921272753257
leaf_weight=0.17689338942000243 0.45721105428492581 0.60695381939876802 0.88933618302689865 0.63303293769422453 0.24992775465580053
leaf_count=33 91 46 68 29 72
internal_value=0 -0.0127988 0.019559 -0.0584812 -0.104274
internal_weight=0 2.55614 1.49629 1.05985 0.426821
internal_count=339 248 114 134 105
shrinkage=0.1


Tree=98
num_leaves=5
num_cat=0
split_feature=6 16 11 0
split_gain=0.234567 0.33808 0.334827 0.135024
threshold=0.15926127104834323 0.16825079872204471 0.36780383795309174 0.37893134934054779
decision_type=2 2 2 2
left_child=1 3 -3 -1
right_child=-2 2 -4 -5
leaf_value=-0.10419901300884971 0.067151338021552154 -0.038018094387671758 0.050551083134033128 -0.017885904818615708
leaf_weight=0.4350929800129969 0.44193979691226548 0.75220578149674089 0.98674950771965086 0.31064338143914938
leaf_count=95 91 55 76 22
internal_value=0 -0.0119164 0.0122394 -0.0682445
internal_weight=0 2.48469 1.73896 0.745736
internal_count=339 248 131 117
shrinkage=0.1


Tree=99
num_leaves=5
num_cat=0
split_feature=6 11 12 9
split_gain=0.196681 0.29761 0.284247 0.031692
threshold=0.15926127104834323 0.55250533049040529 0.26241346680611582 0.20695671750999042
decision_type=2 2 2 2
left_child=1 2 3 -1
right_child=-2 -3 -4 -5
leaf_value=-0.10355996511651964 0.062376813026803368 0.053137953640130325 -0.0028825090986014097 -0.056522428842253461
leaf_weight=0.38473589874047398 0.42890279196944892 0.555287230239628 1.2472604267022687 0.2281973580866179
leaf_count=90 91 32 77 49
internal_value=0 -0.0111075 -0.0302854 -0.0860477
internal_weight=0 2.41548 1.86019 0.612933
internal_count=339 248 216 139
shrinkage=0.1


Tree=100
num_leaves=7
num_cat=0
split_feature=14 7 4 6 9 18
split_gain=0.203416 0.29456 0.314234 0.187141 0.171289 0.00138648
threshold=0.27128045961830549 0.053012898815460605 0.24793737574552685 0.048252761180517807 0.22567118815782064 0.14311058545239508
decision_type=2 2 2 2 2 2
left_child=-1 2 3 -2 5 -3
right_child=1 4 -4 -5 -6 -7
leaf_value=-0.051286054274475357 -0.00080221764515571144 0.11449848936484719 0.03405645062273982 -0.10308506021644795 0.0057459921280406025 0.10295183883518014
leaf_weight=0.60648888438663595 0.32033948593743866 0.18898812194674963 0.76131768300547265 0.40508064231835306 0.26725147129945981 0.23122747706838709
leaf_count=56 54 7 46 54 28 94
internal_value=0 0.0142088 -0.0108203 -0.0579178 0.0683375 0.108145
internal_weight=0 2.1742 1.48674 0.72542 0.687467 0.420216
internal_count=339 283 154 108 129 101
shrinkage=0.1


Tree=101
num_leaves=5
num_cat=0
split_feature=11 10 17 4
split_gain=0.177165 0.234633 0.419555 0.223931
threshold=0.23214285714285712 0.083699542583917166 0.51804123711340211 0.16083499005964214
decision_type=2 2 2 2
left_child=-1 3 -3 -2
right_child=1 2 -4 -5
leaf_value=-0.060083674396117226 0.0003743807824387368 -0.082366919707425268 0.055274417597412751 0.082355987737874975
leaf_weight=0.41583160900700056 0.73378485154535178 0.55887590116617492 0.36680805760443036 0.6102907824642898
leaf_count=63 63 55 93 65
internal_value=0 0.0109166 -0.0278257 0.0375989
internal_weight=0 2.26976 0.925684 1.34408
internal_count=339 276 148 128
shrinkage=0.1


Tree=102
num_leaves=10
num_cat=0
split_feature=13 16 9 17 11 4 13 2 4
split_gain=0.176964 0.245385 0.240468 0.212594 0.00845313 0.000168389 1.7298e-05 7.41566e-07 1.46108e-07
threshold=0.16813311049941013 0.16325878594249202 0.13519446164237073 0.47010309278350515 0.26625799573560777 0.21866302186878728 0.1850054069996068 0.28419247088561894 0.3180417495029822
decision_type=2 2 2 2 2 2 2 2 2
left_child=2 -2 -1 -4 -3 -6 -7 -8 -9
right_child=1 4 3 -5 5 6 7 8 -10
leaf_value=0.016370399224816461 -0.025876488186107327 0.073160267144309787 -0.10265122183050238 -0.0029833794326881418 0.10646051945883275 0.10302200128389381 0.10098460420538161 0.10055249026426814 0.10021631645381093
leaf_weight=1.0416744541507799 0.29799980018287886 0.13237212118110619 0.44880382984047162 0.40908946085255593 0.13769448548555374 0.046238079929025844 0.034128201194107533 0.025799986960919341 0.025913996589224553
leaf_count=74 8 13 96 20 3 10 5 11 99
internal_value=0 0.0428959 -0.0159184 -0.0551243 0.0938578 0.104014 0.101463 0.100623 0.100384
internal_weight=0 0.700147 1.89957 0.857893 0.402147 0.269775 0.13208 0.0858422 0.051714
internal_count=339 149 190 116 141 128 125 115 110
shrinkage=0.1


Tree=103
num_leaves=6
num_cat=0
split_feature=14 11 6 4 14
split_gain=0.162883 0.299942 0.320931 0.262903 0.124137
threshold=0.27128045961830549 0.55250533049040529 0.098442875248958811 0.24793737574552685 0.3554777785115234
decision_type=2 2 2 2 2
left_child=-1 2 3 -2 -4
right_child=1 -3 4 -5 -6
leaf_value=-0.047743138722487977 -0.093794010182684143 0.089275568701493058 0.10470143143895178 0.0079175140820506845 0.0081315107603358236
leaf_weight=0.55874247908286667 0.47603151045041137 0.41221486764334248 0.26539255296302133 0.54516690700256731 0.26705966359622835
leaf_count=56 96 45 23 36 83
internal_value=0 0.0134428 -0.00667715 -0.0394953 0.0562653
internal_weight=0 1.96587 1.55365 1.0212 0.532452
internal_count=339 283 238 132 106
shrinkage=0.1


Tree=104
num_leaves=5
num_cat=0
split_feature=7 14 13 13
split_gain=0.167273 0.208525 0.208427 0.068999
threshold=0.021877182955483503 0.45948623126196925 0.16813311049941013 0.13546991742036962
decision_type=2 2 2 2
left_child=-1 2 -2 -3
right_child=1 3 -4 -5
leaf_value=-0.050625372786118651 -0.038276888105617558 0.028184682334212813 0.038689279141458879 0.10484817540886074
leaf_weight=0.51580934448793447 0.82487027446768457 0.21061411208938796 0.61355974407706526 0.26525802136166021
leaf_count=78 77 19 75 90
internal_value=0 0.0135363 -0.00544711 0.070918
internal_weight=0 1.9143 1.43843 0.475872
internal_count=339 261 152 109
shrinkage=0.1


Tree=105
num_leaves=11
num_cat=0
split_feature=11 13 18 9 11 17 12 7 2 9
split_gain=0.163702 0.166514 0.271528 0.228586 0.0148483 0.000222295 9.96885e-06 4.67429e-06 4.7861e-07 1.4534e-08
threshold=0.19376332622601281 0.15401346834447502 0.19465799329785141 0.17698542241233742 0.29024520255863545 0.33881443298969077 0.306987399770905 0.028573136246306401 0.28116818633203949 0.15278324984521865
decision_type=2 2 2 2 2 2 2 2 2 2
left_child=-1 3 -3 -2 -4 -6 -7 -8 -9 -10
right_child=1 2 4 -5 5 6 7 8 9 -11
leaf_value=-0.071892517505588047 0.021569459745868096 -0.034784442651690749 0.069923563861874247 -0.063780762793003085 0.1073689129137758 0.10270963342325574 0.10195302301931566 0.10087248906228051 0.10020926227609582 0.10034006787473436
leaf_weight=0.27969357600159162 0.79299970206557213 0.27111016785056552 0.22622377271181904 0.51926325179374544 0.12682637572288513 0.063708131667226553 0.037544944265391678 0.022296382114291191 0.016572025815548841 0.01742699500573508
leaf_count=42 77 25 12 68 2 6 3 3 54 47
internal_value=0 0.00956096 0.0460975 -0.0122037 0.089043 0.104253 0.101744 0.101089 0.100512 0.100276
internal_weight=0 2.09397 0.781709 1.31226 0.510599 0.284375 0.157548 0.0938403 0.0562954 0.033999
internal_count=339 297 152 145 127 115 113 107 104 101
shrinkage=0.1


Tree=106
num_leaves=7
num_cat=0
split_feature=17 10 10 11 12 19
split_gain=0.14841 0.264365 0.226801 0.113301 0.000162509 4.71155e-06
threshold=0.55257731958762901 0.077239058634937671 0.052899962688114054 0.30197228144989346 0.24010159868519348 0.45001967729240472
decision_type=2 2 2 2 2 2
left_child=1 2 -1 -2 -5 -6
right_child=3 -3 -4 4 5 -7
leaf_value=-0.020157393245121034 -0.0085656644667582976 -0.065906199164588522 0.063954615443428106 0.10696823907993001 0.10080711545335604 0.10211136565005292
leaf_weight=0.79352203611415484 0.15068346392945375 0.60480245590224502 0.53786727408623847 0.10676658898591995 0.051472439789904456 0.059965103780996287
leaf_count=84 14 89 44 2 94 12
internal_value=0 -0.0110818 0.013823 0.0581257 0.10418 0.101509
internal_weight=0 1.93619 1.33139 0.368888 0.218204 0.111438
internal_count=339 217 128 122 108 106
shrinkage=0.1


Tree=107
num_leaves=6
num_cat=0
split_feature=6 18 13 16 16
split_gain=0.173069 0.245738 0.190976 0.219003 0.0917232
threshold=0.15926127104834323 0.19465799329785141 0.15401346834447502 0.29676517571884992 0.17675718849840258
decision_type=2 2 2 2 2
left_child=1 -1 3 4 -3
right_child=-2 2 -4 -5 -6
leaf_value=-0.071593485880784444 0.065391935979952034 -0.014787351202036191 0.060560989711529067 0.037006564838135157 -0.10069606705177635
leaf_weight=0.50445455094813985 0.34312931043223205 0.22854720682880703 0.48465910206505214 0.41068916705989977 0.27241848841731553
leaf_count=54 91 74 63 25 32
internal_value=0 -0.0117727 0.00983916 -0.0171259 -0.0615034
internal_weight=0 1.90077 1.39631 0.911655 0.500966
internal_count=339 248 194 131 106
shrinkage=0.1


Tree=108
num_leaves=5
num_cat=0
split_feature=6 11 18 7
split_gain=0.145658 0.255726 0.136604 0.118157
threshold=0.15926127104834323 0.36780383795309174 0.26680465207963738 0.030870492605500902
decision_type=2 2 2 2
left_child=1 3 -3 -1
right_child=-2 2 -4 -5
leaf_value=-0.10379279800240093 0.060907676980123851 -0.012364139728009246 0.05886820975587434 -0.022966626919454943
leaf_weight=0.30623095133159983 0.33215105343788298 0.5939752119265902 0.49240349671163131 0.44180473601227277
leaf_count=87 91 46 68 47
internal_value=0 -0.0110599 0.0199221 -0.0560553
internal_weight=0 1.83441 1.08638 0.748036
internal_count=339 248 114 134
shrinkage=0.1


Tree=109
num_leaves=5
num_cat=0
split_feature=7 14 13 12
split_gain=0.132846 0.162817 0.166363 0.0614314
threshold=0.021877182955483503 0.45948623126196925 0.18268285489579236 0.26241346680611582
decision_type=2 2 2 2
left_child=-1 2 -2 -3
right_child=1 3 -4 -5
leaf_value=-0.048820959280288463 -0.033585254618829878 0.025280543583340805 0.040863619520256272 0.10359464467399492
leaf_weight=0.44187856746066279 0.77646321644715477 0.18321225717954792 0.4892959713433811 0.22096961015631678
leaf_count=78 82 17 70 92
internal_value=0 0.0128386 -0.00480606 0.0680955
internal_weight=0 1.66994 1.26576 0.404182
internal_count=339 261 152 109
shrinkage=0.1


end of trees

feature_importances:
Column_11=67
Column_0=52
Column_4=47
Column_13=47
Column_12=41
Column_7=40
Column_17=39
Column_14=36
Column_2=29
Column_6=23
Column_9=23
Column_10=22
Column_16=20
Column_8=18
Column_18=17
Column_19=17
Column_15=12
Column_3=11
Column_5=5
Column_1=3

parameters:
[boosting: gbdt]
[objective: binary]
[metric: binary_logloss]
[tree_learner: serial]
[device_type: cpu]
[data: ]
[valid: ]
[num_iterations: 10000]
[learning_rate: 0.1]
[num_leaves: 31]
[num_threads: 0]
[force_col_wise: 0]
[force_row_wise: 0]
[histogram_pool_size: -1]
[max_depth: -1]
[min_data_in_leaf: 50]
[min_sum_hessian_in_leaf: 0.001]
[bagging_fraction: 0.5]
[pos_bagging_fraction: 1]
[neg_bagging_fraction: 1]
[bagging_freq: 0]
[bagging_seed: 10961]
[feature_fraction: 0.8]
[feature_fraction_bynode: 1]
[feature_fraction_seed: 53]
[extra_trees: 0]
[extra_seed: 11644]
[early_stopping_round: 50]
[first_metric_only: 0]
[max_delta_step: 0]
[lambda_l1: 0]
[lambda_l2: 0]
[min_gain_to_split: 0]
[drop_rate: 0.1]
[max_drop: 50]
[skip_drop: 0.5]
[xgboost_dart_mode: 0]
[uniform_drop: 0]
[drop_seed: 30626]
[top_rate: 0.2]
[other_rate: 0.1]
[min_data_per_group: 100]
[max_cat_threshold: 32]
[cat_l2: 10]
[cat_smooth: 10]
[max_cat_to_onehot: 4]
[top_k: 20]
[monotone_constraints: ]
[monotone_constraints_method: basic]
[monotone_penalty: 0]
[feature_contri: ]
[forcedsplits_filename: ]
[refit_decay_rate: 0.9]
[cegb_tradeoff: 1]
[cegb_penalty_split: 0]
[cegb_penalty_feature_lazy: ]
[cegb_penalty_feature_coupled: ]
[path_smooth: 0]
[interaction_constraints: ]
[verbosity: -1]
[saved_feature_importance_type: 0]
[max_bin: 255]
[max_bin_by_feature: ]
[min_data_in_bin: 3]
[bin_construct_sample_cnt: 200000]
[data_random_seed: 4071]
[is_enable_sparse: 1]
[enable_bundle: 1]
[use_missing: 1]
[zero_as_missing: 0]
[feature_pre_filter: 1]
[pre_partition: 0]
[two_round: 0]
[header: 0]
[label_column: ]
[weight_column: ]
[group_column: ]
[ignore_column: ]
[categorical_feature: ]
[forcedbins_filename: ]
[objective_seed: 602]
[num_class: 1]
[is_unbalance: 0]
[scale_pos_weight: 1]
[sigmoid: 1]
[boost_from_average: 1]
[reg_sqrt: 0]
[alpha: 0.9]
[fair_c: 1]
[poisson_max_delta_step: 0.7]
[tweedie_variance_power: 1.5]
[lambdarank_truncation_level: 20]
[lambdarank_norm: 1]
[label_gain: ]
[eval_at: ]
[multi_error_top_k: 1]
[auc_mu_weights: ]
[num_machines: 1]
[local_listen_port: 12400]
[time_out: 120]
[machine_list_filename: ]
[machines: ]
[gpu_platform_id: -1]
[gpu_device_id: -1]
[gpu_use_dp: 0]

end of parameters

pandas_categorical:null
