tree
version=v3
num_class=1
num_tree_per_iteration=1
label_index=0
max_feature_idx=19
objective=binary sigmoid:1
feature_names=Column_0 Column_1 Column_2 Column_3 Column_4 Column_5 Column_6 Column_7 Column_8 Column_9 Column_10 Column_11 Column_12 Column_13 Column_14 Column_15 Column_16 Column_17 Column_18 Column_19
feature_infos=[0.022658099425092899:0.81501521812647959] [0:0.98894340404947845] [0:1] [0:1] [0:1] [0:1] [0:0.8819482165489767] [0.0007956697634283:1.0000000000000002] [0:1] [0:1] [0.0025392811243314002:0.7588546632947778] [0.0125266524520256:1] [0:1] [0:1] [0.066565409760285105:1] [0.0068205411803513999:1] [0:1] [0:0.99759450171821296] [0:1] [0:1]
tree_sizes=699 740 741 736 633 737 639 642 742 642 742 744 637 638 745 741 743 641 744 640 745 740 844 746 744 745 641 637 743 639 643 744 839 843 745 641 639 642 641 744 745 743 643 642 844 741 743 1055 643 741 850 745 641 641 744 645 852 747 749 646 749 858 742 956 749 859 854 648 861 860 959 647 640 754 857 651 1179 756 856 756 654 756 752 755 966 966 761 1077 758 753 1076 754 647 975 650 654 652 1076

Tree=0
num_leaves=6
num_cat=0
split_feature=12 12 4 0 0
split_gain=240.585 8.70344 7.11111 0.0466667 0.045812
threshold=0.27212510583196381 0.36102395537626381 0.14249502982107357 0.36658775786269854 0.28660804869800471
decision_type=2 2 2 2 2
left_child=2 -2 4 -3 -1
right_child=1 3 -4 -5 -6
leaf_value=-0.19999999999999996 0.098039215686274508 0.19199999999999995 -0.1076923076923077 0.20000000000000001 -0.192
leaf_weight=16.750000000000004 12.749999999999998 12.500000000000002 12.999999999999998 17.5 12.499999999999998
leaf_count=67 51 50 52 70 50
internal_value=0 0.167251 -0.169231 0.196667 -0.196581
internal_weight=0 42.75 42.25 30 29.25
internal_count=340 171 169 120 117
shrinkage=0.1


Tree=1
num_leaves=6
num_cat=0
split_feature=12 17 4 19 13
split_gain=196.468 8.20732 5.9465 0.0701587 0.0474179
threshold=0.27212510583196381 0.52147766323024058 0.14249502982107357 0.20890725436179983 0.088883700353912673
decision_type=2 2 2 2 2
left_child=2 -2 4 -3 -1
right_child=1 3 -4 -5 -6
leaf_value=-0.18219710676865958 0.084331272607797186 0.17476161964072989 -0.097214799296746535 0.18458592125855347 -0.17401866366396432
leaf_weight=16.589996069669727 12.678409636020659 12.633253306150438 12.96238052845001 17.1194127202034 12.379118233919142
leaf_count=67 51 51 52 69 50
internal_value=0 0.151705 -0.153512 0.180414 -0.178702
internal_weight=0 42.4311 41.9315 29.7527 28.9691
internal_count=340 171 169 120 117
shrinkage=0.1


Tree=2
num_leaves=6
num_cat=0
split_feature=4 11 13 12 8
split_gain=167.318 9.77882 5.75748 0.112615 0.0820073
threshold=0.24018389662027831 0.35860874200426451 0.11488645300825791 0.43946411673888142 0.086092168113678022
decision_type=2 2 2 2 2
left_child=2 -2 4 -3 -1
right_child=1 3 -4 -5 -6
leaf_value=-0.16133376181176801 0.071142382738689378 0.18200482134139981 -0.085695923245069722 0.16925087234183667 -0.17211140347264225
leaf_weight=12.328187078237535 13.446438804268835 12.23296542465687 12.257350862026213 15.950225114822386 16.521296471357346
leaf_count=51 55 50 50 66 68
internal_value=0 0.141309 -0.143112 0.174787 -0.167506
internal_weight=0 41.6296 41.1068 28.1832 28.8495
internal_count=340 171 169 116 119
shrinkage=0.1


Tree=3
num_leaves=6
num_cat=0
split_feature=12 17 11 1 2
split_gain=141.022 10.6222 2.41267 0.11545 0.0751532
threshold=0.25892723741222173 0.51804123711340211 0.35074626865671654 0.23889157625596022 0.43531642141374033
decision_type=2 2 2 2 2
left_child=2 -2 3 -1 -3
right_child=1 4 -4 -5 -6
leaf_value=-0.15270544681601544 0.050688745901748447 0.15186433301668634 -0.10674161051734883 -0.16648372957765847 0.16219643989192756
leaf_weight=12.413934364914896 13.4236613959074 11.71517449617386 13.498862311244009 11.921656250953673 17.640709787607193
leaf_count=53 55 50 57 50 75
internal_value=0 0.124377 -0.140648 -0.159455 0.158073
internal_weight=0 42.7795 37.8345 24.3356 29.3559
internal_count=340 180 160 103 125
shrinkage=0.1


Tree=4
num_leaves=5
num_cat=0
split_feature=17 13 7 17
split_gain=118.732 17.0012 1.32027 0.0560177
threshold=0.36975945017182138 0.18355534801415654 0.027695284629378456 0.597938144329897
decision_type=2 2 2 2
left_child=2 -2 -1 -3
right_child=1 3 -4 -5
leaf_value=-0.1537582498352974 0.021265247610225503 0.15978321116127095 -0.11377713574708043 0.15080787607335122
leaf_weight=21.021523892879486 14.3374887406826 11.580500245094301 13.605032905936239 17.405353024601936
leaf_count=93 60 50 59 78
internal_value=0 0.110336 -0.138049 0.154394
internal_weight=0 43.3233 34.6266 28.9859
internal_count=340 188 152 128
shrinkage=0.1


Tree=5
num_leaves=6
num_cat=0
split_feature=4 11 13 13 8
split_gain=105.149 8.23077 4.31143 0.161335 0.0891146
threshold=0.24018389662027831 0.35860874200426451 0.11488645300825791 0.27312721195438461 0.086092168113678022
decision_type=2 2 2 2 2
left_child=2 -2 4 -3 -1
right_child=1 3 -4 -5 -6
leaf_value=-0.1352877281607994 0.051762870183858327 0.1594606783395956 -0.068812687869673692 0.14337089339966888 -0.1472282250084638
leaf_weight=10.857362657785417 12.638959184288977 11.438805863261225 11.66798461973667 13.691077560186384 14.730180457234381
leaf_count=51 55 51 50 65 68
internal_value=0 0.117588 -0.11919 0.150695 -0.142162
internal_weight=0 37.7688 37.2555 25.1299 25.5875
internal_count=340 171 169 116 119
shrinkage=0.1


Tree=6
num_leaves=5
num_cat=0
split_feature=12 16 18 3
split_gain=92.3497 9.49502 2.17507 0.689597
threshold=0.29652871158922256 0.19528753993610223 0.25379459885669231 0.12911784553094902
decision_type=2 2 2 2
left_child=1 3 -2 -1
right_child=2 -3 -4 -5
leaf_value=-0.11691198425316665 0.091462668531107988 -0.025768610646031288 0.14425153196647009 -0.14858739103143007
leaf_weight=12.144835144281389 12.781488001346586 11.167384475469587 20.048139587044716 15.833865866065024
leaf_count=59 59 50 97 75
internal_value=0 -0.103723 0.123699 -0.134838
internal_weight=0 39.1461 32.8296 27.9787
internal_count=340 184 156 134
shrinkage=0.1


Tree=7
num_leaves=5
num_cat=0
split_feature=13 16 0 8
split_gain=79.2188 14.0159 0.912334 0.905109
threshold=0.16901789225324418 0.21281948881789137 0.34122421373013184 0.066677681977949307
decision_type=2 2 2 2
left_child=1 3 -2 -1
right_child=2 -3 -4 -5
leaf_value=-0.10589977221333274 0.10121908860139271 -4.6497183114372405e-05 0.13809154916160307 -0.14366656022282215
leaf_weight=9.7352668344974536 10.440001979470255 11.670206859707831 18.784083619713783 18.225824967026711
leaf_count=50 50 52 97 91
internal_value=0 -0.0920976 0.124919 -0.130517
internal_weight=0 39.6313 29.2241 27.9611
internal_count=340 193 147 141
shrinkage=0.1


Tree=8
num_leaves=6
num_cat=0
split_feature=4 11 12 12 16
split_gain=70.4512 7.32604 3.68325 0.175383 0.0983718
threshold=0.24018389662027831 0.35860874200426451 0.22413964838886399 0.43946411673888142 0.072643769968051108
decision_type=2 2 2 2 2
left_child=2 -2 4 -3 -1
right_child=1 3 -4 -5 -6
leaf_value=-0.11989695533551224 0.039155035910326312 0.14721048607223905 -0.055614937004616782 0.12905260373955527 -0.13341341922559824
leaf_weight=9.3133999556303042 11.739053845405577 9.9143145680427569 10.43543767929077 11.477209687232969 12.763824492692946
leaf_count=52 55 50 48 66 69
internal_value=0 0.102633 -0.104571 0.137468 -0.127711
internal_weight=0 33.1306 32.5127 21.3915 22.0772
internal_count=340 171 169 116 121
shrinkage=0.1


Tree=9
num_leaves=5
num_cat=0
split_feature=13 16 18 8
split_gain=61.6675 11.0684 0.958387 0.901881
threshold=0.16901789225324418 0.21281948881789137 0.24866942637492612 0.069268783609216816
decision_type=2 2 2 2
left_child=1 3 -2 -1
right_child=2 -3 -4 -5
leaf_value=-0.09648958096113941 0.091491342253030003 -0.0024458675905065551 0.13116734101620101 -0.13603638508160373
leaf_weight=9.0453658401966113 9.5869167596101779 11.309691950678824 16.682045802474022 15.909419536590574
leaf_count=52 50 52 97 89
internal_value=0 -0.0845098 0.116687 -0.121702
internal_weight=0 36.2645 26.269 24.9548
internal_count=340 193 147 141
shrinkage=0.1


Tree=10
num_leaves=6
num_cat=0
split_feature=4 11 11 16 12
split_gain=54.0081 6.8998 3.66177 0.492558 0.146327
threshold=0.24018389662027831 0.35860874200426451 0.40285181236673778 0.076661341853035164 0.43946411673888142
decision_type=2 2 2 2 2
left_child=2 -2 3 -1 -3
right_child=1 4 -4 -5 -6
leaf_value=-0.10102186381155331 0.032002873509440657 0.14036171342738699 -0.043539170806329915 -0.13278839194917808 0.12272879663817463
leaf_weight=8.1539871841669136 11.193398147821428 8.958785220980646 9.0424889922142011 12.160634472966192 9.9147317856550199
leaf_count=51 55 50 48 70 66
internal_value=0 0.094207 -0.0964749 -0.120038 0.131099
internal_weight=0 30.0669 29.3571 20.3146 18.8735
internal_count=340 171 169 121 116
shrinkage=0.1


Tree=11
num_leaves=6
num_cat=0
split_feature=13 11 10 17 11
split_gain=49.2263 7.42552 2.7408 0.850095 0.0347608
threshold=0.15343590247738892 0.38192963752665249 0.066373699266199557 0.24929553264604812 0.42937100213219626
decision_type=2 2 2 2 2
left_child=1 3 -2 -1 -4
right_child=2 -3 4 -5 -6
leaf_value=-0.099592281170168079 0.060567918663244735 -0.019325219385344514 0.13125833251551103 -0.14131565075046673 0.12186066080201759
leaf_weight=8.8354432433843666 10.25551061332226 10.734910145401953 8.5316142290830594 10.916879281401632 7.3068843036890021
leaf_count=60 57 60 50 61 52
internal_value=0 -0.0862696 0.100844 -0.122652 0.126923
internal_weight=0 30.4872 26.094 19.7523 15.8385
internal_count=340 181 159 121 102
shrinkage=0.1


Tree=12
num_leaves=5
num_cat=0
split_feature=12 17 0 14
split_gain=43.531 10.7805 1.38417 0.143085
threshold=0.32342248119926298 0.41975945017182131 0.28221170104835985 0.43901472627616717
decision_type=2 2 2 2
left_child=1 2 -1 -2
right_child=3 -3 -4 -5
leaf_value=-0.12780815394826314 0.10554055045237576 0.020919382952138979 -0.079962619856145473 0.12276318248587499
leaf_weight=12.642782203853132 7.9422659575939205 9.4665399640798551 11.589215919375418 12.28584875166416
leaf_count=87 51 43 72 87
internal_value=0 -0.0695734 -0.104926 0.116001
internal_weight=0 33.6985 24.232 20.2281
internal_count=340 202 159 138
shrinkage=0.1


Tree=13
num_leaves=5
num_cat=0
split_feature=12 11 7 18
split_gain=37.8109 9.7025 2.86317 0.166161
threshold=0.32342248119926298 0.41444562899786785 0.030870492605500902 0.25951113739404702
decision_type=2 2 2 2
left_child=1 2 -1 -2
right_child=3 -3 -4 -5
leaf_value=-0.13252741956362402 0.10120872589659885 0.015315470198273593 -0.059179764962966432 0.1203783470968548
leaf_weight=13.163926951587202 7.5563338175416019 10.129959076642988 8.9338312074542028 11.259229712188242
leaf_count=93 51 57 52 87
internal_value=0 -0.0657241 -0.102874 0.11268
internal_weight=0 32.2277 22.0978 18.8156
internal_count=340 202 145 138
shrinkage=0.1


Tree=14
num_leaves=6
num_cat=0
split_feature=13 11 11 4 11
split_gain=34.9139 9.50386 1.33993 0.995125 0.0101023
threshold=0.12447158867479351 0.31383262260127937 0.45602345415778256 0.14249502982107357 0.31383262260127937
decision_type=2 2 2 2 2
left_child=3 -2 -3 4 -1
right_child=1 2 -4 -5 -6
leaf_value=-0.11545369819089307 -0.025081639102057462 0.078909957960782706 0.12925595393699169 -0.070400425596756064 -0.12097908962463864
leaf_weight=6.6466046348214167 7.6858434751629856 10.298811718821527 10.861307986080645 6.4896452128887168 6.5895543098449707
leaf_count=58 43 72 80 39 48
internal_value=0 0.0701587 0.104752 -0.102477 -0.118204
internal_weight=0 28.846 21.1601 19.7258 13.2362
internal_count=340 195 152 145 106
shrinkage=0.1


Tree=15
num_leaves=6
num_cat=0
split_feature=17 7 11 2 6
split_gain=31.9076 12.1613 1.78462 0.324355 0.234848
threshold=0.51804123711340211 0.04565388738844741 0.40285181236673778 0.49444795522253332 0.048632989317399955
decision_type=2 2 2 2 2
left_child=1 2 4 -2 -1
right_child=3 -3 -4 -5 -6
leaf_value=-0.1307147971541876 0.1028390514020797 0.042723682098111442 -0.055808141404425353 0.1318767954882796 -0.10595813853008812
leaf_weight=7.3945894464850479 9.3873424530029279 8.3316208720207197 6.6321420520544043 6.5175006836652747 7.9529033303260803
leaf_count=59 81 50 41 49 60
internal_value=0 -0.0601568 -0.0991547 0.114738 -0.117886
internal_weight=0 30.3113 21.9796 15.9048 15.3475
internal_count=340 210 160 130 119
shrinkage=0.1


Tree=16
num_leaves=6
num_cat=0
split_feature=17 13 4 17 2
split_gain=28.0115 7.6306 1.31794 0.0326272 0.00202293
threshold=0.36975945017182138 0.18355534801415654 0.13399602385685883 0.5792096219931272 0.31551864223165133
decision_type=2 2 2 2 2
left_child=2 -2 4 -3 -1
right_child=1 3 -4 -5 -6
leaf_value=-0.11650096108404043 0.0078583813601620124 0.1230259944524445 -0.059436029126190087 0.11321092945969101 -0.11383534861167269
leaf_weight=6.442037411034109 11.732897698879244 5.7932824939489356 6.6507081836462012 8.1534650176763517 5.1016038730740547
leaf_count=56 60 45 46 83 50
internal_value=0 0.0672902 -0.0948942 0.117288 -0.115323
internal_weight=0 25.6796 18.1943 13.9467 11.5436
internal_count=340 188 152 128 106
shrinkage=0.1


Tree=17
num_leaves=5
num_cat=0
split_feature=17 13 8 2
split_gain=25.2288 10.1921 0.815259 0.332428
threshold=0.51804123711340211 0.14260961462839164 0.11718538768888752 0.49128825494267409
decision_type=2 2 2 2
left_child=1 2 -1 -2
right_child=3 -3 -4 -5
leaf_value=-0.079343305456743798 0.096824405995934004 0.027808333273807318 -0.12190388766236432 0.1281186487758785
leaf_weight=9.5832362696528488 7.9036917537450773 9.6846506372094137 8.4861853644251806 5.9496963024139404
leaf_count=90 79 54 66 51
internal_value=0 -0.0549667 -0.0993316 0.110265
internal_weight=0 27.7541 18.0694 13.8534
internal_count=340 210 156 130
shrinkage=0.1


Tree=18
num_leaves=6
num_cat=0
split_feature=4 13 13 18 3
split_gain=21.9725 5.39991 3.4484 0.142559 0.133659
threshold=0.24018389662027831 0.15343590247738892 0.12447158867479351 0.20530258229844278 0.33715722961781497
decision_type=2 2 2 2 2
left_child=2 -2 3 -1 -3
right_child=1 4 -4 -5 -6
leaf_value=-0.092257184463613445 -0.0024044406164810631 0.11961849259768008 -0.01714989915888963 -0.11396425007053566 0.099784109044649461
leaf_weight=4.8850607275962847 6.3281492739915874 6.6033829748630506 6.6905831694602957 7.947704017162323 6.9980724081397057
leaf_count=51 31 61 36 82 79
internal_value=0 0.0739085 -0.0753548 -0.105701 0.109414
internal_weight=0 19.9296 19.5233 12.8328 13.6015
internal_count=340 171 169 133 140
shrinkage=0.1


Tree=19
num_leaves=5
num_cat=0
split_feature=17 0 0 2
split_gain=20.0825 8.68465 1.79685 0.333931
threshold=0.51804123711340211 0.39042948934731142 0.23554277984443683 0.48812855466281491
decision_type=2 2 2 2
left_child=1 2 -1 -2
right_child=3 -3 -4 -5
leaf_value=-0.12561776289207846 0.091472538914655122 0.040014944274108122 -0.061355047197262841 0.12498301035529349
leaf_weight=7.5004049204289975 6.6639184653758985 7.4785725548863402 10.362291071563957 5.3699625842273235
leaf_count=69 77 52 89 53
internal_value=0 -0.0504595 -0.0883385 0.106426
internal_weight=0 25.3413 17.8627 12.0339
internal_count=340 210 158 130
shrinkage=0.1


Tree=20
num_leaves=6
num_cat=0
split_feature=17 13 4 17 11
split_gain=17.7627 6.96416 1.1687 0.0486836 0.00430165
threshold=0.35945017182130584 0.18355534801415654 0.13399602385685883 0.53762886597938153 0.33102345415778256
decision_type=2 2 2 2 2
left_child=2 -2 4 -3 -1
right_child=1 3 -4 -5 -6
leaf_value=-0.10907757465958963 0.0013421484743146499 0.12277883266837467 -0.052021562175360948 0.1088501586161861 -0.11357870891237221
leaf_weight=4.2444951534271222 11.250727560371162 4.039157319813965 5.4579056911170474 6.6255124770104885 4.2483191788196564
leaf_count=59 65 35 44 94 43
internal_value=0 0.0562258 -0.0881264 0.114126 -0.111329
internal_weight=0 21.9154 13.9507 10.6647 8.49281
internal_count=340 194 146 129 102
shrinkage=0.1


Tree=21
num_leaves=6
num_cat=0
split_feature=17 7 11 3 8
split_gain=15.9292 8.11318 2.02766 0.357907 0.236733
threshold=0.51804123711340211 0.04565388738844741 0.40285181236673778 0.37626525980001235 0.12672364586775622
decision_type=2 2 2 2 2
left_child=1 2 4 -2 -1
right_child=3 -3 -4 -5 -6
leaf_value=-0.12273811208603641 0.082032949150709911 0.04263235840911591 -0.034405668551458504 0.11918791208863742 -0.093233980219848148
leaf_weight=5.9293420836329513 4.6796846725046617 7.2469954192638388 5.4159831106662741 5.813191719353199 5.0236656963825226
leaf_count=71 58 50 41 72 48
internal_value=0 -0.0454572 -0.0844568 0.102617 -0.109206
internal_weight=0 23.616 16.369 10.4929 10.953
internal_count=340 210 160 130 119
shrinkage=0.1


Tree=22
num_leaves=7
num_cat=0
split_feature=13 11 2 2 12 15
split_gain=14.4901 7.60207 2.5298 1.48923 0.294022 0.00700435
threshold=0.12447158867479351 0.31383262260127937 0.34246637176130729 0.42236165026631772 0.34284575925095878 0.14670469870283592
decision_type=2 2 2 2 2 2
left_child=3 -2 -3 5 -4 -1
right_child=1 2 4 -5 -6 -7
leaf_value=-0.10933342838572586 -0.040648624834693725 0.03229967007084468 0.14309929143694458 -0.04006254969577358 0.10734821251501059 -0.11536241469549734
leaf_weight=4.1707046926021558 6.1392119750380543 4.6414562202990046 3.9921821206808072 4.5525401011109352 5.4283207170665264 3.5819619633257389
leaf_count=58 43 33 27 45 92 42
internal_value=0 0.0521933 0.0927265 -0.0854604 0.122499 -0.112119
internal_weight=0 20.2012 14.062 12.3052 9.4205 7.75267
internal_count=340 195 152 145 119 100
shrinkage=0.1


Tree=23
num_leaves=6
num_cat=0
split_feature=12 0 19 0 18
split_gain=13.0047 6.35685 2.40816 1.12957 0.391824
threshold=0.32342248119926298 0.39042948934731142 0.24298176570903843 0.24636455867433196 0.24492410802286613
decision_type=2 2 2 2 2
left_child=1 2 3 -1 -2
right_child=4 -3 -4 -5 -6
leaf_value=-0.14044050941291322 0.069915118395974155 0.037928285720931723 -0.020819783116332188 -0.073319508468005293 0.11112253001324862
leaf_weight=5.1838538572192245 3.7240875884890539 6.5654134191572657 4.6331662572920314 4.8558462150394917 6.0661734715104103
leaf_count=61 42 49 35 57 96
internal_value=0 -0.0438594 -0.0804555 -0.107976 0.0954478
internal_weight=0 21.2383 14.6729 10.0397 9.79026
internal_count=340 202 153 118 138
shrinkage=0.1


Tree=24
num_leaves=6
num_cat=0
split_feature=13 0 4 9 11
split_gain=11.6068 6.47816 1.76395 0.175598 0.00583043
threshold=0.12447158867479351 0.36658775786269854 0.16993041749502982 0.14237068722913263 0.38606076759061841
decision_type=2 2 2 2 2
left_child=2 -2 4 -3 -1
right_child=1 3 -4 -5 -6
leaf_value=-0.10619850042184061 -0.0030929469279674139 0.13010010744142153 -0.023561956144657583 0.10052659261382871 -0.11185158944866397
leaf_weight=4.326505761593582 10.58588368818164 4.1960069015622121 3.6215899661183357 3.8499590083956718 3.1547643132507801
leaf_count=83 94 51 26 50 36
internal_value=0 0.0483142 -0.0808499 0.115949 -0.108582
internal_weight=0 18.6318 11.1029 8.04597 7.48127
internal_count=340 195 145 101 119
shrinkage=0.1


Tree=25
num_leaves=6
num_cat=0
split_feature=17 7 13 17 1
split_gain=11.2677 5.55924 2.39921 0.342315 0.170413
threshold=0.51804123711340211 0.04565388738844741 0.13213969720802199 0.62422680412371145 0.20420150646119828
decision_type=2 2 2 2 2
left_child=1 2 4 -2 -1
right_child=3 -3 -4 -5 -6
leaf_value=-0.087936622332975056 0.074252571530429495 0.034537064247575758 -0.014997410558332714 0.11536385858523189 -0.11594389611657903
leaf_weight=3.465114921331411 3.4944062605500203 6.6711328178644171 4.2788357809185973 4.817729601636529 5.8238349705934525
leaf_count=54 50 50 24 80 82
internal_value=0 -0.0402056 -0.0769558 0.0980808 -0.105496
internal_weight=0 20.2389 13.5678 8.31214 9.28895
internal_count=340 210 160 130 136
shrinkage=0.1


Tree=26
num_leaves=5
num_cat=0
split_feature=12 11 2 10
split_gain=9.52943 5.94807 5.9996 0.500589
threshold=0.32342248119926298 0.30197228144989346 0.35271282838313628 0.067841991072785809
decision_type=2 2 2 2
left_child=1 -1 -3 -2
right_child=3 2 -4 -5
leaf_value=-0.10768893143947883 0.058906541621929542 -0.071412110516915359 0.073676834086166973 0.10977174962266592
leaf_weight=7.5549668464809718 3.138949401676653 5.3009089529514295 6.1643491014838219 5.0437005516141653
leaf_count=98 43 52 52 95
internal_value=0 -0.038799 0.00659563 0.0902593
internal_weight=0 19.0202 11.4653 8.18265
internal_count=340 202 104 138
shrinkage=0.1


Tree=27
num_leaves=5
num_cat=0
split_feature=17 11 3 9
split_gain=9.18911 5.13204 2.08265 0.410077
threshold=0.35945017182130584 0.37859808102345421 0.12347401999877307 0.10360499803005567
decision_type=2 2 2 2
left_child=2 -2 -1 -3
right_child=1 3 -4 -5
leaf_value=-0.015859850351964921 -0.010938214354469473 0.12974168446673914 -0.11278433822108487 0.083716418451945968
leaf_weight=3.474012868478896 8.1450370289385337 3.082844812422989 6.1265283171087503 5.2031327150762081
leaf_count=55 74 39 91 81
internal_value=0 0.0454305 -0.0777116 0.10084
internal_weight=0 16.431 9.60054 8.28598
internal_count=340 194 146 120
shrinkage=0.1


Tree=28
num_leaves=6
num_cat=0
split_feature=17 0 4 3 3
split_gain=8.26617 5.08107 1.58949 0.434572 0.306741
threshold=0.51804123711340211 0.39042948934731142 0.16993041749502982 0.37626525980001235 0.16175388013005337
decision_type=2 2 2 2 2
left_child=1 2 4 -2 -1
right_child=3 -3 -4 -5 -6
leaf_value=-0.086446552692447207 0.065881417227411226 0.039713615068161207 -0.036720344577133447 0.11618292906074451 -0.13153973575208897
leaf_weight=3.0261030457913929 3.1749290172010651 6.039391051977872 6.1622267290949821 3.7415356300771236 3.0080172903835773
leaf_count=60 58 52 46 72 52
internal_value=0 -0.035299 -0.0724437 0.0930926 -0.108926
internal_weight=0 18.2357 12.1963 6.91646 6.03412
internal_count=340 210 158 130 112
shrinkage=0.1


Tree=29
num_leaves=5
num_cat=0
split_feature=13 18 19 5
split_gain=7.824 5.16866 1.52681 0.663942
threshold=0.19122345654738493 0.2794204612655235 0.11288206742752196 0.13258213984835696
decision_type=2 2 2 2
left_child=1 2 -1 -2
right_child=3 -3 -4 -5
leaf_value=-0.025160552664202612 0.046681718845449582 0.037344549239260817 -0.10365392434731657 0.11119217112655524
leaf_weight=3.7435474749654585 2.4435373470187178 6.1275997031480065 7.3309159688651562 4.5964683257043362
leaf_count=57 34 68 83 98
internal_value=0 -0.0363465 -0.0771205 0.088801
internal_weight=0 17.2021 11.0745 7.04001
internal_count=340 208 140 132
shrinkage=0.1


Tree=30
num_leaves=5
num_cat=0
split_feature=6 16 11 18
split_gain=7.40273 7.30263 5.25772 0.467828
threshold=0.15801195002715915 0.16054313099041531 0.36780383795309174 0.22146658781785922
decision_type=2 2 2 2
left_child=1 3 -3 -1
right_child=-2 2 -4 -5
leaf_value=-0.12883764070283474 0.12349996076424226 -0.050513059603356864 0.080899866469112597 -0.076826139727404777
leaf_weight=4.0482737421989503 4.0197180602699509 5.5958253201097232 6.6776786725968122 3.0190794803202152
leaf_count=65 89 53 76 57
internal_value=0 -0.0256428 0.0209851 -0.106619
internal_weight=0 19.3409 12.2735 7.06735
internal_count=340 251 129 122
shrinkage=0.1


Tree=31
num_leaves=6
num_cat=0
split_feature=7 18 16 1 7
split_gain=6.41621 3.29904 2.21696 0.551489 0.254114
threshold=0.04565388738844741 0.27330967869110984 0.21014376996805112 0.30941192730288175 0.071438443923959316
decision_type=2 2 2 2 2
left_child=1 3 -2 -1 -4
right_child=2 -3 4 -5 -6
leaf_value=-0.11045622159135655 0.0044466969531033124 0.016152875445231776 0.12767985478355576 -0.056036172502309217 0.084442262514879185
leaf_weight=4.4938480574637669 3.9809781126677972 5.052905784919858 2.2784189134836197 3.1798352990299463 3.3694003205746412
leaf_count=95 35 61 29 23 97
internal_value=0 -0.0465907 0.0615996 -0.0879055 0.101885
internal_weight=0 12.7266 9.6288 7.67368 5.64782
internal_count=340 179 161 118 126
shrinkage=0.1


Tree=32
num_leaves=7
num_cat=0
split_feature=11 13 2 2 1 0
split_gain=6.39941 7.61706 3.55429 1.3037 0.203653 0.00795386
threshold=0.21815031982942432 0.12447158867479351 0.3390809786043153 0.3890042430260901 0.3576463271370327 0.39888400405816699
decision_type=2 2 2 2 2 2
left_child=-1 3 -3 -2 -4 -6
right_child=1 2 4 -5 5 -7
leaf_value=-0.1212388637444605 -0.10840061786406119 0.005413199588707336 0.13738443075558177 -0.01792937411434236 0.098572727894873383 0.10778931774322276
leaf_weight=3.6216195095330503 3.1927130594849613 4.6529225520789605 3.1286726091057062 3.1784506682306528 2.0134404571726923 1.7503445092588661
leaf_count=53 67 41 27 43 50 59
internal_value=0 0.0245068 0.0729432 -0.0632663 0.118531 0.102859
internal_weight=0 17.9165 11.5454 6.37116 6.89246 3.76378
internal_count=340 287 177 110 136 109
shrinkage=0.1


Tree=33
num_leaves=7
num_cat=0
split_feature=11 4 7 10 4 8
split_gain=5.43958 6.53519 2.74921 2.14424 0.42592 0.0593102
threshold=0.21815031982942432 0.15857355864811132 0.04565388738844741 0.043330154913422556 0.28807157057654081 0.22439691170727313
decision_type=2 2 2 2 2 2
left_child=-1 3 -3 -2 -4 -6
right_child=1 2 4 -5 5 -7
leaf_value=-0.11414104034750659 0.0045203316981766968 0.015571437099572365 0.15217171087137743 -0.11420664617630166 0.10609857786894145 0.080580210288254836
leaf_weight=3.4702449776232269 2.8161233551800278 5.1017819158732873 2.0861127991229296 3.308025524020195 2.2873306795954709 1.5134480148553846
leaf_count=53 39 45 21 66 67 49
internal_value=0 0.0231673 0.069301 -0.0596113 0.115865 0.0959373
internal_weight=0 17.1128 10.9887 6.12415 5.88689 3.80078
internal_count=340 287 182 105 137 116
shrinkage=0.1


Tree=34
num_leaves=6
num_cat=0
split_feature=17 0 13 17 2
split_gain=4.91556 3.89587 2.94911 0.679501 0.138975
threshold=0.55360824742268044 0.39042948934731142 0.15343590247738892 0.28410652920962204 0.48812855466281491
decision_type=2 2 2 2 2
left_child=1 2 3 -1 -2
right_child=4 -3 -4 -5 -6
leaf_value=-0.061698359461754587 0.079861356918457083 0.043979305021811819 0.0043717138185529773 -0.13002483166777529 0.11733548827557899
leaf_weight=2.3256874326616543 1.8879009820520871 5.3847633041441432 4.1539025921374559 3.8900111401453614 2.0799201773479581
leaf_count=80 63 60 40 51 46
internal_value=0 -0.0250287 -0.0608634 -0.10446 0.0995052
internal_weight=0 15.7544 10.3696 6.2157 3.96782
internal_count=340 231 171 131 109
shrinkage=0.1


Tree=35
num_leaves=5
num_cat=0
split_feature=6 17 11 18
split_gain=5.48632 4.78855 3.3683 0.794841
threshold=0.15801195002715915 0.38024054982817873 0.36780383795309174 0.21929824561403513
decision_type=2 2 2 2
left_child=1 3 -3 -1
right_child=-2 2 -4 -5
leaf_value=-0.12459847047513667 0.12280836358510734 -0.041343069173523567 0.077634849377065718 -0.054176798552680476
leaf_weight=3.2931762812659171 3.0526117142289868 4.5128441639244539 5.033356330357492 3.1223993059247732
leaf_count=68 89 36 68 79
internal_value=0 -0.0235123 0.0213896 -0.0903249
internal_weight=0 15.9618 9.5462 6.41558
internal_count=340 251 104 147
shrinkage=0.1


Tree=36
num_leaves=5
num_cat=0
split_feature=6 16 11 0
split_gain=4.78434 4.77519 3.04197 0.47716
threshold=0.15801195002715915 0.16054313099041531 0.36780383795309174 0.34122421373013184
decision_type=2 2 2 2
left_child=1 3 -3 -1
right_child=-2 2 -4 -5
leaf_value=-0.12399254735822587 0.1192249419774208 -0.040042555893322139 0.069572867711410219 -0.062536764099613548
leaf_weight=3.1498646009713438 2.8410391937941304 4.7781769344583136 5.3848347747698426 2.1095017269253731
leaf_count=89 89 53 76 33
internal_value=0 -0.0219923 0.0180368 -0.099343
internal_weight=0 15.4224 10.163 5.25937
internal_count=340 251 129 122
shrinkage=0.1


Tree=37
num_leaves=5
num_cat=0
split_feature=6 16 11 0
split_gain=4.15135 4.17918 2.5166 0.487174
threshold=0.15801195002715915 0.16054313099041531 0.36780383795309174 0.34122421373013184
decision_type=2 2 2 2
left_child=1 3 -3 -1
right_child=-2 2 -4 -5
leaf_value=-0.12251751464184146 0.11507132978239087 -0.036276790087314534 0.064121541146145142 -0.058575988330888507
leaf_weight=2.8826989224180606 2.6588567020371547 4.7484120624139887 5.2649202020838857 2.0311407819390297
leaf_count=89 89 53 76 33
internal_value=0 -0.0205544 0.0165118 -0.0960872
internal_weight=0 14.9272 10.0133 4.91384
internal_count=340 251 129 122
shrinkage=0.1


Tree=38
num_leaves=5
num_cat=0
split_feature=13 18 11 5
split_gain=3.93426 3.33711 3.09937 0.191766
threshold=0.15343590247738892 0.20057165385373552 0.30197228144989346 0.18744734625105289
decision_type=2 2 2 2
left_child=2 -2 -1 -3
right_child=1 3 -4 -5
leaf_value=-0.12181986128611078 -0.040964338113854366 0.080630794146146517 -0.0020601365466031613 0.12122025530322358
leaf_weight=3.2069056406617182 2.359895108267664 1.9943040944635866 6.6258212849497795 2.795677640940994
leaf_count=90 34 38 91 87
internal_value=0 0.0563679 -0.0411193 0.104321
internal_weight=0 7.14988 9.83273 4.78998
internal_count=340 159 181 125
shrinkage=0.1


Tree=39
num_leaves=6
num_cat=0
split_feature=7 14 9 1 10
split_gain=3.32042 2.33796 1.62698 1.45355 1.22702
threshold=0.04565388738844741 0.43901472627616717 0.18085495581696395 0.4336949761592151 0.049237870182275413
decision_type=2 2 2 2 2
left_child=1 4 3 -2 -1
right_child=2 -3 -4 -5 -6
leaf_value=-0.018928012026275629 0.15739302226260452 0.019604731287047903 -0.0025328370007474659 0.034848515954937397 -0.11652339828419966
leaf_weight=2.0457210890017468 1.927535257302224 4.0544739002361894 2.9698715726844966 1.9442531378008423 3.4790895986370742
leaf_count=56 31 57 61 69 66
internal_value=0 -0.0380644 0.0531469 0.0958562 -0.0803859
internal_weight=0 9.57928 6.84166 3.87179 5.52481
internal_count=340 179 161 100 122
shrinkage=0.1


Tree=40
num_leaves=6
num_cat=0
split_feature=13 2 18 7 17
split_gain=3.32403 2.33325 1.70827 1.39756 0.0577871
threshold=0.17840640975226107 0.35271282838313628 0.20057165385373552 0.031991154244132354 0.49810996563573878
decision_type=2 2 2 2 2
left_child=1 -1 -2 -3 -4
right_child=2 3 4 -5 -6
leaf_value=-0.086225772189336594 -0.012098561949757718 -0.038231947107672679 0.13091058100778827 0.051273451521280024 0.10312202935076867
leaf_weight=4.3963618525303918 1.6053103581070889 3.468585189897567 1.3488419065251949 3.5096487468108535 1.6809123377315698
leaf_count=95 29 62 15 42 97
internal_value=0 -0.0291649 0.0713032 0.0067841 0.115493
internal_weight=0 11.3746 4.63506 6.97823 3.02975
internal_count=340 199 141 104 112
shrinkage=0.1


Tree=41
num_leaves=6
num_cat=0
split_feature=11 13 18 4 11
split_gain=3.3435 4.0206 3.01093 1.47389 0.364172
threshold=0.21815031982942432 0.12447158867479351 0.19258821210329205 0.16993041749502982 0.38192963752665249
decision_type=2 2 2 2 2
left_child=-1 3 -3 -2 -4
right_child=1 2 4 -5 -6
leaf_value=-0.10493123071381723 -0.10516392118761175 -0.029578577181677786 0.075710567593415157 0.0073029098895088188 0.12604038171673349
leaf_weight=2.5404397277161488 2.5301943593658498 2.4784803558140975 2.7301034480333328 2.1599846538156271 3.0368463438935578
leaf_count=53 90 34 47 20 96
internal_value=0 0.0205512 0.0625987 -0.0533692 0.102214
internal_weight=0 12.9356 8.24543 4.69018 5.76695
internal_count=340 287 177 110 143
shrinkage=0.1


Tree=42
num_leaves=5
num_cat=0
split_feature=17 13 8 2
split_gain=2.84889 2.01686 1.41626 0.133188
threshold=0.55360824742268044 0.14773397561934717 0.11718538768888752 0.48812855466281491
decision_type=2 2 2 2
left_child=1 2 -1 -2
right_child=3 -3 -4 -5
leaf_value=-0.0038556737216993951 0.069891490560206035 0.023852646214927269 -0.097602539275756475 0.11490185178320254
leaf_weight=2.7965479991398734 1.2250439729541551 5.5658131106756628 3.8029261357150972 1.4188309353776274
leaf_count=93 63 69 69 46
internal_value=0 -0.0204844 -0.057877 0.0940462
internal_weight=0 12.1653 6.59947 2.64387
internal_count=340 231 162 109
shrinkage=0.1


Tree=43
num_leaves=5
num_cat=0
split_feature=6 16 11 0
split_gain=3.15812 3.21786 1.96987 0.400959
threshold=0.15801195002715915 0.16054313099041531 0.36780383795309174 0.35322962461954671
decision_type=2 2 2 2
left_child=1 3 -3 -1
right_child=-2 2 -4 -5
leaf_value=-0.12169813098872727 0.11458893968635156 -0.035292506828535589 0.06135171224719619 -0.056171108435945784
leaf_weight=2.2790362406522031 2.0590622131712744 4.0262821614742261 4.4290954642929137 1.5820357408374546
leaf_count=92 89 53 76 30
internal_value=0 -0.0192088 0.0153317 -0.0948491
internal_weight=0 12.3164 8.45538 3.86107
internal_count=340 251 129 122
shrinkage=0.1


Tree=44
num_leaves=7
num_cat=0
split_feature=0 13 2 18 9 9
split_gain=2.60222 3.00144 2.2473 1.90535 0.209588 0.0972321
threshold=0.19563747040919843 0.14773397561934717 0.37076825855376011 0.20057165385373552 0.086579051049698819 0.17564867450892102
decision_type=2 2 2 2 2 2
left_child=-1 2 -2 -3 -5 -6
right_child=1 3 -4 4 5 -7
leaf_value=-0.10324216963484222 -0.098364304884566531 -0.013814469739170849 0.021449504716488405 0.14653462295923744 0.076905695719260481 0.11733442341296846
leaf_weight=2.0797661687247464 2.6612671576440317 1.7134383181110022 3.8019926222041249 1.2820388064719739 1.2343240662012251 1.1483017760328946
leaf_count=50 76 31 58 22 60 43
internal_value=0 0.0180412 -0.0278842 0.073233 0.113933 0.0963902
internal_weight=0 11.8414 6.46326 5.3781 3.66466 2.38263
internal_count=340 290 134 156 125 103
shrinkage=0.1


Tree=45
num_leaves=6
num_cat=0
split_feature=17 0 8 4 2
split_gain=2.21414 2.14191 1.31826 1.6548 0.14443
threshold=0.55360824742268044 0.39042948934731142 0.14136900291405055 0.16993041749502982 0.48812855466281491
decision_type=2 2 2 2 2
left_child=1 2 3 -1 -2
right_child=4 -3 -4 -5 -6
leaf_value=-0.077995777308508665 0.06290206585461397 0.038840812122486912 -0.093781504267510613 0.06166098002401027 0.11346524067430737
leaf_weight=1.6720433305017635 1.0564365065656613 4.1220148541033268 3.6366558810696006 1.7224657190963624 1.2142119775526223
leaf_count=84 63 60 64 23 46
internal_value=0 -0.018394 -0.0519479 -0.00713016 0.0899403
internal_weight=0 11.1532 7.03116 3.39451 2.27065
internal_count=340 231 171 107 109
shrinkage=0.1


Tree=46
num_leaves=6
num_cat=0
split_feature=11 4 8 5 10
split_gain=2.27578 2.87256 3.10757 0.930125 0.109498
threshold=0.21815031982942432 0.24018389662027831 0.091800102141977313 0.42849620893007573 0.078880090654063512
decision_type=2 2 2 2 2
left_child=-1 2 -2 4 -3
right_child=1 3 -4 -5 -6
leaf_value=-0.094875010312640548 0.051683362159058055 0.1246211583060334 -0.09085617011116473 0.014190232206312079 0.087122003066872719
leaf_weight=2.1208042476791897 2.7847794191911799 1.7752622943371537 3.393139653140679 1.5787537524010984 1.3871163059957323
leaf_count=53 63 53 67 32 72
internal_value=0 0.0183281 -0.0266046 0.0768775 0.108173
internal_weight=0 10.9191 6.17792 4.74113 3.16238
internal_count=340 287 130 157 125
shrinkage=0.1


Tree=47
num_leaves=9
num_cat=0
split_feature=7 14 19 9 11 17 15 0
split_gain=1.9957 1.90881 1.39841 1.36691 1.26066 0.201821 0.0958616 0.046071
threshold=0.04565388738844741 0.26731823284685996 0.2683654729109276 0.21779141104294472 0.48414179104477623 0.47302405498281785 0.22208962753829889 0.28221170104835985
decision_type=2 2 2 2 2 2 2 2
left_child=2 -2 4 5 6 -3 7 -1
right_child=1 3 -4 -5 -6 -7 -8 -9
leaf_value=-0.10372222589006659 -0.049565206795970561 0.16566933411839788 0.02523083180350745 0.0076071048892796846 0.0027479192946016982 0.10635848696195827 -0.12439452601736828 -0.070646723304572973
leaf_weight=0.92551142186857782 1.4678803351707754 1.0069632576778538 2.6089332192204893 1.4234870388172565 1.7135861217975614 1.333449345314875 1.3470941879786549 0.77274392172694206
leaf_count=72 17 11 38 39 23 94 12 34
internal_value=0 0.0471578 -0.0336087 0.0848788 -0.0658656 0.131877 -0.104474 -0.0886721
internal_weight=0 5.23178 7.36787 3.7639 4.75894 2.34041 3.04535 1.69826
internal_count=340 161 179 144 141 105 118 106
shrinkage=0.1


Tree=48
num_leaves=5
num_cat=0
split_feature=6 16 13 0
split_gain=1.87526 2.46545 1.54481 0.323456
threshold=0.14718450117689658 0.16054313099041531 0.14401051907196222 0.37521136286777135
decision_type=2 2 2 2
left_child=1 3 -3 -1
right_child=-2 2 -4 -5
leaf_value=-0.11701509769710335 0.087241660352526187 -0.028248101042347925 0.066344528632849425 -0.05211299683929245
leaf_weight=1.8867506238166227 2.0468049698974946 3.7154437662102282 3.2250881302170455 1.2948953686282036
leaf_count=95 98 54 67 26
internal_value=0 -0.0177083 0.0157067 -0.0906006
internal_weight=0 10.1222 6.94053 3.18165
internal_count=340 242 121 121
shrinkage=0.1


Tree=49
num_leaves=6
num_cat=0
split_feature=11 4 8 11 17
split_gain=1.83952 2.16112 2.8487 0.835407 0.0151643
threshold=0.21815031982942432 0.2201540755467197 0.10614504160783486 0.37859808102345421 0.50240549828178704
decision_type=2 2 2 2 2
left_child=-1 2 -2 -3 -5
right_child=1 3 -4 4 -6
leaf_value=-0.090217297572891236 0.042812873415328939 0.027907446564370882 -0.103583016666221 0.12324270748933337 0.10618594551918581
leaf_weight=1.9004683224484331 2.8259504935704154 2.4526369564700872 2.5095821479335427 0.92472042143344912 1.1945632384158669
leaf_count=53 74 52 53 13 95
internal_value=0 0.0171885 -0.0260448 0.0676428 0.113628
internal_weight=0 9.90745 5.33553 4.57192 2.11928
internal_count=340 287 127 160 108
shrinkage=0.1


Tree=50
num_leaves=7
num_cat=0
split_feature=13 2 18 9 2 14
split_gain=1.7292 1.49191 1.22787 0.973258 0.0224998 0.000386549
threshold=0.17840640975226107 0.35271282838313628 0.19258821210329205 0.14237068722913263 0.32829285907736755 0.44859010764049395
decision_type=2 2 2 2 2 2
left_child=1 -1 -2 -3 -4 -6
right_child=2 3 4 -5 5 -7
leaf_value=-0.078212490744929725 -0.020752261397578783 0.054849586270029706 0.1252565278086212 -0.031183758157779507 0.10528735473508335 0.10157901489114118
leaf_weight=3.1213292430620623 1.0749859674833726 2.4666506620123982 0.80988162383437146 2.8160855791065842 0.55134795722551622 0.5734472218900919
leaf_count=95 25 38 12 66 32 72
internal_value=0 -0.0233992 0.0649358 0.00898751 0.112548 0.103397
internal_weight=0 8.40407 3.00966 5.28274 1.93468 1.1248
internal_count=340 199 141 104 116 104
shrinkage=0.1


Tree=51
num_leaves=6
num_cat=0
split_feature=11 13 18 2 11
split_gain=1.58854 2.20896 1.86853 1.14034 0.282442
threshold=0.21815031982942432 0.12447158867479351 0.19258821210329205 0.42236165026631772 0.38192963752665249
decision_type=2 2 2 2 2
left_child=-1 3 -3 -2 -4
right_child=1 2 4 -5 -6
leaf_value=-0.086150223117826538 -0.1049290826922849 -0.024855876388187759 0.067363579444165586 0.0097505688409460639 0.1215997530872395
leaf_weight=1.7963033567648388 1.7035927949473246 1.9721259679645298 1.8919740717392417 1.7658491060137746 1.9495938161853699
leaf_count=53 80 34 47 30 96
internal_value=0 0.0165852 0.0542687 -0.0465603 0.0948884
internal_weight=0 9.28314 5.81369 3.46944 3.84157
internal_count=340 287 177 110 143
shrinkage=0.1


Tree=52
num_leaves=5
num_cat=0
split_feature=6 16 13 0
split_gain=1.55158 1.91817 1.17557 0.258514
threshold=0.14718450117689658 0.16054313099041531 0.14401051907196222 0.38129861345958743
decision_type=2 2 2 2
left_child=1 3 -3 -1
right_child=-2 2 -4 -5
leaf_value=-0.11397201922659633 0.083538172209167649 -0.026730766923335453 0.061126897554089059 -0.05063252517123943
leaf_weight=1.5856780102476462 1.8369954198133207 3.3442107541486621 2.7964706041384488 1.085468037985265
leaf_count=96 98 54 67 25
internal_value=0 -0.017492 0.0132797 -0.0882329
internal_weight=0 8.81183 6.14068 2.67115
internal_count=340 242 121 121
shrinkage=0.1


Tree=53
num_leaves=5
num_cat=0
split_feature=17 19 14 2
split_gain=1.4017 1.55045 1.3505 0.156536
threshold=0.55360824742268044 0.10773317591499407 0.43901472627616717 0.48812855466281491
decision_type=2 2 2 2
left_child=1 -1 -3 -2
right_child=3 2 -4 -5
leaf_value=0.044027510496658789 0.049705029650384959 -0.089328720857885888 0.0072059881399147395 0.11236271520001138
leaf_weight=2.8842373876832408 0.70363844046369262 3.1967253022594377 2.6509788725525141 0.9200839027762413
leaf_count=73 63 92 66 46
internal_value=0 -0.0159725 -0.045566 0.0852101
internal_weight=0 8.73194 5.8477 1.62372
internal_count=340 231 158 109
shrinkage=0.1


Tree=54
num_leaves=6
num_cat=0
split_feature=0 13 18 2 11
split_gain=1.35284 1.66899 1.40542 0.995565 0.360625
threshold=0.19563747040919843 0.12447158867479351 0.19258821210329205 0.42236165026631772 0.38192963752665249
decision_type=2 2 2 2 2
left_child=-1 3 -3 -2 -4
right_child=1 2 4 -5 -6
leaf_value=-0.087278572124193612 -0.10419582204693796 -0.01964746179488722 0.055063125291115393 0.0086772405394205752 0.1191801916513624
leaf_weight=1.5141384525923065 1.4341631887946262 1.9365625376813111 1.7908329342026266 1.7169238829519597 1.7194979878840966
leaf_count=50 80 36 49 29 96
internal_value=0 0.0152309 0.0487416 -0.042695 0.0864702
internal_weight=0 8.59798 5.44689 3.15109 3.51033
internal_count=340 290 181 109 145
shrinkage=0.1


Tree=55
num_leaves=5
num_cat=0
split_feature=6 11 16 9
split_gain=1.33996 1.70016 1.35402 0.0460783
threshold=0.14718450117689658 0.47601279317697237 0.21928913738019168 0.11626892553610627
decision_type=2 2 2 2
left_child=1 2 3 -1
right_child=-2 -3 -4 -5
leaf_value=-0.11714460457329375 0.079846708304785102 0.050591137446155982 -0.004013123140682846 -0.089697860958898715
leaf_weight=1.2651225540321305 1.7249662650283433 2.5266499869758263 3.0467373691499233 1.1842160794185472
leaf_count=41 98 59 58 84
internal_value=0 -0.0173039 -0.0485166 -0.103875
internal_weight=0 8.02273 5.49608 2.44934
internal_count=340 242 183 125
shrinkage=0.1


Tree=56
num_leaves=7
num_cat=0
split_feature=13 2 9 10 2 9
split_gain=1.21997 1.03482 0.918364 0.754006 0.0210254 0.0203966
threshold=0.17840640975226107 0.35271282838313628 0.13484268587831377 0.028474496635020604 0.3443170533537962 0.13723476107390106
decision_type=2 2 2 2 2 2
left_child=1 -1 -3 -2 -5 -6
right_child=3 2 -4 4 5 -7
leaf_value=-0.072405770527834576 -0.020129029047371787 0.057058599895366102 -0.032669361042700303 0.1124968576540528 0.072225927224676398 0.10342680977797275
leaf_weight=2.5191184558207169 0.76267574168741736 2.05577445065137 2.5624947205651551 0.76701545249670722 0.37497160048224032 0.4748448288301006
leaf_count=95 11 36 68 21 49 60
internal_value=0 -0.0208499 0.00727211 0.0618318 0.100494 0.0896598
internal_weight=0 7.13739 4.61827 2.37951 1.61683 0.849816
internal_count=340 199 104 141 130 109
shrinkage=0.1


Tree=57
num_leaves=6
num_cat=0
split_feature=11 4 10 10 17
split_gain=1.17603 1.37384 1.79157 1.45555 1.12102
threshold=0.21815031982942432 0.15857355864811132 0.029700952144051454 0.091731962467006614 0.49003436426116831
decision_type=2 2 2 2 2
left_child=-1 2 -2 -3 -5
right_child=1 3 -4 4 -6
leaf_value=-0.081121025347503053 0.050698002064547901 0.10884104562593103 -0.10785826890872591 -0.072572090201214287 0.057383799990359655
leaf_weight=1.5022109213750807 1.2608790798112752 2.175609655212611 1.6389436488971112 1.2094735940918329 1.4711741850478572
leaf_count=53 22 80 83 20 82
internal_value=0 0.0155483 -0.038916 0.0480706 -0.00125062
internal_weight=0 7.75608 2.89982 4.85626 2.68065
internal_count=340 287 105 182 102
shrinkage=0.1


Tree=58
num_leaves=6
num_cat=0
split_feature=4 11 7 18 17
split_gain=1.10241 1.26194 1.18513 0.174516 0.0282136
threshold=0.36816600397614319 0.47601279317697237 0.030870492605500902 0.23487088507786327 0.45601374570446734
decision_type=2 2 2 2 2
left_child=1 2 4 -2 -1
right_child=3 -3 -4 -5 -6
leaf_value=-0.095817026956997731 0.039823252658002212 0.04666963108987799 -0.0073052084504585894 0.10899314967996986 -0.12058808595258314
leaf_weight=0.986618827213533 0.65100047574378528 2.2403493269812316 3.2945722424192354 0.82955657481215894 0.86110815033316612
leaf_count=96 29 51 74 82 8
internal_value=0 -0.0159679 -0.0432573 0.0785792 -0.107361
internal_weight=0 7.38265 5.1423 1.48056 1.84773
internal_count=340 229 178 111 104
shrinkage=0.1


Tree=59
num_leaves=5
num_cat=0
split_feature=6 16 11 0
split_gain=1.02039 1.44163 0.898176 0.190757
threshold=0.14718450117689658 0.16054313099041531 0.36780383795309174 0.39398038552587084
decision_type=2 2 2 2
left_child=1 3 -3 -1
right_child=-2 2 -4 -5
leaf_value=-0.11229015378537376 0.073467588985859589 -0.031433930715809598 0.053272507208192627 -0.050365856434015324
leaf_weight=1.2098892690846699 1.5433765539783051 2.4067572974599898 2.6084834757493809 0.84481818135827769
leaf_count=98 98 50 71 23
internal_value=0 -0.0162805 0.0126228 -0.0868292
internal_weight=0 7.06995 5.01524 2.05471
internal_count=340 242 121 121
shrinkage=0.1


Tree=60
num_leaves=6
num_cat=0
split_feature=6 18 12 4 8
split_gain=1.26554 1.35239 0.893695 0.663969 0.194261
threshold=0.15801195002715915 0.27074709245022677 0.25892723741222173 0.23128727634194832 0.10614504160783486
decision_type=2 2 2 2 2
left_child=1 3 -3 4 -1
right_child=-2 2 -4 -5 -6
leaf_value=-0.057348443831983502 0.090941286863214232 -0.022510003677692979 0.085111987492529087 -0.006739605696222061 -0.11512614525726934
leaf_weight=1.0552417821018027 1.2886721242102792 1.4961719189304861 1.5932421648176385 1.6686077429912982 1.297367478138767
leaf_count=71 89 50 54 32 44
internal_value=0 -0.0167633 0.0329917 -0.0549891 -0.0892105
internal_weight=0 7.11063 3.08941 4.02122 2.35261
internal_count=340 251 104 147 115
shrinkage=0.1


Tree=61
num_leaves=7
num_cat=0
split_feature=6 13 2 18 17 0
split_gain=1.05777 1.17922 0.775731 0.45718 0.00512906 0.000145787
threshold=0.15801195002715915 0.13213969720802199 0.49580211248533007 0.22077666075300609 0.4063573883161512 0.39042948934731142
decision_type=2 2 2 2 2 2
left_child=1 2 4 -3 5 -1
right_child=-2 3 -4 -5 -6 -7
leaf_value=-0.10092455860618565 0.084208564160706878 -0.019207011847414714 0.0060212617879351771 0.047113549729950417 -0.11338206240114833 -0.10329473177674048
leaf_weight=0.44810655724722914 1.2544105370179748 1.8802606211975215 0.93870319193229068 2.3243150382768363 0.68660893104970444 0.61661338154226542
leaf_count=93 89 31 24 70 9 24
internal_value=0 -0.0156241 -0.0673281 0.0174554 -0.106643 -0.102297
internal_weight=0 6.89461 2.69003 4.20458 1.75133 1.06472
internal_count=340 251 150 101 126 117
shrinkage=0.1


Tree=62
num_leaves=6
num_cat=0
split_feature=0 13 2 6 6
split_gain=0.886192 1.06069 1.27183 0.363408 0.191485
threshold=0.20223199188366572 0.088883700353912673 0.3390809786043153 0.061198623936266509 0.13369545536845912
decision_type=2 2 2 2 2
left_child=-1 -2 -3 -4 -5
right_child=1 2 3 4 -6
leaf_value=-0.077597246002711381 -0.064300765289869846 -0.0154668561353805 0.024532899987088446 0.078025450236922783 0.14157892724064652
leaf_weight=1.2498619619291274 1.3696501867379991 2.6033663201378658 0.77265956968767602 1.0888062537997028 0.83970947051420797
leaf_count=56 59 70 26 46 83
internal_value=0 0.014153 0.03441 0.0824809 0.105698
internal_weight=0 6.67419 5.30454 2.70118 1.92852
internal_count=340 284 225 155 129
shrinkage=0.1


Tree=63
num_leaves=8
num_cat=0
split_feature=11 13 18 9 6 6 15
split_gain=0.871268 1.00641 1.06418 0.775095 0.0884201 0.114476 0.00064348
threshold=0.21815031982942432 0.14401051907196222 0.19258821210329205 0.13484268587831377 0.061198623936266509 0.096740901683867467 0.16407136828011756
decision_type=2 2 2 2 2 2 2
left_child=-1 3 -3 -2 -4 -6 -7
right_child=1 2 4 -5 5 6 -8
leaf_value=-0.07689117233617751 0.030573161431043955 -0.037203595084303841 0.12736630508505223 -0.060211139392711499 0.04137636923038629 0.11126917661527547 0.10517770330934435
leaf_weight=1.2444191234535535 1.732114613405429 0.77875375258736346 0.78146739758085448 2.0576225706608966 0.40907524025533326 0.2943138787522912 0.42216700583230704
leaf_count=53 50 26 13 80 17 9 92
internal_value=0 0.0144701 0.0612995 -0.0187178 0.101524 0.0835824 0.10768
internal_weight=0 6.47551 2.68578 3.78974 1.90702 1.12556 0.716481
internal_count=340 287 157 130 131 118 101
shrinkage=0.1


Tree=64
num_leaves=6
num_cat=0
split_feature=4 3 11 12 18
split_gain=0.792459 1.13183 0.901109 0.415979 0.202281
threshold=0.36816600397614319 0.12911784553094902 0.45602345415778256 0.25892723741222173 0.23102700571653859
decision_type=2 2 2 2 2
left_child=1 -1 3 -3 -2
right_child=4 2 -4 -5 -6
leaf_value=0.065303871479980624 0.023455316877610113 -0.10936265893989874 0.028979282725473038 -0.037726000443082469 0.10814396839367323
leaf_weight=1.393033596803434 0.46410610876046099 1.2989737444440836 1.462819490698166 2.1559519914444536 0.71892176620895043
leaf_count=62 27 86 42 39 84
internal_value=0 -0.0142665 -0.0368061 -0.0646598 0.0749203
internal_weight=0 6.31078 4.91775 3.45493 1.18303
internal_count=340 229 167 125 111
shrinkage=0.1


Tree=65
num_leaves=7
num_cat=0
split_feature=13 19 14 18 1 13
split_gain=0.789898 0.816307 1.64884 0.524565 0.0023428 8.03015e-05
threshold=0.17840640975226107 0.10773317591499407 0.43901472627616717 0.19258821210329205 0.39396033446202755 0.25788930397168702
decision_type=2 2 2 2 2 2
left_child=1 -1 -3 -2 -5 -6
right_child=3 2 -4 4 5 -7
leaf_value=0.047620847032513375 -0.0044053523385122204 -0.11134803490817208 0.015184505547850056 0.11302586617697985 0.10439618386569637 0.10198709516474258
leaf_weight=1.4005551158916203 0.73771148035302736 1.8418001192039808 2.3360935437958688 0.41873802023474127 0.26115813746582717 0.29426474031060934
leaf_count=57 25 79 63 15 22 79
internal_value=0 -0.0184483 -0.0405966 0.0592062 0.107378 0.10312
internal_weight=0 5.57845 4.17789 1.71187 0.974161 0.555423
internal_count=340 199 142 141 116 101
shrinkage=0.1


Tree=66
num_leaves=7
num_cat=0
split_feature=11 4 8 5 13 15
split_gain=0.693836 0.941082 1.35374 0.566728 0.00688898 0.000227457
threshold=0.21815031982942432 0.24018389662027831 0.072122750623366469 0.38331929233361423 0.15754030672434127 0.17086280331033946
decision_type=2 2 2 2 2 2
left_child=-1 2 -2 4 -3 -6
right_child=1 3 -4 -5 5 -7
leaf_value=-0.072833658135430704 0.061378313218731065 0.11769077173815962 -0.067117448532965612 0.013155570716604068 0.10474620270316662 0.10088555119370911
leaf_weight=1.1099481413257306 1.2992876279167833 0.58366722520440839 2.2221515031997114 1.2176871107658369 0.26960159966256469 0.35167347162496299
leaf_count=53 45 9 85 40 12 96
internal_value=0 0.0132961 -0.019707 0.0612682 0.10989 0.102561
internal_weight=0 5.94407 3.52144 2.42263 1.20494 0.621275
internal_count=340 287 130 157 117 108
shrinkage=0.1


Tree=67
num_leaves=5
num_cat=0
split_feature=6 16 11 11
split_gain=0.71286 1.06257 0.761169 0.139202
threshold=0.15801195002715915 0.16054313099041531 0.36780383795309174 0.43176972281449905
decision_type=2 2 2 2
left_child=1 3 -3 -1
right_child=-2 2 -4 -5
leaf_value=-0.10900447229716587 0.074961573865443124 -0.031539700324411057 0.053658824225165547 -0.048498081203286802
leaf_weight=0.92779359669657402 1.0650169806031042 2.0434656351571903 2.1539061707444489 0.64425052027218044
leaf_count=97 89 53 76 25
internal_value=0 -0.0140834 0.0121804 -0.0842079
internal_weight=0 5.76942 4.19737 1.57204
internal_count=340 251 129 122
shrinkage=0.1


Tree=68
num_leaves=7
num_cat=0
split_feature=13 2 9 16 14 16
split_gain=0.723609 0.743485 0.490864 0.457348 0.00933579 0.000800613
threshold=0.17840640975226107 0.35271282838313628 0.13484268587831377 0.17304313099041532 0.35118536617579083 0.26773162939297129
decision_type=2 2 2 2 2 2
left_child=1 -1 -3 -2 -5 -6
right_child=3 2 -4 4 5 -7
leaf_value=-0.069875823718631824 -0.018602316821474625 0.050437499969987969 -0.026547192860399346 0.085380242097650771 0.10872434639303304 0.10177471431534697
leaf_weight=1.8061760583659632 0.49731191713362921 1.5703728634980509 1.7525441815378142 0.36780366970924638 0.33113394671818241 0.33193659113021567
leaf_count=95 7 36 68 21 21 92
internal_value=0 -0.0182347 0.0098349 0.0601609 0.0981577 0.105245
internal_weight=0 5.12909 3.32292 1.52819 1.03087 0.663071
internal_count=340 199 104 141 134 113
shrinkage=0.1


Tree=69
num_leaves=7
num_cat=0
split_feature=13 2 18 7 12 13
split_gain=0.619805 0.632599 0.443219 0.311458 0.00169973 6.35153e-05
threshold=0.17840640975226107 0.35271282838313628 0.19258821210329205 0.036735288514338861 0.33562428407789241 0.25616889500589857
decision_type=2 2 2 2 2 2
left_child=1 -1 -2 -3 -4 -6
right_child=2 3 4 -5 5 -7
leaf_value=-0.065694833918106557 -0.0044590895466264067 -0.019683297883124288 0.1119389013168723 0.041881673798371183 0.1039853650167591 0.10155826264669704
leaf_weight=1.7329478829342404 0.64169875159859635 1.7695726515376011 0.37190280098002404 1.5341502103256059 0.20639234394184314 0.22575799727928825
leaf_count=95 25 72 9 32 26 81
internal_value=0 -0.0167619 0.0575191 0.00890564 0.106983 0.102717
internal_weight=0 5.03667 1.44575 3.30372 0.804053 0.43215
internal_count=340 199 141 104 116 107
shrinkage=0.1


Tree=70
num_leaves=8
num_cat=0
split_feature=0 13 18 17 3 6 9
split_gain=0.641991 0.769078 0.694481 0.522424 0.85766 0.0557974 0.0830388
threshold=0.19563747040919843 0.14773397561934717 0.19258821210329205 0.46666666666666662 0.12497699527636337 0.061198623936266509 0.13723476107390106
decision_type=2 2 2 2 2 2 2
left_child=-1 3 -3 4 -2 -4 -7
right_child=1 2 5 -5 -6 6 -8
leaf_value=-0.077444908986428862 0.032064480830148588 -0.02230663628899594 0.12283387049456088 0.027797750706077332 -0.10699735817919916 0.04063200684713001 0.10761182966220334
leaf_weight=0.91867770443786856 0.73197009670548174 0.68511222186498377 0.62032317416742422 1.456862900406122 1.1253823472652582 0.29398521455004811 0.49972094473196194
leaf_count=50 45 26 12 21 68 50 68
internal_value=0 0.0129661 0.0603272 -0.0170312 -0.052194 0.100364 0.0828028
internal_weight=0 5.41336 2.09914 3.31422 1.85735 1.41403 0.793706
internal_count=340 290 156 134 113 130 118
shrinkage=0.1


Tree=71
num_leaves=5
num_cat=0
split_feature=2 19 19 13
split_gain=0.578275 0.90291 1.11698 0.620513
threshold=0.26031416448496897 0.10773317591499407 0.25091827364554647 0.15343590247738892
decision_type=2 2 2 2
left_child=-1 -2 3 -3
right_child=1 2 -4 -5
leaf_value=-0.077583283287654112 0.083056864180057102 -0.096361190127163557 0.053299771772583542 0.0089909971576092387
leaf_weight=0.83294891146942962 1.3372610661317592 1.4450709968514281 1.5686580591718664 0.91183786230976682
leaf_count=46 49 80 85 80
internal_value=0 0.01209 -0.0120852 -0.0556027
internal_weight=0 5.26283 3.92557 2.35691
internal_count=340 294 245 160
shrinkage=0.1


Tree=72
num_leaves=5
num_cat=0
split_feature=4 8 7 18
split_gain=0.546476 0.77486 0.447561 0.1624
threshold=0.36816600397614319 0.14136900291405055 0.030870492605500902 0.23102700571653859
decision_type=2 2 2 2
left_child=1 2 -1 -2
right_child=3 -3 -4 -5
leaf_value=-0.020075014678918555 0.02004627438469949 -0.056255944606034426 0.060966938568848023 0.10710207418137666
leaf_weight=1.2885438996599989 0.3592704854090697 2.26959568815073 1.4463512291549703 0.53098810368101113
leaf_count=94 27 90 45 84
internal_value=0 -0.0130615 0.0227841 0.0719701
internal_weight=0 5.00449 2.7349 0.890259
internal_count=340 229 139 111
shrinkage=0.1


Tree=73
num_leaves=6
num_cat=0
split_feature=11 7 2 10 17
split_gain=0.589084 1.04362 0.892217 0.481265 0.00835004
threshold=0.47601279317697237 0.030870492605500902 0.3390809786043153 0.098157898373478117 0.48178694158075602
decision_type=2 2 2 2 2
left_child=1 4 -3 -4 -1
right_child=-2 2 3 -5 -6
leaf_value=-0.095419201425698263 0.050554256381821941 -0.059973049278471635 0.10410681511406782 0.0032152106556633652 -0.11286931908636072
leaf_weight=0.57034214609302558 1.6390920077101325 1.1391618059715258 0.91600753710372351 0.97715125308604911 0.52814104408025742
leaf_count=98 95 41 41 59 6
internal_value=0 -0.020298 0.00995454 0.0520318 -0.103809
internal_weight=0 4.1308 3.03232 1.89316 1.09848
internal_count=340 245 141 100 104
shrinkage=0.1


Tree=74
num_leaves=7
num_cat=0
split_feature=13 2 2 13 2 18
split_gain=0.496827 0.54674 0.488892 0.120206 0.00764748 0.0109831
threshold=0.16901789225324418 0.2646023291504922 0.35271282838313628 0.12447158867479351 0.37564322469982853 0.23102700571653859
decision_type=2 2 2 2 2 2
left_child=2 -2 -1 -4 -3 -6
right_child=1 4 3 -5 5 -7
leaf_value=-0.064515254497176475 -0.041671421797643222 0.10558666658451175 -0.013556659582376219 0.027436326281758724 0.066834888907507981 0.10221092428947838
leaf_weight=1.4234385724121237 0.40919939801096894 0.53299521209555678 1.4128040148061702 1.4489846685901282 0.15658745623659343 0.19967237353557721
leaf_count=93 7 37 71 29 21 82
internal_value=0 0.0539869 -0.0166226 0.00719896 0.0980049 0.086662
internal_weight=0 1.29845 4.28523 2.86179 0.889255 0.35626
internal_count=340 147 193 100 140 103
shrinkage=0.1


Tree=75
num_leaves=5
num_cat=0
split_feature=11 7 8 17
split_gain=0.522518 0.920456 0.341957 0.00745678
threshold=0.47601279317697237 0.030870492605500902 0.22236909303932467 0.46065292096219929
decision_type=2 2 2 2
left_child=1 3 -3 -1
right_child=-2 2 -4 -5
leaf_value=-0.093865634845395826 0.048278896172235783 0.036946530698135513 -0.03362749381217113 -0.11118419681702954
leaf_weight=0.48123151573236134 1.5805525721807496 1.7220872758189218 1.1417643838212823 0.51432964578270912
leaf_count=97 95 89 52 7
internal_value=0 -0.0199839 0.00880998 -0.102813
internal_weight=0 3.85941 2.86385 0.995561
internal_count=340 245 141 104
shrinkage=0.1


Tree=76
num_leaves=10
num_cat=0
split_feature=11 13 17 9 2 0 13 2 17
split_gain=0.455487 0.623362 0.656238 0.622264 0.174871 0.00191883 0.000631832 0.000112558 1.30282e-06
threshold=0.21815031982942432 0.13213969720802199 0.35945017182130584 0.13484268587831377 0.3390809786043153 0.24991545485289138 0.14773397561934717 0.36291414642953884 0.52852233676975946
decision_type=2 2 2 2 2 2 2 2 2
left_child=-1 3 -3 -2 -4 -6 -7 -8 -9
right_child=1 2 4 -5 5 6 7 8 -10
leaf_value=-0.068846510169302266 0.032795336101799299 -0.034997453929874023 0.043170900164383186 -0.076268399674923409 0.11372130340337389 0.10886865860005704 0.10406195174641822 0.10087347598171799 0.1003725630805419
leaf_weight=0.81814098003087554 0.94979367122869041 0.68937553837895427 0.71734076098073252 1.1645619730697943 0.37837359911645763 0.22230920754373074 0.17072707365150563 0.095706841384526342 0.11349749304645229
leaf_count=53 42 14 24 76 9 6 12 18 86
internal_value=0 0.0122655 0.0472855 -0.0272757 0.0806926 0.108141 0.104634 0.102157 0.100602
internal_weight=0 4.50169 2.38733 2.11436 1.69795 0.980614 0.602241 0.379931 0.209204
internal_count=340 287 169 118 155 131 122 116 104
shrinkage=0.1


Tree=77
num_leaves=6
num_cat=0
split_feature=6 18 11 4 8
split_gain=0.452563 0.765676 0.432847 0.374789 0.0901051
threshold=0.15801195002715915 0.27074709245022677 0.38392857142857156 0.23128727634194832 0.10614504160783486
decision_type=2 2 2 2 2
left_child=1 3 -3 4 -1
right_child=-2 2 -4 -5 -6
leaf_value=-0.057517068898057779 0.068345899137962185 -0.014868364656988499 0.080198841137545662 -0.0047661248327166943 -0.1086569979806583
leaf_weight=0.65208133278065383 0.81191174489504181 0.92919133423129074 0.9883560706366552 1.0260827590827828 0.73049220822576899
leaf_count=71 89 48 56 32 44
internal_value=0 -0.0130183 0.0341319 -0.0505549 -0.0845372
internal_weight=0 4.3262 1.91755 2.40866 1.38257
internal_count=340 251 104 147 115
shrinkage=0.1


Tree=78
num_leaves=7
num_cat=0
split_feature=13 9 2 2 9 2
split_gain=0.431426 0.418334 0.416011 0.297535 0.00690251 0.000242592
threshold=0.16901789225324418 0.19569989306016772 0.2646023291504922 0.42236165026631772 0.09544380030393422 0.32829285907736755
decision_type=2 2 2 2 2 2
left_child=1 3 -2 -1 -4 -6
right_child=2 -3 4 -5 5 -7
leaf_value=-0.030300465987478317 -0.031065510375354988 -0.067287679281614027 0.083526873470380084 0.035828826405372598 0.10657218367305972 0.10214696527228143
leaf_weight=1.2722893584723358 0.3799204467795787 1.1291198605904353 0.24287162401014939 1.4624468268011694 0.21576377097517252 0.29090690857265145
leaf_count=93 7 65 37 35 8 95
internal_value=0 -0.0160795 0.0541794 0.0050633 0.0973874 0.104031
internal_weight=0 3.86386 1.12946 2.73474 0.749542 0.506671
internal_count=340 193 147 128 140 103
shrinkage=0.1


Tree=79
num_leaves=6
num_cat=0
split_feature=11 13 4 18 16
split_gain=0.404573 0.72044 0.636315 0.0749496 0.000331527
threshold=0.30197228144989346 0.15343590247738892 0.27818091451292248 0.22600039424403712 0.36313897763578279
decision_type=2 2 2 2 2
left_child=1 -1 -2 -4 -5
right_child=2 -3 3 4 -6
leaf_value=-0.10720650237042216 -0.0082194197963980399 0.02914833982951567 0.050862528278445535 0.11183422693450105 0.10718325830086249
leaf_weight=0.81343677836412076 2.3633309386204933 0.73998382483841851 0.3390012910531367 0.29924530921562109 0.31416226000874303
leaf_count=90 95 26 29 49 51
internal_value=0 -0.0422528 0.0195902 0.0885977 0.109452
internal_weight=0 1.55342 3.31574 0.952409 0.613408
internal_count=340 116 224 129 100
shrinkage=0.1


Tree=80
num_leaves=5
num_cat=0
split_feature=6 17 11 15
split_gain=0.394303 0.680162 0.862394 0.0374268
threshold=0.15801195002715915 0.29142611683848796 0.38192963752665249 0.087667724190121366
decision_type=2 2 2 2
left_child=1 3 -3 -1
right_child=-2 2 -4 -5
leaf_value=-0.065176488700196086 0.066828129431250577 -0.03964679574203421 0.066514588131046812 -0.10612961367184026
leaf_weight=0.39149492618162218 0.74122360225010187 1.6401977597561201 1.4343639259604968 0.51897806914348621
leaf_count=46 89 69 70 66
internal_value=0 -0.0126016 0.00988028 -0.0885202
internal_weight=0 3.98503 3.07456 0.910473
internal_count=340 251 139 112
shrinkage=0.1


Tree=81
num_leaves=6
num_cat=0
split_feature=11 13 18 9 18
split_gain=0.360992 0.531252 0.712293 0.452289 0.068239
threshold=0.21815031982942432 0.13213969720802199 0.19258821210329205 0.13484268587831377 0.27616794795978711
decision_type=2 2 2 2 2
left_child=-1 3 -3 -2 -4
right_child=1 2 4 -5 -6
leaf_value=-0.066935264026114744 0.026309657436342327 -0.032055849698842523 0.064670185223903318 -0.073222736176829686 0.11056644203322313
leaf_weight=0.68812290570349421 0.84546364916604966 0.7388325295178223 0.57336366923118454 0.99249418132239953 0.74471225793240592
leaf_count=53 42 31 43 76 95
internal_value=0 0.0116324 0.0465435 -0.0274377 0.0906015
internal_weight=0 3.89487 2.05691 1.83796 1.31808
internal_count=340 287 169 118 138
shrinkage=0.1


Tree=82
num_leaves=6
num_cat=0
split_feature=17 19 14 4 4
split_gain=0.370756 0.52244 0.363794 0.191935 0.000158247
threshold=0.51804123711340211 0.10773317591499407 0.39807171630456317 0.36816600397614319 0.4686878727634195
decision_type=2 2 2 2 2
left_child=1 -1 -3 -2 -5
right_child=3 2 -4 4 -6
leaf_value=0.034179934996237553 -0.0019420513749929488 -0.087207332161407761 -0.0066605539582806558 0.107073412497648 0.10333541354091902
leaf_weight=1.443591756251408 0.26497043622657646 1.0167237151617885 1.2502842782123478 0.22655776778992731 0.22646081903076265
leaf_count=71 29 74 65 45 56
internal_value=0 -0.012842 -0.0427847 0.0656628 0.105205
internal_weight=0 3.7106 2.26701 0.717989 0.453019
internal_count=340 210 139 130 101
shrinkage=0.1


Tree=83
num_leaves=6
num_cat=0
split_feature=11 7 2 10 2
split_gain=0.334924 0.702579 0.625496 0.263753 0.0042324
threshold=0.47601279317697237 0.030870492605500902 0.3390809786043153 0.078880090654063512 0.46420510968673834
decision_type=2 2 2 2 2
left_child=1 4 -3 -4 -1
right_child=-2 2 3 -5 -6
leaf_value=-0.093394861328182047 0.043493596009851143 -0.057206666340548641 0.096309266135489527 0.010362161240313207 -0.10833000489480607
leaf_weight=0.3616903540096249 1.2512259954892213 0.87246656944626044 0.66477596099139169 0.77135348360752687 0.39912776564597152
leaf_count=85 95 41 31 69 19
internal_value=0 -0.0178899 0.00957555 0.0501466 -0.10123
internal_weight=0 3.06941 2.3086 1.43613 0.760818
internal_count=340 245 141 100 104
shrinkage=0.1


Tree=84
num_leaves=8
num_cat=0
split_feature=13 19 19 2 17 9 2
split_gain=0.350065 0.343445 0.686805 0.325451 0.0703693 0.00674067 0.000122624
threshold=0.16901789225324418 0.2683654729109276 0.10773317591499407 0.2646023291504922 0.45601374570446734 0.09544380030393422 0.32829285907736755
decision_type=2 2 2 2 2 2 2
left_child=1 2 -1 -2 -4 -5 -7
right_child=3 -3 4 5 -6 6 -8
leaf_value=0.029918834878752618 -0.026842734719648265 0.034769959824275887 -0.10483180227354694 0.081298831864147519 -0.059472152777486291 0.10550639139441259 0.10203894521115926
leaf_weight=0.92337057308759618 0.32963139517232765 0.95053680491400871 0.67033217812422641 0.20250008952280041 0.69829482003115118 0.18193601991515607 0.23210097375704208
leaf_count=56 7 36 86 37 15 8 95
internal_value=0 -0.015767 -0.0367256 0.0533664 -0.0816886 0.0962501 0.103563
internal_weight=0 3.24253 2.292 0.946168 1.36863 0.616537 0.414037
internal_count=340 193 157 147 101 140 103
shrinkage=0.1


Tree=85
num_leaves=8
num_cat=0
split_feature=17 10 16 11 0 12 12
split_gain=0.307074 0.419346 0.359154 0.165858 0.00029452 0.00012786 6.60906e-07
threshold=0.51804123711340211 0.084027748987742304 0.16054313099041531 0.28771321961620472 0.24991545485289138 0.25892723741222173 0.34284575925095878
decision_type=2 2 2 2 2 2 2
left_child=1 2 -1 -2 -5 -6 -7
right_child=3 -3 -4 4 5 6 -8
leaf_value=-0.027872298563411585 -0.00084738057981767554 -0.059525669245183481 0.052654332789941784 0.10824262757590926 0.10502484106264705 0.10067077675096628 0.10022332019409484
leaf_weight=1.0702388522622648 0.24240137846209098 1.2028265225744688 1.1479310386639552 0.1429190971684875 0.1114129452034831 0.06149051790998783 0.071267050174355973
leaf_count=93 14 79 38 4 3 15 94
internal_value=0 -0.0119806 0.0138013 0.0640177 0.104637 0.102527 0.100431
internal_weight=0 3.421 2.21817 0.629491 0.38709 0.244171 0.132758
internal_count=340 210 131 130 116 112 109
shrinkage=0.1


Tree=86
num_leaves=6
num_cat=0
split_feature=6 16 11 11 10
split_gain=0.339033 0.620625 0.421989 0.0547836 0.000303875
threshold=0.15801195002715915 0.16054313099041531 0.36780383795309174 0.44736140724946699 0.025831571383165403
decision_type=2 2 2 2 2
left_child=1 3 -3 4 -1
right_child=-2 2 -4 -5 -6
leaf_value=-0.10773937635845954 0.066006123202452124 -0.031238322952479688 0.052738653513421524 -0.055005456735854344 -0.10288847558674477
leaf_weight=0.23658968793461177 0.64798496859293653 1.1261239681334703 1.2768731201649641 0.37601313053164631 0.28433269898232538
leaf_count=15 89 53 76 22 85
internal_value=0 -0.0131109 0.0133843 -0.0840945 -0.105092
internal_weight=0 3.29993 2.403 0.896936 0.520922
internal_count=340 251 129 122 100
shrinkage=0.1


Tree=87
num_leaves=9
num_cat=0
split_feature=13 2 10 9 18 12 16 0
split_gain=0.313575 0.322282 0.276327 0.197131 0.00565461 0.000125909 2.40835e-05 5.46994e-06
threshold=0.17840640975226107 0.35271282838313628 0.027489877423545157 0.13484268587831377 0.17652276759314017 0.33562428407789241 0.20155750798722041 0.22522827189719308
decision_type=2 2 2 2 2 2 2 2
left_child=1 -1 -2 -3 -4 -6 -7 -8
right_child=2 3 4 -5 5 6 7 -9
leaf_value=-0.059556261897247012 -0.028401350074643051 0.040843693556926457 0.082126865722870757 -0.022396684315646537 0.10575079511006252 0.10303123211305099 0.10170531924242343 0.10030325601071731
leaf_weight=1.0554152556796914 0.26649291266221542 0.97622960011358351 0.19345351710217074 0.99559078447055072 0.1393201966129709 0.097990496142301708 0.048084235051646829 0.066045589723216835
leaf_count=95 8 36 17 68 7 7 5 97
internal_value=0 -0.0149581 0.0550456 0.00891303 0.0958573 0.103415 0.101881 0.100894
internal_weight=0 3.02724 0.811387 1.97182 0.544894 0.351441 0.21212 0.11413
internal_count=340 199 141 104 133 116 109 102
shrinkage=0.1


Tree=88
num_leaves=6
num_cat=0
split_feature=13 3 14 7 14
split_gain=0.285811 0.35145 0.545831 0.235211 0.0149926
threshold=0.088883700353912673 0.12911784553094902 0.42514693257610769 0.031991154244132354 0.52123093178366253
decision_type=2 2 2 2 2
left_child=-1 -2 -3 -4 -5
right_child=1 2 3 4 -6
leaf_value=-0.059086677405973204 0.076577251279656325 -0.045607967481461918 -0.0060504557751295965 0.073801033847238379 0.10611418127962764
leaf_weight=0.67401820852683192 0.67472608752723351 1.3940110315088534 0.41933437687111996 0.25361380940012168 0.33097561961039901
leaf_count=85 30 96 21 56 52
internal_value=0 0.01282 -0.00511982 0.0511005 0.0920957
internal_weight=0 3.07266 2.39793 1.00392 0.584589
internal_count=340 255 225 129 108
shrinkage=0.1


Tree=89
num_leaves=6
num_cat=0
split_feature=4 3 11 9 8
split_gain=0.290527 0.653263 0.558475 0.0908139 0.000369661
threshold=0.2201540755467197 0.12911784553094902 0.37859808102345421 0.10360499803005567 0.18725778832577283
decision_type=2 2 2 2 2
left_child=1 -1 -2 -3 -4
right_child=2 3 4 -5 -6
leaf_value=0.044320444656833505 -0.01139375992110706 -0.046613045958720796 0.10889487268779292 -0.10417225245119109 0.10396785331420269
leaf_weight=0.74577852897346053 1.1860460581228833 0.52049049529887248 0.30120376184640907 0.57906472457398195 0.30798107673763297
leaf_count=61 69 32 45 70 63
internal_value=0 -0.027925 0.0285791 -0.0769258 0.106404
internal_weight=0 1.84533 1.79523 1.09956 0.609185
internal_count=340 163 177 102 108
shrinkage=0.1


Tree=90
num_leaves=9
num_cat=0
split_feature=13 2 2 9 18 2 0 8
split_gain=0.282214 0.263118 0.228668 0.120032 0.00759352 5.20978e-05 1.79115e-05 4.10711e-06
threshold=0.16901789225324418 0.35271282838313628 0.2646023291504922 0.12696290876343783 0.19258821210329205 0.32829285907736755 0.19563747040919843 0.10013668999909871
decision_type=2 2 2 2 2 2 2 2
left_child=1 -1 -2 -3 -4 -6 -7 -8
right_child=2 3 4 -5 5 6 7 -9
leaf_value=-0.058148090824827574 -0.018904062003246309 0.03421087226387174 0.076465738010952758 -0.017377746063661655 0.10421658238780672 0.10291301508066382 0.10157537742894636 0.10031264837718044
leaf_weight=0.93563204995007332 0.28006732091307629 0.86065445782151051 0.16201919526793063 0.94758291247126181 0.15477316651958972 0.072478773072361946 0.045947791659273207 0.058621051775844535
leaf_count=93 7 28 21 72 11 4 10 94
internal_value=0 -0.0150985 0.0532765 0.00717654 0.0942116 0.102876 0.101705 0.100867
internal_weight=0 2.74387 0.773907 1.80824 0.49384 0.331821 0.177048 0.104569
internal_count=340 193 147 100 140 119 108 104
shrinkage=0.1


Tree=91
num_leaves=6
num_cat=0
split_feature=11 13 18 9 8
split_gain=0.266273 0.429284 0.469663 0.282956 0.0388906
threshold=0.21815031982942432 0.13213969720802199 0.19258821210329205 0.13484268587831377 0.14136900291405055
decision_type=2 2 2 2 2
left_child=-1 3 -3 -2 -4
right_child=1 2 4 -5 -6
leaf_value=-0.06579160104200199 0.01769345292747505 -0.024599621998071104 0.10928192704142232 -0.072823086042560478 0.069265417655218792
leaf_weight=0.52211017037916496 0.67404415781493321 0.56266120588406898 0.50851226859958842 0.70821166575478856 0.46490442986032576
leaf_count=53 42 31 43 76 95
internal_value=0 0.0117477 0.0481302 -0.0286835 0.09017
internal_weight=0 2.91833 1.53608 1.38226 0.973417
internal_count=340 287 169 118 138
shrinkage=0.1


Tree=92
num_leaves=5
num_cat=0
split_feature=4 3 3 13
split_gain=0.259746 0.494662 0.426024 0.1569
threshold=0.24018389662027831 0.12911784553094902 0.33715722961781497 0.14260961462839164
decision_type=2 2 2 2
left_child=1 -1 -2 -3
right_child=2 3 -4 -5
leaf_value=0.040873455457669357 0.086717167009727064 -0.1034063015279566 -0.019704736942895637 -0.028589075918136777
leaf_weight=0.69433030333311796 0.71441575302742399 0.5686766499202347 0.79446909503894858 0.55274224258027971
leaf_count=61 73 88 98 20
internal_value=0 -0.0254592 0.0306831 -0.0665292
internal_weight=0 1.81575 1.50888 1.12142
internal_count=340 169 171 108
shrinkage=0.1


Tree=93
num_leaves=8
num_cat=0
split_feature=7 4 13 14 2 2 10
split_gain=0.241257 0.381761 0.552435 0.276273 0.237266 0.000516611 0.000364533
threshold=0.048903806140478658 0.27818091451292248 0.14773397561934717 0.26731823284685996 0.45382323733862967 0.42236165026631772 0.047976866630736657
decision_type=2 2 2 2 2 2 2
left_child=1 2 5 -2 -5 6 -1
right_child=3 -3 -4 4 -6 -7 -8
leaf_value=-0.096384657164611143 -0.033938440380296933 0.046772031067119385 0.027993212733133706 0.10888675617213779 0.0030395258105871252 -0.10468852605531601 -0.10224633750871255
leaf_weight=0.18792093219235562 0.41234713532321599 0.56551103598030739 0.53823539428412914 0.51490454720624257 0.35972933087032288 0.39815560217539314 0.2436546602184535
leaf_count=49 16 28 14 69 70 37 57
internal_value=0 -0.0223384 -0.0509083 0.0335399 0.0653527 -0.102091 -0.099694
internal_weight=0 1.93348 1.36797 1.28698 0.874634 0.829731 0.431576
internal_count=340 185 157 155 139 143 106
shrinkage=0.1


Tree=94
num_leaves=5
num_cat=0
split_feature=0 4 8 3
split_gain=0.241298 0.321062 0.482963 0.285025
threshold=0.19563747040919843 0.24018389662027831 0.072122750623366469 0.34743267284215701
decision_type=2 2 2 2
left_child=-1 2 -2 -3
right_child=1 3 -4 -5
leaf_value=-0.068070016164937006 0.048884112121737294 0.1031494636931633 -0.064168801428446526 0.00022552805176051993
leaf_weight=0.44601781033634358 0.64309289917582668 0.55707663061184554 0.91626973496749997 0.52041508628826705
leaf_count=50 48 77 83 82
internal_value=0 0.0114609 -0.0175449 0.0534385
internal_weight=0 2.63685 1.55936 1.07749
internal_count=340 290 131 159
shrinkage=0.1


Tree=95
num_leaves=5
num_cat=0
split_feature=17 19 14 2
split_gain=0.228537 0.259435 0.202048 0.105948
threshold=0.51804123711340211 0.10773317591499407 0.39807171630456317 0.48812855466281491
decision_type=2 2 2 2
left_child=1 -1 -3 -2
right_child=3 2 -4 -5
leaf_value=0.026888745141335376 0.0066997986381781924 -0.080826531831049236 -0.0065211706325763539 0.10425941341081713
leaf_weight=1.0245070469100035 0.18732575095054915 0.64172636351577217 0.85152134532108903 0.27433056961672264
leaf_count=71 77 74 65 53
internal_value=0 -0.0118652 -0.0384541 0.0646728
internal_weight=0 2.51775 1.49325 0.461656
internal_count=340 210 139 130
shrinkage=0.1


Tree=96
num_leaves=5
num_cat=0
split_feature=6 16 11 0
split_gain=0.22288 0.478573 0.328304 0.0336654
threshold=0.15801195002715915 0.16054313099041531 0.36780383795309174 0.39398038552587084
decision_type=2 2 2 2
left_child=1 3 -3 -1
right_child=-2 2 -4 -5
leaf_value=-0.10359835781581334 0.062522161360403589 -0.030006600011257108 0.056120375039438557 -0.057937951599103581
leaf_weight=0.38818283346699978 0.47679603345386556 0.84909083308593813 0.92445477655928698 0.27648678497644141
leaf_count=99 89 53 76 23
internal_value=0 -0.0122351 0.0148868 -0.0846047
internal_weight=0 2.43822 1.77355 0.66467
internal_count=340 251 129 122
shrinkage=0.1


Tree=97
num_leaves=9
num_cat=0
split_feature=13 11 2 5 14 1 11 17
split_gain=0.22381 0.234687 0.273757 0.166831 0.115487 5.24418e-05 1.17625e-05 4.67388e-06
threshold=0.19122345654738493 0.30197228144989346 0.35271282838313628 0.081613310867733671 0.43901472627616717 0.39396033446202755 0.24173773987206823 0.47302405498281785
decision_type=2 2 2 2 2 2 2 2
left_child=1 4 -3 -2 -1 -5 -7 -8
right_child=3 2 -4 5 -6 6 7 -9
leaf_value=-0.10358312041818354 -0.015515071525968052 -0.039341646783883077 0.044187464799372675 0.10413669612644792 -0.023090452346242605 0.10249975059177507 0.1016436736271793 0.10030456370508478
leaf_weight=0.33628362941453893 0.188008582452312 0.69241281162248902 0.90544392389710993 0.14168530565439141 0.3792843136616284 0.079653647262603045 0.046380863888771273 0.059502083066035993
leaf_count=71 12 51 57 13 29 5 7 95
internal_value=0 -0.0133233 0.00799109 0.0595555 -0.0609183 0.102688 0.101582 0.100891
internal_weight=0 2.31342 1.59786 0.51523 0.715568 0.327222 0.185537 0.105883
internal_count=340 208 108 132 100 120 107 102
shrinkage=0.1


end of trees

feature_importances:
Column_11=61
Column_13=57
Column_2=48
Column_17=41
Column_18=33
Column_4=32
Column_0=31
Column_6=22
Column_9=22
Column_16=22
Column_8=20
Column_12=20
Column_7=19
Column_10=14
Column_3=13
Column_14=13
Column_19=12
Column_1=7
Column_5=5
Column_15=5

parameters:
[boosting: gbdt]
[objective: binary]
[metric: binary_logloss]
[tree_learner: serial]
[device_type: cpu]
[data: ]
[valid: ]
[num_iterations: 10000]
[learning_rate: 0.1]
[num_leaves: 15]
[num_threads: 0]
[force_col_wise: 0]
[force_row_wise: 0]
[histogram_pool_size: -1]
[max_depth: -1]
[min_data_in_leaf: 50]
[min_sum_hessian_in_leaf: 0.001]
[bagging_fraction: 0.5]
[pos_bagging_fraction: 1]
[neg_bagging_fraction: 1]
[bagging_freq: 0]
[bagging_seed: 10961]
[feature_fraction: 0.8]
[feature_fraction_bynode: 1]
[feature_fraction_seed: 53]
[extra_trees: 0]
[extra_seed: 11644]
[early_stopping_round: 50]
[first_metric_only: 0]
[max_delta_step: 0]
[lambda_l1: 0]
[lambda_l2: 0]
[min_gain_to_split: 0]
[drop_rate: 0.1]
[max_drop: 50]
[skip_drop: 0.5]
[xgboost_dart_mode: 0]
[uniform_drop: 0]
[drop_seed: 30626]
[top_rate: 0.2]
[other_rate: 0.1]
[min_data_per_group: 100]
[max_cat_threshold: 32]
[cat_l2: 10]
[cat_smooth: 10]
[max_cat_to_onehot: 4]
[top_k: 20]
[monotone_constraints: ]
[monotone_constraints_method: basic]
[monotone_penalty: 0]
[feature_contri: ]
[forcedsplits_filename: ]
[refit_decay_rate: 0.9]
[cegb_tradeoff: 1]
[cegb_penalty_split: 0]
[cegb_penalty_feature_lazy: ]
[cegb_penalty_feature_coupled: ]
[path_smooth: 0]
[interaction_constraints: ]
[verbosity: -1]
[saved_feature_importance_type: 0]
[max_bin: 255]
[max_bin_by_feature: ]
[min_data_in_bin: 3]
[bin_construct_sample_cnt: 200000]
[data_random_seed: 4071]
[is_enable_sparse: 1]
[enable_bundle: 1]
[use_missing: 1]
[zero_as_missing: 0]
[feature_pre_filter: 1]
[pre_partition: 0]
[two_round: 0]
[header: 0]
[label_column: ]
[weight_column: ]
[group_column: ]
[ignore_column: ]
[categorical_feature: ]
[forcedbins_filename: ]
[objective_seed: 602]
[num_class: 1]
[is_unbalance: 0]
[scale_pos_weight: 1]
[sigmoid: 1]
[boost_from_average: 1]
[reg_sqrt: 0]
[alpha: 0.9]
[fair_c: 1]
[poisson_max_delta_step: 0.7]
[tweedie_variance_power: 1.5]
[lambdarank_truncation_level: 20]
[lambdarank_norm: 1]
[label_gain: ]
[eval_at: ]
[multi_error_top_k: 1]
[auc_mu_weights: ]
[num_machines: 1]
[local_listen_port: 12400]
[time_out: 120]
[machine_list_filename: ]
[machines: ]
[gpu_platform_id: -1]
[gpu_device_id: -1]
[gpu_use_dp: 0]

end of parameters

pandas_categorical:null
