tree
version=v3
num_class=1
num_tree_per_iteration=1
label_index=0
max_feature_idx=29
objective=binary sigmoid:1
feature_names=Column_0 Column_1 Column_2 Column_3 Column_4 Column_5 Column_6 Column_7 Column_8 Column_9 Column_10 Column_11 Column_12 Column_13 Column_14 Column_15 Column_16 Column_17 Column_18 Column_19 Column_20 Column_21 Column_22 Column_23 Column_24 Column_25 Column_26 Column_27 Column_28 Column_29
feature_infos=[0:1] [0.039905309435238401:1] [0:1] [0:1] [0:1] [0:1] [0:1] [0:1] [0:0.93232323232323244] [0.0058972198820553996:0.94903117101937662] [0:1] [0.00041990806223470001:1] [0.00067850916458549995:1] [0.0007956697634283:1.0000000000000002] [0:1] [0:1] [0:0.76717171717171717] [0:0.7747679484750899] [0.029056678111104801:1] [0.0025392811243314002:0.7588546632947778] [0:1] [0.0125266524520256:1] [0:1] [0:1] [0:0.78603975434194018] [0:1] [0:1] [0:1] [0.00019712201852940001:0.82968657599053819] [0.001115046569592:1]
tree_sizes=1357 1569 2635 3166 3170 3152 3271 2943 3161 3185 3175 3177 3305 3300 3409 3510 3522 3423 3738 3510 3203 3749 4074 3667 3662

Tree=0
num_leaves=12
num_cat=0
split_feature=20 27 27 10 20 10 4 20 11 4 4
split_gain=234.279 37.6594 6.6171 9.7602 4.48298 0.32088 0.200002 0.137682 0.233335 2.84217e-14 1.42109e-14
threshold=0.30042689434365 0.52044673539518904 0.5049828178694159 0.096722795582111165 0.27178939879046599 0.12583740720622846 0.34084138304595107 0.23319103521878337 0.12407178217821775 0.30725828292859086 0.5942042069152299
decision_type=2 2 2 2 2 2 2 2 2 2 2
left_child=1 4 3 -2 5 7 -5 9 -9 -1 -4
right_child=2 -3 10 6 -6 -7 -8 8 -10 -11 -12
leaf_value=-0.40472325925256225 -0.1138116367496191 0.25410600347469153 0.39528370263053159 0.31528300644222218 -0.18249910317392518 -0.32472256306425296 0.39528370263053147 -0.40472325925256236 -0.32472256306425284 -0.40472325925256236 0.3952837026305317
leaf_weight=10.999904274940492 2.7499760687351218 4.249963015317916 28.499751985073093 2.499978244304657 4.4999608397483817 2.4999782443046561 2.499978244304657 3.4999695420265189 2.499978244304657 17.499847710132599 2.7499760687351218
leaf_count=44 11 17 114 10 18 10 10 14 10 70 11
internal_value=-0.00589972 -0.312919 0.354258 0.18883 -0.370988 -0.393912 0.355283 -0.398926 -0.37139 -0.404723 0.395284
internal_weight=0 45.7496 38.9997 7.74993 41.4996 36.9997 4.99996 34.4997 5.99995 28.4998 31.2497
internal_count=339 183 156 31 166 148 20 138 24 114 125
shrinkage=1


Tree=1
num_leaves=14
num_cat=0
split_feature=20 27 21 21 27 29 11 20 16 12 0 1 5
split_gain=156.204 25.127 4.77589 4.09753 8.44867 1.28489 0.394543 0.0682699 0.0487074 0.00190256 0.0015083 0.000612828 0.000255676
threshold=0.30042689434365 0.52044673539518904 0.28744669509594895 0.45802238805970158 0.31764604810996572 0.069756001574183366 0.33300919377652055 0.27178939879046599 0.050454545454545405 0.11581774489940157 0.31776231719437747 0.35508961785593507 0.25694742653824926
decision_type=2 2 2 2 2 2 2 2 2 2 2 2 2
left_child=1 3 -2 6 -5 -4 7 9 -7 10 11 -1 -10
right_child=2 -3 5 4 -6 8 -8 -9 12 -11 -12 -13 -14
leaf_value=-0.33343227479379678 0.10921075926940881 0.21165423395470684 0.18625623729400997 -0.3347564571133847 0.13486661806219905 0.3643615103279727 -0.25384072307325045 -0.36663705826072424 0.33676111255839208 -0.3401386753727938 -0.3390290049139133 -0.33680003043005335 0.33469777593484823
leaf_weight=20.883095338940635 4.6301439404487601 4.1821260154247275 2.4339745342731467 4.0875813215970984 2.4512098729610443 2.4377702176570919 2.4108205139636985 2.9751586318016043 2.6521265804767635 2.421285241842269 2.4177969992160788 2.4108205139636985 25.491221785545349
leaf_count=87 19 17 10 17 10 10 10 12 11 10 10 10 106
internal_value=0 -0.254831 0.299433 -0.303533 -0.158708 0.32611 -0.331785 -0.337826 0.337241 -0.334779 -0.334274 -0.333781 0.334892
internal_weight=0 44.2399 37.6452 40.0578 6.53879 33.0151 33.519 31.1082 30.5811 28.133 25.7117 23.2939 28.1433
internal_count=339 183 156 166 27 137 139 129 127 117 107 97 117
shrinkage=0.2


Tree=2
num_leaves=24
num_cat=0
split_feature=22 27 21 7 21 17 16 6 27 7 22 21 23 27 17 21 21 4 21 22 29 6 2
split_gain=120.18 10.7346 13.9128 3.14809 2.27173 0.435423 0.91217 0.402363 0.0885478 0.0608305 0.0366443 0.0326546 0.00259129 0.000766071 0.00075861 0.000605353 0.000365812 0.000129632 5.76646e-05 4.17771e-06 5.57514e-07 1.83981e-08 1.77636e-15
threshold=0.25668608994471837 0.52044673539518904 0.32156183368869945 0.24239562624254471 0.56849680170575712 0.26567531729494226 0.14840909090909088 0.23078725398313024 0.38092783505154643 0.30397614314115312 0.30175805568006381 0.28744669509594895 0.12335332284703102 0.19249140893470792 0.42138662625497253 0.28464818763326233 0.39912046908315574 0.36584815383226521 0.35407782515991476 0.65810050301309841 0.13688836416109143 0.2967432052483599 0.24542187823923708
decision_type=2 2 2 2 2 2 2 2 2 2 2 2 2 2 2 2 2 2 2 2 2 2 2
left_child=4 2 -2 -4 5 8 -7 -3 12 -5 -9 -12 13 15 17 -1 -17 -13 20 21 -15 -19 -22
right_child=1 7 3 9 -6 6 -8 10 -10 -11 11 14 -14 18 -16 16 -18 19 -20 -21 22 -23 -24
leaf_value=-0.29641703266291736 -0.25831695448712527 0.21338594405288847 0.077561364088502033 0.3415843362942434 -0.092991297147551694 -0.14284824854314901 -0.32367309291503754 0.32553155183619004 -0.33836724384974781 0.29634748067920902 0.32076215640210359 0.29797276597477035 -0.30383184538513375 -0.29550433968745798 0.30001212242243863 -0.30141494539762537 -0.29786508920069793 0.29636372771962477 -0.29652115319765121 0.29608464280223418 -0.29559895222390237 0.29638358260663611 -0.29559895222390231
leaf_weight=4.1688834279775744 3.601390376687049 2.2305646538734463 3.9791930466890317 2.3436146378517151 2.4901986718177787 2.227795496582984 2.2357602417469025 2.3691727221012142 2.2975818365812293 2.4135730862617493 2.5821846276521709 2.2048423588275972 2.2432452887296668 3.9372853487730008 2.8808071613311759 2.4531743675470352 2.2047632336616516 2.1942869871854809 3.2923203259706488 2.1919811964035025 3.7198572605848312 12.508338958024977 3.0634118616580963
leaf_count=19 15 10 17 10 11 10 10 10 10 11 11 10 10 18 13 11 10 10 15 10 17 57 14
internal_value=0 0.228855 0.0724709 0.208831 -0.276959 -0.291345 -0.233422 0.295017 -0.300788 0.318633 0.301777 0.299486 -0.297345 -0.296708 0.296987 -0.298168 -0.299735 0.29653 -0.295789 0.296342 -0.295564 0.296381 -0.295599
internal_weight=0 41.4999 12.3378 8.73638 34.3343 31.8441 4.46356 29.1622 27.3805 4.75719 26.9316 24.5624 25.0829 22.8397 21.9803 8.82682 4.65794 19.0994 14.0129 16.8946 10.7206 14.7026 6.78327
internal_count=339 184 53 38 155 144 20 131 124 21 121 111 114 104 100 40 21 87 64 77 49 67 31
shrinkage=0.2


Tree=3
num_leaves=29
num_cat=0
split_feature=6 0 13 21 13 21 0 21 0 0 17 29 12 29 0 21 21 12 15 4 13 17 21 4 17 13 12 9
split_gain=67.4017 13.9824 10.746 10.2033 2.94448 1.81457 2.07551 0.715305 0.283311 0.052908 0.00334171 0.00190115 0.000620339 0.000276236 0.000199004 0.000132866 2.86403e-05 2.23618e-05 2.74479e-05 1.21605e-05 3.67636e-06 1.84567e-06 6.96117e-07 2.21672e-07 8.27309e-08 1.21333e-08 3.67593e-09 4.11822e-10
threshold=0.20951265229615743 0.38283875242557625 0.044794713465496662 0.36633795309168454 0.053012898815460605 0.46748400852878474 0.24842633347531831 0.27398720682302785 0.35183870509725973 0.35680817833309675 0.25525667740102298 0.11399711399711397 0.085119917071102072 0.08205430932703657 0.31066306971461027 0.34208422174840097 0.39605543710021324 0.097394336333223364 0.13701294799771682 0.48812855466281491 0.084008531970608716 0.39117257056260651 0.29797441364605554 0.37636544190665339 0.12226747490054932 0.11308970149309482 0.21332987796258776 0.26885004212299918
decision_type=2 2 2 2 2 2 2 2 2 2 2 2 2 2 2 2 2 2 2 2 2 2 2 2 2 2 2 2
left_child=1 4 3 -2 5 8 -7 -4 10 -9 12 -11 13 -1 16 -13 19 -17 -19 22 -20 23 24 -22 -15 -25 -27 -26
right_child=2 -3 7 -5 -6 6 -8 9 -10 11 -12 15 -14 14 -16 17 -18 18 20 -21 21 -23 -24 25 27 26 -28 -29
leaf_value=-0.27363259696422015 -0.2416453675837632 0.14548008867169962 0.17163411364331269 0.22218619602268413 -0.012111306753047337 -0.2785779879187546 -0.005959349626728257 0.30562259989780749 -0.34690896380953967 0.27827169458474871 -0.28060567628894462 0.27336604042857315 -0.2754349537731543 -0.27108959041077169 -0.27326881456973229 0.27222979688850585 -0.27181961618893091 0.27087341844122526 0.27190330691291276 -0.27053100731083407 0.27158390651491376 0.27142782545566829 -0.27100048607447513 0.27164717778030978 -0.2711378540005186 0.27166138974382265 0.27167262281602261 -0.27113382288364468
leaf_weight=2.554838135838529 3.7504036426544181 4.2520077824592581 2.9990741610527065 3.8388727307319641 2.0864178091287604 2.2156161814928046 2.2529043853282928 2.1158088296651867 2.2830693125724784 2.0140695720911053 2.0267750322818747 1.9594041258096719 1.9842122644186009 2.5150907486677152 1.9584408849477757 2.1435666382312801 1.9434311985969532 2.1247015446424475 1.9450330585241307 1.9271179139614094 1.9410521388053874 1.9390476495027531 2.9002842754125595 1.9418632537126539 1.9353096783161161 2.9130685329437256 1.9421893954277036 2.1287832111120224
leaf_count=13 18 19 14 18 10 11 10 10 10 10 10 10 10 13 10 11 10 11 10 10 10 10 15 10 10 15 10 11
internal_value=0 -0.194432 0.202336 -0.00702612 -0.241492 -0.25821 -0.141131 0.263498 -0.279867 0.275487 -0.27287 0.272431 -0.27208 -0.271707 -0.271386 0.271807 -0.27111 0.271626 0.271538 -0.270989 0.27165 0.271604 -0.271082 0.271644 -0.271118 0.271661 0.271666 -0.271136
internal_weight=0 34.9643 33.5682 7.58928 30.7123 28.6259 4.46852 25.9789 24.1574 22.9798 21.8743 20.864 19.8475 17.8633 15.3085 18.8499 13.35 16.8905 14.747 11.4066 12.6223 10.6772 9.47947 8.73817 6.57918 6.79712 4.85526 4.06409
internal_count=339 172 167 36 153 143 21 131 122 117 112 107 102 92 79 97 69 87 76 59 65 55 49 45 34 35 25 21
shrinkage=0.2


Tree=4
num_leaves=29
num_cat=0
split_feature=23 27 23 21 25 10 20 21 7 25 21 17 10 4 9 11 20 10 25 11 12 17 27 10 21 17 4 12
split_gain=64.4382 12.9513 4.74169 7.37864 2.47864 0.316951 0.310097 0.278715 0.107744 0.0815318 0.0132999 0.00496003 0.00135018 0.000768681 0.000525107 0.000247641 2.08937e-05 1.21226e-05 4.71279e-06 3.42061e-06 2.60753e-06 7.01938e-07 1.08517e-07 1.27635e-07 6.57093e-08 5.89496e-08 9.13593e-09 2.39164e-09
threshold=0.16724832874557607 0.60395189003436434 0.13648987416437278 0.30890191897654595 0.14723831145521046 0.12583740720622846 0.3422269654927072 0.53424840085287861 0.28238071570576545 0.30800128067060578 0.28744669509594895 0.24370145860958511 0.10336773492667022 0.36038638620565139 0.13258213984835696 0.29212340876944837 0.23319103521878337 0.12333876516386016 0.24527752714148499 0.14957567185289952 0.039697497997455554 0.39117257056260651 0.29022336769759455 0.044341843201158755 0.36633795309168454 0.130952831975753 0.44479552225331775 0.18006408142109973
decision_type=2 2 2 2 2 2 2 2 2 2 2 2 2 2 2 2 2 2 2 2 2 2 2 2 2 2 2 2
left_child=1 2 5 -4 -2 7 -6 9 -8 11 -10 14 -12 -14 -1 16 19 -15 -19 22 -21 24 23 25 -20 -16 -26 -28
right_child=4 -3 3 -5 6 -7 8 -9 10 -11 12 -13 13 17 15 -17 -18 18 21 20 -22 -23 -24 -25 26 -27 27 -29
leaf_value=-0.25820933911881644 0.031976715833391692 0.27701719722371781 -0.25942921304525374 0.16939804098766453 0.17977690827759929 -0.16945123201580164 0.30347881948307304 -0.18173458628654252 0.27312192436192112 -0.29856131423211812 0.26101886659299167 -0.26365344614478142 0.25832802383393966 0.25507992407133762 -0.25418995006474054 -0.25668282218648381 -0.25478335201169744 0.25427472391790146 0.2545679778193583 -0.25417150676848033 -0.2538447427284401 0.25445960182061417 -0.25424600773834022 -0.25414889035909333 0.25460276497766077 -0.25424296625680548 0.25461424287134021 0.25462465390496003
leaf_weight=1.7293854802847075 2.1648997515440014 2.3418165147304526 3.3825871199369422 3.0541224628686905 1.9898296892642999 1.9311421364545811 2.2704358547925976 1.982135385274886 1.9595473557710672 1.9955811351537693 1.7626810371875787 3.0444245040416709 2.6123225539922741 1.6924233585596073 1.6773812919855102 1.8909922838211048 2.3613122701644889 2.6859775781631461 1.6840700209140758 1.6770509034395216 2.3395706415176392 1.6821565032005308 2.3497277498245239 1.6766485124826429 2.1900885105133057 1.6783230900764463 1.8533746898174288 1.6850695013999937
leaf_count=10 10 12 16 14 11 10 11 10 10 10 10 17 15 10 10 11 14 16 10 10 14 10 14 10 13 10 11 10
internal_value=0 -0.177365 -0.209836 -0.0559571 0.236958 -0.247449 0.255396 -0.253621 0.262211 -0.259977 0.257481 -0.256207 0.255764 0.255188 -0.254902 -0.254537 -0.254242 0.254579 0.254507 -0.25413 -0.253981 0.254576 -0.254211 -0.254194 0.254603 -0.254216 0.254613 0.254619
internal_weight=0 35.1122 32.7704 6.43671 26.2329 26.3337 24.068 24.4025 22.0781 22.4204 19.8077 20.4248 17.8482 16.0855 17.3804 15.651 13.76 13.4732 11.7807 11.3987 4.01662 9.09476 7.38208 5.03235 7.4126 3.3557 5.72853 3.53844
internal_count=339 192 180 30 147 150 137 140 126 130 115 120 105 95 103 93 82 80 70 68 24 54 44 30 44 20 34 21
shrinkage=0.2


Tree=5
num_leaves=29
num_cat=0
split_feature=7 21 13 3 3 19 21 7 3 19 13 21 17 21 3 29 3 13 29 13 25 6 6 17 5 4 6 4
split_gain=45.9795 7.37811 5.45229 3.36455 0.901976 0.495698 0.36621 0.0691728 0.0319212 0.0136565 0.00175782 0.000923118 0.000845736 0.000754631 0.000181974 0.000140759 6.2555e-05 3.8201e-05 1.57096e-05 9.15474e-06 5.44675e-06 3.73879e-06 3.06859e-07 1.84978e-07 1.64859e-07 1.4774e-07 1.14806e-08 5.89417e-09
threshold=0.25574055666003975 0.24173773987206823 0.050986369018935405 0.2373913043478261 0.17329798515376457 0.2386993352956622 0.48454157782515994 0.28238071570576545 0.19766702014846235 0.2386993352956622 0.060978935296732463 0.43536780383795326 0.2581928395529457 0.34208422174840097 0.075461293743372224 0.12606585333858064 0.18320254506892894 0.084008531970608716 0.08205430932703657 0.029749830966869454 0.1889571266408592 0.28467666354264293 0.11134020618556696 0.34987687061943556 0.095009508619103067 0.43983027895639626 0.072774133083411421 0.47910083957750299
decision_type=2 2 2 2 2 2 2 2 2 2 2 2 2 2 2 2 2 2 2 2 2 2 2 2 2 2 2 2
left_child=2 -2 3 6 -3 7 8 -6 9 12 11 -9 14 -12 -1 -15 18 -17 -16 20 22 -19 24 25 -20 -23 -26 -27
right_child=1 4 -4 -5 5 -7 -8 10 -10 -11 13 -13 -14 15 16 17 -18 21 19 -21 -22 23 -24 -25 26 27 -28 -29
leaf_value=-0.24444567664584504 -0.1074255706004672 0.10936029004048582 0.042827696169500308 0.069017017829287625 0.2831914032881423 0.13129680000421459 -0.175910514555633 0.25176461024513913 -0.27521348651233718 -0.2630837145744655 0.24719651078140692 0.24528678079231733 -0.24750443539489533 0.24450306929991228 -0.24270214091678005 0.24323864914308488 -0.24351237214810442 0.24195368559118191 -0.24198159946295281 -0.24248689503467841 -0.2415853381552171 0.2422702283539418 -0.24193463676976024 0.2422425328656623 -0.24204842866622706 0.24233191133266849 -0.24207087977153063 0.24234723179152554
leaf_weight=1.7784950584173369 2.9862198978662517 2.3661261647939709 3.7587247490882865 1.5446585863828648 2.0378579944372239 1.5641541332006443 3.4070747643709174 1.6057516634464293 1.4947018325328816 1.4858415573835362 1.6835472136735905 1.94678758084774 1.5268550813198078 1.4851520210504521 1.593599498271941 1.8981038033962239 1.4639372527599324 1.4331042915582637 1.4339147061109523 1.4445693492889393 1.4247896820306776 1.5843670815229414 1.4328532069921491 1.4397217184305189 1.5789481252431872 1.5858761221170423 2.1538613140583038 2.7398859709501266
leaf_count=12 16 13 19 7 11 10 19 10 8 9 11 13 10 10 11 13 10 10 10 10 10 11 10 10 11 11 15 19
internal_value=0 0.1886 -0.181 -0.216402 0.226426 0.239613 -0.236244 0.248328 -0.247171 -0.244751 0.244246 0.248215 -0.24303 0.243228 -0.242553 0.242679 -0.242284 0.242425 -0.242121 -0.242023 -0.24194 0.242249 -0.242017 0.242307 -0.242039 0.242322 -0.242061 0.242342
internal_weight=0 26.3567 27.5228 23.7641 23.3704 21.0043 22.2194 19.4402 18.8124 17.3177 17.4023 3.55254 15.8318 13.8498 14.305 12.1662 12.5265 10.6811 11.0625 9.46894 8.02437 8.78296 6.59958 7.34985 5.16672 5.91013 3.73281 4.32576
internal_count=339 168 171 152 152 139 145 129 126 118 118 23 109 95 99 84 87 74 77 66 56 61 46 51 36 41 26 30
shrinkage=0.2


Tree=6
num_leaves=30
num_cat=0
split_feature=23 27 23 21 26 18 18 27 27 13 21 1 1 23 0 26 25 18 18 19 29 27 15 18 23 0 5 23 15
split_gain=38.4745 8.18009 3.41698 4.68427 3.36417 0.501353 1.69207 0.0578212 0.0399709 0.025964 0.018054 0.00510888 0.00217276 0.000783475 0.000780667 0.000179948 4.7852e-05 3.63797e-05 3.55342e-05 3.04847e-05 9.32511e-06 8.34953e-06 1.30312e-05 5.5638e-06 2.30766e-06 1.31773e-06 2.29444e-07 3.1287e-07 5.70804e-08
threshold=0.16724832874557607 0.60395189003436434 0.13648987416437278 0.30890191897654595 0.18793929712460064 0.12112343108009226 0.11064051331119491 0.45309278350515464 0.40618556701030933 0.048362153015140054 0.28744669509594895 0.29134257693608384 0.37182955698342907 0.20799744396382228 0.13005821382933405 0.25623003194888178 0.11294156455258991 0.27337198176394434 0.19569989306016772 0.049686994734878261 0.37393414666141944 0.32379725085910654 0.15672785171388234 0.077221815725783766 0.27361875737318131 0.25954848786028695 0.38378013618796397 0.36848702320094379 0.23626340613452704
decision_type=2 2 2 2 2 2 2 2 2 2 2 2 2 2 2 2 2 2 2 2 2 2 2 2 2 2 2 2 2
left_child=1 2 5 -4 -2 6 11 -6 9 12 -9 23 14 -12 -7 -15 18 19 -16 -17 24 22 25 -1 -21 -18 27 -26 -28
right_child=4 -3 3 -5 7 8 -8 10 -10 -11 13 -13 -14 15 16 17 21 -19 -20 20 -22 -23 -24 -25 26 -27 28 -29 -30
leaf_value=-0.23256855622795497 -0.0025001596048366617 0.25116984025443023 -0.22446896794143056 0.14093501174038214 0.27394164772090912 -0.2385780815269572 0.0059682896599462208 0.25637454412662014 -0.27285048628238479 -0.26401429521340952 0.23804636431276985 -0.24721695291910084 -0.24147468064583097 0.23588281485545487 -0.23336114324785032 0.23426761336116031 -0.23299999636528851 0.23449365918761111 -0.23483838317077443 0.23286500273213806 0.23371253512490134 -0.23344193291074961 -0.2323324531822907 -0.23316076585422185 0.23318833374671155 -0.23327652005869404 0.23322856007298454 0.23305112411684653 0.23317273027456956
leaf_weight=1.2041150107979874 2.6141595840454128 1.8569936305284489 2.86757569015026 2.748222827911377 1.8647991865873361 1.3428573012351979 1.5540682449936865 1.6675386130809773 1.5214696452021588 1.424077346920966 1.9872571825981129 1.6315127462148664 1.9323960617184628 1.4123813956975926 1.3469580188393577 1.2461579740047444 1.5804274901747706 1.2518021389842022 1.2612030804157255 1.211912676692007 1.2332840114831922 1.4708139076828954 1.1976558864116666 1.341593265533447 1.4648105874657633 1.2225495651364324 1.8326065912842753 1.2170547470450399 1.2202652618288992
leaf_count=10 13 12 16 14 11 10 11 10 9 8 15 11 14 11 11 10 13 10 10 10 10 12 10 11 12 10 15 10 10
internal_value=0 -0.154175 -0.183524 -0.04565 0.209213 -0.222176 -0.172197 0.240641 -0.242207 -0.238558 0.236697 -0.23848 -0.235366 0.234366 -0.234113 0.233761 -0.233371 0.233481 -0.234075 0.233346 0.233206 -0.233034 -0.232885 -0.232881 0.233116 -0.233121 0.233169 0.233126 0.233206
internal_weight=0 27.5045 25.6475 5.6158 20.224 20.0317 5.73129 17.6099 14.3004 12.7789 15.7451 4.17722 11.3549 14.0775 9.42247 12.0903 8.07961 10.6779 2.60816 9.42609 8.17993 5.47145 4.00063 2.54571 6.94665 2.80298 5.73474 2.68187 3.05287
internal_count=339 192 180 30 147 150 43 134 107 98 123 32 90 113 76 98 66 87 21 77 67 45 33 21 57 23 47 22 25
shrinkage=0.2


Tree=7
num_leaves=27
num_cat=0
split_feature=22 22 21 25 6 21 12 15 8 25 25 23 1 1 25 7 29 25 15 9 0 12 23 9 15 8
split_gain=30.6533 6.07918 6.32864 6.27867 1.19202 0.780499 0.588652 0.497621 0.151859 0.0327312 0.0252785 0.00365967 0.00258469 0.000502762 0.00036757 6.67518e-05 8.75642e-05 3.79076e-05 2.47677e-05 3.21064e-05 1.65449e-05 1.48909e-05 6.19637e-06 1.45935e-07 1.80999e-08 2.33091e-09
threshold=0.25519199163304945 0.35305543104736298 0.45802238805970158 0.28825760883274637 0.16902530459231488 0.56849680170575712 0.12510012722046837 0.24448733739898462 0.56515151515151529 0.17256066206789492 0.3027621736472918 0.22765926071569012 0.37182955698342907 0.30926614812309772 0.22461216054952413 0.11341948310139162 0.14298832480650656 0.069893568511026363 0.36529275693213575 0.12826453243470923 0.28510577878744853 0.037341563398200002 0.27607648446716482 0.16270008424599811 0.26262504881785692 0.46237373737373744
decision_type=2 2 2 2 2 2 2 2 2 2 2 2 2 2 2 2 2 2 2 2 2 2 2 2 2 2
left_child=5 2 3 4 -2 6 8 -4 10 -3 12 -11 14 -13 15 16 17 -1 19 -15 21 -17 -21 -24 25 -25
right_child=1 9 7 -5 -6 -7 -8 -9 -10 11 -12 13 -14 18 -16 20 -18 -19 -20 22 -22 -23 23 24 -26 -27
leaf_value=-0.22611710747134439 -0.36091007117412799 0.25778043258981137 0.26688467240492347 0.16938119658765394 -0.13673856549129626 -0.065406195088000135 -0.076793151136991367 0.11876002346815542 -0.15480084357212209 0.23663936948416531 -0.26116244879907691 0.23026786846662295 -0.23555921429460369 0.22715783465600717 -0.23083463487165626 -0.22666749191223801 -0.22861201670128267 -0.22746473791275956 0.22741671502345212 0.22573268052043285 -0.22709910193382116 -0.22581314560724969 0.22621611025611574 0.22631738673152127 0.22628007208062584 0.22630471568876792
leaf_weight=1.429727241396906 2.0512162744998954 1.7805326357483853 2.7940832898020744 2.16164930164814 1.7654596492648122 1.539450168609618 1.1518242731690396 1.3433814495801923 1.1313845589756955 1.9646142870187748 1.0306044444441784 1.773083671927451 1.8220617249608029 1.7858118340373019 1.128263659775256 1.5521486699581148 1.8455571085214613 2.0068818777799606 1.1636656597256658 1.0080241560935972 1.1538124382495878 1.7207145392894743 1.024584040045738 1.3359189853072173 1.0265090912580488 1.0272500813007353
leaf_count=14 11 11 18 14 11 10 8 9 9 16 7 16 15 17 10 15 17 19 11 10 11 17 10 13 10 10
internal_value=0 0.146571 0.0286354 -0.102967 -0.257216 -0.201411 -0.214519 0.218791 -0.225222 0.232461 -0.231042 0.228739 -0.22859 0.227208 -0.227418 -0.227021 -0.227501 -0.226904 0.226561 0.226422 -0.226448 -0.226218 0.22618 0.226282 0.226302 0.226312
internal_weight=0 24.0058 10.1158 5.97833 3.81668 17.5124 15.973 4.13746 14.8212 13.89 13.6898 12.1095 12.6592 10.1448 10.8371 9.70884 5.28217 3.43661 8.37176 7.2081 4.42668 3.27286 5.42229 4.41426 3.38968 2.36317
internal_count=339 187 63 36 22 152 142 27 134 124 125 113 118 97 103 93 50 33 81 70 43 32 53 43 33 23
shrinkage=0.2


Tree=8
num_leaves=29
num_cat=0
split_feature=22 22 24 17 17 17 22 23 14 0 8 4 17 5 18 20 22 22 20 0 14 4 15 14 4 14 9 23
split_gain=23.5064 5.18957 6.48114 2.4119 1.84465 0.904693 1.57192 0.317801 0.565644 0.154612 0.0147993 0.0106314 0.00792464 0.00165392 0.000985512 0.000633796 0.000367969 0.000450004 0.000379836 0.000288942 0.000185244 6.85106e-05 3.13976e-05 5.17217e-06 1.03378e-06 4.58211e-07 6.03641e-07 5.01346e-07
threshold=0.25519199163304945 0.35305543104736298 0.45156177771907824 0.18865315400644059 0.24029172191702972 0.26567531729494226 0.17129837143284024 0.11351012583562717 0.14427031988306083 0.35183870509725973 0.49873737373737387 0.32472691161866946 0.21594999052850919 0.057833875222378955 0.33282208588957057 0.22269654927072211 0.50744558991981681 0.47706559091588235 0.4018143009605124 0.18003691608689479 0.19830370194105448 0.40353886431344227 0.10982515696818577 0.16080837610905258 0.31624085943847619 0.14658190842030114 0.16270008424599811 0.43300235941801024
decision_type=2 2 2 2 2 2 2 2 2 2 2 2 2 2 2 2 2 2 2 2 2 2 2 2 2 2 2 2
left_child=5 2 3 -2 -5 7 -7 12 -9 10 -4 -3 13 -1 16 19 17 18 -13 20 -15 -20 24 -23 -21 26 -18 -27
right_child=1 11 9 4 -6 6 -8 8 -10 -11 -12 14 -14 15 -16 -17 25 -19 21 22 -22 23 -24 -25 -26 27 -28 -29
leaf_value=-0.23101221169463027 0.066597647138931418 0.23940809583124134 0.26468277333327811 -0.35180181713636621 -0.063782463419448626 -0.23159615923173599 0.088815722093760457 -0.22636668228284221 -0.023132516430240599 0.16107675727139564 0.23529551545867444 0.2257455317399597 -0.23924296460037581 -0.22611540348940742 0.22929114286202767 -0.22724755681905379 0.22074085345369424 0.22757367371542292 0.22295717812971727 -0.22070159361849112 -0.22239054680986028 0.22050099470025725 -0.22194718153550361 0.22113772954247707 -0.22095165804281344 0.22111661333242449 0.22096843618134507 0.22090565779572902
leaf_weight=1.1894253715872745 1.925786398351194 1.9159420132637013 1.4462329447269446 1.8226631283760073 1.7372692599892614 1.2861118167638772 1.1692650243639944 1.3498459234833711 0.92190515249967564 1.0676574259996412 1.3030710294842718 1.1696313917636834 1.6359068304300297 0.9824495613574985 0.93380885571241456 1.1804895401000974 0.8512012064456943 0.91514521092176426 0.91236621886491809 1.3599068671464922 1.1701304614543913 0.84173861891031299 1.5919532403349874 1.2959067299962042 1.2871981337666509 0.86348662525415398 1.03066099435091 0.94246939569711685
leaf_count=11 12 16 10 10 11 12 8 14 9 9 11 12 14 10 9 12 10 9 10 16 13 10 18 15 15 10 12 11
internal_value=0 0.136976 0.0255414 -0.113708 -0.211247 -0.190124 -0.0790141 -0.211658 -0.143892 0.22567 0.250754 0.225787 -0.226465 -0.224079 0.223113 -0.22299 0.222459 0.223553 0.222681 -0.222204 -0.224091 0.221506 -0.221245 0.220887 -0.220823 0.220935 0.220865 0.221007
internal_weight=0 20.975 9.30268 5.48572 3.55993 15.1246 2.45538 12.6692 2.27175 3.81696 2.7493 11.6724 10.3975 8.76155 9.75642 7.57213 8.82261 5.13479 4.21964 6.39164 2.15258 3.05001 4.23906 2.13765 2.64711 3.68782 1.88186 1.80596
internal_count=339 187 63 33 21 152 20 132 23 30 21 124 109 95 108 84 99 56 47 72 23 35 49 25 31 43 22 21
shrinkage=0.2


Tree=9
num_leaves=29
num_cat=0
split_feature=23 27 26 21 20 13 7 27 27 23 21 12 23 3 12 27 6 18 6 19 19 9 3 9 20 12 18 9
split_gain=18.1902 4.45592 2.46939 2.0047 3.84043 0.953381 0.393371 0.042708 0.0195281 0.00687544 0.00245189 0.000438339 0.000215498 6.26767e-05 3.19335e-05 2.57205e-05 1.87867e-05 1.65702e-05 1.60745e-05 2.03204e-05 1.75289e-06 1.65447e-06 9.65277e-07 6.74731e-07 1.1147e-06 6.07695e-08 4.61502e-08 6.47663e-09
threshold=0.16724832874557607 0.60395189003436434 0.18793929712460064 0.45802238805970158 0.23319103521878337 0.053012898815460605 0.27833001988071576 0.48470790378006873 0.45309278350515464 0.13382324026740069 0.28744669509594895 0.10620553173443902 0.20799744396382228 0.15709437963944858 0.048720727512604207 0.334553264604811 0.25128865979381448 0.2823774413238026 0.078233364573570705 0.060016859444743859 0.10774498016942356 0.13258213984835696 0.12814422057264055 0.30802443133951124 0.52347918890074718 0.10877350044762756 0.17670400180109189 0.23904802021903956
decision_type=2 2 2 2 2 2 2 2 2 2 2 2 2 2 2 2 2 2 2 2 2 2 2 2 2 2 2 2
left_child=1 3 -2 5 -5 6 7 9 -4 11 -10 13 -12 15 -15 18 -14 21 19 22 -20 -18 -1 25 -25 -23 27 -27
right_child=2 -3 8 4 -6 -7 -8 -9 10 -11 12 -13 16 14 -16 -17 17 -19 20 -21 -22 23 -24 24 -26 26 -28 -29
leaf_value=-0.21695118786474887 -0.0091047982283702766 0.23404496076743209 0.24416234182177249 -0.22724406305751563 0.17813181133373851 -0.043782659566297288 -0.11341730541528222 -0.26733538546635666 0.22774898724190767 -0.23660669463624262 0.21990116958487477 -0.2218714426959586 0.21795807833289188 -0.21778844478889015 -0.21934196804134959 -0.21811476587873946 0.21654751865802277 0.21778499379296892 -0.21664789941143306 -0.21790920970978211 -0.21624898236300463 0.21672784243186266 -0.21662996452116354 0.21712103542189537 0.21677719354749084 0.21679860549668045 0.2167520069742877 0.2168239207474088
leaf_weight=0.71959477663040716 2.2396483346819869 1.2692105919122685 1.3693918921053398 1.871671870350837 1.8675787597894666 1.5680018961429585 1.484404794871806 0.81853288412094194 1.0376216173171986 0.87758975103497583 1.210743285715578 1.0458287969231603 0.7525402083992957 1.3395990729331972 0.87494259327650059 0.90197668224573124 0.98794744908809651 0.74769511818885792 1.2058975398540495 1.1233161538839338 0.69427500665187825 0.71224061399698291 0.77958561480045319 0.72549879550933816 0.78542602062225342 0.71480523794889472 0.71312380582094181 0.93043531477451324
leaf_count=10 13 12 11 19 11 10 11 5 10 8 15 12 10 18 11 12 14 10 17 15 10 10 11 10 11 10 10 13
internal_value=0 -0.127572 0.181846 -0.154298 -0.024778 -0.19035 -0.209719 -0.223489 0.221861 -0.219736 0.218584 -0.218031 0.217436 -0.217506 -0.218402 -0.21714 0.217013 0.216901 -0.216945 -0.217266 -0.216502 0.216782 -0.216784 0.216833 0.216942 0.216779 0.216795 0.216813
internal_weight=0 18.442 12.9271 17.1728 3.73925 13.4335 11.8655 10.3811 10.6875 9.56261 9.31808 8.68502 8.28046 7.63919 2.21454 5.42465 7.06971 6.31717 4.52267 2.6225 1.90017 5.56948 1.49918 4.58153 1.51092 3.0706 2.35836 1.64524
internal_count=339 192 147 180 30 150 140 129 134 124 123 116 113 104 29 75 98 88 63 36 27 78 21 64 21 43 33 23
shrinkage=0.2


Tree=10
num_leaves=29
num_cat=0
split_feature=23 26 1 26 4 10 9 8 2 13 17 1 3 1 23 18 3 15 26 2 18 24 10 3 4 17 4 10
split_gain=14.0358 2.97859 3.59597 2.26627 1.85407 0.992079 0.849762 0.0881305 0.0213506 0.00987308 0.00662455 0.00216153 0.000864648 0.000580831 0.000454948 9.49097e-05 5.5042e-05 1.45519e-05 7.58366e-06 6.5143e-06 3.54663e-06 2.92847e-06 2.66574e-06 1.24444e-06 6.64048e-07 3.10847e-07 6.2263e-08 6.38264e-08
threshold=0.16724832874557607 0.16633386581469653 0.37470409198512006 0.18793929712460064 0.5075381420962356 0.14392540286076402 0.28317186183656279 0.44646464646464656 0.29400179669684201 0.050061823167064458 0.17975942413335852 0.52130537707135616 0.18916224814422058 0.30689888400405813 0.20590837593393632 0.15341644622052122 0.15709437963944858 0.083012887914200709 0.25623003194888178 0.18326307787989779 0.12112343108009226 0.37627946906161264 0.26661234836139774 0.12254506892895012 0.378261262074569 0.21594999052850919 0.44479552225331775 0.18537026978091611
decision_type=2 2 2 2 2 2 2 2 2 2 2 2 2 2 2 2 2 2 2 2 2 2 2 2 2 2 2 2
left_child=1 5 4 -2 7 9 -4 8 -3 11 -5 12 16 15 -15 -12 19 -18 -16 21 -21 -1 24 -22 -20 -26 -27 -28
right_child=3 2 6 10 -6 -7 -8 -9 -10 -11 13 -13 -14 14 18 -17 17 -19 22 20 23 -23 -24 -25 25 26 27 -29
leaf_value=-0.21450248495115859 -0.0072617497858477658 -0.21606626310224999 0.27273135919053804 0.23103709305866343 0.068457404709606387 0.02352633205257124 0.050970200144906525 -0.16018010098208157 -0.25381165370543551 -0.23734413703128265 0.21737329765564098 -0.22584434942606882 -0.22196819292801762 0.218207631792386 0.21433236978324907 0.22051635062770894 -0.21457366005395043 -0.21588232406569674 0.21330050584877439 -0.21401246902501112 -0.21367230267266302 -0.21390034085415677 0.2138479933202791 -0.21336232210333159 0.21366285915171931 0.21344426456537349 0.21348110077384208 0.21356414761119843
leaf_weight=0.62759332731366491 2.2457012459635726 1.1502186395227907 1.2847172915935519 1.2541648559272269 1.2752207517623899 0.73695918917656023 1.4960284791886804 0.83116751164197911 1.2518220096826551 1.0197548940777776 0.8372797407209871 0.83246793970465649 0.63624726980924595 1.0772036314010618 0.62142679840326298 0.71032293140888214 0.62770673260092713 0.74121326580643654 0.58444596081972155 0.78932436183095012 1.0163684077560904 0.66582699865102768 1.1485929377377031 1.0565777644515035 0.59825954213738475 0.59013522043824229 0.76905085146427132 0.71373610198497772
leaf_count=10 13 18 8 14 11 6 15 10 9 8 12 9 8 15 10 9 10 11 10 13 17 11 19 18 10 10 13 12
internal_value=0 -0.119872 -0.0254423 0.172284 -0.135765 -0.198537 0.153425 -0.216314 -0.235737 -0.21896 0.217564 -0.216279 -0.214986 0.215355 0.214478 0.218816 -0.214182 -0.215282 0.213678 -0.21382 -0.213652 -0.214193 0.213586 -0.213514 0.213494 0.213536 0.213499 0.213521
internal_weight=0 16.0392 7.28917 11.1503 4.50843 8.75004 2.78075 3.23321 2.40204 8.01308 8.90462 6.99333 6.16086 7.65045 6.10285 1.5476 5.52461 1.36892 5.02565 4.15569 2.86227 1.29342 4.40422 2.07295 3.25563 2.67118 2.07292 1.48279
internal_count=339 192 71 147 48 121 23 37 27 115 134 107 98 120 99 21 90 21 84 69 48 21 74 35 55 45 35 25
shrinkage=0.2


Tree=11
num_leaves=29
num_cat=0
split_feature=27 13 24 14 19 13 24 9 20 27 10 20 6 27 3 18 20 9 26 17 17 24 26 14 27 17 26 19
split_gain=11.4037 3.96293 3.83689 2.04867 1.48504 1.14476 0.731251 2.0798 0.452495 0.313354 0.182958 0.00862212 0.00229427 0.00135274 0.00120039 0.000851552 8.94389e-05 8.05202e-05 9.39195e-05 4.19668e-05 2.53433e-05 1.71374e-05 4.44647e-06 2.40869e-06 2.13304e-06 1.37964e-06 1.13892e-07 1.7508e-08
threshold=0.5049828178694159 0.050986369018935405 0.23661097536815692 0.059047489546860607 0.08069386288572887 0.028759913186078356 0.46608994254771186 0.26232097725358033 0.29277837068658846 0.52044673539518904 0.10573963425674447 0.31252223408039853 0.14386129334582939 0.3771477663230241 0.17739130434782607 0.33282208588957057 0.4018143009605124 0.18112889637742188 0.10874600638977631 0.34987687061943556 0.17582875544610724 0.28514825331836491 0.26010383386581476 0.10346058401604512 0.2518041237113402 0.31132790301193408 0.32615814696485629 0.086135179580724919
decision_type=2 2 2 2 2 2 2 2 2 2 2 2 2 2 2 2 2 2 2 2 2 2 2 2 2 2 2 2
left_child=1 3 -3 -1 -4 -2 8 -8 10 -7 13 -11 20 14 17 16 -13 18 -5 22 -9 -19 -18 -24 -23 26 -25 -28
right_child=5 2 4 6 -6 9 7 12 -10 11 -12 15 -14 -15 -16 -17 19 21 -20 -21 -22 24 23 25 -26 -27 27 -29
leaf_value=0.13617590878453578 -0.037974795982183902 -0.25603225513583866 0.3006092937242435 -0.21472310451941456 0.014209874590786306 0.074606763150756691 0.18743705230929583 -0.21295739148806594 -0.33841578788567661 0.23098324946561966 -0.095306191520231842 0.21350616633289121 -0.22713852899088605 -0.22186657745090158 -0.21996013513633847 0.21886913428150959 0.2116718908108898 -0.21210992677151377 -0.21132684134299071 0.21278043292162074 -0.21107508931960262 -0.21126767583870953 0.21140978430109697 0.2107994793833298 -0.21080878956759339 0.21124233122053424 0.21087467760411682 0.21092348997031746
leaf_weight=0.80831433460116642 0.86948397383093645 1.1102956049144257 1.7163383401930334 0.79033363983034932 1.2528009116649625 0.68701150268316258 0.71409762278199229 0.5528086721897123 1.1989101655781267 1.2564258277416227 0.56013231351971615 1.0333832986652849 0.61345000937581051 0.95960773527622212 0.9641568325459956 0.79415477067232121 0.51862277463078532 0.89645269513130221 0.55400022864341736 0.75348352268338192 0.59307744354009628 0.75439292192459084 0.5586178079247478 0.63183079287409816 0.87529827654361725 0.5013517104089259 0.48908636718988396 0.7365962378680706
leaf_count=8 9 9 13 13 13 9 7 10 7 13 8 18 7 12 15 12 10 17 11 14 12 15 11 13 18 10 10 15
internal_value=0 -0.10686 0.061155 -0.170119 0.179766 0.17992 -0.194811 -0.100427 -0.225719 0.203719 -0.204456 0.215914 -0.217268 -0.215007 -0.213646 0.212767 0.21184 -0.212073 -0.213324 0.211429 -0.211983 -0.211408 0.211132 0.211036 -0.211021 0.210948 0.210868 0.210904
internal_weight=0 14.9145 4.07943 10.835 2.96914 8.83005 10.0267 2.47343 7.55328 7.96056 6.35437 7.27355 1.75934 5.79424 4.83463 6.01713 5.22297 3.87048 1.34433 4.18959 1.14589 2.52614 3.43611 2.91748 1.62969 2.35887 1.85751 1.22568
internal_count=339 195 35 160 26 144 152 36 116 135 109 126 29 101 89 113 101 74 24 83 22 50 69 59 33 48 38 25
shrinkage=0.2


Tree=12
num_leaves=30
num_cat=0
split_feature=22 26 23 13 15 28 19 5 22 22 26 13 27 4 25 20 13 19 10 19 17 25 25 15 23 25 19 26 15
split_gain=9.34431 3.80492 2.9264 1.25244 1.2237 0.839685 0.140133 0.207515 0.106258 0.0390944 0.006309 0.00405654 0.00106194 0.000222511 0.00010065 7.99852e-05 5.86938e-05 4.93951e-05 6.94787e-05 1.40441e-05 9.73544e-06 8.51986e-06 8.05695e-06 7.00537e-07 1.01272e-06 6.1562e-07 4.35169e-07 3.26734e-08 1.60417e-08
threshold=0.35305543104736298 0.16633386581469653 0.11351012583562717 0.071877369732423313 0.30671132874695833 0.24472698600433668 0.069102994624324565 0.35479418440586474 0.20591164898650333 0.29030330195726878 0.20011980830670928 0.050061823167064458 0.3771477663230241 0.21296379886250788 0.19371113116201452 0.39007470651013876 0.040452149615799758 0.037456987687077607 0.038855694369002262 0.18166051711510023 0.11958704300056826 0.25789019219761145 0.15524250274082912 0.15060684351248232 0.34059182068423127 0.12817378312037334 0.10273551400577642 0.33530351437699679 0.2727641421575992
decision_type=2 2 2 2 2 2 2 2 2 2 2 2 2 2 2 2 2 2 2 2 2 2 2 2 2 2 2 2 2
left_child=1 3 8 9 5 -4 -7 -8 12 11 -2 13 -3 -1 -12 -16 17 18 -15 21 -19 -17 25 -23 26 -22 -25 -26 -29
right_child=10 2 4 -5 -6 6 7 -9 -10 -11 14 -13 -14 16 15 19 -18 20 -20 -21 22 23 -24 24 27 -27 -28 28 -30
leaf_value=-0.21388411992025769 0.22760638614185758 -0.2106336407674565 0.014032903561523419 0.049009005805792427 -0.083343392576337216 0.25466154843181393 0.085729234844010072 0.23026360399466717 -0.11600332280574793 -0.2656846813975583 0.21248330476827199 -0.22575417715485094 -0.22134095726694186 -0.20940618267930866 0.21159250478821506 0.20962352509656557 -0.21236485919380066 -0.21010777684336507 -0.21248960082508042 0.21029458195791426 -0.20909201603398631 0.20862513538959859 -0.20984986901150751 0.20923257720278726 0.20876144578018488 -0.20880828054746017 0.20894262685135367 0.20885089535623946 0.20879874986224697
leaf_weight=0.8031850233674066 0.95351569727063079 0.69121547788381599 1.3780017048120496 0.78789561986923207 1.246078699827194 1.2419781833887102 0.72273771092295624 0.88254746794700623 0.58860112726688374 0.6248040348291396 0.51484493166208256 0.85513290017843235 0.79854683950543404 0.54813726618886016 0.64210519939661015 0.78277514874935228 0.46488597244024266 0.70731121674180064 0.62631486728787422 0.40275624021887768 0.58104912191629388 0.39394566230475936 0.57511448487639416 0.41924746334552798 0.40203663334250428 0.64587980136275291 0.40906818956136703 0.56816033273935318 0.40362201631069183
leaf_count=15 10 15 12 4 12 10 11 11 9 4 10 9 10 13 13 18 9 16 12 9 14 10 13 10 10 16 10 14 10
internal_value=0 -0.0851864 0.0140831 -0.188993 0.0908273 0.142192 0.204218 0.165191 -0.187948 -0.218148 0.212712 -0.213034 -0.216373 -0.210837 0.209837 0.209529 -0.210247 -0.20998 -0.211051 0.209178 -0.209479 0.209045 -0.209232 0.208871 0.208915 -0.208943 0.209089 0.208809 0.208829
internal_weight=0 14.7694 7.54971 7.21971 5.47134 4.22527 2.84726 1.60529 2.07836 6.43181 5.89208 5.80701 1.48976 4.95188 4.93856 4.42372 4.14869 3.68381 1.17445 3.78161 2.50935 3.37886 1.80204 2.59608 2.20213 1.22693 0.828316 1.37382 0.971782
internal_count=339 215 90 125 56 44 32 22 34 121 124 117 25 108 114 104 93 84 25 91 59 82 43 64 54 30 20 34 24
shrinkage=0.2


Tree=13
num_leaves=30
num_cat=0
split_feature=22 21 20 25 28 23 1 22 23 25 22 1 25 6 6 20 21 22 6 9 3 7 25 19 28 6 28 9 9
split_gain=7.40998 2.89931 2.63003 1.5931 1.45841 1.27773 0.913897 0.238363 0.431345 0.0456962 0.0149926 0.0033871 0.00265623 0.000450769 0.000115812 9.12176e-05 6.31731e-05 1.35551e-05 8.57126e-06 8.73584e-06 6.24084e-06 1.77009e-06 1.45566e-06 5.74179e-07 5.41067e-07 4.4725e-08 8.40739e-09 8.81642e-09 8.23621e-10
threshold=0.35305543104736298 0.45802238805970158 0.23319103521878337 0.28825760883274637 0.11748472304356396 0.13648987416437278 0.49205275617179561 0.32566362866676629 0.15865857255210378 0.17256066206789492 0.27536231884057977 0.33648968549205277 0.17794529984185659 0.16596766635426427 0.24636832239925019 0.11437210956954821 0.31383262260127937 0.38517854474824448 0.096825210871602563 0.2595829823083402 0.15412513255567337 0.080839960238568556 0.25789019219761145 0.17528640327239059 0.27833629016361139 0.31759606373008431 0.30337078651685401 0.25758213984835704 0.24336562763268729
decision_type=2 2 2 2 2 2 2 2 2 2 2 2 2 2 2 2 2 2 2 2 2 2 2 2 2 2 2 2 2
left_child=1 3 -3 4 -1 -5 9 8 10 -4 11 13 -2 15 -14 -6 -16 -18 20 -20 21 -17 -19 25 -23 -24 28 -28 -27
right_child=12 2 6 5 7 -7 -8 -9 -10 -11 -12 -13 14 -15 16 18 17 22 19 -21 -22 24 23 -25 -26 26 27 -29 -30
leaf_value=0.091393180694770357 0.22051969108518393 -0.21299207373180173 0.27861831058638042 -0.12987132217380937 -0.21080754036687221 0.19086038555797752 -0.0042346679663105898 -0.32204923671057228 -0.043611483453968723 0.21684492551601919 -0.24499679780548209 -0.22224117359571027 0.21095251048754793 -0.21531879222286365 0.2100089556023689 -0.20767562162793829 0.20854475444854198 0.20755899858810581 -0.20903015089377514 -0.20775851079459751 -0.20810482936911062 -0.2070720394051814 0.20708211728707551 0.20741990289150847 -0.20739128916520269 0.20717310411122983 0.20712491738787189 0.20716820577509629 0.20718713795791724
leaf_weight=0.71334318816662001 0.83997999131679435 0.96592249348759596 0.92273254692554496 1.0565420798957346 0.47844964638352472 0.93787177652120579 0.83380698040127743 0.67592236399650563 0.65526080131530751 0.99608028680086136 0.61139561608433712 0.97314435616135586 0.51690718159079541 0.40410967171192158 0.43286583945155177 0.45823445916175909 0.38154172524809871 0.55813113972544703 0.40500217303633679 0.46327133849263191 0.66033564880490292 0.56066981703042984 0.33025208860635791 0.37859757244586933 0.34180466830730438 0.33424701541662194 0.3321436233818531 0.43423965573310852 0.33485772460699081
leaf_count=12 12 19 6 15 11 11 7 3 6 17 5 15 12 7 10 13 10 16 10 13 18 17 10 11 10 10 10 13 10
internal_value=0 -0.0785324 0.0709473 -0.137694 -0.180446 0.0209525 0.170584 -0.209443 -0.196782 0.246551 -0.215519 -0.211721 0.210288 -0.209007 0.208157 -0.20825 0.207746 0.207429 -0.207826 -0.208352 -0.2076 -0.207355 0.207271 0.207196 -0.207193 0.207148 0.207164 0.207149 0.20718
internal_weight=0 13.1139 3.71854 9.39536 7.40094 1.99441 2.75262 6.6876 6.01168 1.91881 5.35642 4.74502 4.87376 3.77188 4.03378 3.36777 3.51688 3.08401 2.88932 0.868274 2.02104 1.36071 2.70247 2.14434 0.902474 1.76574 1.43549 0.766383 0.669105
internal_count=339 215 49 166 140 26 30 128 125 23 119 114 124 99 112 92 100 90 81 23 58 40 80 64 27 53 43 23 20
shrinkage=0.2


Tree=14
num_leaves=31
num_cat=0
split_feature=27 23 21 26 17 19 7 23 9 1 21 23 23 23 23 21 18 23 18 26 12 19 18 25 19 1 6 1 9 25
split_gain=5.85571 1.80757 1.33079 1.00715 0.954548 3.35271 0.77945 0.399229 0.179043 0.133223 0.0608839 0.0211655 0.00247942 0.00174537 0.000301904 0.000275743 0.000184391 3.95875e-05 2.55876e-05 1.44322e-05 7.57016e-06 4.29731e-06 1.1662e-06 1.03892e-06 2.07642e-07 1.1959e-07 2.81828e-08 5.16657e-09 4.11095e-09 3.1223e-10
threshold=0.5049828178694159 0.18979797483287453 0.56849680170575712 0.16054313099041531 0.25393066868725139 0.083198595967552455 0.27833001988071576 0.12903067243413294 0.13258213984835696 0.50033818058843427 0.48454157782515994 0.16322994494691309 0.16724832874557607 0.096600963429020761 0.13648987416437278 0.28744669509594895 0.27864861822479875 0.26427939441604409 0.18296561040130579 0.20483226837060703 0.051005984073882057 0.037456987687077607 0.12112343108009226 0.25789019219761145 0.16554385528515955 0.25735542779844428 0.31759606373008431 0.3566114305038891 0.23904802021903956 0.37775902048102772
decision_type=2 2 2 2 2 2 2 2 2 2 2 2 2 2 2 2 2 2 2 2 2 2 2 2 2 2 2 2 2 2
left_child=1 2 4 -3 8 -6 -2 -8 -1 10 11 14 -9 -7 16 -14 19 18 -17 20 21 -10 -23 -19 26 -24 -25 -28 -29 -30
right_child=6 3 -4 -5 5 13 7 12 9 -11 -12 -13 15 -15 -16 17 -18 23 -20 -21 -22 22 25 24 -26 -27 27 28 29 -31
leaf_value=-0.098305108219564064 -0.060151457881735093 -0.094924738464118974 0.081615907059223447 0.21976995387175322 0.33961081375975971 -0.21042766312977854 0.023026502121807794 0.21931092394342722 -0.20665799765641465 -0.33258691503871796 -0.12307032904911337 -0.24705002006746113 0.21138712888858291 -0.22467001945777731 -0.21353523515203437 0.20668339932494548 -0.21103354468501814 0.20615603935210836 0.20888459806186088 -0.20763951316602836 -0.20701634722509341 -0.20628051303511619 -0.20575106033568585 0.20574956618937207 0.20599552401834487 -0.20591525401149124 0.20579743115893195 0.20581024359838149 0.20584403790364991 0.20583451834506017
leaf_weight=0.56405716203152945 0.55333263799548227 0.66984064877033134 1.0416033081710336 1.0358865037560461 0.62963613867759738 0.69028611853718735 0.513234183192253 0.80854415707290161 0.4867007881402986 0.37092547677457322 0.31527203693985928 0.66118808835744847 0.50956094637513194 0.68643537163734436 0.34187635034322728 0.58418470621109042 0.44289708696305741 0.54822107218205962 0.33088208734989166 0.45355091057717789 0.57454901002347458 0.29157630354166009 0.48890725523233414 0.27160011418163765 0.28200629726052273 0.2785165011882782 0.27375602349638917 0.30176259949803352 0.27584582194685936 0.27541987970471382
leaf_count=13 7 5 12 17 4 16 5 13 16 4 7 5 11 9 7 19 11 19 9 13 18 10 18 10 10 10 10 11 10 10
internal_value=0 -0.0913614 -0.129821 0.0961891 -0.160088 -0.0426871 0.165029 0.190074 -0.204785 -0.217547 -0.207704 -0.214342 0.209289 -0.217529 -0.207903 0.207071 -0.207264 0.206372 0.207479 -0.206616 -0.206396 -0.206166 -0.20594 0.205917 0.205839 -0.205811 0.205807 0.205821 0.205829 0.205839
internal_weight=0 10.0237 8.31798 1.70573 7.27637 2.00636 5.52835 4.97502 5.27002 4.70596 4.33503 4.01976 4.46178 1.37672 3.35857 3.65324 3.0167 3.14368 0.915067 2.5738 2.12025 1.5457 1.059 2.22861 1.68039 0.767424 1.39838 1.12678 0.853028 0.551266
internal_count=339 195 173 22 161 29 144 137 132 119 115 108 132 25 103 119 96 108 28 85 72 54 38 80 61 28 51 41 31 20
shrinkage=0.2


Tree=15
num_leaves=32
num_cat=0
split_feature=22 26 1 22 10 15 1 11 11 3 3 27 26 13 1 1 27 13 14 1 1 15 26 22 5 8 26 1 15 5 26
split_gain=4.86676 2.11294 1.89224 1.76024 1.43639 1.14333 0.252922 0.106795 0.0841935 0.0567354 0.0270654 0.0023447 0.00217688 0.000517246 9.18477e-05 2.47757e-05 1.89632e-05 1.39864e-05 1.16324e-05 1.25881e-05 9.17087e-06 2.66667e-06 1.41069e-06 7.87071e-07 7.51479e-07 6.55456e-07 5.0544e-07 2.19386e-07 2.01784e-07 5.02976e-08 1.88954e-08
threshold=0.35305543104736298 0.16633386581469653 0.23165370307744323 0.20591164898650333 0.18882853521636789 0.32188241655901711 0.62546499830909708 0.094832920792079153 0.125309405940594 0.29353128313891835 0.15766702014846232 0.45309278350515464 0.18793929712460064 0.050061823167064458 0.52130537707135616 0.3598241460940142 0.55893470790378019 0.040452149615799758 0.11461059931332222 0.26783902603990534 0.2717281028068988 0.10554420644696121 0.10874600638977631 0.40534887195577479 0.41813385681860016 0.26565656565656576 0.31150159744408951 0.4191748393642204 0.075164478625289161 0.36016195325440165 0.42260383386581479
decision_type=2 2 2 2 2 2 2 2 2 2 2 2 2 2 2 2 2 2 2 2 2 2 2 2 2 2 2 2 2 2 2
left_child=1 4 7 -4 6 8 9 -3 -5 11 -10 13 -2 14 17 16 -14 18 19 -1 -18 25 -23 -17 -22 -20 27 -25 -27 -28 -31
right_child=12 2 3 5 -6 -7 -8 -9 10 -11 -12 -13 15 -15 -16 23 20 -19 21 -21 24 22 -24 26 -26 28 29 -29 -30 30 -32
leaf_value=-0.20536382304990047 0.21947074204598183 -0.23416720346321485 -0.21071983719138332 0.16136069393265687 0.21212370050379345 -0.054820865159792523 -0.04931345339694336 -0.12040106546714065 0.2697322125979924 -0.28860381708553545 0.21634775241749302 -0.22535359721853465 0.20719130511722328 -0.21326854643304036 -0.20966690984952902 0.2052088159732835 0.20631768731378411 -0.20685355427288382 -0.2051360661853448 -0.20714284969263519 0.20473976746252454 -0.20508775970673848 -0.20564552185036195 0.20511856355872188 0.20523869709767159 -0.20463380803575434 0.20465818336069344 0.20484592855854525 -0.20487426911248985 0.20480753571341542 0.20473639718021244
leaf_weight=0.3741364963352688 0.51813212409615639 0.82366249337792374 0.68296791240572918 0.93631513975560743 0.36506804823875416 0.88564496487379063 0.39801468700170506 0.55074600130319595 0.61595064029097535 0.39451472461223591 0.99116076156497002 0.30451577343046654 0.40128211304545425 0.44990135729312886 0.24245199188590039 0.24095205031335343 0.33729414641857147 0.30693909525871266 0.24163012392818906 0.27679906599223614 0.27114220894873142 0.33663380332291126 0.39329338632524014 0.24226990155875661 0.21771004796028137 0.30926239117980003 0.26666870340704918 0.23027691803872585 0.25443482026457787 0.22900768183171749 0.42936631105840206
leaf_count=15 7 12 17 15 2 11 5 11 5 2 19 4 13 8 6 10 12 10 10 9 12 14 15 10 9 14 12 10 11 10 19
internal_value=0 -0.0694693 0.0145832 0.0824882 -0.168693 0.140886 -0.201156 -0.188579 0.209034 -0.216714 0.236808 -0.208587 0.207541 -0.206984 -0.205951 0.205384 0.206063 -0.205589 -0.205412 -0.20612 0.205515 -0.205111 -0.205388 0.204875 0.204962 -0.20486 0.204817 0.204986 -0.204742 0.204731 0.204761
internal_weight=0 10.134 5.48645 4.11204 4.6476 3.42907 4.28253 1.37441 2.54343 3.88451 1.60711 3.49 3.3841 3.18548 2.73558 2.86597 1.22743 2.49313 2.18619 0.650936 0.826146 1.53525 0.729927 1.63854 0.488852 0.805327 1.39759 0.472547 0.563697 0.925043 0.658374
internal_count=339 215 90 67 125 50 123 23 39 118 24 116 124 112 104 117 46 98 88 24 33 64 29 71 21 35 61 20 25 41 29
shrinkage=0.2


Tree=16
num_leaves=32
num_cat=0
split_feature=22 26 1 23 13 18 1 28 26 1 0 26 0 1 13 26 1 28 28 12 22 13 29 16 23 0 20 7 16 26 22
split_gain=3.89789 1.66343 1.41307 1.18934 1.09333 0.694709 0.371154 0.156278 0.120616 0.0583609 0.0277238 0.00118276 0.00111284 0.000508163 0.000229286 2.27084e-05 1.18164e-05 1.04524e-05 9.88765e-06 5.07056e-06 2.50453e-06 1.83949e-06 8.81906e-07 4.64156e-07 1.6339e-07 2.33914e-07 1.51071e-07 9.73413e-08 3.72e-08 2.66492e-08 6.52379e-10
threshold=0.35305543104736298 0.16633386581469653 0.23165370307744323 0.11351012583562717 0.078722744575063758 0.17965891821917032 0.66418667568481571 0.32534989158288991 0.26010383386581476 0.35508961785593507 0.44957167873538745 0.18374600638977637 0.375976146528468 0.5870815015218126 0.050061823167064458 0.25623003194888178 0.26344267839026042 0.17415730337078658 0.32801103883303773 0.062243792112330908 0.38517854474824448 0.028759913186078356 0.14685819231273772 0.043017676767676712 0.34059182068423127 0.52151071986369457 0.15154749199573106 0.094831013916500964 0.13691919191919191 0.32615814696485629 0.576921161412421
decision_type=2 2 2 2 2 2 2 2 2 2 2 2 2 2 2 2 2 2 2 2 2 2 2 2 2 2 2 2 2 2 2
left_child=1 4 8 7 6 9 10 -4 -3 -5 12 -2 13 14 17 -13 -17 19 21 -1 -18 23 -23 26 25 -22 -19 -28 29 -26 -31
right_child=11 2 3 5 -6 -7 -8 -9 -10 -11 -12 15 -14 -15 -16 16 20 18 -20 -21 24 22 -24 -25 28 -27 27 -29 -30 30 -32
leaf_value=-0.20487954648788401 0.21638096485620872 -0.22405859290333563 -0.20768258881001678 0.15787369332740245 0.16065839721228301 -0.0014507259914126672 0.020025339124706203 -0.028879915395159547 -0.094747459656263147 0.23221845688950574 -0.26737201801642119 0.20582263917425056 -0.21882751620753652 -0.21466126738992941 -0.21071806590003686 0.20549661661573776 0.20458911912316968 -0.20370325710704029 -0.2056323159638514 -0.20608128404179424 0.20390144175800803 -0.20470872649293109 -0.20413985624048925 -0.20417900431710678 0.20378149019372216 0.20417217353368136 -0.20402806103187207 -0.20383712462884165 0.20393587191317805 0.20385919871524083 0.20387386448687048
leaf_weight=0.40229201875627163 0.38780043646693352 0.74128192104399182 0.49629515968263183 0.63939607702195678 0.38313347101211537 0.96849598176777352 0.29579297453165043 0.32264099828898907 0.4724092110991478 1.2442749757319687 0.34584176540374745 0.41475997306406531 0.31282081082463253 0.25747504085302342 0.2776021435856818 0.24476688168942917 0.25682697445154179 0.1781993582844732 0.19995194114744652 0.21576736122369766 0.35610993579030015 0.24412440694868565 0.19695051945745945 0.25610020570456982 0.21832562983036041 0.19898544438183308 0.19241757690906525 0.24003371596336365 0.20782988145947456 0.29715136624872684 0.20504238083958626
leaf_count=18 6 16 16 11 2 15 4 6 7 19 2 17 5 5 6 10 12 10 8 8 19 11 10 13 12 10 10 13 11 16 11
internal_value=0 -0.0649453 0.0133563 0.075207 -0.160603 0.136206 -0.194648 -0.137239 -0.173726 0.206983 -0.213777 0.206133 -0.207544 -0.206217 -0.205312 0.204477 0.204195 -0.204606 -0.204322 -0.205299 0.204012 -0.204122 -0.204455 -0.203953 0.203913 0.203998 -0.203858 -0.203922 0.203861 0.20384 0.203865
internal_weight=0 8.8833 4.88479 3.6711 3.9985 2.85217 3.61537 0.818936 1.21369 1.88367 3.31958 2.7876 2.97374 2.66091 2.40344 2.3998 1.98504 2.12584 1.50778 0.618059 1.74027 1.30783 0.441075 0.866751 1.48344 0.555095 0.610651 0.432451 0.928349 0.720519 0.502194
internal_count=339 215 90 67 125 45 123 22 23 30 119 124 117 112 107 118 101 101 75 26 91 67 21 46 79 29 33 23 50 39 27
shrinkage=0.2


Tree=17
num_leaves=31
num_cat=0
split_feature=27 22 1 11 14 21 22 22 0 12 27 22 6 22 12 6 1 22 0 22 5 11 12 29 12 27 11 5 5 12
split_gain=3.16007 1.20471 0.829533 0.945756 0.797256 0.520514 0.350944 0.221085 0.00434197 0.00411094 0.00086599 0.000372101 8.16065e-05 3.4813e-05 3.38456e-05 6.30893e-06 7.28813e-06 1.57417e-06 1.54084e-06 1.51196e-06 4.36303e-07 1.36735e-07 8.04685e-08 3.85488e-08 2.16439e-08 3.8597e-08 9.20777e-09 5.38189e-09 7.18156e-10 1.62038e-10
threshold=0.52044673539518904 0.36127297176154194 0.39600946905647616 0.38107761669024048 0.19655301356358565 0.30197228144989346 0.25668608994471837 0.28582100702226204 0.26712101850537179 0.16684728831927628 0.48814432989690726 0.29453658050699749 0.20284676663542642 0.35305543104736298 0.089784667577628013 0.091248828491096459 0.26158268515387217 0.39389411823297976 0.2791897392209759 0.19567707555157124 0.12766087970063186 0.11740850424328146 0.041181736794986552 0.13078840351567628 0.23698346133911322 0.80790378006872865 0.091440505657708601 0.34175817434513228 0.38378013618796397 0.15977948452150972
decision_type=2 2 2 2 2 2 2 2 2 2 2 2 2 2 2 2 2 2 2 2 2 2 2 2 2 2 2 2 2 2
left_child=1 2 3 7 6 -2 -4 9 -7 10 12 -10 14 -13 15 18 19 -15 21 -17 -20 -1 -23 -19 26 -26 -25 -28 -29 -30
right_child=5 -3 4 -5 -6 8 -8 -9 11 -11 -12 13 -14 17 -16 16 -18 23 20 -21 -22 22 -24 24 25 -27 27 28 29 -31
leaf_value=-0.20338376953973519 0.0095410098673051891 0.20918090586276691 -0.20973523028075758 0.15399200600906088 0.16610384963078903 0.22980006571288505 0.0031064588456878079 -0.10668775209561637 0.2104582369615475 -0.23219858474462474 -0.21871340380090146 0.20560998590379564 -0.20749107027600605 0.20376920469572526 -0.20607721698823434 -0.20321984678689922 -0.20493738280666385 0.20327122948149801 -0.20355246244203179 -0.20404640225948475 -0.203996242069658 -0.2031216153818885 -0.20329783345703675 0.20319133597889719 0.20327917714942326 0.20313811323088529 0.20310588742730196 0.20313672744329275 0.20314893689633326 0.20315814702907514
leaf_weight=0.27482256013900197 0.67045222967863116 0.54840996582061041 0.5611897883936765 0.3783837193623184 0.77257708832621563 0.32234165817499194 0.691948052495718 1.245586175471544 0.39569362811744246 0.25637743994593609 0.18706004321575154 0.30631850846111763 0.32911902479827393 0.21129506547003973 0.29380564391612995 0.18575476296246041 0.31329522095620632 0.15773641411215056 0.16809211857616901 0.16911785677075386 0.18742384016513824 0.22687641251832247 0.19084649998694658 0.15440671518444993 0.15838609449565411 0.1520845340564847 0.16562190279364586 0.15202286560088396 0.15260190330445766 0.1530355978757143
leaf_count=17 17 19 16 8 12 3 7 15 9 3 3 13 10 12 12 12 14 10 10 9 10 15 12 10 10 10 11 10 10 10
internal_value=0 -0.0753644 -0.0996245 -0.148322 0.00630704 0.165903 -0.0922099 -0.176719 0.208148 -0.208068 -0.205619 0.204916 -0.204572 0.203672 -0.204094 -0.203754 -0.204234 0.203264 -0.203448 -0.203614 -0.203786 -0.203274 -0.203202 0.203179 0.203165 0.20321 0.203148 0.203137 0.203148 0.203154
internal_weight=0 6.98069 6.43228 4.40656 2.02571 3.152 1.25314 4.02818 2.48154 2.78259 2.52621 2.1592 2.33915 1.76351 2.01003 1.71623 0.668168 1.45719 1.04806 0.354873 0.355516 0.692545 0.417723 1.2459 1.08816 0.310471 0.777689 0.623282 0.45766 0.305638
internal_count=339 204 185 150 35 135 23 142 118 127 124 115 121 106 111 99 35 93 64 21 20 44 27 81 71 20 51 41 30 20
shrinkage=0.2


Tree=18
num_leaves=34
num_cat=0
split_feature=20 28 1 26 28 1 1 1 26 23 5 7 10 25 8 23 7 13 8 10 26 14 13 10 12 26 26 26 7 26 25 26 5
split_gain=2.57288 0.931906 0.719971 1.0327 0.61927 0.472686 0.470319 0.987546 0.0971556 0.0444266 0.00503026 0.00226476 0.0025202 0.000715381 0.000674367 4.48475e-05 4.18012e-05 2.92428e-05 2.82658e-05 7.03662e-06 3.457e-06 1.61625e-06 5.23555e-07 2.86968e-07 2.47339e-07 3.50187e-07 2.58575e-07 1.96288e-07 2.74616e-08 2.13889e-08 9.62616e-09 1.51906e-08 4.76876e-09
threshold=0.30042689434365 0.3990735265129115 0.33192424754819067 0.17815495207667728 0.083284052828700966 0.18025025363544128 0.39600946905647616 0.45992560027054435 0.40111821086261989 0.18156458906802989 0.13134163548248573 0.26570576540755475 0.15420966865833782 0.17144492631292993 0.36742424242424254 0.22139205662603223 0.22589463220675945 0.048362153015140054 0.42550505050505061 0.17597320296940069 0.18793929712460064 0.29003637352551243 0.026742722236541755 0.083867463335143916 0.034632238609056204 0.093769968051118216 0.14720447284345048 0.27571884984025558 0.11158051689860836 0.31150159744408951 0.38236749425153543 0.51226038338658164 0.36016195325440165
decision_type=2 2 2 2 2 2 2 2 2 2 2 2 2 2 2 2 2 2 2 2 2 2 2 2 2 2 2 2 2 2 2 2 2
left_child=1 4 3 -2 -1 -5 8 -8 11 -7 -4 12 16 -12 -11 18 17 20 -15 -16 21 22 24 -24 25 -6 -27 -17 -26 -29 32 -32 -31
right_child=2 -3 10 5 6 9 7 -9 -10 14 13 -13 -14 15 19 27 -18 -19 -20 -21 -22 -23 23 -25 28 26 -28 29 -30 30 31 -33 -34
leaf_value=0.11297272545450404 -0.23606236918642054 0.11462335433881471 0.24396960875896229 -0.10752739642241507 -0.20255601498838538 0.10177453944334747 0.15343496687424907 -0.1933779153629997 -0.083451567906514756 0.21564509028353759 0.21245215774310944 -0.22057364671529298 -0.23033749305650961 0.20641282512023468 0.20294971252819019 0.20282059469120026 -0.20667421052118048 -0.20595409859010516 0.20300506335053839 0.20460003578514852 -0.20366833237050261 -0.20351600588203544 -0.20321400981657584 -0.20283348319066521 -0.20262751033253767 -0.20311682810463905 -0.20273103071176335 0.20265706977633263 -0.20250043979152355 0.20252965978732362 0.20265478534312728 0.20255919702441427 0.20257592439613706
leaf_weight=0.39810344763100136 0.43071511760354075 0.75808584876358498 0.14774444699287448 0.27738527022302129 0.149415620602668 0.19093394093215466 0.55352117121219613 0.80756837036460638 0.2743870187550782 0.36357457935810089 0.46174917835742224 0.52635422535240639 0.15365471877157677 0.25655050948262192 0.18040434457361698 0.18858297355473042 0.16421090811491001 0.15298814419656981 0.15690622944384813 0.24193725828081369 0.28735999856144179 0.14606758300214995 0.1537324320524931 0.16366900689899921 0.12732368335127831 0.14779999013990164 0.13115643430501223 0.16776510141789913 0.14608048554509878 0.16019098646938801 0.1290397560223937 0.13721324782818556 0.20086527615785599
leaf_count=7 5 17 1 5 12 3 11 17 6 8 10 9 2 10 13 14 6 6 11 13 17 9 10 12 10 10 10 13 12 13 10 11 16
internal_value=0 -0.0904614 0.127514 0.0311264 -0.125139 0.122881 -0.148342 -0.0523378 -0.196309 0.188308 0.20845 -0.208949 -0.205768 0.205627 0.209331 0.203372 -0.203635 -0.203324 0.20512 0.203895 -0.203047 -0.202894 -0.202805 -0.203018 -0.202708 -0.202803 -0.202935 0.202637 -0.20256 0.202594 0.202577 0.202606 0.202555
internal_weight=0 5.24148 3.69156 1.68495 4.48339 1.25424 4.08529 1.36109 2.7242 0.97685 2.00661 2.44981 1.92346 1.85886 0.785916 1.39711 1.7698 1.60559 0.413457 0.422342 1.45261 1.16525 1.01918 0.317401 0.701776 0.428372 0.278956 0.983657 0.273404 0.795074 0.627309 0.266253 0.361056
internal_count=339 183 156 47 166 42 159 28 131 37 109 125 116 108 34 98 114 108 21 26 102 85 76 22 54 32 20 77 22 63 50 21 29
shrinkage=0.2


Tree=19
num_leaves=32
num_cat=0
split_feature=27 10 24 9 21 26 15 0 2 3 24 10 0 0 1 0 27 0 24 3 1 15 9 21 3 24 11 9 11 5 10
split_gain=2.03901 1.08007 1.14999 0.831065 0.431399 0.353895 1.05693 0.320893 0.058251 0.0452381 0.0380629 0.00282708 0.001646 0.000796835 0.000205599 0.000137861 8.95254e-05 4.32465e-05 1.77845e-05 9.20283e-06 2.43861e-06 6.2424e-07 3.06416e-07 2.30054e-07 2.01775e-07 2.50087e-08 4.861e-09 3.1885e-09 1.30767e-09 1.11738e-09 2.154e-10
threshold=0.52044673539518904 0.096722795582111165 0.23661097536815692 0.28317186183656279 0.30197228144989346 0.16633386581469653 0.075164478625289161 0.38473188508684747 0.35844101997097649 0.18455991516436901 0.46608994254771186 0.11233025529603471 0.26712101850537179 0.41289223342325715 0.62546499830909708 0.35183870509725973 0.38092783505154643 0.36106772682095695 0.23826190318959253 0.26214209968186641 0.36895502198173818 0.13701294799771682 0.17733782645324339 0.29291044776119407 0.29353128313891835 0.35382685069008779 0.071859529702970312 0.35435973041280538 0.13961943069306934 0.34068462057542487 0.17597320296940069
decision_type=2 2 2 2 2 2 2 2 2 2 2 2 2 2 2 2 2 2 2 2 2 2 2 2 2 2 2 2 2 2 2
left_child=1 5 -3 9 -2 13 -7 8 10 -4 16 -11 -6 14 17 -14 -8 18 -1 -17 21 22 -20 26 -21 -26 -24 28 -27 -30 -31
right_child=4 2 3 -5 12 6 7 -9 -10 11 -12 -13 15 -15 -16 19 -18 -19 20 24 -22 -23 23 -25 25 27 -28 -29 29 30 -32
leaf_value=-0.20430076473508346 0.010274061137265355 -0.21062045940075691 0.30425331907554937 -0.081945409159990032 0.22120251221521939 0.23674167876452623 -0.20332428671422498 0.0026374129863743199 -0.28436664241126886 0.19228980994773848 -0.098631219532618636 0.21675763636840301 0.20685837654756367 -0.21920795218260652 -0.21146953560918103 0.20359402566828746 -0.2085414416945045 -0.20652805598848178 -0.2025860781969239 0.20240489049767796 -0.2033651747290145 -0.20277345736911095 -0.20211781067595661 -0.20237963281252813 0.20219998343445786 0.20211036139515171 -0.20205876950955315 0.20213546645675151 0.20207228129094063 0.2020907702860337 0.20210263961564068
leaf_weight=0.32344517018646024 0.60735355317592654 0.52600051369518075 0.25535531714558579 0.49863243103027333 0.24663401767611492 0.34719072282314289 0.22595775127410866 0.38524868711829174 0.30736661702394485 0.29933037515729666 0.17318812292069197 0.51194849656894803 0.37926397472619999 0.15853182226419438 0.14302942901849736 0.2223996417596934 0.31493810005486012 0.16304584965109814 0.12097896169871092 0.11350787058472633 0.12401744164526463 0.14356651343405247 0.10348745528608561 0.20342879183590412 0.12863244861364365 0.19621415622532368 0.12099700607359409 0.10437963344156742 0.10149013437330723 0.11261849105358124 0.13384119141846895
leaf_count=19 17 13 2 19 3 3 16 7 2 7 9 17 15 2 3 15 9 7 10 10 8 11 10 18 12 19 12 10 10 11 13
internal_value=0 -0.0676096 0.0452226 0.131197 0.155385 -0.13787 -0.0757723 -0.152905 -0.211569 0.230838 -0.180234 0.20773 0.206067 -0.205747 -0.204272 0.203565 -0.206362 -0.203481 -0.203046 0.202443 -0.202548 -0.202402 -0.202305 -0.202226 0.202156 0.202119 -0.202086 0.202103 0.202097 0.20209 0.202097
internal_weight=0 5.44969 2.09127 1.56527 2.34634 3.35842 1.75389 1.4067 1.02145 1.06663 0.714084 0.811279 1.73898 1.60453 1.446 1.49235 0.540896 1.30297 1.13992 1.11308 0.816476 0.692459 0.548892 0.427913 0.890684 0.777176 0.224484 0.648544 0.544164 0.34795 0.24646
internal_count=339 204 58 45 135 146 46 43 36 26 34 24 118 100 98 115 25 95 88 100 69 61 50 40 85 75 22 63 53 34 24
shrinkage=0.2


Tree=20
num_leaves=29
num_cat=0
split_feature=22 21 4 3 24 15 22 15 16 15 21 22 15 26 21 22 0 24 21 8 22 15 25 23 15 16 23 1
split_gain=1.79231 0.931626 1.32978 0.743942 0.331183 0.325494 0.660827 0.112209 0.30502 0.0400327 0.021968 0.00203002 0.000320058 0.00011107 2.65294e-05 1.44038e-05 6.98039e-06 4.70172e-06 2.40751e-06 3.28391e-07 3.16961e-07 9.80179e-08 2.33896e-08 2.32464e-08 6.24042e-09 5.05379e-09 1.14075e-10 3.42785e-11
threshold=0.35305543104736298 0.30197228144989346 0.34084138304595107 0.12152704135737007 0.51198573598362285 0.094691621353681615 0.25668608994471837 0.087256286237870614 0.073964646464646414 0.1531228407486406 0.38232942430703637 0.28582100702226204 0.55065040406164578 0.18374600638977637 0.31383262260127937 0.23532048408785297 0.15376970041175633 0.3204781086970877 0.27398720682302785 0.26388888888888901 0.39389411823297976 0.11973893712260041 0.22461216054952413 0.10157786079433737 0.36529275693213575 0.073964646464646414 0.34649036570979158 0.39770037199864722
decision_type=2 2 2 2 2 2 2 2 2 2 2 2 2 2 2 2 2 2 2 2 2 2 2 2 2 2 2 2
left_child=1 4 5 -4 11 6 -3 -5 -9 -7 -10 12 15 -2 -15 16 -1 -16 19 -18 -19 23 -22 -21 25 -24 -27 -28
right_child=13 2 3 7 -6 9 -8 8 10 -11 -12 -13 -14 14 17 -17 18 20 -20 21 22 -23 24 -25 -26 26 27 -29
leaf_value=-0.20384072210830656 0.2075870232666176 -0.20568815844054372 -0.2034576838422297 0.25676479618486697 -0.018240497156095419 -0.15326190074285495 0.2221434825988686 -0.031707005516507923 0.14653699929338654 -0.24173976088503812 0.21361780975578945 -0.22090150266487099 -0.21332829903059844 0.20434281108266023 0.20310759963312114 -0.20427889852049741 -0.20226338835147681 0.20205530885213144 -0.20291548175622678 -0.20170108603602649 0.20180652242938191 -0.2020143933753048 0.20166518539950729 -0.20184121520269624 0.20176212128137735 0.20170962384449145 0.20171476698437046 0.20171952652633915
leaf_weight=0.13229214679449774 0.194596892222762 0.32782787596806906 0.24867630237713445 0.41929278895258892 0.48276532720774401 0.32189650367945433 0.25811266154050827 0.31924523320049025 0.27460200525820255 0.56113055907189846 0.67601485876366496 0.4102315567433833 0.13871691003441811 0.23306015599518992 0.12441758997738361 0.266036132350564 0.1054762601852417 0.14666774310171604 0.14493967965245247 0.10034616384655237 0.13231137860566378 0.096893974579870701 0.10582164442166686 0.089670469053089619 0.086387172341346741 0.10924398712813854 0.10957176517695189 0.13522627670317888
leaf_count=9 6 19 17 5 15 14 3 18 7 11 19 6 3 13 10 16 10 15 11 12 15 10 13 10 10 13 13 16
internal_value=0 -0.0525612 0.0107186 0.11951 -0.16214 -0.132797 -0.017224 0.167057 0.137437 -0.209486 0.19424 -0.208933 -0.204363 0.203159 0.202431 -0.203034 -0.202539 0.201961 -0.202219 -0.201962 0.201789 -0.201851 0.201731 -0.201767 0.201713 0.201704 0.201715 0.201717
internal_weight=0 5.37417 3.4068 1.93783 1.96737 1.46897 0.585941 1.68915 1.26986 0.883027 0.950617 1.4846 1.07437 1.3773 1.18271 0.935655 0.669619 0.949648 0.537327 0.392387 0.82523 0.286911 0.678562 0.190017 0.546251 0.459864 0.354042 0.244798
internal_count=339 215 113 66 102 47 22 49 44 25 26 87 81 124 118 78 62 105 53 42 95 32 80 22 65 55 42 29
shrinkage=0.2


Tree=21
num_leaves=34
num_cat=0
split_feature=7 1 20 27 17 4 25 27 24 1 4 24 20 27 0 17 7 1 1 20 22 20 1 24 1 4 24 3 17 7 27 1 7
split_gain=1.46537 0.761468 0.815385 0.481941 0.702245 0.283982 0.586603 0.104343 0.0116802 0.00482355 0.00323633 0.00599499 0.00101453 0.000811919 0.000459742 0.000284633 7.2006e-05 5.93146e-05 5.16993e-05 4.27365e-05 1.57786e-05 1.42958e-05 4.81793e-06 3.54279e-06 1.54506e-06 8.4233e-07 3.72733e-07 7.63601e-08 2.016e-08 1.1382e-09 9.14245e-10 1.05293e-09 3.46238e-10
threshold=0.35795228628230619 0.23554277984443683 0.26858769121309151 0.41597938144329899 0.18865315400644059 0.34084138304595107 0.12463253485461477 0.52044673539518904 0.39741134517598892 0.35508961785593507 0.38191748668412034 0.38255299478306815 0.26858769121309151 0.5049828178694159 0.28415921245681297 0.2581928395529457 0.18595924453280319 0.26158268515387217 0.62546499830909708 0.27178939879046599 0.36127297176154194 0.32532906438989678 0.40716942847480553 0.19963019216799838 0.31602975989178222 0.54635731696307677 0.28316713993264209 0.14284199363732766 0.42138662625497253 0.64140159045725664 0.61202749140893475 0.48241460940142028 0.44932902584493045
decision_type=2 2 2 2 2 2 2 2 2 2 2 2 2 2 2 2 2 2 2 2 2 2 2 2 2 2 2 2 2 2 2 2 2
left_child=1 10 5 4 -4 15 -7 -2 -5 16 11 19 25 -10 -9 18 -8 -16 22 26 -19 -15 23 -3 -22 -12 -1 -25 29 30 -26 32 -32
right_child=7 2 3 8 -6 6 9 14 13 -11 12 -13 -14 21 17 -17 -18 20 -20 -21 24 -23 -24 27 28 -27 -28 -29 -30 -31 31 -33 -34
leaf_value=-0.20215460166343635 0.049878659277789159 -0.20306066020016655 0.15642005829192471 0.15648265092766375 -0.18341256650207635 0.13882812828437183 -0.20272002813934581 0.21405053537025709 0.21831181599798355 -0.15881318563393476 -0.20186955004844848 -0.14213968820752845 -0.21884481031461137 0.20475636963530397 0.20574552244924141 -0.21383376487308811 -0.20869816429798296 0.20380745333321093 -0.20726835051090961 -0.20706210883526258 0.20228432900000437 0.20191444545716106 -0.20354510075006771 -0.20152444157765925 0.20142277019223803 -0.20265968717011407 -0.20160638407822132 -0.20179251591142797 0.20151526984607027 0.20143270974595506 0.20137882024885762 0.20141808155717966 0.20139719842728213
leaf_weight=0.1070819138549266 0.2053993847221135 0.11935498099774144 0.49086492182686903 0.21176533121615648 0.48213694244623184 0.40499496320262551 0.18787601916119456 0.1743827052414415 0.30706944037228823 0.12264679279178381 0.11753459461033344 0.081091121770441532 0.45473901182413101 0.1700138607993722 0.22621160699054599 0.13596308697015047 0.14113572612404823 0.16118562500923872 0.1272518914192915 0.094588684849441051 0.10192358959466219 0.12132786260917783 0.17732201004400849 0.096099922433495522 0.084005511365830898 0.099787158891558647 0.092426680959761143 0.076207280624657869 0.088071998674422503 0.070534253027290106 0.067979132756590843 0.07685281103476882 0.10333519522100687
leaf_count=11 9 10 16 10 7 12 16 3 7 9 14 8 7 9 11 4 6 11 4 5 11 14 12 13 12 9 12 9 12 10 10 11 15
internal_value=0 -0.056195 -0.00992932 0.0829053 -0.0119721 -0.114118 -0.0359471 0.181221 0.196851 -0.192665 -0.205166 -0.190285 -0.213473 0.211136 0.204589 -0.205576 -0.205284 0.202905 -0.203693 -0.203561 0.202053 0.203573 -0.202723 -0.202223 0.201576 -0.202232 -0.201901 -0.201643 0.201429 0.20141 0.201405 0.201399 0.20139
internal_weight=0 4.41928 3.37203 1.78318 0.973002 1.58885 0.856654 1.35988 0.810176 0.451659 1.04725 0.375188 0.672061 0.598411 1.15448 0.732199 0.329012 0.9801 0.596236 0.294097 0.753888 0.291342 0.468984 0.291662 0.592702 0.217322 0.199509 0.172307 0.490779 0.402707 0.332173 0.248167 0.171314
internal_count=339 224 158 63 23 95 43 115 40 31 66 36 30 30 106 52 22 103 48 28 92 23 44 32 81 23 23 22 70 58 48 36 25
shrinkage=0.2


Tree=22
num_leaves=37
num_cat=0
split_feature=13 24 27 26 6 13 1 24 28 6 0 3 22 27 0 27 0 1 0 4 11 25 27 28 11 11 24 4 26 4 0 24 24 27 1 26
split_gain=1.31205 0.860557 0.76907 0.323596 0.50712 0.495571 0.133219 0.038765 0.0265422 0.0123097 0.00606782 0.00376246 0.000552202 0.000191551 0.00019014 0.000115041 6.27658e-05 3.35337e-05 6.26669e-06 6.05889e-06 6.02395e-06 3.15692e-06 2.60044e-06 1.00655e-06 5.4488e-07 2.31169e-07 1.73927e-07 8.36162e-08 7.1895e-08 5.05924e-08 3.37405e-08 8.95747e-09 1.12994e-09 4.60868e-10 3.15232e-10 1.50887e-10
threshold=0.050986369018935405 0.19963019216799838 0.60395189003436434 0.16633386581469653 0.12605435801312087 0.033606774773159355 0.24721001014541752 0.23661097536815692 0.38064261778040615 0.065171040299906266 0.31776231719437747 0.21546129374337217 0.30175805568006381 0.46374570446735397 0.41289223342325715 0.38745704467353953 0.30167068957357185 0.48241460940142028 0.32817454683136932 0.6285095242394152 0.43157708628005664 0.1889571266408592 0.3771477663230241 0.18450620934358367 0.16383044554455448 0.16979756011315414 0.62127715776266268 0.41689988263970396 0.30503194888178925 0.41360476663356505 0.55085427611339866 0.33731757247573141 0.37462854124017703 0.63367697594501726 0.38721677375718627 0.48769968051118212
decision_type=2 2 2 2 2 2 2 2 2 2 2 2 2 2 2 2 2 2 2 2 2 2 2 2 2 2 2 2 2 2 2 2 2 2 2 2
left_child=2 -2 3 14 -5 8 -3 -8 11 -9 -11 13 -12 22 17 -14 -4 18 20 21 23 -17 -6 24 -1 29 28 -27 30 31 -23 -25 -30 -34 -35 -36
right_child=1 6 16 4 5 -7 7 9 -10 10 12 -13 15 -15 -16 19 -18 -19 -20 -21 -22 26 -24 25 -26 27 -28 -29 32 -31 -32 -33 33 34 35 -37
leaf_value=-0.20161423643120091 -0.21522251959057717 0.042296899409982075 0.20890296484948132 0.16519463123223185 -0.20180501054329866 0.068835541375649331 0.0038107827401531822 0.25685554161788615 -0.1413589536848692 0.16211658353113717 0.21436472557091207 -0.23636943043001002 0.20715135831031378 -0.21193638816552746 -0.21169937362222191 0.2024351198038753 0.20330982975654402 -0.20490101520753987 -0.20360596436711409 0.2034718979422265 -0.20346217070803896 0.2013791448334421 -0.20317864790177503 -0.20117205050116416 -0.20226243632642787 -0.2014287464958763 0.20155870648101948 -0.20172782492612745 0.20117053820637057 -0.20140367641611753 0.20119564896809999 -0.20126313404239579 0.2011233557581428 0.20113188969373291 0.2011568240568532 0.2011425811253357
leaf_weight=0.10495904693380065 0.2555605201050638 0.24618478352203954 0.13969171978533257 0.31632149685174216 0.11048728553578235 0.39661381160840392 0.038673205766826757 0.17235542833805073 0.23167381715029478 0.15010131755843747 0.20462157949805238 0.30382271856069565 0.19391698762774467 0.14063991326838732 0.10060662776231766 0.10846035368740559 0.18862058641389012 0.19675864232704043 0.084459730889648199 0.065663417335599661 0.075991152785718441 0.10551094030961394 0.11002068780362606 0.086310732644051313 0.10256132204085588 0.068659582640975714 0.063826908823102713 0.082108715549111366 0.057720940094441175 0.088371039368212223 0.06463866401463747 0.086442263331264257 0.0554362703114748 0.055947086308151484 0.062869809567928314 0.056479297578334808
leaf_count=14 7 12 5 11 14 15 3 1 7 5 5 3 6 4 2 11 17 12 7 6 5 16 8 15 10 10 9 10 10 13 11 14 10 10 11 10
internal_value=0 0.126995 -0.0832688 -0.118578 -0.0617958 -0.117316 0.178367 0.201371 -0.199657 0.206761 0.199827 -0.219967 0.204996 -0.206169 -0.203421 0.202843 0.20569 -0.202568 -0.201979 0.201644 -0.201782 0.201453 -0.20249 -0.201575 -0.201935 -0.201394 0.201249 -0.201592 0.201206 -0.201281 0.201309 -0.201218 0.201146 0.201139 0.201144 0.20115
internal_weight=0 1.95797 3.01512 2.68681 1.60958 1.29326 1.70241 1.45622 0.896644 1.41755 1.24519 0.664971 1.09509 0.361148 1.07723 0.890471 0.328312 0.976622 0.779864 0.696554 0.695404 0.63089 0.220508 0.619413 0.20752 0.411892 0.52243 0.150768 0.458603 0.261124 0.17015 0.172753 0.288453 0.230732 0.175296 0.119349
internal_count=339 143 196 174 62 51 136 124 36 121 120 29 115 26 112 110 22 110 98 104 91 98 22 86 24 62 87 20 78 42 27 29 51 41 31 21
shrinkage=0.2


Tree=23
num_leaves=33
num_cat=0
split_feature=23 21 7 21 6 10 10 21 23 7 6 7 14 14 11 23 13 21 11 28 21 8 10 7 9 3 11 14 17 19 28 9
split_gain=1.02352 0.418621 0.424381 0.476139 0.301806 0.201964 0.366 0.168376 0.136173 0.00304759 0.000332931 8.87137e-05 6.47027e-05 2.46672e-05 6.26251e-06 5.68066e-06 6.05965e-06 4.7923e-06 2.69244e-06 2.17519e-06 7.17367e-07 6.76113e-07 3.86835e-07 1.97579e-07 1.29616e-07 7.11573e-08 3.53754e-08 1.65624e-08 5.5641e-09 1.40481e-09 1.90739e-10 5.08546e-11
threshold=0.16724832874557607 0.30197228144989346 0.22589463220675945 0.30477078891258008 0.16902530459231488 0.046405938801376057 0.04504798116965416 0.38232942430703637 0.15339903657097911 0.18595924453280319 0.19763355201499533 0.22216699801192838 0.11729612129041027 0.26088656219192985 0.47345739038189533 0.22765926071569012 0.067516128188749261 0.51958955223880621 0.23852987977369164 0.31362113148038639 0.42150852878464823 0.418939393939394 0.053394894079304707 0.1154572564612326 0.25442291491154173 0.14284199363732766 0.076147012022630814 0.17634361083727099 0.34372040159121048 0.05915315838204601 0.31894342598068209 0.25758213984835704
decision_type=2 2 2 2 2 2 2 2 2 2 2 2 2 2 2 2 2 2 2 2 2 2 2 2 2 2 2 2 2 2 2 2
left_child=1 8 3 -3 -2 6 17 -4 10 12 18 -6 -7 15 19 16 -13 -5 22 -14 21 -17 25 -24 -23 27 -27 -1 29 -22 -31 -32
right_child=4 2 7 5 11 9 -8 -9 -10 -11 -12 13 14 -15 -16 20 -18 -19 -20 -21 28 24 23 -25 -26 26 -28 -29 -30 30 31 -33
leaf_value=-0.20093657376901228 0.0099763660159103672 0.24397664253422105 -0.014166551918468467 -0.20138742260727779 0.20923321846077361 -0.20808331189372847 0.21924634812467803 0.18904277815773174 -0.027419673768984555 -0.23638512080824073 -0.20949550332403774 0.2014121310020443 -0.20163396266256428 0.20404726035751652 -0.20410184648372984 0.20102290796819486 0.20371706938137357 -0.20343589339329637 -0.20251710634528253 -0.20301728522735218 0.20089900001708794 0.20186690769673357 -0.20120888657843122 -0.20166775066413561 0.20146733170110662 -0.20112203439435825 -0.20133319171575448 -0.2010897602061526 0.20100556352550902 0.20094941362769406 0.20093000120821469 0.20093894010348712
leaf_weight=0.060202253982424958 0.49489440722390987 0.1477595120668409 0.26347982510924328 0.11251937318593264 0.076735856011509895 0.12890991102904081 0.14589518308639526 0.42810779111459851 0.21686784829944372 0.16516482224687934 0.35873948456719518 0.097370898816734552 0.13583045965060592 0.20664996933192015 0.089706295169889927 0.09467613697052002 0.085848023183643818 0.076904640067368746 0.086095783859491348 0.068347213324159384 0.044066630071029067 0.086289731319993734 0.055809252429753542 0.11462854966521263 0.052066871430724859 0.064199359621852636 0.062760019209235907 0.053163300268352032 0.049332249443978071 0.051643910817801952 0.050673896446824074 0.051160048693418503
leaf_count=13 15 1 9 18 2 6 2 19 7 3 13 15 19 17 5 19 6 6 8 6 10 11 10 15 9 12 10 10 10 11 11 11
internal_value=0 -0.0704483 -0.0105012 -0.0893598 0.13654 -0.142706 -0.0188422 0.111624 -0.168973 -0.213347 -0.204852 0.202714 -0.204348 0.202139 -0.202709 0.201545 0.202492 -0.202219 -0.2015 -0.202097 0.201183 0.201435 -0.201287 -0.201517 0.201717 -0.201124 -0.201226 -0.201008 0.200945 0.20093 0.20094 0.200934
internal_weight=0 2.83509 1.76263 1.07104 1.44141 0.923278 0.335319 0.691588 1.07247 0.587959 0.855598 0.946514 0.422794 0.869778 0.293884 0.663128 0.183219 0.189424 0.496859 0.204178 0.479909 0.233033 0.410763 0.170438 0.138357 0.240325 0.126959 0.113366 0.246877 0.197544 0.153478 0.101834
internal_count=339 192 94 66 147 65 26 28 98 39 91 132 36 130 30 113 21 24 78 25 92 39 70 25 20 45 22 23 53 43 33 22
shrinkage=0.2


Tree=24
num_leaves=33
num_cat=0
split_feature=13 27 4 21 1 20 26 19 1 27 28 2 13 27 20 21 27 28 12 1 20 26 1 29 27 19 29 8 29 15 26 13
split_gain=0.848643 0.518417 0.378427 0.341253 0.378442 0.200606 0.153574 0.330898 0.153461 0.0440398 0.0384052 0.000471395 0.000338044 2.53496e-05 2.4598e-05 6.81005e-06 6.72481e-06 1.21931e-06 7.95792e-07 6.6467e-07 6.22272e-07 2.22022e-07 9.01597e-08 3.35923e-08 2.99986e-08 4.34293e-09 3.99335e-09 1.72128e-09 3.26051e-10 2.04392e-11 1.92169e-11 4.78903e-12
threshold=0.050986369018935405 0.58762886597938147 0.2612169359935001 0.36633795309168454 0.4814000676361177 0.27801494130202781 0.20874600638977633 0.069966695687022309 0.43101115995941824 0.60395189003436434 0.36398580721466589 0.341683366733467 0.05529157748067786 0.42577319587628865 0.26858769121309151 0.28744669509594895 0.46374570446735397 0.1309875813128327 0.10620553173443902 0.37893134934054779 0.4018143009605124 0.18793929712460064 0.29979709164693941 0.12331103240194151 0.53213058419243986 0.15058455287923386 0.14298832480650656 0.35505050505050512 0.13688836416109143 0.25511460930693675 0.37020766773162944 0.11721747186205402
decision_type=2 2 2 2 2 2 2 2 2 2 2 2 2 2 2 2 2 2 2 2 2 2 2 2 2 2 2 2 2 2 2 2
left_child=1 3 -2 10 5 8 7 -4 19 -3 11 16 -8 -14 -11 -15 17 -1 21 -5 -17 22 23 -19 -22 28 -25 -28 -26 30 -30 -32
right_child=2 9 6 4 -6 -7 12 -9 -10 14 -12 -13 13 15 -16 20 -18 18 -20 -21 24 -23 -24 26 25 -27 27 -29 29 -31 31 -33
leaf_value=-0.2019388005369962 -0.21420011571248648 0.042686950146538449 0.22139230853711434 -0.20113528403227965 -0.21675759065707983 0.17604066708177671 0.21204490655403674 -0.099220584455561575 0.12107372371365273 0.20641778264194277 -0.098469172797946924 -0.21070465822845408 0.20434632310291093 0.20270518363626766 0.20221369399812678 0.20148956810376692 -0.20347175973715526 -0.20098961510213331 -0.20172018219751298 -0.20201699198740256 0.20095507607666541 -0.20139068722852255 -0.20118660361639937 -0.20077915547189462 0.20078210001928509 0.20082946537029911 -0.20087361576076393 -0.20082317131666386 0.20076254279467967 0.20076044329679532 0.20076572754935815 0.2007688997744318
leaf_weight=0.093928692862392138 0.12497128872200836 0.096195850986987241 0.26301766186952569 0.079197576502337941 0.26567583787254989 0.32231853669509292 0.16672594170086086 0.25226013036444783 0.10226291045546532 0.095729591324925423 0.157761768437922 0.36530013149604201 0.13803557283245027 0.10722361830994487 0.13302946416661143 0.06261977949179709 0.063301214948296547 0.088937831111252308 0.077612533699721098 0.06019115075469017 0.04504492343403399 0.052235842915251851 0.050227299332618713 0.038480510702356696 0.050284927943721414 0.056679323548451066 0.068626766791567206 0.044668893562629819 0.060537027893587947 0.049050128785893321 0.037993966834619641 0.038151169894263148
leaf_count=12 5 4 6 15 14 13 5 14 2 4 8 11 8 9 18 10 4 19 10 7 10 9 9 10 13 14 16 11 16 13 10 10
internal_value=0 -0.0774835 0.118522 -0.116819 -0.0199528 0.0727582 0.149841 0.0644326 -0.0650015 0.156228 -0.189806 -0.205081 0.204016 0.201943 0.203973 0.20129 -0.201527 -0.201287 -0.201142 -0.201516 0.20091 -0.201011 -0.200943 -0.200892 0.200803 0.20078 -0.200835 -0.200854 0.200768 0.200764 0.200765 0.200767
internal_weight=0 2.25568 1.4526 1.93073 0.829646 0.56397 1.32762 0.515278 0.241652 0.324955 1.10108 0.94332 0.812346 0.64562 0.228759 0.507585 0.57802 0.514718 0.42079 0.139389 0.400361 0.343177 0.290941 0.240714 0.337741 0.292697 0.151776 0.113296 0.236017 0.185732 0.136682 0.0761451
internal_count=339 196 143 170 51 37 138 20 24 26 119 111 118 113 22 105 100 96 84 22 96 74 65 56 86 76 37 27 62 49 36 20
shrinkage=0.2


end of trees

feature_importances:
Column_1=48
Column_21=47
Column_27=44
Column_26=40
Column_22=37
Column_23=37
Column_13=29
Column_0=28
Column_20=26
Column_4=25
Column_17=25
Column_25=25
Column_15=23
Column_3=21
Column_6=21
Column_7=21
Column_9=21
Column_10=21
Column_12=20
Column_24=20
Column_19=18
Column_11=17
Column_18=15
Column_28=15
Column_5=13
Column_29=13
Column_14=12
Column_8=10
Column_16=6
Column_2=5

parameters:
[boosting: gbdt]
[objective: binary]
[metric: binary_logloss]
[tree_learner: serial]
[device_type: cpu]
[data: ]
[valid: ]
[num_iterations: 10000]
[learning_rate: 0.2]
[num_leaves: 63]
[num_threads: 0]
[force_col_wise: 0]
[force_row_wise: 0]
[histogram_pool_size: -1]
[max_depth: -1]
[min_data_in_leaf: 10]
[min_sum_hessian_in_leaf: 0.001]
[bagging_fraction: 1]
[pos_bagging_fraction: 1]
[neg_bagging_fraction: 1]
[bagging_freq: 0]
[bagging_seed: 21709]
[feature_fraction: 0.5]
[feature_fraction_bynode: 1]
[feature_fraction_seed: 24116]
[extra_trees: 0]
[extra_seed: 15571]
[early_stopping_round: 50]
[first_metric_only: 0]
[max_delta_step: 0]
[lambda_l1: 0]
[lambda_l2: 0]
[min_gain_to_split: 0]
[drop_rate: 0.1]
[max_drop: 50]
[skip_drop: 0.5]
[xgboost_dart_mode: 0]
[uniform_drop: 0]
[drop_seed: 15722]
[top_rate: 0.2]
[other_rate: 0.1]
[min_data_per_group: 100]
[max_cat_threshold: 32]
[cat_l2: 10]
[cat_smooth: 10]
[max_cat_to_onehot: 4]
[top_k: 20]
[monotone_constraints: ]
[monotone_constraints_method: basic]
[monotone_penalty: 0]
[feature_contri: ]
[forcedsplits_filename: ]
[refit_decay_rate: 0.9]
[cegb_tradeoff: 1]
[cegb_penalty_split: 0]
[cegb_penalty_feature_lazy: ]
[cegb_penalty_feature_coupled: ]
[path_smooth: 0]
[interaction_constraints: ]
[verbosity: -1]
[saved_feature_importance_type: 0]
[max_bin: 255]
[max_bin_by_feature: ]
[min_data_in_bin: 3]
[bin_construct_sample_cnt: 200000]
[data_random_seed: 4074]
[is_enable_sparse: 1]
[enable_bundle: 1]
[use_missing: 1]
[zero_as_missing: 0]
[feature_pre_filter: 1]
[pre_partition: 0]
[two_round: 0]
[header: 0]
[label_column: ]
[weight_column: ]
[group_column: ]
[ignore_column: ]
[categorical_feature: ]
[forcedbins_filename: ]
[objective_seed: 10917]
[num_class: 1]
[is_unbalance: 0]
[scale_pos_weight: 1]
[sigmoid: 1]
[boost_from_average: 1]
[reg_sqrt: 0]
[alpha: 0.9]
[fair_c: 1]
[poisson_max_delta_step: 0.7]
[tweedie_variance_power: 1.5]
[lambdarank_truncation_level: 20]
[lambdarank_norm: 1]
[label_gain: ]
[eval_at: ]
[multi_error_top_k: 1]
[auc_mu_weights: ]
[num_machines: 1]
[local_listen_port: 12400]
[time_out: 120]
[machine_list_filename: ]
[machines: ]
[gpu_platform_id: -1]
[gpu_device_id: -1]
[gpu_use_dp: 0]

end of parameters

pandas_categorical:null
